%YAML:1.0
my_svm: !!opencv-ml-svm
   svm_type: C_SVC
   kernel: { type:RBF, gamma:5.3830000000000000e+000 }
   C: 2.6699999999999999e+000
   term_criteria: { epsilon:1.1920928955078125e-007, iterations:1000 }
   var_all: 64
   var_count: 64
   class_count: 13
   class_labels: !!opencv-matrix
      rows: 1
      cols: 13
      dt: i
      data: [ 0, 1, 2, 3, 4, 5, 6, 7, 8, 9, 11, 12, 13 ]
   sv_total: 109
   support_vectors:
      - [ 8.68109521e-003, 0., 9.43719409e-003, 0., 2.58132759e-002,
          1.19541781e-002, 0., 2.52804644e-002, 5.53439893e-002,
          1.24544077e-001, 8.27820599e-002, 2.61926800e-002,
          3.12541649e-002, 7.74241984e-003, 0., 0., 1.42940864e-001,
          4.37736027e-002, 1.84849668e-002, 1.15648899e-002,
          4.12694402e-002, 8.11368823e-002, 1.12693816e-001,
          2.29220584e-001, 2.30248600e-001, 6.50554076e-002,
          1.85928289e-002, 0., 4.13403772e-002, 1.73285343e-002,
          2.41271704e-002, 1.10031016e-001, 6.95296749e-002,
          1.73177496e-002, 4.50986661e-002, 6.42603189e-002,
          7.07946271e-002, 3.69112194e-002, 2.79315077e-002,
          3.00191268e-002, 3.19230035e-002, 1.02159074e-002,
          7.52703846e-002, 8.87716934e-002, 1.29808918e-001,
          1.15581013e-001, 9.04881731e-002, 5.62676154e-002,
          4.10596460e-001, 1.84667513e-001, 1.34934634e-001,
          1.24744736e-001, 1.76287115e-001, 1.28734350e-001,
          1.24056213e-001, 2.80593365e-001, 3.67722929e-001,
          1.49159759e-001, 1.40271336e-001, 1.52111247e-001,
          1.45590246e-001, 9.88809839e-002, 1.03541091e-001,
          3.26800644e-001 ]
      - [ 0., 0., 0., 0., 0., 0., 0., 5.24113514e-003, 4.02875096e-002,
          1.13356873e-001, 1.01039715e-001, 0., 3.09674013e-002, 0., 0.,
          0., 1.30618706e-001, 1.47633636e-002, 1.73668992e-002,
          1.94637515e-002, 6.22565113e-002, 1.16445936e-001,
          1.07788250e-001, 1.85229376e-001, 2.24933758e-001,
          5.10872863e-002, 1.80171058e-002, 1.47001762e-002,
          3.44233662e-002, 1.75934508e-002, 2.77252998e-002,
          1.15729049e-001, 7.43846223e-002, 4.83929068e-002,
          6.95843622e-002, 1.00639641e-001, 6.99442551e-002,
          4.94804755e-002, 5.39342649e-002, 2.25038119e-002,
          3.80917676e-002, 2.25751977e-002, 7.43686929e-002,
          8.34328234e-002, 1.10249512e-001, 7.49534667e-002,
          1.00792602e-001, 6.51834682e-002, 4.20699954e-001,
          1.68640718e-001, 1.60510615e-001, 1.50692850e-001,
          2.07514197e-001, 9.94763523e-002, 6.81703091e-002,
          2.64463574e-001, 3.43332142e-001, 1.78543732e-001,
          1.56678036e-001, 1.51618585e-001, 1.43187955e-001,
          1.10021375e-001, 1.10043243e-001, 3.46290827e-001 ]
      - [ 8.49926192e-003, 1.10459840e-002, 0., 0., 0., 0., 0., 0.,
          3.44933793e-002, 1.06241576e-001, 1.25677943e-001,
          8.70831497e-003, 3.67887989e-002, 6.82972977e-003,
          6.78639626e-003, 0., 1.48273215e-001, 3.00982464e-002,
          8.38676374e-003, 1.24590937e-002, 5.22689447e-002,
          1.24560192e-001, 8.11060816e-002, 1.86442256e-001,
          1.89264968e-001, 6.77316934e-002, 4.27513337e-003, 0.,
          3.47560160e-002, 0., 1.99810881e-002, 1.36674285e-001,
          7.89013058e-002, 2.68002711e-002, 3.13557461e-002,
          1.00519992e-001, 9.56358686e-002, 4.66442369e-002,
          1.93538647e-002, 0., 2.76320558e-002, 6.24986924e-003,
          6.25058860e-002, 1.19242191e-001, 1.10569239e-001,
          1.40738443e-001, 8.25102627e-002, 7.63289332e-002,
          3.82490098e-001, 2.15363190e-001, 1.27715141e-001,
          1.57213494e-001, 1.78362131e-001, 1.56516761e-001,
          5.30033857e-002, 2.21773729e-001, 3.78139406e-001,
          1.44537657e-001, 1.42466828e-001, 1.85227528e-001,
          1.65390819e-001, 9.75039378e-002, 9.48013067e-002,
          3.56267184e-001 ]
      - [ 0., 0., 0., 0., 3.04193725e-003, 0., 0., 0., 2.96875313e-002,
          1.17802382e-001, 1.23445638e-001, 8.38212483e-003,
          3.35303731e-002, 0., 0., 0., 7.82154202e-002, 3.20377685e-002,
          2.05529537e-002, 8.72397050e-003, 6.41043037e-002,
          1.46338657e-001, 1.17655680e-001, 1.59533039e-001,
          1.25054061e-001, 7.69630447e-002, 4.35320213e-002,
          1.14114592e-002, 4.50205021e-002, 8.90224054e-003,
          3.09359655e-002, 7.76168704e-002, 7.06086308e-002,
          3.16769741e-002, 4.72757965e-002, 3.57796438e-002,
          3.57137397e-002, 1.45821664e-002, 2.10364498e-002,
          1.68172996e-002, 4.05075960e-002, 2.75807641e-002,
          8.25415105e-002, 6.85702190e-002, 1.22177273e-001,
          1.17706195e-001, 1.04376502e-001, 7.15784952e-002,
          4.08964545e-001, 1.75264984e-001, 1.44580200e-001,
          2.05022275e-001, 2.37691954e-001, 1.05270065e-001,
          5.17501123e-002, 2.46204153e-001, 3.36163402e-001,
          1.66619018e-001, 1.63259730e-001, 1.57061353e-001,
          1.55243397e-001, 1.12147339e-001, 1.14947617e-001,
          3.99333954e-001 ]
      - [ 2.03834064e-002, 1.82719436e-002, 2.75571533e-002,
          2.94888467e-002, 5.06346077e-002, 4.56621721e-002,
          3.03391293e-002, 2.01138481e-002, 2.92697251e-002,
          6.34346977e-002, 7.91315883e-002, 2.50506029e-002,
          1.66429821e-002, 0., 0., 7.16423616e-003, 1.60019442e-001,
          5.48248217e-002, 3.49618420e-002, 3.30419205e-002,
          6.91994205e-002, 9.50344577e-002, 1.87594846e-001,
          1.87531456e-001, 2.43883878e-001, 1.86270073e-001,
          6.64972812e-002, 1.33497249e-002, 5.92537262e-002,
          6.81793923e-003, 2.31067091e-002, 7.15849623e-002,
          9.60198566e-002, 2.86892541e-002, 3.10944263e-002, 0.,
          2.44978070e-002, 0., 1.90831479e-002, 4.69564572e-002,
          5.75352982e-002, 6.29558340e-002, 9.65142548e-002,
          6.68478087e-002, 7.76247382e-002, 4.72358242e-002,
          5.14340252e-002, 9.88251418e-002, 3.77731740e-001,
          2.60472149e-001, 1.65721253e-001, 1.15623318e-001,
          1.37149632e-001, 1.12791665e-001, 1.11067891e-001,
          3.15549880e-001, 2.72714376e-001, 1.53698251e-001,
          1.12783790e-001, 9.52473357e-002, 1.41537189e-001,
          1.46530390e-001, 1.77758664e-001, 3.35941404e-001 ]
      - [ 2.81886254e-002, 2.25057304e-002, 2.36735884e-002,
          2.23938283e-002, 2.12526340e-002, 0., 8.10830574e-003,
          6.75980560e-003, 2.00812109e-002, 6.90039471e-002,
          1.05008684e-001, 2.83989180e-002, 1.75910760e-002,
          5.15262177e-003, 4.27016150e-003, 0., 3.29174548e-002,
          4.01793532e-002, 5.92806935e-002, 1.37819529e-001,
          1.66922092e-001, 8.84876028e-002, 9.69292298e-002,
          7.72581697e-002, 9.64495316e-002, 1.24892339e-001,
          1.66049495e-001, 1.67541668e-001, 1.21498995e-001,
          3.22070494e-002, 5.00898622e-002, 3.15111354e-002,
          1.21044829e-001, 3.97314392e-002, 4.90790345e-002,
          6.50139749e-002, 4.92156073e-002, 3.29750292e-002,
          2.70989072e-002, 1.96361411e-002, 5.42209484e-002,
          1.31372303e-001, 1.00915916e-001, 1.42274201e-001,
          7.75925443e-002, 6.19168840e-002, 8.52501243e-002,
          1.28459245e-001, 3.63959700e-001, 1.20368481e-001,
          1.67103201e-001, 1.55336797e-001, 1.26498982e-001,
          7.00847656e-002, 8.62458274e-002, 3.22337180e-001,
          3.16375017e-001, 1.23400882e-001, 7.67465457e-002,
          1.70545042e-001, 1.87980294e-001, 1.30248442e-001,
          1.20250173e-001, 3.78879905e-001 ]
      - [ 3.28525342e-002, 7.09889922e-003, 1.60884112e-002,
          1.31684886e-002, 1.71647780e-002, 2.05033366e-002,
          9.84558277e-003, 5.79803763e-003, 2.03979649e-002,
          4.25303429e-002, 1.09705031e-001, 2.31375471e-002,
          3.13824303e-002, 2.34816708e-002, 2.16526054e-002,
          2.30463408e-002, 7.34560564e-002, 6.76581413e-002,
          6.72320127e-002, 1.54095054e-001, 1.48799956e-001,
          1.02602378e-001, 8.86371732e-002, 9.08593759e-002,
          1.21555224e-001, 1.05861880e-001, 1.65693521e-001,
          1.62963718e-001, 1.04757689e-001, 5.19615971e-002,
          4.67407517e-002, 4.06490453e-002, 1.18160844e-001,
          3.88460308e-002, 3.81454416e-002, 6.67080060e-002,
          5.67860454e-002, 2.33873390e-002, 2.65446045e-002,
          3.30044106e-002, 5.82306571e-002, 7.47994706e-002,
          1.64212376e-001, 1.00682735e-001, 5.64821735e-002,
          5.56676686e-002, 8.81196409e-002, 9.20987502e-002,
          3.99812967e-001, 1.48861066e-001, 1.59951061e-001,
          2.32535720e-001, 1.76863804e-001, 7.68644661e-002,
          7.79547170e-002, 2.82407731e-001, 3.29030246e-001,
          1.15641542e-001, 9.92237404e-002, 1.54134437e-001,
          1.78080007e-001, 1.53012484e-001, 1.31453067e-001,
          2.96378911e-001 ]
      - [ 6.32426888e-003, 0., 8.46398994e-003, 6.15986157e-003,
          1.04108723e-002, 4.22929367e-003, 0., 0., 3.22106183e-002,
          1.13305703e-001, 7.59970248e-002, 0., 2.17245780e-002, 0., 0.,
          0., 5.57332821e-002, 6.14662468e-002, 7.14049935e-002,
          1.29290015e-001, 1.45658106e-001, 8.40764195e-002,
          8.53934810e-002, 9.90326777e-002, 9.41858143e-002,
          1.04207709e-001, 8.28237683e-002, 1.32198095e-001,
          9.32998806e-002, 5.26576787e-002, 5.18490709e-002,
          4.11641113e-002, 1.24515042e-001, 2.42324565e-002,
          2.53895000e-002, 3.30828987e-002, 4.96030301e-002,
          2.12274510e-002, 1.69232283e-002, 1.11704376e-002,
          4.46521044e-002, 9.81095657e-002, 6.60303682e-002,
          4.06890810e-002, 5.75936325e-002, 5.44038415e-002,
          8.06149766e-002, 1.28192812e-001, 3.88750374e-001,
          9.57688540e-002, 1.81328148e-001, 2.07458451e-001,
          1.57273576e-001, 1.02920368e-001, 1.59352660e-001,
          3.74166220e-001, 2.90936738e-001, 1.22391470e-001,
          1.38300255e-001, 2.19907388e-001, 7.39298016e-002,
          1.03258193e-001, 1.63273349e-001, 3.61606359e-001 ]
      - [ 3.18283550e-002, 2.80535072e-002, 3.81054804e-002,
          1.16615491e-002, 2.41275970e-002, 6.75504375e-003, 0.,
          8.45601223e-003, 5.21620968e-003, 3.45140733e-002,
          1.02623150e-001, 1.52114499e-002, 1.86138563e-002,
          8.97933356e-003, 9.37651843e-003, 1.35799916e-002,
          4.18581963e-002, 3.95024568e-002, 3.88822779e-002,
          6.12255223e-002, 1.12479858e-001, 1.58973217e-001,
          1.16514809e-001, 9.60737243e-002, 1.06083982e-001,
          1.42989323e-001, 1.85656920e-001, 1.54368028e-001,
          9.30025801e-002, 1.97702292e-002, 1.95882041e-002,
          2.77032666e-002, 5.09749390e-002, 0., 0., 0., 0., 0., 0., 0.,
          5.48942573e-002, 6.68650493e-002, 2.39361033e-001,
          1.35439441e-001, 1.27485871e-001, 1.38706788e-001,
          1.15267083e-001, 9.71989483e-002, 4.03080404e-001,
          1.03165418e-001, 1.06528513e-001, 2.13771164e-001,
          2.00687125e-001, 9.98266563e-002, 1.26107097e-001,
          2.21373707e-001, 3.23526561e-001, 1.63528070e-001,
          1.66941941e-001, 1.84083834e-001, 6.42005354e-002,
          7.91752487e-002, 1.78873762e-001, 2.98204333e-001 ]
      - [ 1.47935525e-002, 0., 0., 0., 0., 0., 0., 0., 3.20205539e-002,
          6.48232400e-002, 1.07307866e-001, 4.39663753e-002,
          4.09853980e-002, 3.68261039e-002, 2.07064841e-002, 0.,
          5.15952259e-002, 4.29182239e-002, 6.61891624e-002,
          1.11773975e-001, 1.09825328e-001, 8.40470120e-002,
          1.03981264e-001, 1.12808771e-001, 1.43361494e-001,
          1.42360717e-001, 1.54348120e-001, 9.30521190e-002,
          9.59265381e-002, 5.31802922e-002, 4.12224680e-002,
          6.16818219e-002, 6.61069825e-002, 5.29694185e-003, 0., 0.,
          1.40468413e-002, 0., 1.52888661e-002, 1.36599215e-002,
          7.14421421e-002, 1.36528715e-001, 1.33900374e-001,
          1.20794818e-001, 6.84900880e-002, 8.35120901e-002,
          1.29654840e-001, 1.55384094e-001, 3.39862525e-001,
          9.91901532e-002, 9.01584923e-002, 2.01260448e-001,
          1.61167800e-001, 1.12017676e-001, 1.16678894e-001,
          3.04824352e-001, 3.05002570e-001, 1.11431405e-001,
          1.59883067e-001, 2.14757785e-001, 1.03977919e-001,
          1.05055384e-001, 1.65129378e-001, 4.04457986e-001 ]
      - [ 2.17538681e-002, 1.83295887e-002, 4.83696163e-002,
          3.64169516e-002, 5.32762930e-002, 0., 2.91170385e-002,
          2.26231366e-002, 6.34141117e-002, 1.13341473e-001,
          1.10544734e-001, 4.97998111e-002, 4.44746912e-002, 0., 0., 0.,
          8.58214498e-002, 5.38500249e-002, 7.56747052e-002,
          1.43325374e-001, 1.89354971e-001, 1.35923177e-001,
          9.94713828e-002, 8.81464332e-002, 1.04585133e-001,
          1.37408957e-001, 1.25464454e-001, 1.76364884e-001,
          1.12920538e-001, 6.29255697e-002, 7.05483183e-002,
          7.34387338e-002, 8.85340124e-002, 8.27172864e-003,
          1.22050494e-002, 1.13382023e-002, 1.66552924e-002,
          4.37851995e-003, 1.25906039e-002, 1.33738341e-002,
          4.52696830e-002, 9.06017497e-002, 9.70600694e-002,
          8.81249383e-002, 6.42394647e-002, 4.59705740e-002,
          6.13937788e-002, 1.37980297e-001, 3.63933831e-001,
          1.06406353e-001, 1.69527724e-001, 2.23662570e-001,
          2.08787262e-001, 1.03379168e-001, 1.22343026e-001,
          3.45714003e-001, 2.44521171e-001, 1.45790502e-001,
          1.36017054e-001, 1.83300883e-001, 1.29307732e-001,
          1.15534633e-001, 1.65102512e-001, 2.80040175e-001 ]
      - [ 1.88529287e-002, 2.22815219e-002, 1.92451030e-002,
          3.21166702e-002, 2.21211445e-002, 2.30467785e-002,
          1.47568360e-002, 2.99855955e-002, 3.76097783e-002,
          4.29927334e-002, 7.95137808e-002, 5.73079214e-002,
          2.75666099e-002, 1.76417157e-002, 7.22916471e-003,
          9.26602539e-003, 1.63197573e-002, 2.44240686e-002,
          2.56903898e-002, 1.02840789e-001, 1.50646448e-001,
          1.07376628e-001, 1.05329789e-001, 1.00918472e-001,
          1.14531212e-001, 1.45092577e-001, 1.39554486e-001,
          1.37912735e-001, 1.08574636e-001, 2.06807051e-002,
          2.03762464e-002, 1.24144536e-002, 1.05699033e-001,
          2.42537726e-002, 2.70161983e-002, 3.51644270e-002,
          4.26480025e-002, 3.36585455e-002, 1.20952642e-002,
          1.48870051e-002, 6.76007196e-002, 1.26069501e-001,
          1.49953097e-001, 1.06158949e-001, 6.55545816e-002,
          8.38431418e-002, 8.26423988e-002, 1.48391470e-001,
          4.11994606e-001, 1.10853575e-001, 1.47304550e-001,
          2.38647535e-001, 1.90117955e-001, 8.81439745e-002,
          8.88727531e-002, 2.84471542e-001, 3.33431900e-001,
          9.85685438e-002, 1.16310574e-001, 1.29876599e-001,
          2.07771018e-001, 1.45696178e-001, 1.48237109e-001,
          2.93189585e-001 ]
      - [ 3.36608775e-002, 4.48111892e-002, 3.38370912e-002,
          3.51566635e-002, 3.58843841e-002, 1.12171499e-002,
          3.63680813e-003, 1.08002378e-002, 8.42497218e-003,
          7.16422126e-002, 9.70464274e-002, 9.46099311e-003,
          1.25244297e-002, 7.19557377e-003, 6.60810620e-003, 0.,
          3.20545509e-002, 3.81604731e-002, 4.55325358e-002,
          1.01400308e-001, 1.71109453e-001, 1.46293283e-001,
          1.11679040e-001, 1.17129028e-001, 1.24576494e-001,
          1.42270356e-001, 1.62611499e-001, 1.41556188e-001,
          1.28737837e-001, 3.38157788e-002, 4.54038084e-002,
          3.92346159e-002, 9.93304774e-002, 3.88943665e-002,
          4.77664396e-002, 6.22636676e-002, 5.28739728e-002,
          4.51938920e-002, 2.86523793e-002, 2.42300667e-002,
          7.01420531e-002, 1.70588538e-001, 1.27025172e-001,
          4.59829569e-002, 7.15611801e-002, 4.65752296e-002,
          5.41699119e-002, 1.27587467e-001, 3.41371298e-001,
          1.74406052e-001, 1.57451823e-001, 2.03329757e-001,
          2.20403507e-001, 1.04324482e-001, 8.68072063e-002,
          2.02969223e-001, 3.65202963e-001, 1.45351484e-001,
          1.43557370e-001, 1.66342452e-001, 1.78861439e-001,
          1.20767809e-001, 1.72461316e-001, 2.82431155e-001 ]
      - [ 4.05214028e-003, 4.56526363e-003, 5.23129059e-003,
          2.94177094e-003, 1.24643482e-002, 1.15133524e-002,
          1.25736902e-002, 1.65514089e-002, 4.54056524e-002,
          5.78150526e-002, 6.87411875e-002, 2.58906242e-002,
          2.09251624e-002, 0., 0., 0., 1.00503983e-002, 2.00647190e-002,
          3.81427556e-002, 1.36481747e-001, 1.97470173e-001,
          1.37604252e-001, 8.79076123e-002, 7.07635805e-002,
          8.41507167e-002, 8.28511193e-002, 1.20145537e-001,
          1.72374755e-001, 1.30701616e-001, 4.02443558e-002,
          1.78745762e-002, 1.01140598e-002, 1.48725390e-001,
          2.59042569e-002, 1.91868860e-002, 1.72799230e-002,
          2.58722845e-002, 1.36497412e-002, 3.69124934e-002,
          8.94914344e-002, 9.04540271e-002, 9.01427045e-002,
          7.36281425e-002, 2.44562738e-002, 7.01851305e-003,
          1.58484969e-002, 6.12054840e-002, 7.55258501e-002,
          3.74111921e-001, 1.39660046e-001, 1.97814897e-001,
          2.39594907e-001, 2.80856818e-001, 9.63177979e-002,
          1.27606124e-001, 3.45641017e-001, 2.57188946e-001,
          1.15868114e-001, 1.28531516e-001, 1.66734621e-001,
          2.23699987e-001, 1.44787654e-001, 1.46554276e-001,
          2.39694461e-001 ]
      - [ 1.17467800e-002, 0., 0., 0., 8.32027104e-003, 0., 0., 0.,
          2.21993271e-002, 3.50414254e-002, 1.65794194e-001,
          3.94379757e-002, 4.00239788e-002, 0., 9.18112509e-003,
          5.20500820e-003, 8.00026283e-002, 3.37783359e-002,
          5.34178019e-002, 1.26879826e-001, 1.82592109e-001,
          1.17755651e-001, 7.17504770e-002, 6.00776561e-002,
          8.21377784e-002, 9.80518907e-002, 1.74097747e-001,
          1.90186679e-001, 8.96868408e-002, 1.60422921e-002,
          4.58368324e-002, 5.09316437e-002, 8.10379013e-002,
          1.03829820e-002, 1.83597598e-002, 0., 1.27263749e-002,
          9.92255658e-003, 7.46693416e-003, 0., 5.54539040e-002,
          3.53533663e-002, 2.09539324e-001, 1.02699086e-001,
          1.11174576e-001, 1.37488693e-001, 1.27508745e-001,
          8.95865709e-002, 3.60617995e-001, 5.69553375e-002,
          6.58327416e-002, 2.28562221e-001, 2.04089269e-001,
          1.09916002e-001, 1.26960069e-001, 2.76026696e-001,
          3.00637364e-001, 1.29091606e-001, 1.70281902e-001,
          1.75436825e-001, 8.27421322e-002, 8.05625319e-002,
          1.82828590e-001, 3.43328625e-001 ]
      - [ 2.47129165e-002, 2.35864278e-002, 1.95718352e-002, 0.,
          2.57269647e-002, 9.11081024e-003, 2.88935490e-002,
          5.43711819e-002, 8.84013027e-002, 1.38503209e-001,
          1.15743831e-001, 0., 4.32286747e-002, 0., 7.23650213e-003,
          7.82147143e-003, 6.14300035e-002, 3.04932054e-002,
          5.43623343e-002, 1.20967500e-001, 1.32805109e-001,
          1.31408751e-001, 1.31486923e-001, 1.07809499e-001,
          1.22466154e-001, 1.41143203e-001, 1.14989154e-001,
          1.03934765e-001, 1.01845637e-001, 7.49410242e-002,
          7.30837062e-002, 8.38907212e-002, 8.62090141e-002,
          2.12229434e-002, 1.28817968e-002, 2.27459352e-002,
          1.68993045e-002, 5.04001090e-003, 1.19067300e-002,
          1.59676485e-002, 5.23985177e-002, 1.06416993e-001,
          6.62445053e-002, 6.73673972e-002, 7.05656260e-002,
          4.36839797e-002, 7.66489282e-002, 1.43580198e-001,
          3.77534360e-001, 1.35289028e-001, 1.15238413e-001,
          2.26572767e-001, 2.02385470e-001, 1.00834206e-001,
          1.31781995e-001, 3.48265022e-001, 2.66845644e-001,
          1.15486056e-001, 1.73062518e-001, 1.55864596e-001,
          1.41075641e-001, 1.26015678e-001, 1.50334239e-001,
          3.16328943e-001 ]
      - [ 1.98895689e-002, 0., 0., 1.23185301e-002, 2.34108102e-002,
          1.27330348e-002, 0., 1.66892521e-002, 3.80988531e-002,
          1.06956184e-001, 1.13605745e-001, 2.04887241e-002,
          2.44322848e-002, 0., 2.22234521e-002, 2.48992145e-002,
          4.10617366e-002, 4.61090580e-002, 3.58203501e-002,
          6.66144490e-002, 1.86364532e-001, 1.14113152e-001,
          1.13716550e-001, 1.07051305e-001, 1.53675482e-001,
          1.43343911e-001, 1.59647405e-001, 4.99820523e-002,
          9.95372683e-002, 5.23275957e-002, 4.17104326e-002,
          4.86039147e-002, 3.99415046e-002, 0., 2.08407864e-002,
          3.23076583e-002, 3.18164863e-002, 1.40018174e-002,
          9.52956360e-003, 6.55077910e-003, 3.14270705e-002,
          2.62673013e-002, 3.34858969e-002, 2.00926393e-001,
          1.81471735e-001, 1.77311212e-001, 3.66897471e-002, 0.,
          2.06914023e-001, 3.71323228e-001, 2.09199294e-001,
          2.21409962e-001, 2.63780773e-001, 8.99027362e-002,
          9.16313455e-002, 1.34287313e-001, 2.14047343e-001,
          3.19322079e-001, 1.54938236e-001, 1.27285972e-001,
          2.80415624e-001, 1.10221818e-001, 1.21894978e-001,
          1.24313653e-001 ]
      - [ 2.24885289e-002, 1.71073284e-002, 4.09127399e-002,
          3.07886750e-002, 4.02093958e-003, 0., 1.47736566e-002, 0.,
          5.45203611e-002, 1.03791259e-001, 1.07245490e-001,
          2.62034498e-002, 4.27431762e-002, 0., 4.16956283e-003,
          6.72241114e-003, 8.47565234e-002, 8.11315402e-002,
          5.21703586e-002, 1.13057673e-001, 1.59296677e-001,
          7.45142698e-002, 7.68733174e-002, 1.22118078e-001,
          1.07667573e-001, 1.41980886e-001, 1.26999199e-001,
          8.40361938e-002, 9.80018154e-002, 6.37260675e-002,
          5.89939542e-002, 9.27306861e-002, 6.21622205e-002,
          8.16283561e-003, 5.97063862e-002, 8.88787881e-002,
          1.11594893e-001, 6.88110441e-002, 3.83076519e-002,
          1.40003050e-002, 4.20303680e-002, 2.50852518e-002,
          4.06942405e-002, 7.83258528e-002, 1.04064815e-001,
          1.45384327e-001, 1.16319135e-001, 7.15035433e-003,
          2.66699791e-001, 3.82915586e-001, 1.83292702e-001,
          1.79531276e-001, 2.02319175e-001, 1.21350050e-001,
          1.07237607e-001, 1.43753946e-001, 2.43293807e-001,
          3.29983622e-001, 1.61300033e-001, 2.39681706e-001,
          2.15937078e-001, 1.03645511e-001, 1.10139921e-001,
          1.56147480e-001 ]
      - [ 0., 0., 0., 0., 5.76928556e-002, 5.02551571e-002,
          7.00225458e-002, 8.09649676e-002, 1.10601567e-001, 0., 0., 0.,
          8.30537640e-003, 0., 0., 0., 3.99693996e-002, 5.74591495e-002,
          8.36288333e-002, 1.51697248e-001, 1.91541314e-001,
          9.06817317e-002, 6.39018342e-002, 4.87408526e-002,
          8.52063149e-002, 2.30009496e-001, 2.05019966e-001,
          3.62473540e-002, 9.15742591e-002, 2.37348676e-002,
          3.11786551e-002, 3.18947025e-002, 8.42092559e-002,
          1.99002940e-002, 1.34907309e-002, 3.47293057e-002,
          5.67118861e-002, 9.25690029e-003, 6.58454187e-003, 0.,
          5.22698723e-002, 2.99986303e-002, 1.80383921e-002,
          7.86126591e-003, 8.40874836e-002, 9.21743289e-002,
          8.52739289e-002, 7.76724443e-002, 2.29593098e-001,
          3.96837413e-001, 2.82752156e-001, 1.56490043e-001,
          1.82748899e-001, 1.21365651e-001, 9.93261039e-002,
          1.09867305e-001, 2.71187723e-001, 2.81480342e-001,
          2.09612399e-001, 1.17294922e-001, 2.59848982e-001,
          1.53741315e-001, 1.48259908e-001, 1.27461329e-001 ]
      - [ 0., 0., 0., 0., 0., 0., 0., 0., 8.44382271e-002,
          1.08729586e-001, 7.71783814e-002, 0., 2.50792205e-002, 0., 0.,
          0., 2.14261115e-002, 1.83093660e-002, 6.63365796e-002,
          1.09836347e-001, 1.52409703e-001, 1.24327838e-001,
          1.45095795e-001, 1.77096680e-001, 1.85606465e-001,
          1.66155368e-001, 8.80157873e-002, 5.03872372e-002,
          6.40671998e-002, 4.27094400e-002, 4.88748439e-002,
          3.38602141e-002, 5.07262126e-002, 3.27474661e-002,
          2.53283475e-002, 5.21939732e-002, 6.99328184e-002,
          4.68490496e-002, 1.58356521e-002, 1.51811289e-002,
          2.78179329e-002, 1.33575685e-002, 2.77225841e-002,
          1.03963643e-001, 8.52768570e-002, 1.06263988e-001,
          1.27210572e-001, 6.72886372e-002, 2.77103990e-001,
          3.80440056e-001, 1.94574192e-001, 1.58732563e-001,
          2.32755840e-001, 1.26159400e-001, 1.31443813e-001,
          1.70615196e-001, 2.74705738e-001, 2.63084590e-001,
          2.09167913e-001, 7.62329996e-002, 2.17669412e-001,
          1.44561484e-001, 1.48816556e-001, 1.79426938e-001 ]
      - [ 0., 0., 0., 0., 0., 0., 0., 0., 1.17082231e-001,
          1.15800597e-001, 9.45632830e-002, 0., 3.51457447e-002, 0., 0.,
          0., 1.03574917e-002, 1.44043099e-002, 1.90670583e-002,
          9.45119783e-002, 1.65285885e-001, 1.65541470e-001,
          1.23282075e-001, 1.13825463e-001, 7.74174631e-002,
          1.43347055e-001, 1.83902979e-001, 1.21120960e-002,
          5.65777905e-002, 0., 8.13177321e-003, 9.77608189e-003,
          3.98334861e-002, 3.10940929e-002, 5.55768162e-002,
          4.88185622e-002, 1.57147013e-002, 1.31387860e-002,
          4.98131383e-003, 1.59835219e-002, 2.88994703e-002,
          3.40598039e-002, 5.11108525e-002, 1.12390622e-001,
          2.15429708e-001, 1.15506567e-001, 4.28106487e-002,
          1.98003966e-002, 2.15994671e-001, 3.01825225e-001,
          2.49117106e-001, 2.84903377e-001, 1.94712475e-001,
          1.32079691e-001, 1.28281310e-001, 1.93223625e-001,
          2.64490038e-001, 2.94100314e-001, 1.40679628e-001,
          5.79774939e-002, 2.03166366e-001, 1.80411354e-001,
          1.94135368e-001, 1.92759499e-001 ]
      - [ 0., 0., 0., 0., 0., 0., 0., 0., 2.51082387e-002,
          9.00907144e-002, 1.47335395e-001, 4.29422222e-002,
          3.59850563e-002, 0., 0., 0., 3.79785486e-002, 3.32315005e-002,
          3.00680716e-002, 7.60172158e-002, 1.33409053e-001,
          1.17740408e-001, 1.29792795e-001, 1.38024166e-001,
          1.93924427e-001, 2.07641572e-001, 1.06831327e-001,
          3.64067592e-002, 7.36436769e-002, 4.32577208e-002,
          5.09106517e-002, 4.63904813e-002, 5.08727506e-002,
          1.06598400e-002, 1.61272381e-002, 1.39263505e-002,
          1.66927055e-002, 1.11432150e-002, 1.12416828e-002,
          8.46006908e-003, 4.31295335e-002, 2.02551391e-002,
          9.03952792e-002, 1.75212681e-001, 1.97615132e-001,
          1.63867399e-001, 7.95457885e-002, 3.29617187e-002,
          2.72580653e-001, 3.77517968e-001, 1.75107107e-001,
          1.83760762e-001, 1.62434056e-001, 1.01483494e-001,
          1.24380633e-001, 1.44874677e-001, 2.23444551e-001,
          3.25902611e-001, 1.29657850e-001, 1.40625715e-001,
          2.66557097e-001, 1.19054966e-001, 1.12877868e-001,
          1.44278541e-001 ]
      - [ 0., 0., 0., 0., 0., 0., 0., 0., 1.12344675e-001,
          1.28007889e-001, 5.97884543e-002, 0., 4.28928286e-002, 0., 0.,
          0., 6.72357604e-002, 1.04838081e-001, 5.41053079e-002,
          7.54027665e-002, 1.36110589e-001, 8.81829262e-002,
          8.88174698e-002, 1.24249354e-001, 1.45120382e-001,
          1.77987799e-001, 1.25371918e-001, 4.54411954e-002,
          6.95431978e-002, 4.90088426e-002, 4.43172157e-002,
          3.49675529e-002, 5.88940196e-002, 1.62827987e-002,
          1.75193399e-002, 1.04560964e-001, 1.06457986e-001,
          5.76291196e-002, 3.25266868e-002, 1.93083342e-002,
          3.84342745e-002, 1.08488118e-002, 5.03485501e-002,
          8.94008949e-002, 1.18080787e-001, 1.34116843e-001,
          1.32816866e-001, 1.71014834e-002, 2.60607153e-001,
          4.09578949e-001, 1.87938526e-001, 1.62251636e-001,
          1.72554687e-001, 1.12959899e-001, 1.31970465e-001,
          1.39061093e-001, 2.44825125e-001, 3.39631438e-001,
          1.78620934e-001, 1.85354143e-001, 1.87511057e-001,
          1.42808199e-001, 1.23653375e-001, 1.69796512e-001 ]
      - [ 0., 0., 0., 0., 1.97573919e-002, 1.55060813e-002, 0.,
          2.40333267e-002, 8.54490250e-002, 1.22764528e-001,
          9.51615348e-002, 0., 3.98660339e-002, 0., 0., 0.,
          3.85655910e-002, 4.30307910e-002, 4.18153815e-002,
          3.86543050e-002, 1.46813169e-001, 1.38800308e-001,
          1.21374436e-001, 1.34844214e-001, 1.67696238e-001,
          1.59710839e-001, 1.47297367e-001, 5.27833216e-002,
          6.18036315e-002, 3.00517455e-002, 2.52936333e-002,
          3.13653983e-002, 4.90108319e-002, 0., 3.11281756e-002,
          8.99912491e-002, 7.13135153e-002, 4.86317575e-002,
          9.77464672e-003, 0., 3.03459298e-002, 1.40787149e-002,
          9.35653001e-002, 1.23833023e-001, 1.33551344e-001,
          1.58396304e-001, 8.72553587e-002, 2.08852105e-002,
          2.57649392e-001, 3.64820749e-001, 2.25827679e-001,
          2.07906291e-001, 2.11628214e-001, 1.03446834e-001,
          1.17451906e-001, 1.29150689e-001, 2.39890724e-001,
          3.33147138e-001, 1.31304532e-001, 2.37506494e-001,
          1.83624953e-001, 1.14453644e-001, 1.22039519e-001,
          1.49134174e-001 ]
      - [ 1.63086243e-002, 0., 0., 0., 8.40022601e-003, 0., 0.,
          2.57404353e-002, 1.07867062e-001, 5.93250766e-002,
          7.42465779e-002, 6.76098689e-002, 6.09566905e-002,
          2.19336320e-002, 0., 0., 5.41023649e-002, 6.12169169e-002,
          7.21869618e-002, 1.18032388e-001, 9.61307064e-002,
          7.65105784e-002, 1.05863474e-001, 1.62681654e-001,
          1.44090489e-001, 1.77645445e-001, 1.50619045e-001,
          4.71952185e-002, 7.07513988e-002, 2.84788553e-002,
          2.99141631e-002, 4.31227013e-002, 5.67520484e-002,
          9.30553302e-003, 3.17137912e-002, 4.72651348e-002,
          5.33401109e-002, 2.49442905e-002, 2.66306754e-002,
          2.09111217e-002, 5.45740426e-002, 6.52905554e-002,
          1.14344418e-001, 9.61561650e-002, 2.05664217e-001,
          1.02496818e-001, 9.39016491e-002, 8.18520859e-002,
          2.88355947e-001, 3.26128930e-001, 2.39731535e-001,
          1.65426299e-001, 2.44374961e-001, 1.05400234e-001,
          8.62330720e-002, 1.19452871e-001, 2.31544897e-001,
          2.71296769e-001, 1.84448317e-001, 1.68703362e-001,
          2.49198675e-001, 1.54542252e-001, 1.64600536e-001,
          1.62724823e-001 ]
      - [ 2.07795426e-002, 0., 0., 0., 0., 0., 0., 0., 1.20069847e-001,
          9.66609865e-002, 7.92927220e-002, 6.23009279e-002,
          4.22652215e-002, 1.22219780e-002, 0., 1.19547397e-002,
          6.99153543e-002, 4.84210365e-002, 4.63051163e-002,
          1.01596855e-001, 1.41867355e-001, 1.46006510e-001,
          1.04435921e-001, 9.70749184e-002, 1.48473918e-001,
          2.11052090e-001, 8.77929330e-002, 3.83024365e-002,
          7.71150291e-002, 2.83729322e-002, 4.98584248e-002,
          9.41210315e-002, 5.93419522e-002, 3.73872779e-002,
          4.84215543e-002, 8.07272270e-002, 9.16968212e-002,
          2.65990403e-002, 1.76950507e-002, 0., 2.48889476e-002,
          2.34825369e-002, 2.40440145e-002, 1.02718882e-001,
          1.47319436e-001, 1.13069028e-001, 1.16387531e-001, 0.,
          2.62251258e-001, 3.68532628e-001, 2.35480800e-001,
          2.12573424e-001, 1.84434205e-001, 8.06633458e-002,
          1.07740477e-001, 1.69313893e-001, 2.26579189e-001,
          3.04099709e-001, 2.06605434e-001, 1.84967324e-001,
          2.18106657e-001, 1.23642690e-001, 1.06401868e-001,
          1.54154345e-001 ]
      - [ 1.65635347e-002, 1.82105191e-002, 0., 2.63534784e-002, 0., 0.,
          8.05232208e-003, 0., 9.33923051e-002, 8.43814388e-002,
          1.05540268e-001, 9.10964906e-002, 4.72707339e-002, 0., 0.,
          1.76437758e-002, 6.16131350e-002, 4.77495566e-002,
          5.79114743e-002, 9.40621644e-002, 1.47972301e-001,
          1.23214439e-001, 1.15365915e-001, 1.50412798e-001,
          1.05447806e-001, 1.47265390e-001, 1.55883893e-001,
          7.78321549e-002, 8.55496675e-002, 3.91015969e-002,
          3.15415636e-002, 6.97043911e-002, 5.53063974e-002,
          1.51225859e-002, 2.26686448e-002, 9.59837064e-002,
          1.27822340e-001, 1.50627512e-002, 0., 0., 2.04909220e-002,
          1.16835376e-002, 1.71859488e-002, 1.31769195e-001,
          1.89511627e-001, 1.31646067e-001, 8.99995267e-002,
          7.41366446e-002, 2.75686949e-001, 3.47879261e-001,
          2.08511293e-001, 1.54340521e-001, 1.93451092e-001,
          1.08886354e-001, 1.18206501e-001, 1.38426766e-001,
          1.86808452e-001, 3.60321492e-001, 1.33077338e-001,
          1.66448787e-001, 2.32031450e-001, 1.38272882e-001,
          1.42877340e-001, 1.63609266e-001 ]
      - [ 1.56825513e-001, 0., 6.60144677e-003, 0., 3.20203155e-002, 0.,
          5.77088399e-003, 0., 6.80465177e-002, 5.02314381e-002,
          9.22659039e-003, 0., 9.54179559e-003, 0., 7.89717212e-003,
          3.09516974e-002, 8.57488364e-002, 9.62667912e-002,
          6.71049431e-002, 3.79901603e-002, 1.58624798e-001,
          7.48272836e-002, 7.92297497e-002, 7.58505985e-002,
          1.28565371e-001, 1.88087419e-001, 1.55891761e-001,
          1.54773276e-002, 6.53195679e-002, 1.99908167e-002,
          3.17013972e-002, 3.51954363e-002, 6.10315725e-002,
          1.94578934e-002, 5.77027947e-002, 9.99503732e-002,
          8.46835300e-002, 4.77184281e-002, 1.76761113e-002, 0.,
          1.12535335e-001, 1.32296979e-001, 8.43991786e-002, 0.,
          5.47323003e-002, 1.09639511e-001, 1.25252590e-001,
          2.97614969e-002, 2.26768002e-001, 4.04621154e-001,
          2.57240504e-001, 1.40329093e-001, 1.80080324e-001,
          1.32701814e-001, 1.17013231e-001, 1.43926099e-001,
          2.02945203e-001, 3.85984272e-001, 1.89656660e-001,
          7.16536120e-002, 2.46560112e-001, 1.23141445e-001,
          1.16897687e-001, 1.21760063e-001 ]
      - [ 1.19929062e-002, 0., 0., 0., 1.36524402e-002, 0., 0.,
          4.65642586e-002, 9.45578292e-002, 8.43904018e-002,
          6.41819462e-002, 1.93634816e-002, 2.20780335e-002, 0.,
          1.52263837e-002, 1.19874757e-002, 4.68211956e-002,
          5.01490049e-002, 5.09189144e-002, 7.75522962e-002,
          1.96147040e-001, 1.31510064e-001, 1.00944191e-001,
          1.26302883e-001, 1.32555842e-001, 1.64618045e-001,
          1.39276952e-001, 6.88000396e-002, 9.09000784e-002,
          3.98947820e-002, 4.43236157e-002, 2.89742909e-002,
          5.26943430e-002, 2.93319374e-002, 7.50387982e-002,
          7.56825134e-002, 9.77721140e-002, 8.60184953e-002,
          3.12775411e-002, 2.29246989e-002, 3.70486714e-002,
          2.73980312e-002, 7.78381899e-002, 6.67180717e-002,
          1.03952475e-001, 1.23513997e-001, 1.18220903e-001,
          6.86941445e-002, 2.27122903e-001, 3.77803713e-001,
          1.98158547e-001, 1.74661800e-001, 2.77353704e-001,
          1.06569000e-001, 1.02315456e-001, 1.51737794e-001,
          2.38855660e-001, 2.79151857e-001, 1.18565947e-001,
          1.33662820e-001, 2.77664661e-001, 1.25308305e-001,
          1.69998154e-001, 1.84602842e-001 ]
      - [ 2.26444509e-002, 3.46623845e-002, 1.40500488e-002, 0., 0., 0.,
          7.26690004e-003, 0., 5.70475347e-002, 1.01025231e-001,
          1.24546535e-001, 3.72583158e-002, 3.46298777e-002, 0.,
          1.86596438e-002, 0., 1.28558517e-001, 8.94505158e-002,
          9.44096372e-002, 1.24110825e-001, 1.40566394e-001,
          7.64353275e-002, 6.14780895e-002, 1.00281812e-001,
          1.45252362e-001, 1.25766918e-001, 1.62746429e-001,
          5.11111878e-002, 8.35339874e-002, 3.61714177e-002,
          4.53958735e-002, 9.14024189e-002, 5.04104570e-002,
          2.60581467e-002, 6.40422255e-002, 1.59081355e-001,
          1.23532355e-001, 6.20907992e-002, 2.97930874e-002,
          3.87794375e-002, 3.34777161e-002, 2.14252640e-002,
          5.69204241e-002, 7.93184042e-002, 1.39698058e-001,
          1.48858756e-001, 1.13387413e-001, 6.27055764e-002,
          2.63248622e-001, 3.06246936e-001, 2.20417395e-001,
          1.81495205e-001, 1.95319921e-001, 9.36409682e-002,
          1.17085181e-001, 1.47251591e-001, 2.30998755e-001,
          3.21343720e-001, 1.59565017e-001, 2.37190649e-001,
          2.00539604e-001, 1.11337893e-001, 1.14925534e-001,
          1.95792094e-001 ]
      - [ 0., 0., 0., 0., 2.59591993e-002, 4.41994034e-002,
          6.58381656e-002, 7.19664395e-002, 6.94607869e-002,
          5.91992848e-002, 9.58485007e-002, 6.18490912e-002,
          3.65585685e-002, 0., 0., 0., 6.07247241e-002, 5.91990873e-002,
          4.68839593e-002, 5.65462485e-002, 1.32086843e-001,
          1.11751370e-001, 1.69859782e-001, 1.32334873e-001,
          1.19306587e-001, 1.06435895e-001, 1.31590396e-001,
          1.20446526e-001, 8.40682164e-002, 1.84150543e-002,
          3.11799664e-002, 5.95809817e-002, 6.35458380e-002, 0.,
          7.08717527e-003, 1.37619143e-002, 6.31527975e-002,
          4.74344492e-002, 2.17452012e-002, 1.17058484e-002,
          1.96892694e-002, 1.25330817e-002, 2.60128342e-002,
          1.44546688e-001, 1.94367647e-001, 1.42949045e-001,
          7.89450333e-002, 5.54901250e-002, 2.52791405e-001,
          2.44986862e-001, 1.52610406e-001, 1.41734049e-001,
          2.84752876e-001, 2.58531243e-001, 1.95653453e-001,
          1.69110954e-001, 2.14072958e-001, 2.51215011e-001,
          1.96734190e-001, 1.25164866e-001, 1.69337079e-001,
          1.86791822e-001, 2.45693326e-001, 1.92020848e-001 ]
      - [ 0., 0., 0., 0., 5.75356893e-002, 4.47708853e-002,
          5.07506691e-002, 2.47723218e-002, 5.00338338e-002,
          4.29297015e-002, 3.59797478e-002, 4.54092808e-002,
          1.81522314e-002, 0., 0., 0., 2.36296318e-002, 6.61099702e-002,
          7.53103346e-002, 9.92912352e-002, 1.89678445e-001,
          1.33629382e-001, 1.43297777e-001, 1.42584622e-001,
          1.37185469e-001, 1.26266822e-001, 1.53426468e-001,
          1.23502098e-001, 9.91901308e-002, 3.52994092e-002,
          2.43957713e-002, 2.80670077e-002, 7.69716650e-002,
          2.27153525e-002, 1.31400442e-002, 3.38442139e-002,
          8.64580050e-002, 6.65706843e-002, 2.31027734e-002,
          8.73948727e-003, 1.90512985e-002, 2.01997682e-002,
          2.71424353e-002, 1.31398916e-001, 1.01063825e-001,
          4.64573950e-002, 6.14561997e-002, 5.96278571e-002,
          1.99518025e-001, 2.28771210e-001, 2.16271415e-001,
          1.65927887e-001, 3.16195458e-001, 1.90956175e-001,
          1.57431990e-001, 2.26925448e-001, 3.01150978e-001,
          2.40178838e-001, 1.60761625e-001, 1.51285931e-001,
          1.92735761e-001, 1.82538867e-001, 1.82462558e-001,
          2.08531857e-001 ]
      - [ 9.62705258e-003, 0., 0., 7.49378204e-002, 1.01779059e-001,
          7.36047029e-002, 5.20389117e-002, 4.28063758e-002,
          5.16929440e-002, 5.12346253e-002, 3.10702845e-002,
          6.54850826e-002, 6.44828826e-002, 8.96818470e-003, 0., 0.,
          6.81956559e-002, 1.04114830e-001, 7.56582394e-002,
          8.22188556e-002, 1.27194300e-001, 1.19553044e-001,
          8.20394680e-002, 1.37800813e-001, 1.13673590e-001,
          9.18057412e-002, 8.80671516e-002, 1.31036267e-001,
          1.20945022e-001, 8.25581923e-002, 4.47101705e-002,
          3.52153927e-002, 5.09984866e-002, 4.67662215e-002,
          2.97614262e-002, 1.66811422e-001, 1.40667841e-001,
          5.96023463e-002, 5.96822202e-002, 4.64982390e-002,
          3.61256488e-002, 6.71077147e-003, 4.64719720e-002,
          1.29931167e-001, 1.72289833e-001, 6.22271895e-002,
          4.22564149e-002, 1.83660071e-002, 1.86556220e-001,
          2.11300611e-001, 1.97068751e-001, 2.18946159e-001,
          2.75973856e-001, 1.67318761e-001, 1.51503503e-001,
          1.93042293e-001, 2.42043182e-001, 2.36596763e-001,
          2.59432554e-001, 1.57005966e-001, 1.99031085e-001,
          2.08832279e-001, 1.71720654e-001, 1.88664764e-001 ]
      - [ 1.05001759e-002, 0., 0., 8.22140798e-002, 1.30007654e-001,
          4.38131094e-002, 3.46140750e-002, 3.86167727e-002,
          3.33729014e-002, 4.66202609e-002, 6.70572892e-002,
          7.45623410e-002, 3.07762809e-002, 0., 0., 0., 4.20094430e-002,
          5.58249876e-002, 5.57388477e-002, 5.32951728e-002,
          1.69965133e-001, 1.54334009e-001, 1.36652380e-001,
          1.39865607e-001, 1.58665895e-001, 1.03266381e-001,
          1.34931326e-001, 1.72071755e-001, 1.17919765e-001,
          4.33887094e-002, 4.33148704e-002, 3.36373001e-002,
          9.20634717e-002, 5.56568988e-002, 5.38516045e-002,
          7.99321458e-002, 5.87533787e-002, 3.70666198e-002,
          4.56142351e-002, 6.92917407e-002, 9.82363746e-002,
          3.41393277e-002, 1.72738656e-002, 2.26324871e-002,
          4.39851172e-002, 4.55193482e-002, 5.33226468e-002,
          7.58144483e-002, 1.92325816e-001, 2.18672574e-001,
          2.16393769e-001, 2.49828190e-001, 2.94692636e-001,
          1.77359000e-001, 1.46932572e-001, 1.66922271e-001,
          2.04503417e-001, 1.95119113e-001, 2.61474282e-001,
          1.80229887e-001, 2.24127144e-001, 2.14866787e-001,
          1.83033466e-001, 1.54488936e-001 ]
      - [ 0., 0., 0., 0., 5.70857041e-002, 6.10611439e-002,
          5.46210408e-002, 4.18754034e-002, 6.40241429e-002,
          5.27387410e-002, 8.05428475e-002, 5.11727333e-002,
          2.80630309e-002, 0., 0., 0., 4.88090180e-002, 3.36529277e-002,
          4.56423163e-002, 1.41595960e-001, 1.37111723e-001,
          1.09867826e-001, 1.60143852e-001, 1.31926879e-001,
          1.38255551e-001, 1.28787026e-001, 1.13975376e-001,
          1.35223329e-001, 8.72442275e-002, 3.43327187e-002,
          7.52682686e-002, 9.60599259e-002, 7.46923238e-002,
          2.75707822e-002, 2.47660782e-002, 4.89871092e-002,
          1.21795014e-001, 2.46156193e-002, 5.53405099e-003,
          1.36226770e-002, 2.04385724e-002, 1.10026719e-002,
          2.52110586e-002, 1.24453589e-001, 1.24472842e-001,
          9.17346478e-002, 8.44230875e-002, 7.80756325e-002,
          2.26119488e-001, 2.41335601e-001, 1.53023064e-001,
          1.59931034e-001, 2.96013623e-001, 2.03255475e-001,
          1.48881495e-001, 2.32803613e-001, 2.56554514e-001,
          2.84895688e-001, 1.39499754e-001, 1.37843311e-001,
          1.71275899e-001, 1.92964569e-001, 2.23494068e-001,
          1.91927418e-001 ]
      - [ 5.57081634e-003, 0., 0., 4.20136303e-002, 4.34860289e-002,
          3.99714299e-002, 5.08277416e-002, 8.48072395e-002,
          7.45441914e-002, 6.26399443e-002, 5.17019331e-002,
          4.69167344e-002, 3.93457003e-002, 0., 0., 0., 7.46222138e-002,
          7.15047941e-002, 5.09834103e-002, 1.21318020e-001,
          1.37885705e-001, 1.13071151e-001, 1.10883713e-001,
          1.43754438e-001, 1.39168426e-001, 1.08146086e-001,
          9.33645368e-002, 1.37600660e-001, 1.16397753e-001,
          5.37991673e-002, 4.61592153e-002, 6.55115098e-002,
          5.59756346e-002, 1.47262793e-002, 1.93420332e-002,
          1.28517494e-001, 9.86792967e-002, 3.97695825e-002,
          4.55743596e-002, 1.86566804e-002, 1.60695687e-002,
          1.77153107e-002, 1.65189169e-002, 9.54185054e-002,
          1.87471718e-001, 6.55472502e-002, 6.69297352e-002,
          7.95390904e-002, 2.40685001e-001, 2.59046376e-001,
          1.99335635e-001, 2.31759608e-001, 2.51935840e-001,
          1.57420546e-001, 1.74001485e-001, 2.06735685e-001,
          2.31913134e-001, 2.12186337e-001, 2.23882869e-001,
          1.76972896e-001, 1.79345325e-001, 1.97030231e-001,
          1.89472601e-001, 1.83387443e-001 ]
      - [ 0., 0., 0., 0., 7.10442849e-003, 8.23534653e-003,
          2.14309506e-002, 5.46818599e-002, 5.64169846e-002,
          4.38918062e-002, 4.14950252e-002, 5.12231626e-002,
          1.39096892e-002, 0., 0., 0., 3.23595330e-002, 6.31775931e-002,
          7.86343962e-002, 1.14031926e-001, 1.61960781e-001,
          1.32652074e-001, 1.37132064e-001, 1.27917498e-001,
          1.07026108e-001, 6.47057295e-002, 9.19346362e-002,
          1.75707668e-001, 1.13694869e-001, 3.57153788e-002,
          2.91314926e-002, 5.28505556e-002, 3.15835774e-002, 0.,
          9.98829212e-003, 1.91287901e-002, 4.55198623e-002,
          2.95269601e-002, 6.48542633e-003, 1.12429876e-002,
          2.39398256e-002, 2.59649325e-002, 4.11609598e-002,
          1.14344463e-001, 1.47988379e-001, 6.62984177e-002,
          3.66350673e-002, 3.47930826e-002, 2.28363469e-001,
          2.73571163e-001, 2.13932544e-001, 2.13291243e-001,
          2.73954183e-001, 1.68881282e-001, 1.89348310e-001,
          2.02826217e-001, 3.06135923e-001, 2.38378525e-001,
          1.67875379e-001, 1.45153150e-001, 1.64579377e-001,
          1.31205186e-001, 2.57018328e-001, 2.28784621e-001 ]
      - [ 4.19764929e-002, 3.56665142e-002, 5.14480472e-002,
          3.11273932e-002, 4.36166488e-002, 2.86826715e-002,
          5.16110705e-003, 0., 1.29309902e-002, 6.39008265e-003, 0.,
          8.53713881e-003, 9.69122443e-003, 0., 3.78967412e-002,
          3.41195948e-002, 8.99485201e-002, 7.60078877e-002,
          4.90572043e-002, 7.70306885e-002, 1.79859951e-001,
          7.70578906e-002, 6.99688420e-002, 8.37009102e-002,
          3.02351564e-001, 1.76999077e-001, 3.49257551e-002,
          2.79286616e-002, 7.29525834e-002, 3.41255777e-002,
          3.27725336e-002, 5.36047742e-002, 7.50819594e-002,
          1.01308919e-001, 3.95984352e-002, 2.25824025e-002,
          5.04099652e-002, 5.51690459e-002, 5.80410622e-002,
          5.65170534e-002, 9.41094086e-002, 1.45216271e-001,
          9.30258930e-002, 7.36401081e-002, 6.99151903e-002,
          4.01316583e-002, 5.26608862e-002, 8.63030702e-002,
          3.22018832e-001, 3.23546290e-001, 1.61840290e-001,
          1.82258174e-001, 2.40617156e-001, 1.20908424e-001,
          1.21100068e-001, 2.24685073e-001, 2.84259766e-001,
          1.55577734e-001, 1.40884370e-001, 1.71440005e-001,
          1.63485557e-001, 1.32365033e-001, 1.87160328e-001,
          2.24055976e-001 ]
      - [ 4.71495613e-002, 5.54298051e-002, 3.73282470e-002,
          1.27226384e-002, 1.84062496e-002, 1.07166320e-002,
          1.47953304e-002, 0., 1.02490215e-002, 1.92712503e-003, 0.,
          4.30918252e-003, 1.48286233e-002, 3.42696672e-003,
          9.89498012e-003, 9.57740750e-003, 7.91883171e-002,
          1.11898474e-001, 4.38774191e-002, 1.07009016e-001,
          1.15484543e-001, 9.57379267e-002, 6.77204579e-002,
          1.21011928e-001, 2.55261749e-001, 1.92768052e-001,
          7.51957297e-002, 3.41795795e-002, 8.77459049e-002,
          4.59584817e-002, 2.91194245e-002, 3.50609608e-002,
          1.21705957e-001, 9.12395492e-002, 4.63837013e-002,
          7.05903918e-002, 4.23540287e-002, 3.95224653e-002,
          4.76283357e-002, 8.69764462e-002, 1.31456420e-001,
          8.04243684e-002, 7.73072168e-002, 9.94498506e-002,
          5.67309223e-002, 5.34437075e-002, 6.53954446e-002,
          6.95745274e-002, 3.23974878e-001, 2.89520681e-001,
          1.13301851e-001, 2.04644844e-001, 1.63580626e-001,
          1.11053608e-001, 1.50786147e-001, 2.08474144e-001,
          3.13091725e-001, 2.36610740e-001, 1.27222404e-001,
          1.73614129e-001, 1.70228958e-001, 1.35295510e-001,
          1.80667788e-001, 2.63968587e-001 ]
      - [ 4.63824607e-002, 5.53475358e-002, 3.98635641e-002,
          1.19792502e-002, 1.49431145e-002, 9.66385752e-003,
          1.13390638e-002, 2.61293352e-002, 2.77259443e-002,
          1.81703530e-002, 2.98502296e-002, 3.26279774e-002,
          3.80474590e-002, 2.35190187e-002, 1.86295751e-002,
          4.85008731e-002, 9.28942934e-002, 7.31295869e-002,
          3.79500762e-002, 1.04401879e-001, 1.46534190e-001,
          7.65653104e-002, 5.74359335e-002, 7.50678182e-002,
          2.55347461e-001, 2.12406605e-001, 7.13283047e-002,
          3.43330279e-002, 9.38505828e-002, 5.10041714e-002,
          4.52716686e-002, 4.51548062e-002, 1.54878080e-001,
          4.25204858e-002, 3.46596614e-002, 2.08919104e-002,
          4.11170647e-002, 1.93342082e-002, 3.47127020e-002,
          5.28263003e-002, 8.70791674e-002, 1.90151677e-001,
          1.12942159e-001, 5.88491485e-002, 5.58668822e-002,
          4.63337526e-002, 6.39018267e-002, 1.10081129e-001,
          3.24872047e-001, 3.16909671e-001, 1.03266746e-001,
          1.37034804e-001, 1.99709594e-001, 1.19975843e-001,
          1.31625682e-001, 2.01580092e-001, 2.91678965e-001,
          2.06853643e-001, 1.39532194e-001, 1.91062257e-001,
          1.74464688e-001, 1.22002468e-001, 1.70288429e-001,
          2.62231112e-001 ]
      - [ 3.62498462e-002, 1.32686524e-002, 0., 0., 1.22053856e-002, 0.,
          0., 0., 5.30056991e-002, 1.08542152e-001, 5.15372120e-002,
          1.49984639e-002, 2.69816443e-002, 2.28001419e-002,
          3.40663716e-002, 5.36568351e-002, 4.53947075e-002,
          2.41447929e-002, 3.73855680e-002, 7.75966570e-002,
          1.96090996e-001, 7.95987695e-002, 4.46255691e-002,
          4.49512526e-002, 2.43609145e-001, 2.07521588e-001,
          5.16454652e-002, 6.40511513e-002, 8.86276290e-002,
          6.15421385e-002, 4.73678336e-002, 4.07180153e-002,
          1.48879737e-001, 4.35679965e-002, 1.71795003e-002, 0.,
          4.50713700e-003, 0., 2.38296818e-002, 3.21614780e-002,
          6.54746145e-002, 1.49057344e-001, 1.44382372e-001,
          9.13371444e-002, 8.99465829e-002, 8.16650093e-002,
          9.79093835e-002, 9.99463350e-002, 3.53303641e-001,
          2.53505468e-001, 8.72883797e-002, 1.18082032e-001,
          2.25349292e-001, 1.32612556e-001, 1.82412595e-001,
          2.44150922e-001, 2.24742413e-001, 1.07991956e-001,
          8.19537193e-002, 1.41071588e-001, 1.99829191e-001,
          1.71281978e-001, 2.18409613e-001, 3.13592434e-001 ]
      - [ 4.54491302e-002, 5.47631383e-002, 4.58697230e-002,
          1.37526728e-002, 3.26648578e-002, 2.15892121e-002,
          2.12940034e-002, 1.65053122e-002, 2.75718682e-002, 0., 0., 0.,
          1.57305598e-002, 1.19184861e-002, 1.78003311e-002,
          2.41547059e-002, 8.94263536e-002, 8.64969417e-002,
          5.67122884e-002, 1.19789243e-001, 1.99025065e-001,
          5.31384945e-002, 5.60919642e-002, 9.22549516e-002,
          2.46673822e-001, 2.17504919e-001, 5.61814345e-002,
          3.35787535e-002, 7.20459297e-002, 2.58398410e-002,
          4.07442041e-002, 4.00980003e-002, 9.10406560e-002,
          3.17732729e-002, 2.66121980e-002, 1.10192355e-002,
          1.74909309e-002, 1.69078466e-002, 2.85640657e-002,
          4.01555598e-002, 1.11419633e-001, 9.89115685e-002,
          9.79078561e-002, 5.46370968e-002, 7.98180178e-002,
          7.06624463e-002, 8.13096240e-002, 9.18891355e-002,
          3.01273644e-001, 3.43168944e-001, 1.52033329e-001,
          1.96666136e-001, 2.12978646e-001, 1.29729927e-001,
          1.35155648e-001, 2.40097865e-001, 2.72128582e-001,
          1.60528481e-001, 1.25069126e-001, 1.63688809e-001,
          1.53840154e-001, 1.22853622e-001, 1.70716867e-001,
          2.94456065e-001 ]
      - [ 4.08273973e-002, 1.80464033e-002, 1.83995273e-002,
          3.33988555e-002, 3.86639163e-002, 7.54894875e-003,
          1.07694082e-002, 1.58878379e-002, 3.11776064e-002,
          1.30216470e-002, 1.01795197e-002, 0., 5.55670494e-003,
          7.09389197e-003, 9.09004919e-003, 2.21201293e-002,
          3.14931832e-002, 2.38799155e-002, 3.48406918e-002,
          1.09009840e-001, 1.41693816e-001, 1.03088751e-001,
          9.33073685e-002, 1.27742499e-001, 2.99124330e-001,
          6.90537840e-002, 9.76390485e-003, 1.38334716e-002,
          4.09502573e-002, 1.52452104e-002, 2.19749920e-002,
          3.12649235e-002, 1.44562855e-001, 1.19404562e-001,
          3.31815481e-002, 0., 5.35771362e-002, 5.35838567e-002,
          1.48756262e-002, 9.91974957e-003, 1.50474757e-001,
          9.67337340e-002, 6.54395521e-002, 4.18507867e-002,
          4.36791852e-002, 2.32981127e-002, 3.32391523e-002,
          5.14894985e-002, 3.69382650e-001, 3.13471884e-001,
          8.66021290e-002, 1.60711840e-001, 2.24453628e-001,
          1.53886765e-001, 1.78410500e-001, 2.23545566e-001,
          3.00216675e-001, 1.39159486e-001, 1.20794900e-001,
          1.38936758e-001, 1.41301841e-001, 1.22423932e-001,
          2.23792478e-001, 2.92507321e-001 ]
      - [ 7.03136111e-003, 2.66017765e-002, 5.85754365e-002,
          5.08421473e-002, 5.51630519e-002, 2.31920984e-002,
          1.93906296e-002, 0., 1.70119312e-002, 0., 0., 2.03157943e-002,
          1.37033463e-002, 6.54823892e-003, 0., 0., 8.20350051e-002,
          9.79984924e-002, 6.38364479e-002, 1.23375103e-001,
          1.68834552e-001, 1.16364226e-001, 5.20187207e-002,
          6.53103217e-002, 2.41956785e-001, 2.00017348e-001,
          4.58155014e-002, 3.97784598e-002, 6.07770160e-002,
          1.48117635e-002, 2.07772050e-002, 4.26708795e-002,
          8.31586644e-002, 7.41920695e-002, 5.60026728e-002,
          5.08276038e-002, 5.87253608e-002, 2.98766624e-002,
          2.86176112e-002, 4.24785130e-002, 7.05190226e-002,
          8.07603672e-002, 6.80933893e-002, 9.73735303e-002,
          6.93693906e-002, 4.19822857e-002, 5.22932149e-002,
          5.71456477e-002, 3.63763243e-001, 3.21134269e-001,
          1.64569750e-001, 2.01011688e-001, 2.00519815e-001,
          1.41343236e-001, 1.55738950e-001, 2.02869266e-001,
          3.11561853e-001, 1.59605891e-001, 1.17979549e-001,
          1.30823702e-001, 1.67962253e-001, 1.55749470e-001,
          1.73218012e-001, 2.59636790e-001 ]
      - [ 3.38791087e-002, 3.53253596e-002, 2.61226501e-002,
          4.25383188e-002, 3.11084576e-002, 1.34484516e-002,
          2.00047437e-002, 8.24814942e-003, 8.62068404e-003,
          3.95098375e-003, 0., 0., 5.42540429e-003, 0., 5.15095703e-003,
          0., 1.23177752e-001, 1.10383339e-001, 7.68255368e-002,
          1.18083887e-001, 1.32853001e-001, 8.37961733e-002,
          8.22750255e-002, 1.02191381e-001, 2.50439584e-001,
          2.09210068e-001, 4.09190133e-002, 3.67394239e-002,
          7.07411617e-002, 4.61371951e-002, 4.53876033e-002,
          4.59607728e-002, 9.24883783e-002, 8.51536170e-002,
          7.19779581e-002, 2.40008719e-002, 2.78575793e-002,
          2.29469910e-002, 3.20107155e-002, 2.47112513e-002,
          1.18272565e-001, 1.20267980e-001, 5.97187094e-002,
          5.97061440e-002, 5.40071316e-002, 5.51312901e-002,
          5.72123975e-002, 7.83846080e-002, 3.24210227e-001,
          3.15657437e-001, 1.40573919e-001, 1.81456745e-001,
          2.52404511e-001, 1.11363806e-001, 1.28631845e-001,
          2.30485991e-001, 2.71877378e-001, 2.05529198e-001,
          1.47654682e-001, 1.63217604e-001, 1.61248177e-001,
          1.62106022e-001, 1.87081113e-001, 2.29971424e-001 ]
      - [ 2.16550454e-002, 9.91161726e-003, 1.44380433e-002,
          2.42983624e-002, 2.96658240e-002, 2.11655740e-002,
          2.49715783e-002, 3.52576710e-002, 3.84314284e-002,
          1.63892508e-002, 5.94316097e-003, 0., 1.34913614e-002,
          2.00042613e-002, 1.07121458e-002, 1.88472383e-002,
          7.21833855e-002, 5.66075891e-002, 8.46947730e-002,
          7.95850679e-002, 1.85663059e-001, 1.17277153e-001,
          1.46463946e-001, 2.17754409e-001, 1.62625954e-001,
          9.56826434e-002, 7.53585175e-002, 1.02570273e-001,
          9.26361084e-002, 4.26448621e-002, 1.53840706e-002,
          4.00684811e-002, 4.92918491e-002, 7.21437186e-002,
          8.11649635e-002, 4.33458351e-002, 6.11498356e-002,
          2.05803216e-002, 2.54457295e-002, 1.87838878e-002,
          1.81293413e-002, 1.39398631e-002, 1.59641951e-002,
          3.23479548e-002, 3.36372964e-002, 1.67956688e-002,
          1.63666904e-002, 3.43410932e-002, 2.55890608e-001,
          2.46959716e-001, 2.63786882e-001, 3.01516593e-001,
          2.63333648e-001, 1.17028914e-001, 1.28417343e-001,
          2.55863518e-001, 2.62188256e-001, 1.32833853e-001,
          1.20301366e-001, 1.79616109e-001, 2.11234599e-001,
          1.67625293e-001, 2.03283355e-001, 2.53910929e-001 ]
      - [ 1.71997640e-002, 1.03703579e-002, 0., 0., 2.02358421e-002, 0.,
          1.94766857e-002, 4.77761030e-002, 7.62019530e-002,
          5.75581640e-002, 4.35697027e-002, 3.09766121e-002,
          3.95861454e-002, 2.82586217e-002, 1.58281960e-002,
          1.56019581e-002, 1.06140576e-001, 7.30006248e-002,
          5.14789298e-002, 1.03735328e-001, 1.48521960e-001,
          1.37967378e-001, 1.61239401e-001, 2.36639768e-001,
          1.92741558e-001, 8.00485313e-002, 6.99941516e-002,
          1.28174037e-001, 8.04144144e-002, 4.07944694e-002,
          5.47297001e-002, 7.91051537e-002, 6.03872910e-002,
          6.68721125e-002, 3.28078121e-002, 2.60913037e-002,
          3.40001546e-002, 1.86881498e-002, 2.91989930e-002,
          3.92609723e-002, 4.12373655e-002, 4.82725240e-002,
          7.15730116e-002, 8.37199464e-002, 7.59079829e-002,
          3.13758440e-002, 3.32854055e-002, 5.75020835e-002,
          2.44751140e-001, 1.97058618e-001, 2.25580290e-001,
          3.06908727e-001, 2.28539214e-001, 1.60245672e-001,
          1.30355090e-001, 2.53493041e-001, 2.72318095e-001,
          1.41045392e-001, 1.19075671e-001, 2.02121288e-001,
          2.28188947e-001, 1.73220620e-001, 1.91072226e-001,
          1.85965240e-001 ]
      - [ 0., 0., 0., 0., 0., 0., 0., 0., 3.72496992e-002,
          5.42049520e-002, 1.40058815e-001, 9.12963003e-002,
          5.38629740e-002, 0., 0., 0., 4.08162512e-002, 1.85310002e-002,
          1.34184994e-002, 5.97539879e-002, 1.79993406e-001,
          1.74885452e-001, 1.47360012e-001, 1.15843952e-001,
          1.20491803e-001, 8.31439272e-002, 6.92355558e-002,
          1.46363810e-001, 1.38398096e-001, 1.19795501e-002,
          2.16721352e-002, 4.18802090e-002, 6.83901235e-002,
          3.21994163e-002, 3.10401022e-002, 4.78308313e-002,
          2.08842661e-002, 0., 0., 0., 1.90057643e-002, 0., 0.,
          1.32115558e-001, 2.08496928e-001, 1.50336757e-001,
          7.54642859e-002, 5.41381203e-002, 1.98288769e-001,
          1.58994555e-001, 2.34209418e-001, 3.83910090e-001,
          2.11286232e-001, 1.52061045e-001, 1.32428259e-001,
          1.39835432e-001, 1.87727839e-001, 1.42963126e-001,
          1.29309043e-001, 1.36756495e-001, 3.07872176e-001,
          3.05839360e-001, 1.46668345e-001, 1.31257042e-001 ]
      - [ 0., 0., 0., 0., 0., 0., 0., 0., 3.72496992e-002,
          5.42049520e-002, 1.40058815e-001, 9.12963003e-002,
          5.38629740e-002, 0., 0., 0., 4.08162512e-002, 1.85310002e-002,
          1.34184994e-002, 5.97539879e-002, 1.79993406e-001,
          1.74885452e-001, 1.47360012e-001, 1.15843952e-001,
          1.20491803e-001, 8.31439272e-002, 6.92355558e-002,
          1.46363810e-001, 1.38398096e-001, 1.19795501e-002,
          2.16721352e-002, 4.18802090e-002, 6.83901235e-002,
          3.21994163e-002, 3.10401022e-002, 4.78308313e-002,
          2.08842661e-002, 0., 0., 0., 1.90057643e-002, 0., 0.,
          1.32115558e-001, 2.08496928e-001, 1.50336757e-001,
          7.54642859e-002, 5.41381203e-002, 1.98288769e-001,
          1.58994555e-001, 2.34209418e-001, 3.83910090e-001,
          2.11286232e-001, 1.52061045e-001, 1.32428259e-001,
          1.39835432e-001, 1.87727839e-001, 1.42963126e-001,
          1.29309043e-001, 1.36756495e-001, 3.07872176e-001,
          3.05839360e-001, 1.46668345e-001, 1.31257042e-001 ]
      - [ 9.41114593e-003, 0., 0., 0., 1.15262521e-002, 0.,
          1.53465131e-002, 2.16893628e-002, 2.95419376e-002,
          6.09674379e-002, 6.47488981e-002, 5.58706969e-002,
          6.55186772e-002, 2.35684589e-002, 0., 0., 6.86305538e-002,
          2.86169164e-002, 3.00922282e-002, 1.11821108e-001,
          1.80370107e-001, 1.22455999e-001, 1.10394925e-001,
          1.97344542e-001, 1.56222671e-001, 9.40065607e-002,
          1.00658156e-001, 1.30964860e-001, 9.48385671e-002,
          5.50940596e-002, 3.88926044e-002, 5.28240725e-002,
          4.69662249e-002, 0., 0., 0., 1.35449525e-002, 0., 0., 0.,
          1.77853927e-002, 1.37826372e-002, 4.92971092e-002,
          1.11960337e-001, 1.21250995e-001, 6.02022409e-002,
          7.04281628e-002, 4.95449901e-002, 3.01633686e-001,
          1.81883484e-001, 2.50607371e-001, 3.13133955e-001,
          2.48255447e-001, 1.22082755e-001, 1.09764203e-001,
          1.94728538e-001, 2.63052583e-001, 1.11543052e-001,
          1.14053145e-001, 2.37449914e-001, 1.97103947e-001,
          2.23120615e-001, 1.88620657e-001, 2.39993066e-001 ]
      - [ 4.46498357e-002, 1.59452930e-002, 3.30080688e-002,
          3.41614522e-002, 2.82470156e-002, 0., 4.90004150e-003,
          6.12376109e-002, 9.44301635e-002, 9.89313331e-003,
          1.30200377e-002, 4.31785965e-003, 1.40588777e-002,
          6.06879592e-003, 7.49982381e-003, 4.32874002e-002,
          9.79077443e-002, 5.69733419e-002, 4.20505516e-002,
          1.24327198e-001, 1.27620429e-001, 1.26702860e-001,
          1.04021907e-001, 1.56292990e-001, 1.71648696e-001,
          6.23937324e-002, 6.02354109e-002, 1.11980155e-001,
          1.41981706e-001, 1.92143172e-002, 6.17121942e-002,
          8.93403590e-002, 8.63305479e-002, 5.67282774e-002,
          4.19273116e-002, 1.13600105e-001, 1.41386196e-001,
          2.85866763e-002, 2.49909926e-002, 1.99033171e-002,
          4.18876074e-002, 3.27403359e-002, 3.07880323e-002,
          1.08748525e-001, 8.57954770e-002, 4.34996858e-002,
          4.39623445e-002, 6.55749813e-002, 2.96247810e-001,
          2.01644629e-001, 2.26115108e-001, 2.42462113e-001,
          2.72001922e-001, 1.16546638e-001, 1.08533435e-001,
          2.24316970e-001, 2.47949094e-001, 1.41953975e-001,
          1.64189681e-001, 2.48842731e-001, 2.05027089e-001,
          2.01655284e-001, 1.72316134e-001, 2.25631863e-001 ]
      - [ 9.43360012e-003, 1.31548634e-002, 0., 1.68480743e-002,
          2.08192617e-002, 0., 2.54318733e-002, 3.43681909e-002,
          1.34286046e-001, 1.03581756e-001, 3.22484113e-002,
          1.42060295e-002, 3.17212380e-002, 0., 0., 0., 4.57678773e-002,
          2.59102564e-002, 3.85427885e-002, 1.21627890e-001,
          1.29585996e-001, 1.00673743e-001, 8.88912827e-002,
          2.43716806e-001, 1.92414016e-001, 7.75428861e-002,
          7.37064555e-002, 1.68424740e-001, 7.12483674e-002,
          2.39643306e-002, 1.96652450e-002, 2.96594445e-002,
          6.73292205e-002, 6.03779405e-002, 6.72099367e-002,
          1.31663769e-001, 1.33705661e-001, 1.60688851e-002,
          7.15042185e-003, 6.89363386e-003, 1.39524834e-002, 0.,
          1.34853404e-002, 8.97535011e-002, 1.37246937e-001,
          6.80831745e-002, 4.42331545e-002, 4.53549027e-002,
          2.40018934e-001, 1.68093786e-001, 2.00549558e-001,
          2.88749933e-001, 2.63789892e-001, 1.57929122e-001,
          1.19611062e-001, 1.51641965e-001, 2.38147423e-001,
          1.40453979e-001, 1.64221257e-001, 2.62685508e-001,
          2.66853034e-001, 1.55648857e-001, 1.92807913e-001,
          1.96618110e-001 ]
      - [ 4.73072007e-002, 4.87923585e-002, 1.76986810e-002,
          1.72801334e-002, 1.90930590e-002, 0., 0., 0., 2.56174197e-003,
          0., 9.92158428e-003, 2.57047527e-002, 2.75411569e-002,
          8.88950098e-003, 1.72317885e-002, 2.07279138e-002,
          7.55883753e-002, 3.27002816e-002, 1.18163778e-002,
          1.93264969e-002, 6.14284165e-002, 1.52899846e-001,
          1.45590901e-001, 1.14476390e-001, 1.75376549e-001,
          2.68671423e-001, 9.69759300e-002, 2.92785782e-002,
          7.22884387e-002, 1.62624344e-002, 5.15197106e-002,
          5.66091202e-002, 9.22732428e-002, 6.87499046e-002,
          7.27430591e-003, 4.81684739e-003, 1.96771137e-002, 0.,
          6.59931498e-003, 7.72686396e-003, 5.46261072e-002,
          1.42994255e-001, 1.97906271e-001, 1.12989187e-001,
          1.12144813e-001, 1.18298262e-001, 8.12813193e-002,
          6.62531257e-002, 2.68552601e-001, 3.12238544e-001,
          2.23173395e-001, 1.44767329e-001, 1.75197795e-001,
          1.56920627e-001, 1.48304313e-001, 1.51081964e-001,
          1.44075707e-001, 2.60853499e-001, 1.44018903e-001,
          1.38432994e-001, 1.49859026e-001, 2.92609692e-001,
          2.33040690e-001, 2.01059863e-001 ]
      - [ 4.73072007e-002, 4.87923585e-002, 1.76986810e-002,
          1.72801334e-002, 1.90930590e-002, 0., 0., 0., 2.56174197e-003,
          0., 9.92158428e-003, 2.57047527e-002, 2.75411569e-002,
          8.88950098e-003, 1.72317885e-002, 2.07279138e-002,
          7.55883753e-002, 3.27002816e-002, 1.18163778e-002,
          1.93264969e-002, 6.14284165e-002, 1.52899846e-001,
          1.45590901e-001, 1.14476390e-001, 1.75376549e-001,
          2.68671423e-001, 9.69759300e-002, 2.92785782e-002,
          7.22884387e-002, 1.62624344e-002, 5.15197106e-002,
          5.66091202e-002, 9.22732428e-002, 6.87499046e-002,
          7.27430591e-003, 4.81684739e-003, 1.96771137e-002, 0.,
          6.59931498e-003, 7.72686396e-003, 5.46261072e-002,
          1.42994255e-001, 1.97906271e-001, 1.12989187e-001,
          1.12144813e-001, 1.18298262e-001, 8.12813193e-002,
          6.62531257e-002, 2.68552601e-001, 3.12238544e-001,
          2.23173395e-001, 1.44767329e-001, 1.75197795e-001,
          1.56920627e-001, 1.48304313e-001, 1.51081964e-001,
          1.44075707e-001, 2.60853499e-001, 1.44018903e-001,
          1.38432994e-001, 1.49859026e-001, 2.92609692e-001,
          2.33040690e-001, 2.01059863e-001 ]
      - [ 2.48379502e-002, 1.61880087e-002, 1.98750552e-002,
          4.96388366e-003, 1.90081354e-002, 1.06250858e-002,
          1.25307348e-002, 1.66250970e-002, 1.59887057e-002,
          1.15325609e-002, 1.32584972e-002, 2.57288106e-002,
          2.65872125e-002, 1.76454913e-002, 1.44853387e-002,
          1.77024733e-002, 1.09413892e-001, 6.12782091e-002,
          5.61739504e-002, 4.33848090e-002, 7.27526769e-002,
          1.12494335e-001, 1.36255845e-001, 1.38278157e-001,
          2.10583210e-001, 1.90228894e-001, 3.02585997e-002,
          1.83251631e-002, 6.22654967e-002, 2.13924218e-002,
          3.03375181e-002, 8.09182972e-002, 7.70603567e-002,
          1.28752887e-001, 1.35791883e-001, 3.76176275e-002,
          2.98227631e-002, 1.44974953e-002, 2.03839298e-002,
          1.78038292e-002, 6.78968504e-002, 1.58808038e-001,
          9.86769348e-002, 6.86678365e-002, 8.77209008e-002,
          3.70139927e-002, 3.94172184e-002, 5.02011403e-002,
          2.87207961e-001, 3.14760119e-001, 1.93914548e-001,
          1.76191479e-001, 1.74261659e-001, 1.52744234e-001,
          1.26164034e-001, 2.13815212e-001, 2.50408113e-001,
          2.34171882e-001, 1.42417476e-001, 1.76328287e-001,
          2.25370497e-001, 1.74596816e-001, 1.87383071e-001,
          2.69393623e-001 ]
      - [ 5.66379987e-002, 6.36947379e-002, 7.92999640e-002,
          5.42771481e-002, 4.49962802e-002, 1.80075392e-002, 0., 0.,
          3.37741338e-002, 5.80200143e-002, 2.12023519e-002, 0.,
          1.13847433e-002, 1.40210958e-002, 1.35890199e-002,
          3.57968807e-002, 1.50941446e-001, 8.95959437e-002,
          4.92945127e-002, 4.13501598e-002, 9.25397202e-002,
          1.43899143e-001, 1.38787821e-001, 1.20372161e-001,
          2.77541220e-001, 2.18193993e-001, 3.59843858e-002,
          3.34571600e-002, 7.44570270e-002, 2.03591026e-002,
          4.86022569e-002, 1.35101944e-001, 1.24238402e-001,
          7.05901906e-002, 5.19241020e-002, 2.89934035e-002,
          4.75514531e-002, 2.42154188e-002, 2.36678906e-002,
          4.56383750e-002, 9.89888683e-002, 1.56203017e-001,
          9.20244828e-002, 8.03787708e-002, 4.88574356e-002,
          4.25779335e-002, 4.79663201e-002, 7.17772767e-002,
          2.74354011e-001, 3.01608235e-001, 2.44442210e-001,
          1.68782800e-001, 1.51129007e-001, 1.45660773e-001,
          1.28625900e-001, 1.57146037e-001, 2.10141227e-001,
          2.02038214e-001, 1.23700976e-001, 1.14891447e-001,
          1.73900530e-001, 1.98650405e-001, 2.04662725e-001,
          2.60258824e-001 ]
      - [ 7.82245398e-003, 7.67146796e-003, 1.42411580e-002,
          4.65125917e-003, 2.80278921e-002, 1.88911445e-002,
          1.63518097e-002, 1.94221288e-002, 3.06585860e-002,
          2.94849966e-002, 2.89915670e-002, 2.35962030e-002,
          4.04910184e-002, 2.04608254e-002, 1.81267690e-002,
          8.35327338e-003, 5.86100817e-002, 5.80058992e-002,
          4.07601483e-002, 3.44721116e-002, 9.30591226e-002,
          1.74046844e-001, 1.55441508e-001, 1.19250372e-001,
          1.96799114e-001, 2.08435908e-001, 7.03391731e-002,
          4.12659310e-002, 8.45271349e-002, 3.26136351e-002,
          3.56998555e-002, 4.74475510e-002, 7.85200149e-002,
          9.76603851e-002, 6.30074665e-002, 5.82941696e-002,
          4.18139584e-002, 2.15749536e-002, 2.33413372e-002,
          2.85596270e-002, 5.16140424e-002, 1.19570620e-001,
          1.52253792e-001, 1.20929219e-001, 8.27511698e-002,
          8.51211697e-002, 7.73132816e-002, 5.54171354e-002,
          2.52828300e-001, 3.19708616e-001, 2.17976063e-001,
          1.37263209e-001, 1.33181736e-001, 1.61857709e-001,
          1.44578189e-001, 1.74233466e-001, 2.39263430e-001,
          2.66310394e-001, 1.78431243e-001, 1.43824205e-001,
          2.30836868e-001, 1.87370762e-001, 2.05444336e-001,
          2.47242555e-001 ]
      - [ 2.18661204e-002, 3.72735970e-002, 4.88664471e-002,
          1.24531416e-002, 2.43211985e-002, 2.09687985e-002,
          1.60993282e-002, 0., 1.77868772e-002, 1.92791466e-002,
          1.25011522e-002, 0., 9.59117897e-003, 0., 0., 7.11736688e-003,
          3.83579843e-002, 5.35729602e-002, 2.75591873e-002,
          1.86437778e-002, 6.42142519e-002, 1.30848482e-001,
          1.58817068e-001, 1.72664329e-001, 2.62041718e-001,
          1.97776809e-001, 3.12421415e-002, 1.63224749e-002,
          6.31539002e-002, 1.72525980e-002, 2.63509508e-002,
          4.51737717e-002, 1.04024224e-001, 1.33309722e-001,
          7.36908615e-002, 3.53963561e-002, 2.87178196e-002,
          8.38085636e-003, 8.93697795e-003, 1.41020762e-002,
          6.04912676e-002, 1.83138728e-001, 1.20853245e-001,
          5.28095588e-002, 5.28877191e-002, 3.66734043e-002,
          5.80996536e-002, 7.44227171e-002, 2.78144568e-001,
          3.18922907e-001, 1.92413718e-001, 1.88407987e-001,
          2.00646892e-001, 1.42603084e-001, 1.07496239e-001,
          1.96170717e-001, 2.43544906e-001, 1.99745759e-001,
          1.39033049e-001, 1.30860642e-001, 2.19640583e-001,
          1.98941380e-001, 2.12542474e-001, 2.46063724e-001 ]
      - [ 2.33697928e-002, 3.35997865e-002, 2.72638146e-002,
          1.35701830e-002, 1.46548860e-002, 3.01483180e-002,
          2.89831646e-002, 3.73060480e-002, 4.41770107e-002,
          1.04587199e-002, 0., 0., 8.03761091e-003, 0., 0., 0.,
          6.26658350e-002, 0., 0., 6.58816844e-003, 6.34892508e-002,
          1.18314303e-001, 1.96567208e-001, 1.56923696e-001,
          2.06929103e-001, 1.96664274e-001, 7.85497949e-002,
          4.14852090e-002, 6.22570105e-002, 2.21279226e-002,
          4.16344814e-002, 4.83792312e-002, 1.18223950e-001,
          9.23404768e-002, 4.92518172e-002, 2.88322307e-002,
          3.25706154e-002, 3.41128521e-002, 5.46287820e-002,
          4.41121459e-002, 7.00600222e-002, 1.32640347e-001,
          1.30397588e-001, 5.66613264e-002, 6.45221323e-002,
          6.33217692e-002, 6.23038225e-002, 6.05515465e-002,
          3.37580383e-001, 2.76394248e-001, 1.92477733e-001,
          1.56932294e-001, 2.24513948e-001, 1.49855837e-001,
          1.22802943e-001, 2.12507889e-001, 2.15210304e-001,
          1.92386284e-001, 1.19384289e-001, 1.12051137e-001,
          2.17626914e-001, 2.00449467e-001, 2.61873722e-001,
          2.57069916e-001 ]
      - [ 1.83347221e-002, 2.92002484e-002, 1.89629793e-002, 0.,
          4.09021601e-003, 0., 1.12273749e-002, 5.49939498e-002,
          7.65204877e-002, 7.86090195e-002, 7.71127492e-002,
          6.71327710e-002, 7.66556859e-002, 0., 1.40442941e-002,
          1.05882753e-002, 8.27879459e-002, 8.61677453e-002,
          6.17632158e-002, 8.14001784e-002, 1.74341753e-001,
          1.22126475e-001, 1.17857903e-001, 1.75815433e-001,
          2.77164936e-001, 1.80929914e-001, 4.69451845e-002,
          3.02329194e-002, 6.91869482e-002, 2.14784928e-002,
          2.14008372e-002, 5.19991517e-002, 7.27849975e-002,
          6.58604130e-003, 1.87218282e-002, 6.86343536e-002,
          6.42511621e-002, 3.28558907e-002, 3.08584105e-002,
          1.01500051e-002, 2.87376605e-002, 6.41630078e-003,
          4.99393744e-003, 1.65939167e-001, 1.21725351e-001,
          6.07713796e-002, 7.95934573e-002, 7.59321824e-002,
          3.19694340e-001, 4.19552267e-001, 2.08931819e-001,
          1.69772953e-001, 1.40547439e-001, 8.96756947e-002,
          9.21756551e-002, 1.20397039e-001, 2.50126481e-001,
          3.54161590e-001, 7.72874430e-002, 5.71467355e-002,
          6.41899183e-002, 5.81059977e-002, 7.39829764e-002,
          2.08081856e-001 ]
      - [ 1.42759755e-002, 1.43091409e-002, 4.85115685e-003, 0.,
          6.00391394e-003, 4.85115685e-003, 1.23581868e-002,
          8.28323606e-003, 5.24591804e-002, 6.05840832e-002,
          9.53554437e-002, 1.00980237e-001, 5.72600476e-002,
          8.01774859e-003, 7.55570224e-003, 7.45493732e-003,
          6.84012026e-002, 6.17473051e-002, 9.56706703e-002,
          1.04312904e-001, 1.48090005e-001, 1.25648215e-001,
          8.19242150e-002, 1.75294846e-001, 2.31530577e-001,
          2.30845124e-001, 7.04540089e-002, 5.32588214e-002,
          6.11364879e-002, 2.18889806e-002, 2.38877106e-002,
          3.08182128e-002, 5.27168848e-002, 1.12625668e-002,
          1.53684653e-002, 1.27316751e-002, 2.12863535e-002,
          1.36722736e-002, 1.21393697e-002, 0., 1.69467274e-002,
          1.60142686e-002, 2.07851008e-002, 1.04347892e-001,
          2.25292951e-001, 9.27835330e-002, 1.03186496e-001,
          6.55513182e-002, 3.24853748e-001, 4.76705432e-001,
          1.63840517e-001, 1.63044333e-001, 1.48649633e-001,
          8.18567127e-002, 1.01197690e-001, 1.23090841e-001,
          2.00105339e-001, 3.53769273e-001, 9.53627303e-002,
          5.38657308e-002, 7.57568628e-002, 4.66738939e-002,
          4.89055738e-002, 1.66858882e-001 ]
      - [ 2.41610613e-002, 2.07383521e-002, 1.61878262e-002,
          5.10097109e-002, 2.96282191e-002, 1.00734401e-002,
          2.25081295e-002, 6.44902214e-002, 6.25773668e-002,
          5.58564737e-002, 6.50565103e-002, 5.91230243e-002,
          6.12792931e-002, 0., 0., 0., 1.08223312e-001, 9.68302265e-002,
          7.05730841e-002, 9.26692784e-002, 1.77843526e-001,
          8.46153423e-002, 9.31524411e-002, 1.58649087e-001,
          1.97264776e-001, 2.27084398e-001, 9.33202580e-002,
          4.41222154e-002, 6.67846277e-002, 3.10948305e-002,
          3.63854840e-002, 9.64282751e-002, 7.56345764e-002, 0.,
          6.13389201e-002, 1.17462941e-001, 9.95771065e-002,
          5.71487918e-002, 2.73043420e-002, 3.09983082e-002,
          3.23667377e-002, 1.26873031e-002, 1.38849001e-002,
          1.34407803e-001, 1.65820405e-001, 4.97893989e-002,
          8.09057876e-002, 9.82053876e-002, 3.45563799e-001,
          4.09259677e-001, 1.66844591e-001, 1.57906383e-001,
          1.32640302e-001, 1.21465012e-001, 9.78170261e-002,
          9.75347832e-002, 2.10195348e-001, 3.55781287e-001,
          1.55179918e-001, 9.28618014e-002, 8.76359791e-002,
          6.37750179e-002, 7.84555674e-002, 1.76644519e-001 ]
      - [ 1.02714086e-002, 0., 0., 0., 1.71190146e-002, 1.56940781e-002,
          2.43522879e-002, 3.27648260e-002, 1.58025637e-001,
          9.48599502e-002, 2.03570388e-002, 1.93895940e-002,
          1.40971094e-002, 9.72158555e-003, 0., 9.03533399e-003,
          8.06528777e-002, 9.67977792e-002, 9.98452678e-002,
          5.08615896e-002, 9.00612101e-002, 8.73751640e-002,
          9.83912870e-002, 1.10621385e-001, 2.25222215e-001,
          2.58409768e-001, 4.18265536e-002, 1.56683605e-002,
          7.12220073e-002, 2.43914127e-002, 2.40870565e-002,
          2.31768470e-002, 6.17732406e-002, 1.92781258e-002,
          1.69446412e-002, 3.32693942e-002, 6.65467009e-002,
          2.57229842e-002, 9.67000984e-003, 0., 7.44540989e-002,
          6.17345124e-002, 4.37798761e-002, 5.06419837e-002,
          2.52645403e-001, 1.21646039e-001, 6.32342026e-002,
          4.89459112e-002, 2.95249015e-001, 4.68017042e-001,
          2.31723890e-001, 1.38481349e-001, 1.53223470e-001,
          8.69315937e-002, 8.66027549e-002, 1.01130091e-001,
          1.99187443e-001, 4.02469695e-001, 1.26620606e-001,
          4.09943052e-002, 7.82059878e-002, 3.20461914e-002,
          4.25684005e-002, 6.62002414e-002 ]
      - [ 4.00070567e-003, 6.41849358e-003, 8.13849829e-003,
          1.46394242e-002, 1.80118307e-002, 0., 1.24244429e-002,
          6.18066192e-002, 6.50458112e-002, 5.73148094e-002,
          4.63666916e-002, 4.13370170e-002, 3.55812013e-002, 0., 0.,
          5.74425701e-003, 1.13541242e-002, 2.42693368e-002,
          9.26338956e-002, 1.06563538e-001, 1.39406621e-001,
          1.29510015e-001, 1.36810809e-001, 1.55692950e-001,
          2.30844468e-001, 2.05178991e-001, 8.46046302e-003,
          9.80928913e-003, 4.19597551e-002, 0., 4.12026094e-003, 0.,
          7.00626075e-002, 2.20861901e-002, 3.44852582e-002,
          6.01453073e-002, 8.35577697e-002, 4.37571332e-002,
          2.62076277e-002, 1.07984850e-002, 1.88451782e-002,
          1.46881230e-002, 2.10913904e-002, 1.18102796e-001,
          1.21404603e-001, 7.39445761e-002, 8.15658793e-002,
          8.90666172e-002, 3.39359939e-001, 5.12131751e-001,
          1.82551757e-001, 1.47702426e-001, 1.57367349e-001,
          1.15800738e-001, 9.28464085e-002, 1.31241232e-001,
          2.54589260e-001, 3.26595098e-001, 9.49776396e-002,
          6.43050969e-002, 7.34155178e-002, 4.30721417e-002,
          6.57633841e-002, 1.51878983e-001 ]
      - [ 1.70055646e-002, 2.33124811e-002, 2.55805198e-002,
          2.31907796e-002, 1.59516018e-002, 0., 0., 9.11765546e-002,
          1.11252323e-001, 5.54033853e-002, 6.87170029e-002,
          4.00692932e-002, 3.60536650e-002, 0., 1.86417308e-002,
          2.35741697e-002, 8.77944082e-002, 6.63993210e-002,
          7.22390562e-002, 1.26203015e-001, 1.68236732e-001,
          1.01389684e-001, 1.10730104e-001, 1.21892080e-001,
          2.56699443e-001, 1.88519716e-001, 6.73993453e-002,
          3.25788260e-002, 6.26367629e-002, 4.52002808e-002,
          4.19714004e-002, 8.15587193e-002, 5.85258864e-002,
          1.46917291e-002, 2.76943762e-002, 9.63411331e-002,
          8.17183927e-002, 5.10024391e-002, 4.84594665e-002,
          1.41883334e-002, 9.12102871e-003, 1.09954439e-002,
          9.67900082e-003, 5.65323085e-002, 2.43780747e-001,
          7.57299066e-002, 5.87792732e-002, 3.01235914e-002,
          2.93962955e-001, 4.09150392e-001, 2.68710643e-001,
          2.19141811e-001, 1.94016397e-001, 1.15625352e-001,
          9.73571911e-002, 9.41556618e-002, 2.13480458e-001,
          3.15813482e-001, 1.36608034e-001, 9.68344510e-002,
          8.22165683e-002, 5.68453632e-002, 5.88846281e-002,
          1.27660736e-001 ]
      - [ 2.32189037e-002, 2.65007019e-002, 3.35546955e-002,
          7.02746306e-003, 1.24686146e-002, 0., 0., 5.60838878e-002,
          8.84574130e-002, 7.52526820e-002, 6.83365539e-002,
          6.82957470e-002, 3.34346704e-002, 0., 0., 6.31405087e-003,
          7.28357732e-002, 8.32246616e-002, 6.67431355e-002,
          9.99651104e-002, 1.81594148e-001, 1.15293585e-001,
          1.30606428e-001, 2.54711986e-001, 2.43484437e-001,
          1.86230808e-001, 5.59044294e-002, 4.33763042e-002,
          5.62052689e-002, 2.88368892e-002, 2.24633068e-002,
          3.02591901e-002, 4.18515652e-002, 2.43403353e-002,
          4.33347374e-002, 4.88863774e-002, 6.48921728e-002,
          3.60821784e-002, 2.05104016e-002, 1.98565498e-002,
          2.14565974e-002, 1.61763970e-002, 1.45459771e-002,
          1.07067719e-001, 1.50305852e-001, 7.10713193e-002,
          5.66123277e-002, 5.24435118e-002, 2.86780268e-001,
          4.08292055e-001, 2.03452677e-001, 2.43282244e-001,
          1.71616346e-001, 1.22201324e-001, 8.85969773e-002,
          9.58312601e-002, 2.42255196e-001, 3.60717624e-001,
          9.28605273e-002, 6.58723339e-002, 9.17887837e-002,
          6.80485815e-002, 8.75945464e-002, 1.36603147e-001 ]
      - [ 0., 0., 0., 0., 2.52102502e-003, 0., 0., 0., 8.89398679e-002,
          7.60179684e-002, 8.37573558e-002, 4.20953557e-002,
          2.76164450e-002, 0., 0., 0., 2.56530289e-002, 1.37349796e-002,
          9.80163924e-003, 1.57473590e-002, 6.48376197e-002,
          7.05729052e-002, 1.64878681e-001, 2.70596921e-001,
          2.25560039e-001, 1.30397871e-001, 4.30225655e-002,
          3.52040567e-002, 5.97606264e-002, 3.36689353e-002,
          5.77318706e-002, 6.99865595e-002, 5.79287447e-002,
          9.71469749e-003, 1.60893388e-002, 2.49977168e-002,
          6.37676939e-002, 2.22200807e-002, 1.23293437e-002, 0.,
          3.18887234e-002, 3.84457670e-002, 7.97378868e-002,
          1.38931274e-001, 1.20596766e-001, 1.13084286e-001,
          1.36195406e-001, 1.03726856e-001, 3.00049424e-001,
          2.30555847e-001, 1.95651010e-001, 1.90591455e-001,
          2.23493844e-001, 1.51798740e-001, 1.67962044e-001,
          1.66533545e-001, 1.86329618e-001, 1.40867874e-001,
          1.98508307e-001, 1.72593459e-001, 1.33486688e-001,
          1.29100353e-001, 2.05726877e-001, 3.75407130e-001 ]
      - [ 8.76039267e-003, 0., 0., 0., 2.34131329e-003, 0., 0., 0.,
          9.16748717e-002, 1.15857355e-001, 5.91275394e-002,
          6.64795190e-003, 1.63462274e-002, 0., 0., 6.87857717e-003,
          1.17163016e-002, 7.94352964e-003, 8.22767243e-003,
          1.01160323e-002, 4.41253260e-002, 7.56114498e-002,
          1.19908281e-001, 2.34155193e-001, 2.08285004e-001,
          1.31601080e-001, 3.99323106e-002, 9.04257316e-003,
          5.10467328e-002, 9.90254991e-003, 1.22910123e-002, 0.,
          6.89897984e-002, 3.87647599e-002, 5.91703579e-002,
          6.36189356e-002, 1.00821279e-001, 5.22655472e-002,
          2.88164783e-002, 2.52068359e-002, 4.23667692e-002,
          6.69312179e-002, 6.79615512e-002, 8.87010470e-002,
          8.35668817e-002, 1.14997834e-001, 1.36222705e-001,
          1.30781546e-001, 3.48852903e-001, 2.49469966e-001,
          1.48481458e-001, 1.53371990e-001, 1.53984621e-001,
          1.48615524e-001, 1.54245734e-001, 2.79529214e-001,
          2.51189530e-001, 1.61046281e-001, 1.12108655e-001,
          1.23778887e-001, 1.87025458e-001, 1.20524816e-001,
          2.29426429e-001, 3.64233911e-001 ]
      - [ 0., 0., 0., 0., 0., 0., 0., 0., 9.33212861e-002,
          8.58848989e-002, 5.78662679e-002, 4.14027721e-002,
          8.48218892e-003, 0., 0., 0., 5.25846966e-002, 1.49309579e-002,
          1.08980695e-002, 1.64456889e-002, 8.52270871e-002,
          1.22674152e-001, 2.11711362e-001, 2.44832680e-001,
          2.50198126e-001, 1.87230960e-001, 4.43775430e-002,
          3.14389281e-002, 6.65168092e-002, 1.60447750e-002,
          2.40686517e-002, 5.64256459e-002, 5.73950149e-002, 0.,
          8.89269169e-003, 3.29495668e-002, 2.33430509e-002,
          1.61364879e-002, 1.65048949e-002, 1.60575118e-002,
          3.25054005e-002, 2.99939942e-002, 8.42599496e-002,
          9.32486132e-002, 8.46178681e-002, 8.73712003e-002,
          8.03802013e-002, 7.31716752e-002, 3.44043851e-001,
          2.47494355e-001, 1.92291632e-001, 1.46776259e-001,
          1.44786119e-001, 1.27120286e-001, 1.34048268e-001,
          2.78850824e-001, 2.31020033e-001, 1.40106693e-001,
          1.03046209e-001, 1.18920080e-001, 1.31714225e-001,
          1.05996348e-001, 2.06166789e-001, 3.86362225e-001 ]
      - [ 1.27353566e-002, 0., 1.41151333e-002, 2.56304741e-002,
          2.09670365e-002, 0., 0., 1.28967697e-002, 4.31773849e-002,
          9.17169154e-002, 1.32310495e-001, 0., 3.58157791e-002, 0., 0.,
          0., 8.37344229e-002, 9.57759917e-002, 8.61122683e-002,
          6.90068901e-002, 1.31567031e-001, 1.38993174e-001,
          1.39357403e-001, 1.40288889e-001, 1.68635368e-001,
          2.01799095e-001, 9.20850486e-002, 5.52820638e-002,
          6.70104697e-002, 2.65626889e-002, 3.65173593e-002,
          5.11244722e-002, 5.04481606e-002, 3.13160643e-002,
          3.43919359e-002, 5.28856441e-002, 6.78862482e-002,
          2.83260606e-002, 6.84957346e-003, 3.41416709e-003,
          3.56694534e-002, 9.13276430e-003, 8.24769214e-002,
          5.78008927e-002, 1.21354409e-001, 9.37297270e-002,
          1.06611706e-001, 2.35511512e-002, 2.81856388e-001,
          3.59087348e-001, 2.48145700e-001, 2.15320975e-001,
          1.78285092e-001, 9.56861898e-002, 1.30920738e-001,
          1.90997019e-001, 2.78565168e-001, 3.17819357e-001,
          1.78304255e-001, 5.36861457e-002, 8.66939500e-002,
          1.05687968e-001, 1.74012169e-001, 2.05756098e-001 ]
      - [ 0., 0., 0., 0., 0., 0., 0., 1.01258727e-002, 5.08441925e-002,
          7.88815394e-002, 1.56488165e-001, 4.20896374e-002,
          5.35433181e-002, 0., 0., 0., 9.41580907e-002, 4.35698479e-002,
          1.99501421e-002, 5.43712191e-002, 1.06659621e-001,
          1.86225638e-001, 1.25271827e-001, 1.26711130e-001,
          1.23727657e-001, 2.00836390e-001, 9.09690037e-002,
          4.25221175e-002, 7.00511485e-002, 4.36164811e-002,
          6.18333109e-002, 5.91673329e-002, 5.42928129e-002, 0.,
          3.73284258e-002, 8.30923095e-002, 1.00181498e-001,
          1.65509358e-002, 1.70992929e-002, 9.06943996e-003,
          3.64693515e-002, 3.51368412e-002, 5.68863191e-002,
          1.24636963e-001, 1.57790929e-001, 1.56032428e-001,
          1.18958443e-001, 3.55528072e-002, 3.05842280e-001,
          3.64792794e-001, 2.16965944e-001, 1.69993401e-001,
          1.46968171e-001, 1.19405806e-001, 1.37275666e-001,
          2.05834880e-001, 2.76922464e-001, 2.72169381e-001,
          1.54337779e-001, 7.73864612e-002, 7.55378678e-002,
          7.68697709e-002, 1.90215558e-001, 2.32875064e-001 ]
      - [ 0., 0., 0., 0., 6.31713644e-002, 6.11770116e-002,
          4.36677299e-002, 4.59198169e-002, 5.98515458e-002,
          4.67679575e-002, 1.26088625e-002, 9.09246597e-003,
          8.97402782e-003, 9.07582790e-003, 0., 0., 8.68201926e-002,
          6.86959997e-002, 4.66498062e-002, 6.14214912e-002,
          1.21368714e-001, 1.57928497e-001, 1.59625277e-001,
          1.83141634e-001, 1.92467526e-001, 1.70403764e-001,
          8.41148570e-002, 4.03118543e-002, 4.68228459e-002,
          2.43420936e-002, 3.20309214e-002, 5.94892316e-002,
          7.54098818e-002, 6.17650673e-002, 4.74035889e-002,
          3.90798487e-002, 5.41426241e-002, 5.16849495e-002,
          2.85572503e-002, 1.67384930e-002, 3.74894477e-002,
          2.65429169e-002, 1.46943834e-002, 1.04955090e-002,
          2.64016595e-002, 4.81998622e-002, 7.47932345e-002,
          6.51987717e-002, 2.68124789e-001, 4.00071114e-001,
          2.42735803e-001, 2.07063034e-001, 1.85143501e-001,
          1.43309340e-001, 1.80023223e-001, 2.10472450e-001,
          3.01786482e-001, 2.63776124e-001, 1.51323244e-001,
          4.95761670e-002, 9.02406797e-002, 8.42187777e-002,
          1.25092551e-001, 2.56147265e-001 ]
      - [ 0., 0., 0., 0., 0., 0., 0., 0., 4.33590561e-002,
          1.26177415e-001, 1.17684610e-001, 0., 4.52080891e-002, 0., 0.,
          0., 8.48502293e-002, 2.52689477e-002, 1.37118874e-002,
          1.52462088e-002, 9.10163000e-002, 2.04271331e-001,
          1.33138746e-001, 1.57048851e-001, 1.71452031e-001,
          1.62943050e-001, 1.05407044e-001, 6.41758144e-002,
          6.30832538e-002, 7.36311404e-003, 1.60298347e-002,
          5.78589775e-002, 6.39851019e-002, 7.50806835e-003,
          2.81011239e-002, 6.21958151e-002, 5.47863171e-002,
          2.34023333e-002, 7.75984488e-003, 1.00102015e-002,
          3.31764556e-002, 2.68805046e-002, 6.16716780e-002,
          1.09472781e-001, 1.38421103e-001, 1.76778257e-001,
          1.27965808e-001, 5.27575128e-002, 3.20311874e-001,
          3.85661423e-001, 1.85559496e-001, 1.21691704e-001,
          1.73423767e-001, 1.42037615e-001, 1.60967737e-001,
          2.27863014e-001, 2.47098163e-001, 2.49595195e-001,
          1.08073965e-001, 9.20749307e-002, 1.09989479e-001,
          1.05443515e-001, 1.71682432e-001, 2.49542668e-001 ]
      - [ 6.74263164e-002, 3.38509604e-002, 3.15778591e-002,
          2.06659120e-002, 2.98599843e-002, 9.15113091e-003, 0.,
          4.17328253e-003, 1.48031153e-002, 1.01866819e-001,
          3.18516791e-002, 9.90713108e-003, 1.03724152e-002, 0.,
          1.18302591e-002, 2.02278532e-002, 2.03418266e-002,
          3.40974368e-002, 3.98296006e-002, 8.16023350e-002,
          9.00932401e-002, 9.36157778e-002, 1.21154502e-001,
          1.50091633e-001, 2.87356585e-001, 1.76164493e-001,
          1.74098641e-001, 3.18112560e-002, 7.35112131e-002, 0.,
          2.63941567e-003, 5.73245017e-003, 5.00550978e-002,
          1.57626569e-002, 2.57818401e-002, 5.67337945e-002,
          3.90380397e-002, 1.60148870e-002, 4.93789464e-003,
          4.17328253e-003, 6.01958111e-002, 1.36034146e-001,
          1.11170702e-001, 1.12909853e-001, 1.56340510e-001,
          1.13857754e-001, 1.25451013e-001, 1.94408670e-002,
          3.44478697e-001, 3.95766348e-001, 2.51996368e-001,
          1.59654826e-001, 1.23661548e-001, 8.46898854e-002,
          9.05726328e-002, 1.21619239e-001, 2.63316721e-001,
          2.94133037e-001, 1.75360084e-001, 3.83648798e-002,
          5.24045378e-002, 2.55434308e-002, 1.33927852e-001,
          1.92013651e-001 ]
      - [ 1.06729222e-002, 0., 0., 0., 0., 0., 0., 0., 3.27877663e-002,
          6.57778829e-002, 1.27523258e-001, 2.44870391e-002,
          3.63127664e-002, 6.81272103e-003, 1.24924239e-002,
          1.18925702e-002, 9.55725759e-002, 7.24308863e-002,
          7.42393285e-002, 4.64848652e-002, 1.09148562e-001,
          1.45333827e-001, 1.71191812e-001, 1.59356609e-001,
          1.57347083e-001, 1.85989618e-001, 8.60154331e-002,
          3.66867259e-002, 5.44281490e-002, 1.74422525e-002,
          2.56514065e-002, 8.57526362e-002, 4.72289771e-002,
          1.89190246e-002, 3.17164809e-002, 5.57957068e-002,
          5.31242825e-002, 3.11243217e-002, 1.92543697e-002,
          1.01876333e-002, 3.68280150e-002, 2.86366083e-002,
          7.22814500e-002, 6.63218200e-002, 1.13251522e-001,
          9.70296934e-002, 9.42299142e-002, 2.41645798e-002,
          2.58432478e-001, 3.69697809e-001, 2.39382550e-001,
          2.46070758e-001, 1.83607772e-001, 9.28023010e-002,
          1.25747249e-001, 1.94808811e-001, 2.83480704e-001,
          3.21746290e-001, 1.67307809e-001, 8.85524526e-002,
          8.88978019e-002, 1.00644954e-001, 1.82754338e-001,
          2.09210083e-001 ]
      - [ 4.26072367e-002, 8.71537253e-003, 7.06418930e-003, 0.,
          2.03547366e-002, 0., 0., 2.89071649e-002, 8.74507353e-002,
          1.49330482e-001, 1.40285656e-001, 3.80206034e-002,
          3.79028879e-002, 1.43021867e-002, 1.42321438e-002, 0.,
          8.20473582e-002, 9.91881788e-002, 6.34431839e-002,
          6.07634224e-002, 1.22799471e-001, 1.11169301e-001,
          1.25983760e-001, 1.29054070e-001, 2.27214009e-001,
          1.87380657e-001, 1.21731356e-001, 4.87925000e-002,
          8.37533101e-002, 3.84371467e-002, 4.73906659e-002,
          7.84597993e-002, 5.47426045e-002, 2.00985670e-002,
          3.86894681e-002, 9.39325616e-002, 1.08926810e-001,
          5.26268855e-002, 0., 7.78535753e-003, 3.80340964e-002,
          1.42885363e-002, 3.91235128e-002, 1.38090745e-001,
          1.40452728e-001, 1.15982659e-001, 1.12491995e-001,
          5.56446388e-002, 3.11474353e-001, 3.27920377e-001,
          2.13447452e-001, 1.63145155e-001, 1.20077334e-001,
          9.98175964e-002, 1.10384740e-001, 1.99365586e-001,
          2.83966333e-001, 2.64680058e-001, 1.67245537e-001,
          6.86523914e-002, 8.81417692e-002, 8.82108808e-002,
          1.84713945e-001, 2.30496600e-001 ]
      - [ 1.16478084e-002, 1.23160584e-002, 2.42071692e-002,
          7.33914748e-002, 5.53965904e-002, 2.31556445e-002,
          3.63159403e-002, 2.75732446e-002, 1.00872982e-002, 0., 0., 0.,
          0., 0., 0., 0., 6.62671030e-002, 7.97829852e-002,
          6.40386939e-002, 5.32232746e-002, 1.13618664e-001,
          8.14595446e-002, 8.48726481e-002, 1.60695016e-001,
          4.52689856e-001, 8.73908028e-002, 0., 0., 7.13279694e-002, 0.,
          0., 0., 1.31172210e-001, 6.36923090e-002, 3.08206193e-002, 0.,
          3.15424129e-002, 0., 9.46002081e-003, 3.89058478e-002,
          1.47049755e-001, 8.65952075e-002, 7.09130168e-002,
          3.69773023e-002, 4.73053530e-002, 2.77408212e-002,
          6.51232600e-002, 1.16737112e-001, 1.97822213e-001,
          1.60062000e-001, 1.96372330e-001, 2.04305217e-001,
          2.14539260e-001, 1.90134093e-001, 2.13476807e-001,
          1.53060734e-001, 2.98315853e-001, 1.43554062e-001,
          5.46491444e-002, 4.36089076e-002, 8.84346291e-002,
          4.63779196e-002, 1.44414544e-001, 4.21052337e-001 ]
      - [ 6.93833455e-002, 3.63010839e-002, 7.83783384e-003, 0.,
          1.20380772e-002, 0., 8.33678432e-003, 2.24475730e-002,
          7.66899139e-002, 1.81863904e-002, 8.72906484e-003,
          1.40210809e-002, 2.55661160e-002, 1.27163148e-002,
          2.79048923e-002, 5.39744608e-002, 1.73776284e-001,
          9.33091342e-002, 5.41542768e-002, 5.67362197e-002,
          7.89751559e-002, 5.57526760e-002, 2.62481980e-002,
          2.38602050e-002, 3.76743287e-001, 1.44358292e-001,
          2.72212923e-002, 8.13411921e-003, 6.98964968e-002, 0.,
          3.21011506e-002, 7.52007365e-002, 5.62042110e-002,
          1.86905190e-002, 1.05329901e-002, 1.98910031e-002,
          1.63351819e-002, 3.63303386e-002, 4.10257019e-002,
          6.41659945e-002, 9.49979126e-002, 1.26031831e-001,
          8.43129829e-002, 9.76722315e-002, 1.18191257e-001,
          9.15776417e-002, 1.01317845e-001, 1.14260197e-001,
          2.25331023e-001, 1.64779454e-001, 1.01032160e-001,
          1.68097675e-001, 1.94225311e-001, 1.14481442e-001,
          1.76044166e-001, 2.94476956e-001, 2.29384616e-001,
          1.45351052e-001, 9.04569700e-002, 1.03864722e-001,
          1.31908908e-001, 9.33000669e-002, 1.91709504e-001,
          4.60594147e-001 ]
      - [ 5.46482503e-002, 5.67396134e-002, 6.19142801e-002,
          4.47509959e-002, 4.34605181e-002, 1.57311168e-002,
          1.38953524e-002, 2.12216247e-002, 1.54603627e-002, 0., 0., 0.,
          0., 0., 0., 0., 6.98779449e-002, 5.64480945e-002,
          2.79747024e-002, 2.90913284e-002, 5.98392636e-002,
          2.66660694e-002, 3.62270959e-002, 7.54594728e-002,
          4.64743257e-001, 1.62629858e-001, 0., 1.45678297e-002,
          9.15724710e-002, 2.99582146e-002, 5.20361364e-002,
          7.50600398e-002, 4.20539230e-002, 0., 0., 0., 0., 0., 0., 0.,
          1.29895836e-001, 1.78391427e-001, 1.38465703e-001,
          1.46738380e-001, 1.03971690e-001, 7.44274706e-002,
          1.06730744e-001, 1.08954735e-001, 3.10081452e-001,
          1.80484816e-001, 1.03387661e-001, 8.76368657e-002,
          1.06354333e-001, 7.06345290e-002, 1.26985103e-001,
          1.30054265e-001, 3.87766212e-001, 1.75716400e-001,
          7.53228888e-002, 9.00158361e-002, 9.80359465e-002,
          7.10668862e-002, 1.21072389e-001, 3.90024632e-001 ]
      - [ 4.42532822e-002, 4.04317416e-002, 1.64171346e-002,
          3.80363241e-002, 2.81346198e-002, 1.40738441e-002,
          6.63110195e-003, 0., 3.05413902e-002, 4.70448174e-002,
          3.80088203e-002, 2.82271449e-002, 3.39213982e-002,
          5.53436065e-003, 1.47835910e-002, 3.59930769e-002,
          1.05087586e-001, 9.81569737e-002, 7.31760785e-002,
          3.37253027e-002, 7.78077394e-002, 3.70243602e-002,
          3.41852270e-002, 1.03584319e-001, 3.35144550e-001,
          1.31436229e-001, 4.55501862e-002, 2.50844602e-002,
          6.90921843e-002, 3.71191800e-002, 4.56003286e-002,
          7.84777179e-002, 7.97722936e-002, 2.06320938e-002,
          3.11020557e-002, 4.34391163e-002, 5.39189950e-002,
          4.86150347e-002, 6.58788607e-002, 8.22955146e-002,
          1.50714576e-001, 7.89310709e-002, 4.67177890e-002,
          5.05713709e-002, 6.10157847e-002, 3.73027176e-002,
          6.37651831e-002, 1.73572302e-001, 3.13180089e-001,
          1.57413602e-001, 9.81760398e-002, 1.12967476e-001,
          1.38354525e-001, 9.15428326e-002, 1.38114393e-001,
          3.35095197e-001, 2.99720466e-001, 1.16099879e-001,
          8.10100213e-002, 8.25610757e-002, 1.09981306e-001,
          8.66876319e-002, 1.80298090e-001, 4.69482541e-001 ]
      - [ 1.91751849e-002, 1.25880167e-002, 0., 0., 0., 0.,
          5.51169878e-003, 1.01993168e-002, 1.61623843e-002,
          2.77476683e-002, 1.64576638e-002, 1.52011011e-002,
          2.18966193e-002, 2.69444734e-002, 1.83375813e-002,
          2.86016185e-002, 4.73094024e-002, 9.12543386e-002,
          1.02129944e-001, 9.06814188e-002, 8.80149603e-002,
          6.33335859e-002, 4.11172025e-002, 8.01704079e-002,
          2.74163157e-001, 2.37877756e-001, 4.01889645e-002,
          1.41204540e-002, 6.90292194e-002, 1.49405422e-002,
          1.99754518e-002, 5.39412387e-002, 4.77458090e-002,
          1.54464217e-002, 9.53738485e-003, 3.55163612e-003,
          3.99446348e-003, 5.36326552e-003, 4.22363076e-003,
          4.41811495e-002, 9.99343172e-002, 1.85795203e-001,
          1.08328551e-001, 1.45491049e-001, 1.38786703e-001,
          1.17153578e-001, 7.86628649e-002, 5.73973097e-002,
          3.77508074e-001, 1.63416550e-001, 2.13040680e-001,
          1.85085520e-001, 1.90985590e-001, 1.54171228e-001,
          1.53216496e-001, 1.65359974e-001, 3.33935976e-001,
          3.37420583e-001, 1.40913874e-001, 6.30300790e-002,
          5.17688543e-002, 4.45635766e-002, 7.23552778e-002,
          2.46887788e-001 ]
      - [ 8.26502033e-003, 3.18683535e-002, 2.35543903e-002,
          7.83010945e-003, 1.34967221e-002, 1.58365350e-002,
          1.97648834e-002, 5.59826493e-002, 4.77374867e-002,
          4.05000225e-002, 1.86696034e-002, 7.34875817e-003,
          1.50897941e-002, 5.76133374e-003, 0., 0., 3.25238630e-002,
          3.66696268e-002, 9.95632708e-002, 8.29738826e-002,
          7.02284873e-002, 5.83683513e-002, 6.87346682e-002,
          1.41525000e-001, 2.94304609e-001, 1.60551295e-001,
          8.05329159e-002, 5.46282157e-002, 5.65193184e-002, 0.,
          9.50593874e-003, 7.83010945e-003, 5.95043227e-002, 0., 0., 0.,
          0., 0., 0., 0., 1.21091582e-001, 1.70162454e-001,
          1.05391152e-001, 5.23963571e-002, 3.54712456e-002,
          6.98749721e-002, 1.56073317e-001, 1.18817203e-001,
          2.03073591e-001, 2.16735885e-001, 1.98052943e-001,
          1.79560259e-001, 2.08241895e-001, 2.29748592e-001,
          2.35259667e-001, 2.46981904e-001, 2.63620943e-001,
          1.75405219e-001, 1.22054607e-001, 1.46242827e-001,
          1.38389856e-001, 1.14964470e-001, 2.13442937e-001,
          3.46381068e-001 ]
      - [ 7.56564885e-002, 1.44188618e-002, 1.10439630e-002, 0.,
          1.70301776e-002, 0., 0., 0., 9.97433811e-002, 4.27586138e-002,
          0., 0., 6.67978544e-003, 0., 6.09778194e-003, 4.71326187e-002,
          9.09664556e-002, 7.99665004e-002, 4.84978519e-002,
          3.59748453e-002, 4.75702174e-002, 3.38507257e-002,
          5.89785315e-002, 1.02385014e-001, 4.29940671e-001,
          1.08014822e-001, 4.53525521e-002, 0., 7.21345097e-002, 0., 0.,
          8.45711678e-003, 6.06399216e-002, 1.54778436e-002, 0., 0.,
          1.51833538e-002, 0., 0., 0., 8.36475715e-002, 1.20783798e-001,
          1.19432092e-001, 1.59837648e-001, 1.21418476e-001,
          1.18223764e-001, 1.47069797e-001, 1.21440850e-001,
          2.14137957e-001, 2.09314391e-001, 1.45888537e-001,
