%YAML:1.0
my_nn: !!opencv-ml-ann-mlp
   layer_sizes: !!opencv-matrix
      rows: 1
      cols: 4
      dt: i
      data: [ 64, 100, 100, 11 ]
   activation_function: SIGMOID_SYM
   f_param1: 6.6666666666666663e-001
   f_param2: 1.7159000000000000e+000
   min_val: -9.4999999999999996e-001
   max_val: 9.4999999999999996e-001
   min_val1: -9.7999999999999998e-001
   max_val1: 9.7999999999999998e-001
   training_params:
      train_method: BACKPROP
      dw_scale: 1.0000000000000000e-003
      moment_scale: 0.
      term_criteria: { epsilon:1.1920928955078125e-007, iterations:300 }
   input_scale: [ 4.4355881833818522e+001, -8.9412913253172888e-001,
       5.6764852925487062e+001, -8.3846846259177354e-001,
       5.4373139368629502e+001, -7.6509852455907190e-001,
       5.4204290044611760e+001, -6.9633712666402436e-001,
       4.6917675287475447e+001, -9.7240079503028354e-001,
       6.0414814967744604e+001, -6.8299070136105433e-001,
       5.8613521028937974e+001, -7.8771707513953415e-001,
       3.9765942035372809e+001, -8.3689718307546324e-001,
       2.6080808971157385e+001, -1.4764892747797567e+000,
       2.5008596997451985e+001, -1.4757276731898918e+000,
       2.0600840457166310e+001, -1.2655205819258586e+000,
       3.9003980029763767e+001, -1.0049176423991941e+000,
       5.9542049330318292e+001, -1.6560922846230797e+000,
       1.1597858623662830e+002, -6.3902763530888163e-001,
       9.3776115652775985e+001, -6.5751691890737651e-001,
       6.3981762181945378e+001, -6.7611947753395663e-001,
       2.9673197553914648e+001, -1.9624975869887962e+000,
       3.4904405140786274e+001, -1.9374187334532746e+000,
       3.9297145896400146e+001, -2.0984430143494572e+000,
       2.5548216857235733e+001, -1.9988323702313953e+000,
       2.1893158358036604e+001, -2.7549870776555796e+000,
       2.6017804649691840e+001, -2.7404422645109534e+000,
       2.5545528955220430e+001, -2.6616452100813035e+000,
       2.1197232111248031e+001, -2.7412253200066909e+000,
       9.9397035104688864e+000, -2.0310908559531855e+000,
       1.8393683976542448e+001, -2.7528140430583510e+000,
       1.8868692181615451e+001, -1.6554495265057956e+000,
       1.8096656978427202e+001, -1.1387097264412100e+000,
       4.1820189673647945e+001, -3.3096882239641787e+000,
       5.5168452684975698e+001, -1.4994359260239654e+000,
       6.0136746761277564e+001, -2.0221673948437000e+000,
       3.6171776144113785e+001, -1.7938400299479778e+000,
       3.4580024400422772e+001, -2.5986057413777703e+000,
       3.2764074769453195e+001, -1.0080923420789767e+000,
       3.8817607219477310e+001, -1.2398847456627093e+000,
       2.5735653143059139e+001, -1.1747906555570728e+000,
       2.5188918653145731e+001, -1.3347025498688334e+000,
       4.7213995408080109e+001, -1.2828585681898959e+000,
       6.1739430416533338e+001, -1.2555186510814687e+000,
       4.6092608133432428e+001, -9.7602241391795397e-001,
       2.3655921353393115e+001, -1.4831076035454862e+000,
       1.7670568689580175e+001, -1.2049939928819382e+000,
       1.9616286148268806e+001, -1.4828875269923942e+000,
       2.4177161585289355e+001, -2.2477678529248348e+000,
       1.8259477300817963e+001, -2.0354091627061042e+000,
       2.4319919526644792e+001, -2.1702907799023756e+000,
       3.2214766532605083e+001, -2.7472129620984176e+000,
       2.5310865129055859e+001, -1.9251831328706730e+000,
       1.6673369486785571e+001, -4.9448058893203291e+000,
       9.7286913766899517e+000, -2.5679338273473329e+000,
       1.8924951105555749e+001, -3.4675189694990274e+000,
       1.8952852200034542e+001, -3.5470455562374035e+000,
       2.1202038310228463e+001, -4.1880288303131596e+000,
       2.8025272133529974e+001, -3.6091722243780060e+000,
       2.5391335131173637e+001, -3.4342718978547757e+000,
       1.5308707873885520e+001, -3.1072509545782458e+000,
       1.9924856621548159e+001, -5.2648388700314541e+000,
       1.1262104627299532e+001, -2.4292488017413008e+000,
       2.2662215007322828e+001, -3.0848150335794906e+000,
       1.7883321244113521e+001, -2.3983578280370574e+000,
       1.5294961479883602e+001, -2.4166610946053471e+000,
       1.7973100483758550e+001, -2.2243540790035721e+000,
       2.0903375875979048e+001, -3.2077276029131934e+000,
       9.6283265969639285e+000, -2.5369735606830988e+000 ]
   output_scale: [ 5.2631578947368418e-001, 4.9999999999999994e-001,
       5.2631578947368418e-001, 4.9999999999999994e-001,
       5.2631578947368418e-001, 4.9999999999999994e-001,
       5.2631578947368418e-001, 4.9999999999999994e-001,
       5.2631578947368418e-001, 4.9999999999999994e-001,
       5.2631578947368418e-001, 4.9999999999999994e-001,
       5.2631578947368418e-001, 4.9999999999999994e-001,
       5.2631578947368418e-001, 4.9999999999999994e-001,
       5.2631578947368418e-001, 4.9999999999999994e-001,
       5.2631578947368418e-001, 4.9999999999999994e-001, 1., 0. ]
   inv_output_scale: [ 1.8999999999999999e+000, -9.4999999999999996e-001,
       1.8999999999999999e+000, -9.4999999999999996e-001,
       1.8999999999999999e+000, -9.4999999999999996e-001,
       1.8999999999999999e+000, -9.4999999999999996e-001,
       1.8999999999999999e+000, -9.4999999999999996e-001,
       1.8999999999999999e+000, -9.4999999999999996e-001,
       1.8999999999999999e+000, -9.4999999999999996e-001,
       1.8999999999999999e+000, -9.4999999999999996e-001,
       1.8999999999999999e+000, -9.4999999999999996e-001,
       1.8999999999999999e+000, -9.4999999999999996e-001, 1., 0. ]
   weights:
      - [ 6.3827347756474605e-003, -4.9955441101363171e-002,
          -2.4339145678748363e-002, -1.8798790159796169e-002,
          1.3576859917176406e-002, 7.7257223643294303e-003,
          3.8751578823478142e-002, 5.3172519954355686e-002,
          2.8387520968371167e-002, -5.4773301960753138e-003,
          6.2498995992065981e-003, 4.5613787227122705e-002,
          -7.9649751871110810e-003, -2.6378835202466991e-002,
          4.8453639776866328e-002, -1.9753294875098675e-002,
          3.6482976505988135e-003, 7.4953479810425258e-002,
          -4.1147139743679846e-002, -1.8736931230276466e-002,
          -1.3870250268638199e-002, 4.0361764662999018e-002,
          4.3423806996017576e-002, -2.9529998434020585e-002,
          1.4090757034405474e-001, 1.1341402221420542e-002,
          3.7090400551791016e-003, 4.5390151607176125e-002,
          -1.5844953019307877e-002, 6.1895510193504158e-002,
          4.3642333447440097e-002, 7.9733060901940461e-002,
          -1.0940789338965255e-002, 4.2511218444141262e-002,
          -5.9340097042411000e-003, 3.3741928656277835e-002,
          5.7389913891301242e-002, 2.4043962639832935e-002,
          -2.1728203319854495e-002, 3.0944891205470742e-003,
          -1.8160107271444400e-002, 3.1274803881170217e-002,
          -2.5926358057316759e-002, 2.4920337594446815e-003,
          6.0944904768246003e-002, -9.4985596375376583e-002,
          -1.1828798902233607e-002, -4.0905557539489261e-002,
          7.8825497906841579e-003, -1.3832196686452049e-002,
          4.9607205238524354e-002, 2.2804129207560711e-002,
          1.1991135525630980e-002, 7.4520704017948095e-002,
          -1.7321481972422042e-002, -3.0847275675027007e-002,
          -1.4255307390799688e-002, -6.5218930138293010e-002,
          4.7310961606271774e-002, -4.2586847327276516e-002,
          1.2532220898071718e-002, -7.4842999162347589e-003,
          7.3149600860680244e-002, 3.3877557180291347e-002,
          -2.6100372984042129e-002, -1.1867770648408028e-002,
          -6.0128732732079672e-002, 1.1548746444106505e-002,
          -7.4987378887062363e-004, 2.9490171059883111e-002,
          1.5934560458668784e-002, 1.9101020522816533e-002,
          -3.1005031418179556e-002, -5.1093349995825134e-002,
          -3.2373861386300502e-002, -2.5010716252795336e-002,
          -3.6203882512259873e-002, -6.7392615469923270e-002,
          -4.8053976881959122e-002, -2.6162341303006893e-002,
          -1.3202654385358475e-002, -1.9438627290878165e-002,
          2.0390967550912381e-002, -8.8936574179534437e-003,
          -5.1131033101284112e-002, -4.5118328088469871e-004,
          6.7029629412736685e-002, 9.9117726386495474e-003,
          -4.7686515655143979e-002, -1.6976993928756703e-002,
          -1.2648183343675378e-003, 4.1434451384848081e-002,
          9.9553197260238563e-003, -4.3845537049233604e-003,
          -9.0183623210821406e-002, -5.4735590658179602e-002,
          -3.7936498613689799e-002, -3.0067324711458780e-002,
          5.0954076517445879e-002, 2.8197215870188176e-002,
          -5.4968707306269782e-003, -2.4268700640950915e-002,
          4.2741314685319200e-002, 1.9362606348378553e-002,
          2.6581194093623525e-002, -4.7990628399688729e-003,
          3.3211366315104135e-003, 6.2912505896974599e-002,
          -1.6272316786240516e-002, -1.2595360057085616e-002,
          -1.6305182948860113e-002, 1.3813001178479264e-002,
          -2.6226616296535343e-002, 1.3583863387620692e-002,
          1.6528063201366454e-002, 3.0991859139082357e-002,
          3.3322124347857709e-002, 4.9156747436505117e-002,
          5.6763824359930123e-003, -1.2008575647331800e-003,
          -5.2912456799460029e-002, 1.7610546939867790e-003,
          9.9031737078547483e-003, 4.2447614647959870e-003,
          4.1579186320509443e-002, -1.8471043531946885e-002,
          -1.2224817964734852e-002, 4.1215639198471182e-002,
          -3.8190195345366921e-003, 5.2893536502072484e-003,
          -8.7166678699369450e-004, -1.6753625194353736e-002,
          -3.9575079503681799e-003, 3.7491491685194478e-003,
          4.0527015034830614e-003, 1.2539093812762286e-002,
          -7.3028227414446293e-003, 4.5918822340753118e-002,
          -2.8540736334219996e-002, 3.8872248671451587e-002,
          -1.2096696712617250e-002, 1.3658153937103953e-002,
          -3.8573892361244137e-002, -1.3717982166937977e-002,
          6.0151336230069019e-002, -3.0801784136487372e-002,
          2.4617181774605295e-002, 3.6999331100621660e-002,
          2.7477132222828694e-002, 4.0338704354221282e-003,
          -1.3740389290803944e-002, 4.3862902833532537e-002,
          -1.5944604466027329e-002, -9.4309523105603719e-003,
          6.7531181737526978e-003, -3.1513080209190546e-002,
          -2.3306703028325951e-002, 1.1906481351821116e-002,
          -6.9686314566106758e-003, -1.5109452017561800e-002,
          -1.8721404186480550e-002, -9.5957772061372269e-003,
          -3.7491814653297624e-003, 6.4998616795412705e-003,
          -4.1387071377726962e-003, 3.9554068178187067e-002,
          -2.4254023127272952e-002, -2.2968630734531658e-002,
          1.5828227303826461e-003, -3.6340932539960090e-002,
          1.8203290733400955e-002, 3.3204440435184814e-003,
          -2.2763860817137022e-002, -3.4934831776825305e-003,
          -1.4159791212174698e-002, -7.7119256240876640e-003,
          3.4752254469262264e-002, -9.7931401441108592e-003,
          -3.2689811455774723e-002, 3.5966537028238911e-002,
          -4.1325710274887996e-002, -1.7298938881939049e-002,
          -7.7834986472861854e-003, 2.6198328754343785e-003,
          -5.9176140765503267e-002, 6.0713448702326570e-003,
          3.0836867005160584e-002, 8.1503290398440686e-003,
          5.6692432971966389e-003, 1.1107678895769179e-002,
          -7.4127745792585825e-003, -7.8430217464008634e-003,
          4.3765988259160706e-002, -2.1108572272811720e-002,
          -4.3999235385041816e-002, 2.7426416730394525e-002,
          -1.8089035448390115e-003, 4.4867807167155230e-003,
          1.6687267198431187e-002, 4.0287403811284830e-002,
          -8.0649413763187166e-003, -1.5159121087855876e-002,
          -1.3209082909747580e-002, -5.4701178912759255e-003,
          2.4720460600711442e-002, -3.6994272715933155e-003,
          -5.9247390727570235e-003, 1.6431736158237131e-002,
          -9.7829623803811529e-003, -2.2222272569071538e-002,
          3.2055527058468709e-002, -1.5141443356776439e-002,
          -4.2187352381216131e-003, -7.7025053379392227e-003,
          7.1011558064709357e-003, 3.7178226140941295e-002,
          7.8530798711754467e-003, -2.4961900818799423e-002,
          3.9424115240716193e-002, 1.3433438915839131e-002,
          -1.5098530105015813e-002, 5.3431934331938172e-002,
          5.7371843278198413e-005, 2.5228837236610841e-004,
          -2.4869064585975615e-002, 1.8719879901538745e-002,
          1.9424032677035415e-002, 7.8473569071226025e-003,
          2.2374027010019781e-002, -4.4142234933873432e-002,
          -8.0374201372111626e-003, -2.4790323207876944e-002,
          -5.9087746564577930e-003, -3.9830953684002406e-002,
          -6.7838629108860305e-003, 2.2197616187943896e-002,
          -8.9472279300394624e-003, -1.6186173760339668e-002,
          1.6631131966561363e-002, -1.0661313261273741e-002,
          2.4548416775998814e-002, -4.9131419425268563e-003,
          7.7835953156982426e-003, -1.6877295096162819e-003,
          -2.2540560180640247e-002, 3.3559093993765728e-002,
          4.1172290968175804e-002, 2.6985822656503615e-002,
          1.2737733904715184e-002, -4.0951095342378903e-002,
          -4.0868071873442220e-002, -1.3287431564956662e-002,
          6.9939357857105294e-003, 3.8543812658857453e-003,
          2.0730842621282827e-002, 2.9478577563990933e-004,
          -2.1526284155837211e-002, -5.7635971367250849e-002,
          7.6836552344366872e-003, 3.3701660940908158e-003,
          -2.3986674875508179e-002, 2.5430568784499761e-002,
          1.4358416180025743e-002, -3.4555987794604268e-002,
          -5.7776489181430883e-003, -9.9008904864812935e-003,
          1.3942762699073945e-002, -2.0754561446894644e-002,
          -1.8166630423261255e-002, -5.4392634397620293e-002,
          3.3521788123466664e-002, 3.8357068504899387e-002,
          1.7344558388511271e-002, -1.0048252707752656e-002,
          -2.1476371547486529e-002, -1.6495842509641066e-003,
          -1.2747342525124031e-002, 1.5099665209429684e-002,
          2.9584952304535356e-002, 2.3888879574877817e-002,
          2.2162277841474630e-003, -2.0325299717893472e-002,
          -2.2196070938396476e-003, -5.6389461816747869e-003,
          3.5184364595457658e-002, 1.2255502417662293e-002,
          -1.9096362002656922e-002, 6.9432233892992388e-003,
          4.2689659987446282e-002, 4.5831744691493120e-003,
          -7.4619135436049151e-003, -1.9696054370534614e-002,
          1.7428903433987782e-002, 1.0707758457326568e-002,
          1.3343888221405900e-002, 3.4983837459865275e-002,
          -1.8371466162746840e-002, -2.7928536701067777e-002,
          -3.8979549541691971e-002, 3.9080903948973351e-002,
          -4.6484406469491674e-002, -3.5943720458024478e-002,
          2.6248543504557586e-002, -2.0971844025263489e-002,
          1.7866828955781507e-002, -1.0871591378288695e-002,
          2.2465523528046927e-002, -3.9729627351119783e-002,
          -2.2688994882472144e-002, -1.6094897234509803e-003,
          8.6673024819051096e-003, 5.4928527239431488e-003,
          -8.6630102829281189e-003, -3.6504644083575760e-002,
          5.5343356378688034e-003, 1.0498094277788993e-002,
          -1.2562887719092201e-003, 2.1168804224389604e-002,
          2.2925132945031835e-003, -3.0150824767794203e-002,
          4.3868635931456297e-002, 2.8469709025305715e-002,
          2.0076759791336538e-002, -1.0511879179460110e-002,
          6.3760815537832491e-004, 1.2578784395148573e-003,
          -2.6938649414001946e-002, -1.6677395010994737e-002,
          -4.3961580691607625e-002, 2.3877977201943429e-002,
          -6.0117750463727290e-002, -7.8336192257571647e-003,
          -9.8245085880270342e-003, 6.0661833805788552e-002,
          -6.2564762910990168e-003, 1.0857532897544871e-002,
          1.6894469659335529e-002, 2.0706994791012897e-002,
          1.4398674954274618e-002, 2.2116087424607868e-003,
          2.0526087119200242e-002, 1.2297054284202561e-002,
          -2.1310595168377817e-002, -3.7743620070124322e-002,
          -3.1580994826842417e-003, -5.3390192435441939e-003,
          -4.0426619507340493e-002, -9.3104278178935372e-004,
          2.3958846930771497e-002, 2.4994001586677590e-002,
          2.1781099149326185e-003, 2.6550047253710220e-002,
          3.6832041487390821e-003, -6.0042085915028446e-003,
          -1.3478275239175809e-002, 2.4778627865136058e-002,
          1.7966374630055817e-002, -2.2757094608091590e-002,
          -3.3595631373617048e-002, 1.0972181136297107e-002,
          3.4684057053462086e-002, 2.1959588422226877e-002,
          -2.9630602874609294e-002, -2.3994197927615413e-002,
          7.8593995728212830e-003, 1.7471047223239940e-002,
          2.9797146030173537e-002, 2.1161223364462762e-002,
          -3.3213570175338200e-002, -8.5804540201524886e-003,
          -1.0588399217576058e-002, -1.6553414584007217e-002,
          2.1531059503099977e-002, -4.2080631755349547e-002,
          -1.5229347806561494e-002, 2.9864220274137071e-002,
          -2.4751336622853712e-002, -1.9720653161697629e-002,
          6.0580025520820821e-003, -9.1978939050833750e-003,
          -5.2919380918964630e-003, 8.8348793468447408e-003,
          2.1699408935375180e-002, -1.5406341074734474e-002,
          -6.4609851437325450e-002, -1.0686786937496391e-002,
          1.3507431336455305e-002, -2.3408243319050902e-002,
          -5.8820344432073315e-003, -1.4085062170885876e-002,
          1.1814420493564600e-002, 6.1442449068124794e-002,
          -5.3558453306418327e-002, -5.9922412635503221e-002,
          -8.9402493978146969e-003, 9.6282585794690932e-004,
          -2.1949969459974975e-002, 2.6987786313396839e-002,
          2.0909514256913442e-002, 3.0879828864466382e-002,
          6.5087321449904742e-002, -5.5801971910651137e-003,
          -2.8541940540572974e-002, -2.4757594375717788e-002,
          -1.0153641194418523e-002, 1.5527093863044600e-002,
          -1.0137890360011132e-002, 2.3720871006121809e-002,
          2.8583371025648625e-002, -1.4115572049673271e-002,
          8.1663501727397881e-004, 2.3254504051200275e-002,
          4.2217103819330741e-002, -7.1914916482571254e-003,
          -5.8435916823811910e-003, 1.8987740659427654e-002,
          -2.0249426765525790e-002, -1.6744314919998650e-003,
          7.9551309841738478e-003, 2.0213524045551150e-002,
          -3.5279621094449098e-002, -2.9343788034383332e-002,
          -9.3705136615787939e-003, 1.0385717232798153e-002,
          2.9751834897897785e-002, -1.9179019990690827e-002,
          -1.0400178422174921e-002, 3.4293413079657727e-002,
          7.2070061664773746e-003, 5.0708617511971664e-002,
          4.6427003304018610e-002, -4.0743180492314762e-002,
          1.8344197020376792e-004, -6.2783080326322700e-004,
          1.4399074242168387e-002, -2.3627516973887652e-002,
          -4.3793568398145459e-002, 8.2402765704106696e-003,
          4.6573022539629645e-002, -1.2531757092195834e-002,
          -3.8145559953677431e-002, -3.2729247210682128e-002,
          3.2219554269177296e-002, 2.1637567249579260e-002,
          -9.7350399623753244e-003, -3.7390244073901464e-002,
          6.8614673449361114e-003, 1.9289020206110504e-002,
          2.2959709913748429e-002, 3.6061363224386936e-003,
          4.9050760500595050e-002, -2.4408655245190564e-002,
          2.3281548119056507e-002, 2.6770856560087260e-002,
          -1.4712715901394951e-002, 1.4520477417165422e-002,
          -2.4078989896047964e-002, -1.2937220516009920e-002,
          3.6335903310942143e-002, -4.5793989643659119e-002,
          2.1578874440605859e-002, -1.8934376882338233e-002,
          2.4652600720681830e-002, -1.2293248008921336e-002,
          -4.9122374828049270e-003, -2.9418995261265232e-002,
          3.7822298753262880e-002, -6.3526604146178344e-003,
          3.5099339200797088e-002, 3.5353610062974598e-002,
          -2.6481310314873191e-002, -1.1965921591296546e-002,
          1.6430292840831699e-002, 1.1231974540865237e-002,
          -6.7939667738983649e-003, -9.3870218038901634e-003,
          -6.5615462859200946e-003, 5.7241774405925186e-003,
          -3.3519584986133638e-002, -9.5666942720396761e-003,
          -5.1057313876976602e-002, -1.2550192201587044e-002,
          3.7615262806990526e-002, 7.1519750591296219e-003,
          -5.9811943860875079e-003, 3.3598112453568557e-002,
          -7.1990590388419312e-003, 3.1772518372552060e-003,
          3.3713842124933731e-002, -3.5513524909306995e-002,
          -9.5425319688633593e-003, -3.0508633733346967e-002,
          2.5343477280009743e-003, 3.3179769703225816e-002,
          -1.7206849105615710e-002, -6.4266515451577189e-002,
          1.6067114884219424e-002, -2.8735173402009026e-002,
          2.8402066437089961e-004, 2.7771911317983964e-003,
          7.6661214707821376e-002, -5.1434084280726107e-002,
          1.8107791564141440e-002, -3.9428531189238648e-002,
          -1.0759802550985818e-002, -3.3638010771517783e-002,
          1.2417881136965897e-002, 2.5017267226481048e-002,
          -8.4510098440360483e-003, -5.7854259271724754e-003,
          2.7914459507552135e-002, -2.5668992939073772e-002,
          1.2640657001621897e-003, -2.4917160198216475e-002,
          2.4899096869304426e-002, 2.8608744807168032e-002,
          -1.0124672381632428e-002, 4.5738345786442425e-002,
          -8.2923268368058512e-003, 2.8708083248074688e-002,
          8.3947110319572069e-003, -4.1317940147031003e-002,
          5.0108530411047516e-003, -2.9895734383985018e-002,
          5.3491247646157689e-002, -3.0687213519819456e-002,
          -3.5800179253532488e-002, 1.0195119374642788e-002,
          -5.7234327613318627e-003, 1.4337947826930680e-002,
          1.7806177265549741e-002, 6.7252820502351589e-003,
          -8.4847871290457413e-002, -1.1067473440402886e-002,
          1.2414282550888663e-002, -6.2650139079513053e-004,
          -1.6625945625774578e-002, 5.0652558417684991e-002,
          7.5724591714185531e-003, 9.0335687455668382e-004,
          1.2223270342523905e-002, 1.8661181925647929e-002,
          -4.8780292438533913e-002, 1.2102215743797672e-002,
          -7.4681791921615394e-003, -5.4697654698731148e-002,
          -4.1907283970654796e-002, -3.6868145829441000e-002,
          1.3573741356556750e-002, -5.4822571165626756e-002,
          3.8557500338997405e-004, 2.7254784504889447e-002,
          -9.2102177386797351e-003, 7.4412436906756349e-002,
          3.0078100341841458e-002, 3.5981661308428219e-002,
          -1.0258749178666245e-003, -7.3971380187487862e-002,
          4.3920722954592976e-002, 1.2007429109014353e-002,
          3.3802524843630243e-002, -4.2314873293882609e-002,
          7.1202823899495331e-003, -3.8950398160141383e-002,
          3.4324886953102561e-002, -1.0054276457184654e-002,
          -4.7014744703448488e-003, -2.3549885028065604e-003,
          3.2481667221843286e-002, 1.1583499507189005e-002,
          -5.1214608664449025e-002, 3.3116933657334957e-003,
          -2.2961473217790350e-003, -3.3024594031816214e-002,
          9.7975618525492289e-003, -3.0535890165280504e-002,
          -1.4415559557812185e-002, -3.4288782341911198e-002,
          -4.6624668146489301e-002, 3.6433839624779987e-002,
          -6.2305912653552335e-002, -3.2594419458230717e-002,
          4.2652541726185551e-002, 3.6237212168478122e-003,
          -2.6462029814768216e-002, -6.8909525149359859e-003,
          -1.2184609101648916e-002, 2.6158018576915507e-003,
          -6.3512042691748538e-002, -8.8051695114449279e-003,
          -3.7633717787272848e-002, 1.4426667098722208e-002,
          1.7418722478583098e-002, 1.1078942900922140e-003,
          -7.2490905331984809e-002, -2.0047100872298447e-002,
          -5.3614942880077079e-002, -3.0188801788393071e-002,
          1.8338317294697412e-002, 4.3944100046046201e-002,
          8.2255141506743790e-003, -8.1726085923076019e-003,
          -2.0588640762815667e-002, 4.3004268685947901e-002,
          1.2978500712492477e-002, 2.3734287669101930e-002,
          1.9824631899720710e-002, 1.2285534496689791e-002,
          -1.5975046430754848e-002, -7.8852242378305086e-005,
          -2.4262499956716605e-002, -1.3858381059131539e-002,
          -8.6864590800877408e-003, 1.7246054990182655e-002,
          9.1159470865795223e-003, -3.6582883148346900e-003,
          1.3009430680658110e-004, -5.9629579363419311e-002,
          -2.8254984019578471e-002, 2.6979907408988684e-002,
          1.0019767669280286e-002, 1.4542033616399467e-002,
          -3.3661823531944739e-002, 4.1979033051936968e-002,
          -2.4973989637167307e-002, 6.2481871488727393e-003,
          1.7818028382032995e-002, -4.1328817457368446e-002,
          3.8770254940491938e-002, -5.2063230906005530e-002,
          -4.2345839285854336e-002, -2.1842361842385118e-002,
          4.8658029827705817e-003, 2.1131023125183727e-003,
          -4.3438152717347939e-002, -2.6080052269295610e-002,
          -1.4110675920027668e-002, -1.4477254436023405e-002,
          -1.7944973423259680e-002, 2.0315520204314281e-002,
          -3.0811124067945724e-002, -2.9807017242672620e-002,
          7.0945341062239750e-002, -8.8901880487111291e-003,
          -2.3594080474462528e-002, 5.2434236961858102e-002,
          2.5006859302261343e-003, 3.8581954896012515e-003,
          3.1840356585115903e-003, 4.8711519121050012e-002,
          -1.3528513639969974e-002, -9.6357248872333094e-003,
          -1.5353604892928268e-002, -2.1848724706290321e-002,
          -5.8049067466648431e-002, -1.5182121402263497e-002,
          2.0622864857897872e-002, 4.3353666832006969e-002,
          -2.9188839123510658e-002, -4.6365640093734582e-002,
          -1.2879091071073304e-002, -1.6661327434404620e-002,
          1.8258614977743129e-002, 4.2141974208111726e-003,
          8.1128147481756268e-003, 1.2075707858697346e-002,
          4.0722125363524347e-002, -6.0479831969516510e-003,
          -4.1324755729152708e-002, -2.7348383203484711e-003,
          1.5022737622341937e-003, -4.9751879367042742e-002,
          9.0930331555199740e-003, -1.8069910744304819e-003,
          5.5601819868717249e-003, 3.9975317714247047e-002,
          2.3203010319852769e-002, 2.4781152946278286e-002,
          3.5730197272568112e-002, -1.8519599401818819e-002,
          5.9104243030110207e-002, -6.9090582616648767e-004,
          -2.8580969378323672e-002, 3.0375185105845814e-002,
          2.4020217635067367e-002, 9.1502373542726493e-004,
          -3.1536090092234792e-002, -3.0308438606495448e-002,
          -6.0635568880052625e-003, -8.2571762721843495e-003,
          2.0280764418820268e-003, -2.6215117123606160e-002,
          -7.5142931214610660e-003, 3.3827530563639414e-002,
          6.3957765847495837e-002, 3.4464952277616858e-003,
          4.8756331394050348e-002, 4.4120147597919129e-002,
          -2.4577273380478753e-002, -4.5819015737458904e-002,
          2.4966579720849844e-002, 4.0426489121937727e-002,
          -2.4494162957215671e-002, 2.8847724032290870e-002,
          2.6649295914994837e-002, 1.9012284928574114e-002,
          -3.7346867773364975e-002, -2.1585911791559529e-002,
          2.3004013878575588e-002, -3.2586361407756038e-002,
          -9.9814825703026990e-003, -3.2810160351570826e-002,
          6.4105313924491703e-002, 4.2562130990941693e-002,
          -8.7745479009682242e-003, 3.6927811601969236e-002,
          -1.2326398200634582e-004, 3.4336335643049394e-002,
          -2.0684323804778176e-002, -3.9923743354790481e-003,
          -3.4748659249422789e-002, -1.6062003000541725e-002,
          1.3284363193071613e-002, 4.5436323305305143e-002,
          -8.1421136062527433e-002, -3.8204239188379972e-002,
          2.3803039903681454e-002, -4.2312717137640003e-002,
          -4.5421086890058597e-003, -5.2633415079856659e-002,
          2.3043805741513546e-002, -6.4642600358281857e-002,
          4.1557884622141140e-002, -3.1183594473285215e-002,
          -2.2149006621943725e-002, 7.7956993180221795e-003,
          -4.1018890038340701e-002, -3.4385145115496972e-002,
          -2.7407887872749493e-002, -1.9972414767663562e-002,
          -1.6995720314369116e-002, -4.3249752545806075e-003,
          4.9024644495003405e-002, -6.2842588421401103e-003,
          -4.5242558399812421e-002, 3.7660130346397341e-002,
          8.3544055361529618e-002, 5.7041303724952030e-002,
          9.4691864899554890e-002, 2.7037663692689128e-002,
          8.1529730214566967e-003, -5.6620038945808325e-002,
          -1.7434675905088081e-002, 6.6694889976631712e-004,
          -2.7434654604494298e-002, 1.9866050641204523e-002,
          2.1377106119762252e-002, -3.7038350933039661e-003,
          -4.9834015124788793e-002, -1.4580060492651174e-002,
          -3.8830035969956683e-002, -3.0356999951817336e-002,
          -7.2377611075925786e-003, -4.7057486704086965e-002,
          2.2890521768310527e-002, 2.3128386990127984e-002,
          2.2151957976756072e-002, -2.4623156294596306e-002,
          1.4080573674799257e-002, -5.3479036221218974e-002,
          -2.1828303074099439e-002, -3.8246118425750375e-002,
          3.0388385266099330e-002, 3.6638227543533283e-002,
          1.5469069758297224e-002, 1.8625547390869260e-002,
          6.2275587043346028e-002, 2.7291022739065685e-002,
          4.1302332970943857e-002, -3.8901805562424646e-002,
          4.1637616188391735e-002, 7.1871509459438883e-004,
          -6.7934805857096464e-002, 5.5692087834318424e-004,
          -2.7253010757044126e-003, 1.4021511247276673e-002,
          1.4395801322927001e-002, 3.5836587887885280e-003,
          6.8715508804467210e-002, 2.1831114958941564e-002,
          1.0626266729863809e-002, -5.2650898255748486e-002,
          -1.1891033904172524e-002, -2.6357349835664959e-004,
          1.4302343405631206e-002, -2.6787973759205205e-002,
          1.9691300948009444e-002, 1.5189804612327750e-002,
          -1.5152004315404397e-002, -3.4700905728477373e-002,
          -6.9674336874669909e-002, -1.6587902567061805e-002,
          2.0835906683816404e-002, -1.7763024352364137e-002,
          3.0592089746262971e-002, -3.9570138644791752e-002,
          7.6505561041112530e-002, 4.3404186277097044e-002,
          -3.8695524651189757e-002, 2.0231985492239899e-002,
          5.0354999270481232e-002, 2.6770688558184118e-002,
          -1.5106284445698406e-002, -2.4114420576224322e-003,
          7.8998869118520665e-002, 1.4077379419892500e-002,
          1.6885855010953191e-002, -1.9126093254636538e-002,
          -2.9072707607643359e-002, -1.1034040204831232e-002,
          4.6555917313749126e-003, 1.1539364712349169e-002,
          1.8150090022531578e-002, -9.8322366686975724e-003,
          2.6658555078744626e-002, -2.1527524906132731e-002,
          -1.9583307453809935e-004, 7.9897086379845869e-003,
          -7.6943893234753379e-003, 4.7960596825073080e-002,
          -2.6822048154549395e-002, 2.0899254854016568e-002,
          3.4078449593349849e-003, 5.9496905750277891e-002,
          -1.6919661495427951e-002, 4.0110647218908689e-002,
          7.0639750096008869e-002, 4.7019059414934686e-002,
          6.2812603632450932e-003, 3.8952066099865221e-002,
          7.7999230878602801e-003, 1.7314824113216810e-002,
          -4.5443080132088129e-002, -2.3180299176298807e-002,
          1.2496858453707155e-002, -1.8882334800100833e-002,
          -1.7657460318182851e-002, -2.5020071015200943e-002,
          -6.8516187141785062e-002, 2.6691954601343246e-002,
          2.2903699186134316e-002, 3.6344726959564463e-002,
          -1.9010115233227532e-002, 1.4217167341816344e-002,
          -2.5967304902955471e-002, 1.7204726896336953e-002,
          -4.1751976721017228e-002, -7.8067744824931326e-002,
          5.2585044836980213e-004, -7.5758690486992181e-004,
          -1.1310239663095006e-002, -3.0163172451591416e-002,
          -1.2713995180825768e-002, 1.8176143513413564e-002,
          -1.3479285813925559e-002, 7.1301839142572404e-002,
          -2.4368849187080065e-002, 1.4671774938541219e-003,
          1.3100678962572363e-002, 3.9743110748722190e-003,
          -2.1036208363502597e-002, 7.5728544824153719e-003,
          2.3098900576799895e-002, -2.5847447001869035e-002,
          -4.7173852813883789e-002, 1.4335331034286296e-002,
          -1.8374876488107049e-003, -4.6299565038360614e-002,
          -3.8537567594548176e-002, 2.5020026209936544e-004,
          -2.8620641777009521e-002, -1.7071784774184737e-002,
          5.0019721159175995e-002, -3.5540979149456826e-003,
          -5.3440706603871839e-002, -3.6203455276022388e-002,
          -1.1761671163217734e-002, -3.4911548355773592e-002,
          -2.9354479223902316e-002, 4.8237574924069167e-002,
          -4.1208755323532565e-003, 5.2504748500877912e-002,
          8.0318933560514453e-003, -2.6368529495695729e-002,
          -2.9643677379784000e-002, 3.7055458155971506e-002,
          -7.0758126770464419e-002, 2.9275485121869518e-002,
          4.8920441118635520e-002, 6.2869220525896857e-002,
          1.1055348186977480e-002, 6.6077081224535580e-003,
          2.7133840279541487e-002, -2.5750437813041319e-002,
          -3.7246739026189364e-002, 3.3173259825910531e-002,
          -2.2154190867730735e-002, 2.9281555253578700e-003,
          -1.2517663710613266e-002, 2.7924594445042437e-002,
          -9.1356190649630783e-004, -3.0192923406047463e-002,
          2.5340314633866507e-002, -1.0054563634207734e-002,
          1.9633629141720794e-002, 8.5198436000569252e-003,
          1.7483322709769170e-002, -7.2164577172513979e-003,
          2.2447792127304922e-003, 1.1603805621540881e-002,
          2.1765611093335826e-002, 4.9543448214544716e-003,
          -1.3873346501012873e-002, -1.1420492822096970e-005,
          7.2429861776459803e-003, 1.3554291860972118e-002,
          -1.4941508386788540e-002, -2.6185102084288311e-002,
          -2.7211112920889964e-002, -2.3329233580842802e-002,
          -1.5945293735083188e-002, -5.2201727357769026e-002,
          -4.5271598244347816e-002, 4.4544941691306676e-002,
          2.2132400672635045e-002, 2.6154990956711661e-002,
          -1.5708480301850052e-002, -2.4049923748792858e-002,
          -1.3684468397311229e-003, -2.1955658230713303e-003,
          2.8258180061390296e-002, -7.9118239672993900e-003,
          3.6665028532084560e-003, -4.3271510807894060e-003,
          -4.3061395061166664e-002, 4.6444410476564682e-003,
          -2.1671135179143416e-002, -3.5063937895611429e-002,
          2.3568598113979600e-002, 2.1841475173585534e-002,
          -2.6977326454841945e-002, -1.1456180245493495e-002,
          -1.3518314378021305e-002, 1.3292110421679671e-002,
          6.8857491944715049e-003, 3.2819814635932733e-002,
          -3.0801014855149626e-002, 1.1041947155769708e-002,
          1.9096072205728041e-002, -1.7560252446841115e-002,
          -5.7632367896518683e-005, 1.2999115244498727e-002,
          -1.7613988518140573e-002, -1.9404497639973050e-002,
          1.1872827636063737e-002, 2.2974289088302013e-002,
          3.3101486221650649e-002, 2.2493658183951582e-003,
          -1.9244236650377035e-002, 2.9280232662217846e-002,
          -5.8131313756059518e-002, 1.1985236828917206e-002,
          1.1948752482010418e-002, 2.4939966599672958e-002,
          3.0051875804333248e-002, -1.3073604246380191e-002,
          -4.0646834440777622e-002, 2.8136129264109608e-002,
          4.1265597411935091e-002, 5.1512085053702063e-002,
          -2.3086793813410576e-002, -6.5457789408353826e-004,
          2.3296780325891164e-002, -1.7116849125222607e-002,
          1.6818434993600317e-002, -1.7217261806439024e-002,
          -3.0035710412102144e-002, -2.2965942477567728e-002,
          -2.5734778624441304e-002, 1.6337682817136556e-002,
          -8.9399025957799388e-003, -2.0633838752846898e-002,
          -1.0522771533979564e-002, -1.4287762617081590e-002,
          -2.3135366434436880e-002, -2.3536819119887194e-002,
          -3.7709107864989440e-002, 2.4725037753433297e-002,
          -3.4224835267377129e-002, 3.2956018252055211e-003,
          1.1948377606636419e-001, -5.9254929860272896e-004,
          -2.1640947127064970e-002, -4.9345862872797144e-002,
          -5.4138180446517074e-002, 7.1805573372912421e-002,
          -8.0762862302455912e-002, 1.4959087766411333e-002,
          4.3738997710761790e-004, 1.4789807489410714e-002,
          1.3935509462086382e-002, -7.2704339310429675e-002,
          -1.0031441643306325e-002, 1.7094648438106212e-002,
          -3.4168533299704186e-002, 5.5644826787714574e-003,
          -7.0850856461339790e-002, 5.8797220056901654e-002,
          6.6228215992039877e-003, 6.8295067847027852e-002,
          -1.2154075351746840e-003, 9.1360276116782251e-003,
          4.8871778177245140e-002, -4.4621007886211782e-002,
          3.6397884078391528e-002, 1.7572652786218182e-002,
          -2.9600447706224491e-002, -1.1931584845415667e-003,
          5.3244035604170185e-003, 5.8377103226095538e-002,
          -1.6668187666083068e-002, -1.6265861773275051e-002,
          -5.1656938884626212e-002, -1.6464430365441506e-002,
          6.4951481911693408e-003, -4.5994543687063065e-002,
          -6.6389807062525903e-003, 4.8991758652289406e-002,
          1.1207373764216200e-002, -1.7784553336319495e-002,
          2.2871369088260120e-002, -1.8772089701448679e-002,
          -2.8849875572862400e-002, 3.7158402091611628e-002,
          1.2346379195418223e-002, -3.2059209949478014e-003,
          -4.7968517256022532e-002, 3.2079675540736180e-002,
          3.5502999582861863e-002, -4.3015967611871236e-002,
          -4.2635590773533192e-003, -7.3149669024026092e-003,
          -3.5928408606017835e-002, -2.2974618525828609e-002,
          1.9855530536283341e-003, 1.0467448404961690e-002,
          -1.1022527352773735e-002, -2.3149311444957781e-002,
          -1.5263944831053229e-002, 2.2589504193166889e-002,
          7.5475475520006649e-002, 2.4056178512676121e-002,
          -1.6167587734238965e-002, 2.2623096932206807e-002,
          6.3560302027356033e-002, -2.4473399474548480e-002,
          -2.2219647194076396e-002, 3.7819794367428827e-002,
          2.3029634451653420e-002, 4.2499467282241139e-002,
          -2.1719820496173405e-002, 3.7195187016775828e-002,
          1.2724937773809846e-002, 1.0231774831279773e-002,
          -1.4940988048583218e-002, -4.8347911370552610e-002,
          -5.0310620210971400e-002, 4.1538142056504718e-002,
          6.8565290481149996e-002, 2.9251856635381206e-002,
          -3.7222252713008136e-002, 3.7031912147876237e-003,
          1.0638773121370720e-001, -2.1111891476570592e-003,
          -1.2876305237013829e-003, -2.4568501949982793e-002,
          9.0570330411519212e-003, 5.1765846745335797e-002,
          -4.6760266897856846e-002, -1.4427278303720262e-002,
          -3.8258374990778797e-002, -2.1978378036636621e-002,
          -2.0917031383745305e-002, 5.1662354617368752e-003,
          -4.7396447913344228e-002, -4.7344736213442082e-002,
          -4.6175830585663179e-002, -9.2729151723673665e-003,
          -1.3434638592927827e-002, 2.9825249068343156e-002,
          -3.9956137324917269e-002, -2.4015940686497129e-002,
          3.5643389904742813e-002, 1.6175074412749492e-002,
          -5.4269403344664360e-002, 2.1264743349755943e-003,
          3.9873629622351582e-003, 2.0038277609848082e-002,
          -5.7108330250659763e-002, 1.8450547781686418e-002,
          2.2054571940528143e-002, 1.0723292337218041e-002,
          1.0170513878823955e-002, -1.8363622116377848e-002,
          4.5504532174083442e-002, -7.1205139308536738e-003,
          1.2852144905761705e-002, -4.7396084630592875e-002,
          6.4567622901025273e-002, 8.2361531659662396e-002,
          -4.4376025460471941e-003, -2.7009424812054563e-002,
          -9.1684601016296816e-002, -8.9994618136073797e-003,
          1.8243072042765082e-002, -3.9061556919951564e-002,
          2.5133755883442504e-002, -4.6725540701296510e-002,
          2.7052872546434327e-002, -3.8726347654070001e-002,
          -3.1465268689877960e-003, -3.3928325058546885e-002,
          -1.7922785430618902e-003, -2.3825610724306879e-002,
          -4.1817034323744000e-002, -3.3305414156671764e-002,
          -2.6204002772490943e-002, -2.3936884095832219e-002,
          1.3489764306856394e-002, 2.4054274127585092e-002,
          1.7314491385524741e-003, -5.8044816775086903e-002,
          -5.1563971216936864e-003, 3.4726772860837307e-002,
          -4.5278182093016414e-002, -2.3558950777673254e-002,
          -8.5900261893476441e-003, -2.5107867363820403e-002,
          -2.3432405368940024e-002, 2.0875520232800000e-002,
          3.5326713288603727e-002, -1.0098108581991545e-002,
          2.2771998522990906e-002, 6.3784632902857893e-002,
          -5.6373933560712700e-002, -3.7639602189144428e-003,
          -6.9786707646940380e-002, 2.3801179367539473e-002,
          3.3521749968612957e-002, -4.8527209042293386e-003,
          -1.9438180793104703e-002, -3.3076715790501338e-002,
          -2.6245088369573611e-002, -1.3215796165465617e-002,
          -3.7572921427305593e-003, 6.1161569104774730e-002,
          7.0989661026550355e-003, 7.1341846692350358e-002,
          -1.2178567921813072e-002, 5.4450826966742992e-002,
          -4.1927064299194385e-002, -7.4720514083010336e-002,
          4.6500693135790916e-002, -1.4068781427593231e-002,
          1.4356371443031661e-002, 3.8382708907884859e-002,
          -1.3656464963795247e-002, 1.1638359699901790e-002,
          -2.3634863870786619e-002, 5.4219716569900649e-002,
          -4.6360443036764447e-002, 3.9664459273469344e-003,
          4.6993674957501876e-002, 6.1723650133015690e-003,
          3.4530737999849022e-002, -3.5616780966684983e-002,
          -1.0120052814087956e-002, -7.2380258561330459e-003,
          2.9996587520722128e-003, 5.6703365883506007e-004,
          1.9855040017111664e-002, 1.0182321967844934e-002,
          -3.4493304339592412e-002, -3.6043361993611828e-002,
          5.5146288047478141e-002, 1.1660755228188002e-002,
          -3.7503997415580387e-002, 4.4706098853471120e-002,
          -1.1840650711368887e-003, 5.3926251295859984e-002,
          -3.6420212192253896e-003, 8.9843790302419468e-003,
          -2.6833235625208309e-002, 1.0667600987868758e-002,
          3.0262843835129789e-002, -2.6798403398855836e-002,
          7.3704715949609980e-003, -1.7168212219735698e-003,
          8.2617177163284410e-004, 1.8513977521949984e-002,
          1.2536725477939957e-003, -3.6204203961262504e-002,
          -7.9375005360871158e-003, 2.4699066590490065e-002,
          1.1229626830405562e-002, -8.3945692675741635e-003,
          5.0431435462175010e-002, 2.0491223865892621e-002,
          -3.8606334711192132e-002, -3.3909885421734939e-002,
          5.7801709187017391e-003, 4.2563514043618203e-002,
          7.3695634727920720e-002, 1.6531544966899580e-002,
          -3.4693829179992780e-002, 3.0436693708890857e-002,
          2.5408568481499468e-002, -3.5147238189368706e-002,
          2.8753115955668606e-002, 1.3259987182781650e-002,
          -5.6296938808506830e-003, -1.9477478977336218e-002,
          1.0728828255332596e-002, -6.2342595650200259e-005,
          2.0080686963308367e-002, 2.4159652389998718e-002,
          -1.1562777084429000e-002, -4.6832833972101265e-002,
          -2.9398357819340901e-002, -2.2279567851414751e-002,
          -1.6321486339852722e-002, 6.5728278644372695e-002,
          -1.1031134217461831e-002, -5.8965692696243396e-002,
          -3.3821774159477333e-002, 8.1568683210900689e-003,
          6.3662135417119098e-002, 6.2779864762559576e-002,
          6.3045655840967635e-002, -1.4847869604437890e-002,
          8.7798521935970267e-004, -4.7508274589719332e-002,
          1.4145033465630001e-002, -2.3975463575750089e-002,
          1.9896094291990588e-002, 7.1481969414063607e-003,
          5.7934047254819153e-003, 4.2070657610438884e-002,
          -5.6710777488114227e-002, 2.8404166427929065e-002,
          -5.5314656971346354e-002, -9.5221194135992511e-003,
          -2.1316794806623570e-002, 8.5609296430256745e-003,
          -3.5675201040632903e-003, -3.0397479721504122e-002,
          1.7474143577818346e-002, -5.0876186128663486e-002,
          -1.6241411553682809e-002, -3.0355038515673127e-002,
          4.7119811639059400e-002, 3.9812508802609003e-002,
          -3.0402941760665571e-002, 1.7798254137860788e-002,
          -9.0422759903876909e-003, 1.7999406886422483e-002,
          3.8747558636278677e-002, -1.3381023714511830e-002,
          6.2311425342825320e-002, -1.8052544249916300e-002,
          6.7417941821242486e-002, 1.8611579553110040e-002,
          -1.4447862143324700e-002, -4.7470753403427671e-002,
          -3.6451371183645095e-002, 3.3686298747224189e-002,
          4.7257213173301546e-002, 3.1785896673354901e-002,
          2.4215978725029813e-002, 5.0997740501014036e-002,
          2.3376322317943753e-002, 1.3546925419605577e-002,
          -1.8905407698905339e-002, 2.7571049603294956e-002,
          -1.3186434873834103e-002, -1.4449652565300460e-003,
          2.8463261308199789e-002, -1.1742946989226493e-002,
          1.8727728858640227e-002, -3.1130390894361287e-002,
          1.1867944878818466e-003, 1.7219525939471625e-002,
          3.2554446328926290e-002, -4.6201058598628775e-002,
          2.0035886257658623e-002, 2.7739998942448309e-002,
          -5.6769827719184963e-002, -2.4325495303756304e-002,
          5.3051044509198245e-002, -1.6123125712968464e-002,
          7.2503041452703174e-003, -2.3550032682927480e-002,
          2.1041652918271560e-002, -1.0273723951572441e-002,
          2.2595792316982000e-003, 1.7332270669999882e-002,
          -1.5275382910235329e-002, 9.2409640124695696e-003,
          -2.3394229872857466e-002, -3.3455484549510847e-002,
          -1.2123505139815445e-002, -2.3031242212121619e-002,
          6.8637702059589592e-002, -3.5719833687962436e-002,
          4.0756362892084919e-003, -1.2558699737037845e-002,
          3.0329272343932658e-002, 2.1691658239590562e-002,
          -2.3109632947682732e-002, -1.4938024926424450e-002,
          1.1757619250226649e-002, 1.0525354066808823e-002,
          -8.2234315989986820e-003, -2.0895198536142259e-002,
          6.0449189655888665e-003, -1.3907515963159761e-002,
          1.8278898028833385e-002, 4.3331366168791489e-003,
          1.5044206524228417e-002, -1.5772991566035677e-002,
          -5.3649270032709454e-003, -1.8659736766627487e-002,
          -2.2932617762087222e-002, 1.0229116637766552e-003,
          2.4533808945687817e-002, -1.6106828079494127e-002,
          1.3998303639708195e-003, 1.3564286512114273e-002,
          3.9613113671135902e-002, -4.5532275885978635e-002,
          -1.8240388006719826e-002, 9.7841825768440888e-003,
          -5.3016957703862092e-003, -9.7302702806104265e-003,
          3.7078715970628756e-002, 2.3614272207960956e-002,
          3.1899447736556993e-002, -1.9963595783839855e-002,
          -8.9083786300080785e-003, 6.7642561144569619e-003,
          4.6333522784200040e-002, -6.2489801408701440e-003,
          2.2157002163844589e-002, 3.0367754066511852e-003,
          1.9091220660332517e-002, -2.6894821897004765e-002,
          -8.1265589663714454e-003, -3.2197274534114938e-002,
          -1.0517924870823731e-002, 2.3562786815038612e-002,
          4.8260116605127162e-002, 4.5122918500290800e-002,
          5.5799919447241109e-003, -6.1183014108839300e-002,
          1.6712972272433728e-002, -2.9727846521049883e-002,
          5.6398597352087512e-003, 2.2022915626312863e-002,
          5.8849790075825803e-002, 3.4817695442326532e-002,
          9.9784939758645642e-003, -2.9812296268172403e-002,
          6.3318720971664282e-003, -1.5378392342044798e-002,
          9.9734820756635957e-003, 4.3030839562263709e-002,
          1.1876877859750265e-002, 3.8668109210053932e-002,
          1.2979877014891606e-002, -4.4504605987593600e-002,
          -8.7162502047089079e-003, -1.2119039410555255e-002,
          2.8475717542089957e-002, 2.5919480044847551e-002,
          -4.3237686664915655e-002, -2.2905007708432889e-003,
          3.2047002562986704e-002, 2.3333355405108072e-002,
          -2.4009989333906166e-002, -2.5672640152855246e-002,
          6.8322856504852161e-002, -2.2112764089476888e-002,
          3.5423310214085457e-002, -4.6599865277430590e-002,
          -1.2903072204860160e-002, 1.3400911054373741e-002,
          -1.7948073114130467e-002, -2.9838836694003938e-002,
          -6.1266511833324148e-002, 5.5808518387959298e-003,
          -7.9450135025355088e-003, 1.3864139665926374e-002,
          2.0862200397888563e-002, 2.9115976288162555e-002,
          -7.4762517451088381e-003, -1.8747546037730524e-002,
          4.9631547662982806e-002, -5.9721883736032363e-002,
          1.5631174715077509e-002, 2.0889899337865513e-002,
          4.0419272480250776e-002, 5.7005775258950247e-003,
          -4.6839856718440390e-002, 2.8612090119990965e-002,
          -6.8864013508685123e-002, 7.9501049583606109e-003,
          3.4561145916329366e-004, -4.5563224061339874e-003,
          2.1263010644127753e-002, -5.0710107996138266e-002,
          -6.1130699328614695e-004, -4.5155926670017374e-002,
          -3.8038426915256496e-002, -5.3975399884985308e-002,
          -4.1547401512396068e-002, -3.1098833082849178e-002,
          -2.7349507740942670e-002, 3.1271634979946498e-002,
          -2.9696106585609994e-002, -1.0555477810949388e-002,
          -3.4564034489828108e-003, -3.9299611651893718e-002,
          2.6374787294754107e-002, -1.5823886803109283e-002,
          -1.3590528007408103e-002, 2.5680321674306616e-002,
          2.3810591122840619e-002, -3.2455385092490976e-002,
          -3.1684568827472205e-002, 3.9798130287003762e-002,
          -2.0126451100426348e-002, -1.4746904713179181e-002,
          2.4788627809869627e-002, 7.0134238217925441e-003,
          -1.0384788489412758e-002, -1.0984868172379734e-002,
          -2.9037849026015611e-002, 6.9366170873669782e-003,
          5.0509933057213312e-003, 7.5870004909896628e-004,
          -3.5458210365690135e-002, -2.7186294911704281e-002,
          2.6674484987998653e-002, -8.3946216417732540e-003,
          -1.6298949213748127e-002, 2.7949542079748306e-002,
          -4.3436001421783048e-002, -2.2862898795445272e-002,
          1.0616852381029584e-002, -3.3327376595834339e-002,
          -3.3539411802335391e-002, -5.1467990545241052e-002,
          -1.7788850093203919e-002, 3.2700042981155843e-002,
          -3.3121872141594538e-002, 2.7968168903500052e-003,
          -3.0497827263260766e-002, 3.4244752113415551e-002,
          3.5172062971997063e-002, 4.5277681223920174e-002,
          -1.6341921899424270e-002, -4.1997783021577223e-002,
          3.2527180003356165e-002, -9.2442026102284650e-003,
          4.2017633699718560e-002, -5.4754081681797601e-002,
          -2.9764450439389040e-002, 1.6427160783770343e-002,
          -9.6011063021783846e-003, 1.2874208763193040e-002,
          4.4458250471694036e-002, 2.7544132029270006e-003,
          -2.7083474463545872e-002, 1.2419431470234206e-002,
          5.6670157799946566e-002, 1.6149717893690662e-003,
          -3.3575566137988261e-002, -3.0432259052534209e-002,
          -5.1141809651970328e-002, -8.9427597924307610e-004,
          -6.8321785803355517e-002, 1.8192627036105989e-002,
          -6.9460028257963841e-003, -1.1444037983312999e-002,
          1.4086449849573135e-002, -4.8740867061157628e-003,
          -3.4886733465158401e-002, -2.0921102816225053e-002,
          -1.8300196086144173e-002, -8.8414468183790149e-003,
          4.0004024500653428e-002, 1.2434837164456669e-002,
          5.2897475854001827e-002, 1.0071072154990798e-002,
          2.9083918409127826e-002, 7.8235708619292087e-003,
          1.6046070142828866e-002, 3.2690762488157407e-003,
          2.7412462702332448e-002, 2.3430637578860828e-002,
          -2.7814100013347231e-002, 2.7915184331096726e-002,
          -1.4004064794193118e-002, -4.5616192804908980e-002,
          6.4137813024388035e-003, 2.5098763878801857e-003,
          2.0913509453286426e-002, -1.5833296829234667e-002,
          2.5179827116548703e-002, -7.9987475928033763e-003,
          -2.9357421403647634e-002, 1.2249245030300573e-002,
          5.3157045018589859e-002, -3.1647628674951578e-002,
          1.8574985991249430e-003, -4.6476246906519990e-002,
          -2.9944796211113643e-002, 4.5485439403286990e-003,
          4.3710737345385602e-002, -2.1092639639488774e-002,
          1.5869353046913164e-002, -1.0498256761491839e-002,
          2.4337830182407216e-002, -1.3269323868553820e-002,
          -2.1949483690640172e-002, 5.4641827243380223e-002,
          -6.5222781175739049e-003, -1.4009655688503203e-002,
          9.5383485861929229e-004, -8.5997746114158788e-005,
          -1.6221321865668159e-002, -5.2821100210631827e-002,
          3.5106830435488019e-002, -5.3735989890147029e-003,
          1.7807628463125221e-002, 4.3811625241916452e-002,
          2.0309714459553232e-002, -3.5436374964734556e-002,
          -2.2475652350962029e-002, -1.7971767051798305e-002,
          -1.8886462385473403e-002, 2.5987324672063487e-002,
          2.9322777174317659e-002, -1.4501274752709358e-002,
          3.0891731848153258e-002, -4.3579242328064313e-003,
          3.9800152785989265e-002, -4.8315664044136043e-002,
          -4.7327625627240476e-003, -3.2750256204200245e-002,
          -1.7415514034316835e-003, 4.7207734527675106e-002,
          1.8841536259638435e-002, 3.4510953658094617e-002,
          5.6317740641571370e-002, 8.5544692427720840e-003,
          9.0103330638454469e-003, -1.5348587963879593e-002,
          5.7355653495631737e-002, -1.8762059431060702e-002,
          -4.5854498757830122e-003, 1.3586361365229909e-002,
          -6.7267768328166860e-002, 1.6659682271869588e-003,
          7.1311889602594894e-002, 2.0580136204653716e-002,
          -4.6209201493275842e-002, 1.6295869667379583e-002,
          1.7653722578653549e-002, -8.4375689549394620e-003,
          -4.0472406498421959e-002, -8.9102879175669506e-003,
          7.3905893898229373e-004, 5.0679078421831961e-002,
          -6.8719544492476161e-003, -2.3525700676754260e-002,
          -1.2517986934123796e-002, 4.2761936236981192e-002,
          -4.5659726375923811e-002, -6.4472071504817780e-003,
          5.6145769638358753e-002, -5.2328160465901306e-003,
          3.0538345978275146e-002, -9.0320754998268987e-004,
          5.7856971498775250e-002, -3.4918015199576660e-004,
          -1.4613159359197467e-002, -2.1909419785472610e-002,
          3.9822798299623256e-002, -2.7704588568115713e-002,
          -1.8742756236864021e-002, -5.0003095619694418e-002,
          -1.5557917425644907e-003, -8.5099052740660111e-003,
          -1.4608526503622076e-002, -1.3720707796852024e-002,
          -1.1931811971564888e-002, 8.4712062793297530e-002,
          -1.6596386058345573e-002, -2.3280727271404403e-002,
          -4.9838872190418992e-002, -2.4698071083723686e-002,
          9.3126705004049723e-002, 2.7623071647384499e-002,
          3.5573246989057075e-002, -4.3011112393273607e-003,
          -9.0412531901084125e-003, 5.0132310333022082e-002,
          -3.3666998012222511e-002, 4.9136998767158074e-002,
          3.4883484792059750e-002, 4.0591567796469906e-002,
          -1.9394596826258655e-002, -1.5667294514847361e-002,
          5.8192561399496483e-003, 1.1222285620582126e-002,
          6.0930138557180238e-003, 5.8991242054603883e-002,
          2.6354397813713834e-002, -5.1667978115712429e-002,
          7.5221098747639071e-004, 3.8240301947157065e-002,
          -3.5283424066549191e-002, -5.1287405905232409e-004,
          5.2684203091964990e-002, -4.2422066031341917e-002,
          4.4004274876255987e-002, 2.1058773950219180e-002,
          5.0880644866153298e-002, -1.2999756955713771e-002,
          -1.7760572558448560e-002, -1.6206411186505364e-002,
          2.3786219152934929e-002, -5.8405824932630586e-002,
          6.7710604734094709e-002, 2.2939224249559201e-002,
          1.2318375028342231e-002, -1.2836146592921094e-002,
          -2.6051210650797886e-002, -9.6178905877924471e-005,
          -1.7427431732766636e-003, -1.8091533095857447e-002,
          4.2645205982914818e-002, -7.8001463128172157e-003,
          1.2738096418177245e-003, -8.1444207780485972e-003,
          -2.5229306156569712e-002, -4.7746040342780502e-002,
          5.2378888689975596e-002, 8.9723403352432347e-003,
          -1.8398894368322682e-003, 6.5560199757029827e-002,
          -4.3414769825870857e-002, 1.7533906130448074e-002,
          -4.4198421539097366e-002, -2.6248189437592939e-002,
          2.3129606972058174e-002, 8.4293625082385807e-003,
          1.9762001146636104e-002, -3.4098595315557957e-002,
          -2.3938433935869613e-002, 1.6949383872598877e-002,
          -1.7581923229645972e-002, -2.1538355794858913e-002,
          -4.2785718113475528e-002, 5.1277271627362772e-002,
          5.9980496269627183e-002, 3.7534895803758808e-002,
          1.1137600889624193e-002, -1.7426381569758474e-002,
          5.0710195425264829e-004, -9.3210518924379954e-003,
          3.3505377681322251e-002, 2.8942726110035837e-002,
          -6.1493588430175286e-002, -9.7449368093471735e-003,
          -1.0212467863852669e-002, -6.6056812412829985e-002,
          -2.0657009822637056e-002, 4.7405931912306978e-002,
          3.2537248164867041e-003, -1.3797099847199500e-002,
          4.9190545128526955e-002, -3.5649017609464519e-002,
          -8.3018317615469860e-003, 2.7274354506367582e-003,
          -1.4955773389618118e-002, -3.2986830858681128e-002,
          4.0204354036702243e-002, -2.7906938082044329e-002,
          -2.4661514227565990e-003, -2.6901906120232182e-002,
          -2.5051842403719597e-002, -1.2416287559160767e-003,
          -2.8635299761852150e-002, -4.0600568901516098e-003,
          -1.1794970510901731e-002, -6.5908591607534862e-003,
          3.0969215359295324e-002, 3.1330938052963560e-002,
          2.5557159073949776e-002, -4.8966899361480416e-002,
          -7.8829016743457055e-003, 3.3924642951734126e-004,
          -1.5364342717721911e-002, -2.7459289416153901e-002,
          3.4606513780444284e-002, 4.0833872055169446e-003,
          3.5649145951411852e-002, 3.0968966830023422e-002,
          3.2969560744250948e-002, 1.2870246344587182e-002,
          -4.7069764740139554e-002, -8.2634871943949150e-003,
          1.2996412098726774e-002, -7.2138025977842319e-003,
          -5.1854732949722648e-002, -2.0179076202196788e-003,
          1.6729453098008641e-002, -9.9302527295600830e-003,
          -3.9960930941918091e-002, 3.2774002213956113e-002,
          -1.5924885015994227e-002, 1.5772675478123303e-003,
          -1.8831239272196821e-003, 1.3782542189788503e-002,
          -5.2715814279796346e-002, 1.5280630490448383e-002,
          6.9002005247843067e-003, -5.2579577946915493e-002,
          -8.7443640319901823e-003, 1.9094639466827316e-002,
          -1.2175995274474976e-002, -3.7837883528407008e-002,
          -1.8225076535883171e-002, -2.1782813528394215e-002,
          -1.2415252186084243e-002, 3.3897749367341287e-002,
          -9.6063724830313842e-003, -1.8996010007254246e-002,
          -4.4786536013659856e-003, -2.6295406080889219e-002,
          -3.4111938699042325e-002, -8.3031172429425173e-003,
          -1.1418002671092959e-002, -5.4479996602840837e-003,
          -1.5301752114037209e-002, -2.1875635511094272e-002,
          6.0642154216316950e-004, 3.6522144676050035e-002,
          -3.6897878409169277e-002, -3.9236624800480808e-003,
          -1.5266778112641375e-002, -1.2633522459146049e-002,
          -2.4780792504213080e-002, 2.3566356268118299e-002,
          -9.2418131290384429e-003, 5.9355382788514578e-002,
          5.8664590124615544e-003, 6.5892528592686989e-002,
          -3.7436468167994230e-002, -5.9643301185568223e-002,
          2.6461193383663754e-002, 4.0059999115156959e-002,
          1.8128910548416612e-002, 9.9132463327478229e-003,
          3.9195536100030560e-003, 2.9500925213659843e-003,
          -6.7452660451505280e-003, -5.1017230943838400e-002,
          -3.5671860847719478e-002, -4.0811062922334766e-002,
          1.9524459036820721e-002, -3.7722924963801752e-002,
          -1.8593744622168045e-002, -5.3981186967899870e-004,
          9.0594272741900579e-003, 3.9091654762355557e-002,
          -4.3761377219057603e-002, 3.7958806375494704e-003,
          -8.1579980776339711e-002, 1.5397339176125116e-002,
          -1.1055782488846401e-002, 7.0945234915615704e-002,
          6.1713329272108930e-003, 2.7181901550434390e-002,
          1.9972411118787167e-002, -5.4468831203066219e-002,
          -3.5732671686254491e-002, -1.8591692156678635e-002,
          9.9403382186859304e-003, -8.5611240943579449e-003,
          3.5170766867548463e-002, -1.4207515417640589e-002,
          1.2855361187609358e-002, 4.2945360188805688e-002,
          3.1925945458806372e-002, -9.6011983091899376e-003,
          -4.6106520640608970e-003, -3.8851452957839643e-002,
          -9.9318198880991634e-003, 2.2627787431178843e-002,
          1.6200555417846572e-002, 5.0851095385863902e-002,
          -8.9881380008074052e-002, 1.1051781395818850e-002,
          4.0079644448721502e-004, -1.2020375662844536e-002,
          -1.1656627331154601e-002, -6.7095217380916533e-002,
          -3.4771564303129478e-002, -1.0701265277787225e-002,
          5.3728205549101599e-002, 2.3847592172661115e-002,
          -2.4726104480505121e-002, 5.0254657418748565e-002,
          2.0698970651148462e-002, -6.2565479457071776e-002,
          -4.9325718744493291e-002, 2.6490655428515749e-002,
          1.0300087031426833e-002, 2.5535050829245513e-002,
          2.0979056861451396e-002, -1.8085339162001588e-002,
          -7.0378127283376793e-002, 3.1584796737225501e-002,
          5.3056044040709668e-002, -1.2634216200903195e-002,
          4.3430518386912247e-002, 1.7334767708034444e-002,
          -6.1702762084429603e-002, -5.8730092655113947e-002,
          1.0554305773067454e-002, 1.7071002027316307e-002,
          -4.3032420167558649e-002, 2.0463023961231425e-002,
          4.7063403376546756e-002, -1.7139557054627830e-002,
          -3.5091551373391885e-002, -3.7384771402931546e-002,
          -4.0014560395960005e-002, 7.9285288227444982e-003,
          -1.3903323868724917e-002, -4.7642215129824438e-002,
          -2.0703067523160961e-002, 2.1646845744922476e-002,
          4.5317552593313506e-002, -3.9779393125130846e-002,
          -2.3274872304947299e-002, -9.0763132078984629e-004,
          1.0602604322562830e-002, 6.1039964018299179e-003,
          3.0493825293223652e-002, 3.7831852722051702e-002,
          1.0849576287201493e-002, 2.3557588355050955e-002,
          4.4530503352251068e-002, 5.1634889816148943e-002,
          3.7766022180511179e-002, 1.8907611554096204e-002,
          4.4674829546120016e-002, 2.4158895799882171e-002,
          -7.6543741449880118e-002, -3.1888919266135497e-002,
          -3.0123125984208576e-002, 1.7115334550262817e-002,
          -2.1416641197753519e-002, -3.1991788767392025e-003,
          6.7893860245880067e-002, 2.6779682985098235e-002,
          3.2331912170222049e-002, -4.7525884581840989e-002,
          -5.9331001779539635e-002, 2.3779902894480787e-002,
          1.2440904475498520e-002, 5.7072960622428871e-002,
          3.0519049016052072e-002, 6.3306436009170713e-002,
          -2.6726290760524015e-002, -6.6871022694227455e-002,
          -7.5384473429059972e-003, -6.1811516376098524e-002,
          1.2536332839908579e-002, -4.3861071726614555e-002,
          1.2801287354944982e-003, 6.4785903650048451e-003,
          3.6619533994078177e-002, 3.8971957383005601e-002,
          3.6606290167169710e-003, 2.1411863848160934e-002,
          -1.3197971033910513e-002, 1.1218848289032296e-002,
          -8.6091511144835930e-004, -5.1902761376140777e-002,
          3.4852476960795124e-002, 1.3423761126206444e-002,
          9.1523963276386416e-005, 3.5416149271672297e-002,
          -3.1910685328537906e-002, 4.1294748954541785e-002,
          4.9671909185648282e-002, -1.3429154643086394e-002,
          1.2349885933190599e-002, -3.0252231000398311e-002,
          6.0314268574300299e-002, 3.5032848694618757e-002,
          -1.4419329755891667e-002, 1.1740127663349966e-004,
          -3.5534347643957742e-002, 3.1873612775979894e-002,
          9.7628107980797501e-003, 6.4046674100670309e-003,
          -8.2032228190527329e-002, 7.4193316472137685e-002,
          -1.1276891995199524e-002, 5.3021947718478880e-002,
          5.1774380374123130e-002, 8.3760657238396040e-004,
          -6.1945159864460874e-003, -3.1970214634071160e-003,
          2.3779170357217338e-002, 5.3898146521740700e-002,
          -6.0687445114480564e-002, -1.6185696751070122e-002,
          -1.0579944181305569e-002, -1.5140201958733928e-002,
          1.0331839328501053e-002, -2.4743893677359054e-002,
          -2.8041838876143751e-002, -3.2502066579721829e-002,
          5.6867833514623778e-004, 4.0227938636835436e-002,
          -2.9598045688419916e-003, 4.3338296149512838e-002,
          5.8998042555703381e-003, 3.7473090282472274e-003,
          -4.3918388824519115e-002, -5.7325408731955879e-002,
          1.8381890332309369e-002, 2.0203458971889032e-003,
          1.3513515315047577e-004, 4.7662558558453482e-003,
          2.0529520125783848e-002, -2.5432527974905902e-002,
          -1.5094283784119085e-003, -5.4238463051023309e-003,
          -4.2953218991700565e-003, 1.1539656451443326e-002,
          2.4280857483878608e-003, -8.8175189082879152e-003,
          -4.2868536420896074e-002, 5.0523093510391408e-002,
          2.4926438397749971e-002, 3.5151753708285698e-003,
          -4.0952534102532759e-002, -2.2349221965208985e-002,
          -9.9617623897160466e-003, -1.0132543595550349e-003,
          -7.2934127559974547e-003, 4.4037580183039507e-002,
          3.6158216001508175e-002, -1.9557295718768856e-002,
          5.2955288617766515e-002, 4.5201523197082878e-002,
          -5.6548180349425659e-002, -3.7021049469265523e-002,
          -2.5121030225014732e-002, -2.2414055479941658e-002,
          -7.0894984772287006e-002, -2.1168589881509991e-003,
          -3.3832988343976397e-002, 3.4578059830775075e-002,
          -1.3882446685676430e-002, -5.3296052793987518e-002,
          -7.7784895243408925e-002, -2.4977481566321173e-002,
          -7.9002533572078232e-002, 1.8802462112313914e-002,
          2.0836839733909790e-002, 6.3431487745862547e-002,
          -1.1418602908357574e-001, -3.0257772833785342e-002,
          -2.8203272805677609e-002, -4.6295564825543298e-003,
          -8.7102711481354365e-003, -2.2326854997013815e-002,
          3.7992866065531657e-002, -8.3256780949593143e-003,
          2.8232391844026181e-002, 6.1782976042078795e-002,
          7.3590835978638691e-002, 2.8544827551732755e-002,
          -2.2897069230659747e-002, -3.6194342524962723e-002,
          4.7481917791256448e-002, 3.7038008866554201e-002,
          1.8735871509309453e-002, -2.0496793679997936e-002,
          2.9309051240948222e-002, 4.6895567817814572e-002,
          1.7085724537549207e-002, 4.3144463486501972e-002,
          2.6605909773081030e-002, -1.0231357226861329e-001,
          4.0160923084223421e-002, -2.2254283918634401e-002,
          4.9300603469645363e-002, 1.8337887815034194e-002,
          -1.4111336175084886e-002, -1.5259259656622599e-002,
          4.6697576435293112e-002, 5.2221717026577621e-003,
          -7.0414303676794021e-002, -2.1918048416715793e-002,
          -1.4254353436569122e-002, 4.9084498590070497e-002,
          3.3647836238844264e-002, 3.5812946857912004e-002,
          4.8394561413249354e-002, 7.7147020505824743e-003,
          1.0408746205351673e-002, -2.1019884405570179e-003,
          2.0682320797527999e-002, 6.2903794392013945e-003,
          -3.1693731385088998e-002, -3.8125354560887871e-003,
          -8.3420530987369911e-003, -4.8990893346215571e-002,
          -6.8532787348339202e-002, -3.3897112258166343e-002,
          2.6861318854431725e-002, 3.7660630906013418e-002,
          2.5744431437492776e-002, 5.1807013081014215e-002,
          5.0555075752825328e-002, -1.6078704652968555e-003,
          -3.6463059139034630e-002, -1.2744327493289911e-001,
          1.4949378494855598e-002, -2.6952684181899729e-002,
          -6.3870186271180865e-002, -1.6398579915263379e-002,
          2.1410405721326072e-002, -4.1544755620029315e-002,
          1.1914584748827332e-002, 3.0435570435860197e-002,
          1.9008937218050182e-002, -2.2876107592802723e-002,
          -5.5916758685295477e-003, -2.0693371353515677e-002,
          -3.7144812375534145e-002, 8.0425741665281075e-002,
          2.2175597214156399e-002, -4.9895967322959818e-002,
          -1.0565427190684993e-002, 7.3882764347429778e-003,
          2.5327642883541189e-002, 1.1545693952865966e-002,
          2.5763525253391557e-002, 6.8795733795799174e-002,
          -5.7461310175162851e-003, -2.3293077317883154e-003,
          2.8684327836613305e-002, 7.6785318778987699e-002,
          -3.8805284303899235e-002, 5.7423679472840177e-003,
          -3.7531027127212686e-002, 9.1899958002314742e-003,
          -5.3435845161570308e-002, 2.8409747476694776e-002,
          -3.8963405947182124e-002, 1.9984017218775088e-002,
          5.8472327319387028e-002, 2.5497282616222694e-002,
          -6.2778558215355371e-002, -1.0132760393699430e-002,
          -5.6560442123483330e-002, -3.4617454237736121e-003,
          -1.4859021537494915e-002, 9.8047680585030286e-002,
          4.5646198635304829e-002, -2.2989304549414148e-002,
          1.3706906849706152e-002, -2.7064902836560763e-002,
          -5.3592802255201931e-002, 2.5719935445108866e-002,
          -2.0929983090305665e-002, 7.2933359218510501e-003,
          1.7088950118625209e-002, -3.9835472505223547e-002,
          1.8789573067165919e-002, -6.1183360247806413e-002,
          3.2062541636679175e-002, -1.9222073390508299e-002,
          -2.2177820139367321e-002, 3.2249693868268474e-002,
          -2.2861136462432884e-002, 3.1599660572566681e-004,
          -3.0719671084918569e-002, 1.0612442705884970e-002,
          1.6416630088822361e-002, -1.0406815135504293e-002,
          8.4707046713305922e-002, 2.0241572767868251e-002,
          5.6499595564436069e-003, 2.4018791286866008e-002,
          1.0885171762601765e-002, -4.8091233144222832e-002,
          1.3131065954757836e-002, 1.1782115546023229e-002,
          2.1582409369589241e-002, -2.6740001842678773e-002,
          -5.1681318930284657e-003, -2.6326581125040036e-002,
          3.5821686419267161e-002, 1.0487484938395176e-002,
          -3.3253867355949950e-002, -3.7981937038935938e-002,
          -1.1949213756455426e-002, -1.7980519702221982e-002,
          -2.7924295663587284e-002, 2.8254724402071090e-002,
          -3.1833450981710767e-002, -6.0482402621311382e-002,
          -3.3135725309050609e-002, 2.9723729152335586e-002,
          3.2140218220193743e-002, 7.6639968578599560e-002,
          1.7568490590905778e-002, -1.5851264337853714e-002,
          -2.8901600857652907e-002, -2.3518888726520790e-002,
          -2.7155002543115318e-002, -1.3635903428280513e-002,
          2.9981341338428787e-002, 3.5895314332936197e-003,
          -4.4036243728679267e-003, 4.5874545773397904e-002,
          3.5644820683598199e-003, -2.1179971246679408e-002,
          -4.0021263195265611e-002, -1.9038811568164636e-002,
          -2.2475925366145878e-002, 1.4007663165615714e-002,
          6.9166211463468205e-003, -1.0684905314742589e-002,
          1.3153273455579186e-002, 1.2105106604502135e-002,
          -6.2579361617173129e-004, -5.8920834214023554e-002,
          -5.7819152568687453e-003, -1.4661259529945049e-002,
          9.2309401985347598e-003, -9.8905110194198610e-003,
          -1.0812042208723061e-002, 2.3166950479771419e-003,
          2.4013583720077338e-003, 3.3834999553866672e-002,
          2.1431413228979101e-003, 3.9402704296912415e-002,
          3.6521479346019632e-002, -4.9442362260895076e-003,
          2.9940786664305077e-002, -1.7518705595438985e-002,
          -3.8924641298577124e-002, -3.9593646383805199e-002,
          -1.5895155220173259e-002, 4.5677911812013153e-002,
          1.3393698741505415e-002, 6.3776812804177997e-003,
          2.9409686952602738e-003, -6.6160578361302499e-002,
          -2.9152861866920303e-003, -4.1310466545593734e-002,
          -3.7117543144204609e-002, -2.4140816634585258e-002,
          1.5108276082114139e-002, -4.8900382860891503e-002,
          -3.2468831502724910e-003, 1.9276814171032042e-002,
          4.3553424442669783e-002, -1.1938213936812492e-002,
          7.0413964848210333e-003, -1.0136810766231369e-003,
          -2.2645039397351182e-002, 1.8059473779835706e-002,
          6.3845973244994011e-002, 1.9078286196278108e-002,
          -5.9228255722431469e-002, -1.3577611419978229e-002,
          -4.4523786596437152e-002, 3.6975331383820351e-002,
          1.2664480969162908e-002, 4.7856782087884091e-003,
          -4.6413347719182207e-003, -1.9904998852981470e-002,
          -5.0017844137157609e-003, -5.6717995890115232e-002,
          -1.2372512371845775e-002, -2.0316542572814168e-002,
          3.5979861078293998e-002, 3.5871827663810717e-002,
          1.8172479944627577e-003, 7.4692382887874501e-003,
          4.5297720843948137e-003, 1.1242069862048847e-003,
          -2.4549451236427572e-002, -2.4436465573617998e-002,
          -9.3106905929105435e-003, -2.5883447442478343e-002,
          5.8982628278636030e-004, -6.1522313757284711e-003,
          -3.9786230199173505e-003, 1.3141035141631200e-002,
          -2.6652797033901904e-002, 1.1521955493018276e-002,
          -1.3962782829058251e-002, -4.0791869025715508e-002,
          -6.3924869177171301e-002, -1.5137399621776048e-002,
          9.2870530048716534e-003, 1.7850194219429238e-002,
          -2.9448065853107219e-002, -1.9645358160740103e-002,
          -3.7146608165230896e-002, 4.7949961283408671e-002,
          -2.7222400658209713e-002, 1.9478832890083279e-002,
          2.2819726014654238e-002, 5.8236820592915878e-002,
          3.6165990734233433e-002, 2.9554977034533636e-002,
          -1.7186500247644440e-002, -9.4751255317664079e-003,
          -2.6089260463472094e-002, -1.8783459068284547e-002,
          -5.8143873220629937e-002, 2.9882182513331322e-002,
          -3.1663003107455498e-002, -3.6379060898802433e-002,
          9.8584726702222077e-003, 4.1755702440657204e-002,
          2.5166708884009931e-002, 3.1511502180362451e-002,
          -3.1872915078265458e-002, -2.0129857193024830e-002,
          1.7490346460481622e-002, 5.5146284867833129e-002,
          -4.2516023541351589e-002, 1.2474587336018689e-002,
          7.0482202593270017e-003, -7.8254661188306873e-002,
          -1.0207251011225264e-002, 2.4355544376076375e-002,
          -1.2812316210993893e-002, -7.7873041438757844e-004,
          -3.1978543879379075e-002, -4.0056448838500069e-002,
          -5.3746483918317579e-002, 9.7765002694640904e-003,
          5.1467653661753147e-002, 3.9827363668240058e-002,
          9.8046830540174969e-003, -1.5482799900686213e-002,
          2.4996380641564602e-002, -2.4832903513620781e-002,
          1.5698269703863198e-002, 1.1435535161581864e-002,
          -3.0927207229563481e-002, 3.1657447357812021e-002,
          4.0126527855952110e-002, 1.3325466753109421e-002,
          -5.6774606717465504e-003, 1.0596874262009330e-003,
          -1.1200424314629857e-002, -7.6992480478002695e-003,
          2.5826552231163431e-002, -3.7837267603544236e-002,
          -3.5982862663800396e-003, 1.6316887178034575e-002,
          -2.9600390102523504e-002, 6.2570499465684881e-002,
          -3.9925599532060090e-002, 2.4080012836411539e-002,
          5.1411951118831012e-002, -3.3169974491466588e-002,
          1.1022280618351102e-002, -8.5422721825466931e-003,
          2.1665264633469322e-002, 3.0339840260742795e-002,
          -3.2373398638808771e-003, 4.3303602163350885e-002,
          -1.0133304220402194e-002, 1.3513542113223313e-003,
          3.5199404016939453e-002, -5.6563623111910821e-002,
          9.0527528210992293e-003, -1.1753519495652587e-002,
          3.6752286060513041e-002, 8.2219847222695080e-003,
          -3.8089939625759017e-002, 4.8861974230002513e-002,
          -4.2118236731617263e-002, -2.2521942843855072e-002,
          2.2395622296336157e-002, 3.7851839260963152e-002,
          9.9137992931012543e-003, 5.8008948188426626e-002,
          -5.5873696023571319e-002, 1.3250456097236981e-002,
          -2.4968464644964581e-002, 4.6042970886568134e-002,
          1.7646766096195005e-002, -3.0320668253886126e-002,
          -1.0122986562286700e-002, -3.9052311994529000e-002,
          3.3753053210545227e-003, 2.8031472459962167e-002,
          4.0469445082987832e-002, -5.4059387174820332e-002,
          -1.3973045061303504e-002, -4.1377168824250708e-002,
          -4.8674539809891266e-003, 2.4793725186549979e-002,
          1.6938424222802440e-002, 3.4073006362507832e-002,
          -2.7443856751775105e-003, -7.6194601293358907e-002,
          -3.0083480330774692e-002, 2.8750283893839081e-002,
          4.0003606283800695e-002, 3.3861951856045326e-002,
          5.0891897969719380e-002, -1.0378374119908223e-002,
          1.0413841141717629e-002, 2.8977621464424379e-002,
          1.7721361423276391e-002, -1.1004614187250350e-003,
          5.2827805343570438e-003, 3.9842304306572783e-002,
          4.6280596699211016e-002, 3.8706197005369924e-002,
          2.6618488523501661e-002, 1.8636031779270638e-002,
          -4.0883171236622530e-002, 2.1642154059071288e-003,
          -1.6777682739044619e-002, 3.9446791795907453e-002,
          1.3529785993441221e-002, -1.5040441958765458e-002,
          4.7821274554894863e-002, 5.7345188693688973e-002,
          -4.0795032915758103e-002, 6.9023324699648229e-003,
          1.5537478872754435e-002, -7.2883957591829678e-003,
          -1.0274203547210998e-002, -4.2552165668012024e-002,
          3.0653236707743427e-002, -9.5641781872076545e-002,
          -3.1983260814744757e-002, 4.4885635594737357e-002,
          -1.8782226524627698e-002, 9.8055557090379157e-003,
          5.0942992922291770e-002, 2.1787850736454856e-002,
          7.2353500411285118e-003, -2.0402980695018048e-002,
          -7.6626817412507667e-003, -2.9275378825958060e-002,
          1.4236698345629840e-002, 5.7878432399867827e-002,
          6.9464774112970695e-002, 3.6056886071762849e-002,
          2.3284537791088460e-002, 1.9515968628059918e-002,
          4.2674782496612024e-002, -4.0585889450722272e-003,
          3.7706994096071429e-002, 3.2039903868919181e-002,
          -6.2335965795693359e-002, -1.3578378062410391e-002,
          9.5171261565717962e-003, 5.9749269393705465e-002,
          -4.9453643439933918e-003, -7.8994068695345324e-003,
          -4.5311664611748362e-002, -1.4144785254408678e-002,
          4.9092674581485078e-002, -3.9003613971433870e-002,
          2.2146683760660237e-002, -2.4309041031860715e-002,
          -1.2289829208693922e-002, 1.0221694970698024e-002,
          2.9690524792469381e-002, -2.2473110960484766e-003,
          -3.3409074883931841e-002, 2.9905775142041138e-002,
          3.3472607359550474e-002, 2.5827610711934037e-002,
          -3.2500582587773323e-002, -6.1041971530865623e-002,
          1.8892397365191486e-002, -3.8839192380537922e-002,
          -6.1377776648093282e-002, -1.1380365372230397e-002,
          8.8977783544486704e-003, -4.8167502438144286e-003,
          -2.3898899547198749e-002, -3.6123485733510464e-002,
          6.2726409403865476e-003, -3.2125573444875974e-002,
          4.7288632592867287e-002, -2.1085501411688884e-002,
          2.5796933652650504e-002, -1.1460521670143063e-003,
          -4.7980650750085660e-002, 5.9641341774219342e-003,
          3.9344163332928589e-002, 1.1560412756738731e-003,
          6.0132274688875038e-003, 1.8982193347516461e-002,
          3.3133142879323126e-002, 9.1820978072808083e-003,
          1.0860780099267206e-002, 1.9639683842871007e-002,
          1.4094915493826903e-002, -1.0917604435400881e-002,
          4.9676395066138006e-003, -4.1701133565157859e-002,
          2.4117252904327841e-003, -2.3478286037157521e-002,
          -6.2224528515317000e-003, -5.0784894846012472e-002,
          -9.8854291472601202e-003, 5.0560126451726889e-002,
          7.0650334825900829e-002, 6.0015151536831693e-002,
          9.3476406385224822e-003, 3.6913319880601328e-002,
          -1.7071965804858575e-003, 3.5545986403864821e-003,
          -5.6201823832464089e-002, -3.2079004178110332e-003,
          1.7460372970553369e-002, -3.9140291735785537e-003,
          6.1580900775582217e-002, -3.3774345332246887e-002,
          -1.2507489570506833e-002, -7.0133075401573371e-003,
          1.6907740199237152e-002, 3.2724835271190765e-002,
          -3.8678740895786940e-004, -3.2404433311918349e-002,
          1.4587358242207717e-002, 6.5292606448613372e-002,
          7.4723765773945752e-002, 5.5259494028796451e-002,
          2.2660232779678109e-002, 4.0426447016381414e-002,
          3.2830333707806717e-003, -1.8129014850733607e-002,
          -8.7423007925703913e-002, -1.5739516522120345e-002,
          1.2195747476660851e-002, -6.3992923739159676e-003,
          -1.0900845622836209e-002, 1.9410641159533469e-002,
          1.3587292946046815e-002, -3.5846241015198600e-002,
          -5.3668213278422602e-003, -2.1824812520252493e-002,
          4.1609449576404063e-002, 2.4793555146030457e-002,
          -9.0624104609851579e-003, 1.0399160833329216e-002,
          2.8648847692221386e-002, 2.7693371154379785e-002,
          1.0674155793540760e-002, -3.5272593643716731e-002,
          2.6882979705427898e-002, 3.7995562367542958e-002,
          -3.0415899160974667e-002, -5.4960407775585710e-002,
          -9.0040663060338699e-003, 1.8546215658680074e-002,
          -9.2211439717636193e-002, -1.9763822392388573e-002,
          -9.8582113931646835e-003, 2.8897803482169925e-002,
          2.7458452621998076e-002, 1.6786203399639085e-002,
          4.4973229628394132e-002, 6.1171166809814055e-002,
          -5.4362200748427590e-002, -4.5469110575200325e-002,
          6.7182557636981888e-002, -5.0249656821967359e-002,
          5.4028142823050136e-002, 6.2274494195230234e-002,
          -2.4989690671847115e-002, 2.3940020443744735e-002,
          -1.4468659338872132e-002, -4.0005294544823489e-002,
          -4.5646465072294765e-002, 3.1202199139811122e-003,
          -1.1154187651996062e-002, 2.1284316268538824e-002,
          3.5877953856457687e-002, 6.8032685063853099e-003,
          1.2035008422310242e-002, -5.7652612245942068e-003,
          -1.3655505695894327e-002, -1.3718873610252369e-001,
          2.8582885976012475e-002, -1.1226593163560736e-001,
          -2.8729322845504807e-002, -1.9392710469546999e-002,
          7.4161530030041237e-002, -5.3084495288240004e-002,
          -1.5375687315652064e-002, -1.2013921723511765e-002,
          4.5620186448125349e-002, 7.6025787925380409e-002,
          -1.9541308995876895e-002, -4.8146960053897818e-003,
          2.0403027677049226e-002, -7.0909421770412933e-003,
          -4.1626650572174836e-002, -1.4703355238480096e-002,
          5.0453631716449440e-002, -1.9572296432730486e-002,
          1.5827010243136905e-002, -1.4337463824527051e-002,
          6.2140298544954911e-002, -1.8331169031861667e-002,
          1.1710229661298414e-002, -1.9203654952130125e-002,
          -3.7990134741167943e-004, -5.6782669680468106e-003,
          4.4151087069393490e-002, 3.7202689426510385e-003,
          -7.9911097170690514e-003, 5.9062330138066235e-002,
          -5.5027919537356154e-002, -4.9375462230696235e-002,
          -2.4101383229939495e-002, -2.2845075906498851e-002,
          3.3350817085800399e-002, -4.0646617886185087e-002,
          4.9862295149537800e-002, 5.1088333373673904e-002,
          -6.1476332649117268e-002, -1.7814423186579753e-003,
          1.0853013293139781e-002, 2.5182879240535548e-002,
          2.3310385212268896e-002, -3.4353406826511536e-002,
          4.6117179830259300e-002, -3.6142814720352370e-002,
          -9.2871053984094815e-002, 3.0826888773247529e-002,
          -3.6495920412888398e-002, -2.2843853518268106e-003,
          1.1566603409437086e-001, -8.8881854918578754e-003,
          -4.9797177436143009e-002, 6.1306551917694657e-002,
          4.8877963388477122e-002, 1.6745314874127740e-002,
          4.1879293561697152e-002, -1.1578303327742063e-002,
          3.4863409307307698e-002, 3.8909240672610347e-002,
          9.1039635262469918e-003, 2.5371933799311217e-002,
          3.9490148331176290e-002, -6.8985242515549827e-002,
          -5.9287487067909136e-002, 2.2538803465248908e-002,
          -4.4465946302491947e-002, 4.7637040746438805e-002,
          -6.7024972084839679e-003, -2.7228414734283599e-002,
          2.5872400908223306e-002, 1.9553402905491096e-002,
          1.5860078557019062e-002, -7.5091948552770224e-002,
          -8.8370660742988260e-004, -8.0566789688931340e-004,
          -5.6659554131683498e-002, -5.8563163282329939e-002,
          -2.5802931829450437e-002, -5.6080933593437327e-002,
          3.5249277417228324e-002, 3.9057397276487500e-002,
          -6.5538901795328938e-002, -3.8809122466029571e-002,
          -6.4160444000571470e-002, -3.0646019817802454e-002,
          1.0755699679001041e-001, 5.8954623212677734e-002,
          5.8313348583623414e-002, 6.0877781670575651e-003,
          -8.3034404323903785e-002, 4.1044619927143845e-002,
          6.7895023754498416e-003, -1.0332650119530246e-001,
          -7.8397124392102085e-003, -1.8179207369445723e-002,
          -1.0917843810684755e-001, -4.9344055592512662e-002,
          4.4171263702969692e-002, 6.6309165594281363e-002,
          -3.3969411463043934e-002, 9.4980513720267487e-002,
          3.5930656408196281e-002, -5.8357354937155229e-002,
          -3.2850130237747792e-002, -8.3818713925501276e-002,
          3.3841805966118542e-002, 3.2913174717459789e-002,
          -2.1384379897061840e-002, -4.9583449575077487e-002,
          -1.0006454861005974e-001, 1.2908375110862619e-001,
          -1.3373274691753435e-002, 3.2545684428917671e-002,
          3.7102746871629434e-002, 1.6074618206176703e-002,
          -3.5784613128050251e-002, -1.7538311772238611e-002,
          -6.5825810695982825e-002, -6.3664826253281043e-002,
          -4.2690929058497903e-002, -5.6345099508551072e-002,
          -1.5172343231508902e-002, 1.4267622718481391e-002,
          -7.8360929696618439e-002, -1.4039555569001798e-002,
          -1.6687583808521495e-002, 5.0805591993557130e-002,
          -5.5019335765939217e-002, 2.6623666919975185e-003,
          3.5918042521373858e-002, 4.0132828001434220e-003,
          5.4334497733314396e-003, 7.7503688143901401e-003,
          -8.7457186857946220e-002, -3.2602307084747824e-002,
          -6.9613421691721647e-002, 5.9621027315419611e-003,
          8.1575311959085017e-002, 9.5368404371341756e-003,
          4.4019530152671016e-002, 3.5705072691457000e-002,
          -4.4008089559989347e-002, 7.1615348951643953e-002,
          1.0610095291988200e-001, 7.4378937098119866e-002,
          1.1784618458262343e-001, -2.9057745859471483e-002,
          4.3137983406076393e-002, 2.9610990917147650e-002,
          -5.0033942048888412e-002, 7.8127403293126209e-003,
          -2.2165404669186012e-002, -7.2216800830870185e-003,
          -2.8791538254765957e-002, 2.8111491855992328e-002,
          7.3252946180022583e-003, 3.7460912388812048e-003,
          -1.4385226078246038e-001, -5.9274224686259716e-002,
          2.0781324344477582e-002, -1.2094635535728902e-002,
          -5.3212447883973411e-002, 3.7976953822679939e-002,
          1.0168895608781812e-002, -6.5221731634277247e-002,
          2.0308450576801532e-001, 6.9719693294234109e-002,
          -6.2946968067590398e-002, -2.1966220431297031e-002,
          4.8627217770783458e-002, 8.7089620857514247e-002,
          -9.3887230559284010e-002, -1.0271155463422733e-002,
          3.8043148813938880e-002, -3.4217647857787033e-002,
          -1.2370666630737636e-002, -7.8472793089466975e-002,
          4.8315861051515793e-002, 9.9104554440301498e-003,
          -7.5427271740978574e-002, 6.7326554045031073e-002,
          4.5423435039810375e-002, 5.5509644046341670e-002,
          -3.1556835441648279e-002, 7.1264331914810783e-002,
          3.8738388772758287e-002, 6.5768747110433942e-002,
          -1.2157972964142413e-002, 7.7147954497186519e-002,
          -5.5165555418593866e-002, -3.5385896509327219e-002,
          -1.1071606127137392e-002, -8.4801682090228162e-003,
          5.6435511194784869e-002, -7.6141310206138110e-002,
          7.0256275478370073e-002, 3.4576292394309864e-002,
          5.0800655350034613e-002, -3.6629720900537413e-002,
          -1.3537144088652786e-002, -3.0711669208858178e-002,
          -2.9471770066296582e-003, -6.6291230631652057e-002,
          -2.8703168334249650e-002, -2.5711281896921151e-002,
          4.1775216638801228e-003, -5.6630020904795565e-003,
          1.3322515851039493e-001, -2.6644302340638457e-002,
          -6.7747054581638030e-002, 4.1301395051493675e-002,
          1.3422707014346286e-001, -3.3949397743319808e-002,
          9.5116267544442051e-002, 3.5454235613437440e-002,
          -2.9813227328145696e-002, -1.0778646958179491e-001,
          1.5428144185320956e-002, -1.6063341404900094e-002,
          -3.9826032935075265e-002, 4.1979755993435787e-003,
          4.1489466368173848e-002, 6.7299792469992667e-002,
          -2.8384030178846761e-002, -8.4045600586069344e-002,
          -5.2306238115450279e-002, -1.4355169480432374e-002,
          5.2977876445457449e-002, -6.0635891933652875e-002,
          -4.2302507054003465e-002, -1.2400004670668875e-001,
          -4.3073664080079364e-002, -3.4535376165074447e-002,
          1.0583228248581723e-002, 2.7296738460996992e-002,
          1.3600045357179758e-003, -9.9460599529321944e-002,
          -7.8789524503958430e-002, 9.0752040803625214e-002,
          8.0160232386053160e-002, -3.0247951365502394e-002,
          5.3515158237736907e-002, 2.7889765675103498e-002,
          1.2833111733571953e-001, -9.1607292617793198e-002,
          1.0727649955330987e-001, 3.8514926011093048e-002,
          -4.9831787029219983e-002, -3.3148879551773196e-002,
          8.8516136851194568e-002, -3.2745752652164466e-004,
          -6.9724037986162325e-003, 1.0953981004409659e-001,
          1.1074168210857019e-001, 3.4963008733096920e-002,
          1.2476273855975115e-002, -1.3312864861468077e-001,
          -5.1426917929290009e-002, 1.2687058894300363e-001,
          5.1294708371052385e-002, -1.8838939217350630e-002,
          8.6903985026978756e-002, -8.4891880801731285e-003,
          -1.2529437219580390e-003, -8.7551788868528282e-002,
          8.1876976606335070e-002, 4.7626168378686939e-002,
          2.3857923324897851e-003, -1.8948215847642454e-002,
          1.7639493424527881e-002, 3.0924313407061511e-002,
          -4.6171915550832825e-002, 3.1776650890688263e-002,
          3.7162626732866175e-002, -4.6052164505473968e-002,
          -2.7132583721419502e-002, 2.5374240555969627e-002,
          2.5961002115817734e-003, -2.0427151294714979e-002,
          -4.3689979858632051e-002, -2.8268356789516568e-003,
          -1.7262590841812687e-002, 2.9366566537251490e-002,
          -1.1889200314104736e-002, 1.2625967185515272e-002,
          4.7934766797010697e-002, -2.3844741541715272e-002,
          -2.7729539148427681e-002, -1.0471231534100190e-002,
          1.7186578492504406e-002, -3.4296948962149104e-002,
          -1.3058878604725868e-002, 2.9611146021810610e-002,
          7.4180805237366726e-003, -3.5426430244033982e-002,
          4.9977619336141463e-002, 8.6602781799239970e-002,
          -6.1906138829495878e-003, -2.1305034939263855e-002,
          -2.9853308133169765e-002, -2.1942123479981659e-002,
          1.8902015944451869e-002, -3.9283804341017345e-002,
          3.4990921560115899e-002, -3.2252707471606690e-002,
          -2.0716704265823192e-002, -5.1896568998680594e-002,
          5.0331290381079731e-002, 3.8077064003869163e-002,
          1.0319003018944544e-002, -1.1854295521509971e-002,
          3.2339622704158223e-002, -5.4607941724300869e-002,
          -1.4340223969897163e-002, 3.3549184853675189e-002,
          3.2535919689891039e-003, -2.2435438230087663e-002,
          2.8341504198598939e-002, -7.7593167590200513e-003,
          -3.7556695646243060e-002, -2.2624511491548434e-002,
          7.0218371180851683e-002, 1.6508299326452418e-002,
          4.0332102878414766e-002, -3.4402514160595428e-002,
          4.3669240820432095e-002, 3.4096746013438449e-002,
          1.5887114650409900e-002, 2.2804707370583238e-002,
          -4.4765118843363349e-003, -9.5120678047950047e-002,
          -4.6178909917040309e-002, 2.1748494570446093e-002,
          2.5829434165878587e-003, 1.6012885227123769e-002,
          -1.1813962603252707e-002, -4.6884953924079903e-002,
          -6.4149313353739940e-002, -1.9384344670220746e-003,
          4.5741804045264588e-002, 2.8476634487490434e-004,
          -1.9383691982507091e-002, -5.8509538477992694e-002,
          2.1294720479657626e-002, -6.6845397915273524e-002,
          3.7794223471165483e-002, 2.2337003420532960e-002,
          1.1742313276902363e-002, -4.9180897540771771e-003,
          4.7646101247207542e-002, 2.1607187304402056e-002,
          -1.9717537446600018e-002, 2.2176739013782382e-002,
          -1.9494637084943669e-002, 1.8142228763916267e-002,
          2.9758741736514042e-002, -4.6018994971314918e-003,
          6.5289137290097492e-003, 5.7338312240708046e-002,
          2.1012878020200187e-002, -4.8605736189436199e-002,
          7.3280850420780058e-002, -5.0986396474423622e-003,
          3.0700715884029953e-002, -3.3829458706372467e-002,
          7.4572415955640681e-002, -3.7114647003626815e-002,
          1.1155905782877713e-002, -4.0058705387515027e-002,
          -5.1306524513137476e-002, 1.5268455129457034e-002,
          2.4154182977879891e-002, 3.4253425156998391e-002,
          1.4029775289761107e-002, -2.4422885803580922e-002,
          -1.0848712492960988e-002, -2.1648955167621178e-002,
          -4.6219368006204641e-003, 1.2338579012614469e-002,
          -1.4406526791260454e-002, 2.2511639874753752e-002,
          2.2188334161472388e-002, 1.6000465757812197e-002,
          2.8483359729688983e-002, 2.5254085739294160e-002,
          -4.9040083207739921e-003, -3.6268208667503458e-002,
          4.4251502468435865e-002, -5.1801624528025839e-003,
          4.5813669984076676e-002, -1.0584549865105240e-002,
          -4.7297308883953318e-003, -1.3349447694049381e-002,
          1.3344652143983799e-002, 1.8578397621154739e-002,
          5.4319459782364583e-002, 6.2627726580963940e-003,
          1.0217973813052309e-003, -7.0860919445766028e-003,
          7.8083375978380883e-003, 2.3427331759159072e-002,
          -3.4474289070867269e-002, 2.7620398811435069e-002,
          -1.3628965884338045e-002, 1.5840152965534485e-002,
          -2.9326255852903283e-003, -2.6092474893505153e-003,
          2.6106156531269476e-003, -5.6463710484151953e-003,
          6.6693809828908390e-003, -5.6313450748719362e-003,
          -2.1910701246128542e-002, 5.7723060715137260e-003,
          -2.8709122199509138e-002, -2.1145245457854654e-002,
          -2.1629004217376055e-002, 3.4567167659140897e-002,
          6.5625773624143537e-003, 1.0944355641805018e-002,
          -2.0558572177719659e-002, -7.3277951264340471e-003,
          -3.8119801388870805e-002, 1.3571607852516493e-002,
          8.9733990399530027e-003, -3.5585195458389417e-002,
          -3.1429633914957553e-002, -1.8011275639331654e-002,
          1.6666488552202045e-002, 2.7917181223215765e-002,
          2.3732086348841872e-002, 2.7377579748166646e-002,
          1.2175669322374049e-002, -3.8977919319372078e-003,
          6.4333032654932849e-003, -1.3419377781221755e-002,
          -1.4005126748195569e-002, 8.2636577888975313e-003,
          1.0705782610433003e-002, 1.1697872653404010e-002,
          1.5900203365346442e-002, -3.1877195655104142e-002,
          -2.9789936381093710e-003, 6.2082003399175269e-003,
          -5.2595588597454342e-002, 3.3124764198228109e-002,
          5.9372631668042353e-003, 1.3637960604312323e-002,
          1.1438892465153049e-002, 3.3863429831248119e-002,
          -1.8524795487784393e-002, -3.8818690723960561e-002,
          3.0927183839880169e-002, -7.6974765729681469e-003,
          1.7810500771631814e-002, -1.8483575778791186e-002,
          2.3501457661593891e-002, -2.7523701239164328e-002,
          2.1749899789978367e-002, -1.6409556346741554e-002,
          -2.2397510639614399e-002, -5.8103344894689726e-003,
          6.0078994036644739e-003, -8.7257702732164745e-003,
          -1.6551672534652614e-002, 4.9179044290717337e-002,
          -2.7759207027149197e-002, -1.8090448954748081e-002,
          -1.8917775573186819e-002, -7.9369252118868579e-003,
          -1.5406098278467149e-002, -1.0513234302599289e-002,
          -2.3401576893454800e-002, 2.6159596571189058e-002,
          -3.5336337895677541e-002, -7.8259696038313203e-003,
          -4.5726374982789572e-003, -1.7654528467298328e-002,
          -1.0418011570155981e-002, 2.2356742264609906e-002,
          3.1247897728836856e-002, 1.3448679386625691e-002,
          -1.9284686828873569e-002, -2.4316900841830209e-002,
          4.7978837896054673e-004, -9.6324371210793069e-003,
          2.1396518192531321e-002, -1.6933346303477474e-002,
          3.1304335923021287e-002, 2.4604413821820003e-002,
          -2.7046613641982069e-002, 3.3658248642949380e-003,
          2.0978889681459105e-002, -1.2860845883749621e-002,
          1.4477716330889989e-002, 4.0509029620040748e-003,
          -3.5996930169533037e-002, -1.4444829629357768e-002,
          1.0602710753905708e-002, -1.1837875169225491e-002,
          2.6929473470714952e-002, -1.9051843701990756e-002,
          2.3235080484858574e-003, -1.7540455777052901e-002,
          -3.1759762937103440e-002, -3.4627652394512591e-002,
          1.9662027297348655e-002, 5.3747039059344904e-004,
          -8.0064195403467976e-003, -1.4355864119166912e-002,
          2.6504876734022562e-002, -3.8135638558826203e-003,
          -9.3992890195248695e-003, 5.1990826821247338e-002,
          -2.5540635349251864e-004, 2.9791945865438645e-002,
          2.6398684232324120e-002, -1.7702753436124447e-002,
          -1.8424874659414697e-002, 5.5215641174109834e-003,
          3.9002115300736284e-003, -1.7496112704116936e-002,
          -2.5218530359687175e-002, -3.8658205057101138e-003,
          -4.2814908831595347e-002, 1.9392264422364903e-002,
          -2.2735696594242030e-002, 4.6398457167371863e-002,
          -3.7693485323575061e-002, 2.5502582663824628e-004,
          -2.5766777163199160e-002, 1.2734407873433619e-002,
          6.5416220963978883e-003, 1.9705052175893786e-002,
          -3.1867909144230495e-002, -3.3498534410654774e-003,
          2.5837221131717068e-002, 1.3236110186847722e-003,
          3.7161239095208519e-003, 9.0475833720708439e-004,
          3.0395171675813931e-002, -1.0152384468622227e-002,
          2.4791112902132709e-002, -1.8625439084549365e-002,
          -3.5919313511578528e-003, 1.6296159543747756e-002,
          4.3086214513205726e-002, 6.9628670580670002e-003,
          -2.4645093103045742e-002, 5.9568888097538217e-003,
          2.0297948464305490e-002, 2.5278516877314237e-003,
          4.7524557125355835e-003, -3.7664512482618040e-002,
          2.3598135421786941e-002, -4.8359178370790410e-003,
          8.3250094574268806e-003, 2.6529326459128390e-003,
          1.5765849250093954e-002, -2.8918267707922746e-002,
          2.5365918073752016e-002, -7.8514507994282157e-003,
