%YAML:1.0
my_svm: !!opencv-ml-svm
   svm_type: C_SVC
   kernel: { type:RBF, gamma:5.3830000000000000e+000 }
   C: 2.6699999999999999e+000
   term_criteria: { epsilon:1.1920928955078125e-007, iterations:1000 }
   var_all: 64
   var_count: 64
   class_count: 2
   class_labels: !!opencv-matrix
      rows: 1
      cols: 2
      dt: i
      data: [ 0, 1 ]
   sv_total: 35
   support_vectors:
      - [ 5.57627622e-003, 4.40756138e-003, 5.68268262e-003,
          7.22216023e-003, 4.50524613e-002, 2.67882482e-003,
          1.65745616e-003, 0., 6.99985400e-003, 4.77510924e-003,
          2.98752310e-003, 5.80341183e-003, 1.06919678e-002,
          4.89345333e-003, 2.96043768e-003, 1.97105855e-003,
          2.22766977e-002, 2.02051662e-002, 1.80904008e-002,
          1.58130024e-002, 6.29386306e-002, 1.57914646e-002,
          7.46595068e-003, 3.74270324e-003, 7.50387879e-003,
          7.65206758e-003, 7.68574839e-003, 2.09763646e-002,
          6.83064014e-002, 2.57969312e-002, 2.05085985e-002,
          2.16798838e-002, 8.10946003e-002, 8.61063153e-002,
          9.69504863e-002, 1.10112481e-001, 1.69100538e-001,
          9.12474170e-002, 6.61414862e-002, 6.37698025e-002,
          9.21550021e-002, 8.53522941e-002, 6.28349483e-002,
          9.36747044e-002, 1.32014021e-001, 8.83669034e-002,
          5.46454862e-002, 6.02731742e-002, 1.45936683e-001,
          1.58402979e-001, 1.77294478e-001, 2.94883788e-001,
          3.50243896e-001, 1.95829540e-001, 1.57799959e-001,
          2.20501274e-001, 1.74780533e-001, 1.76443994e-001,
          1.81018218e-001, 3.09164196e-001, 3.98000181e-001,
          1.96914658e-001, 1.47604749e-001, 1.88177153e-001 ]
      - [ 1.07838511e-002, 8.74126982e-003, 0., 4.81631001e-003,
          1.07734473e-002, 0., 3.16519663e-003, 0., 0., 2.58437241e-003,
          0., 1.21120457e-002, 1.93762183e-002, 1.65181812e-002,
          1.68818012e-002, 9.19031631e-003, 2.35219765e-002,
          2.66565960e-002, 2.62891240e-002, 3.44691239e-002,
          4.25462089e-002, 9.39994399e-003, 5.16874483e-003,
          6.60687406e-003, 5.51366573e-003, 6.48747804e-003,
          1.21271145e-002, 2.19305009e-002, 3.82285975e-002,
          2.48248838e-002, 3.55460942e-002, 2.48162020e-002,
          7.14446679e-002, 5.63475899e-002, 7.67693669e-002,
          9.02511626e-002, 5.50286770e-002, 3.14204730e-002,
          2.77914833e-002, 2.11732164e-002, 4.16308865e-002,
          3.95891927e-002, 6.50467500e-002, 9.94649231e-002,
          1.21413074e-001, 9.13491920e-002, 5.87550737e-002,
          4.61765043e-002, 2.52169877e-001, 2.84130275e-001,
          2.53905416e-001, 2.57378578e-001, 2.84252167e-001,
          1.61183566e-001, 1.48733094e-001, 1.56645030e-001,
          1.39245152e-001, 1.92268118e-001, 2.74923354e-001,
          3.11056376e-001, 3.89534324e-001, 2.12877870e-001,
          1.82925805e-001, 1.65489778e-001 ]
      - [ 4.63721994e-003, 4.23619663e-003, 2.00174889e-003,
          1.68326334e-003, 4.96265898e-003, 2.83090025e-003,
          4.94839484e-003, 1.01181008e-002, 1.27501525e-002,
          7.47210486e-003, 3.85140372e-003, 7.54854176e-003,
          1.16473632e-002, 0., 3.55966855e-003, 0., 2.85347477e-002,
          4.81132790e-002, 8.42230693e-002, 4.09360118e-002,
          5.14481403e-002, 1.01303430e-002, 6.17121579e-003,
          4.60123550e-003, 5.47117367e-003, 6.78855181e-003,
          1.66940000e-002, 3.18054073e-002, 7.45530054e-002,
          2.34597921e-002, 1.74893308e-002, 1.55105200e-002,
          6.08944669e-002, 3.64307500e-002, 6.14186414e-002,
          8.27517658e-002, 2.04041719e-001, 5.38890585e-002,
          2.85226163e-002, 4.80059348e-002, 8.35719779e-002,
          3.57683338e-002, 5.16941622e-002, 4.79394272e-002,
          4.27044854e-002, 3.30415815e-002, 2.78958231e-002,
          4.98167612e-002, 1.26424775e-001, 1.62693858e-001,
          2.77750462e-001, 3.49985868e-001, 5.55614769e-001,
          1.36948854e-001, 8.76738355e-002, 7.24996701e-002,
          8.93121585e-002, 1.48103669e-001, 3.04303885e-001,
          3.16093594e-001, 2.40368441e-001, 9.78610590e-002,
          1.00548238e-001, 1.07341938e-001 ]
      - [ 9.12740268e-003, 4.68353787e-003, 0., 6.94089150e-003,
          1.72383059e-002, 8.65185354e-003, 5.62808383e-003,
          6.94089150e-003, 9.71511472e-003, 0., 1.31681589e-002,
          3.45861763e-002, 5.33714183e-002, 2.01196838e-002,
          9.04130191e-003, 6.97784778e-003, 7.11734220e-002,
          1.97415650e-002, 2.16656532e-002, 2.78565828e-002,
          1.41349724e-002, 1.76751171e-003, 3.71900108e-003,
          2.10193754e-003, 3.76803847e-003, 2.98183458e-003,
          2.30654422e-003, 2.40230933e-003, 8.73537082e-003,
          1.43599259e-002, 2.61695087e-002, 6.01719432e-002,
          5.36698438e-002, 4.19143885e-002, 9.47959125e-002,
          2.42365405e-001, 2.60801047e-001, 5.14745526e-002,
          3.22497040e-002, 3.32521014e-002, 6.51353821e-002,
          4.53242622e-002, 5.21744229e-002, 8.91189650e-002,
          9.25629064e-002, 3.38936150e-002, 3.07583865e-002,
          3.40761282e-002, 1.24917865e-001, 1.83555543e-001,
          3.57678741e-001, 3.35494280e-001, 2.17355445e-001,
          1.21474557e-001, 9.64215547e-002, 8.31264704e-002,
          1.08598739e-001, 1.58770010e-001, 3.18516523e-001,
          3.46133679e-001, 3.71732831e-001, 1.39948115e-001,
          1.11389540e-001, 1.12271324e-001 ]
      - [ 1.11436723e-002, 8.16092081e-003, 1.05951438e-002,
          1.15054920e-002, 1.26858009e-002, 4.01193276e-003,
          3.67462635e-003, 0., 1.16346320e-002, 3.17486539e-003,
          2.33561057e-003, 5.33841327e-002, 4.13375683e-002,
          1.05254911e-002, 4.42135381e-003, 3.85219604e-003,
          8.60479921e-002, 3.87593471e-002, 3.27843092e-002,
          4.89812084e-002, 5.54304719e-002, 9.93216876e-003,
          1.19238729e-002, 3.95349562e-002, 4.18588854e-002,
          1.72663834e-002, 9.18754097e-003, 1.06599964e-002,
          1.68916546e-002, 1.17688533e-002, 1.79230180e-002,
          1.59069195e-001, 9.27039012e-002, 4.30114605e-002,
          2.38437317e-002, 2.50027180e-002, 3.21457684e-002,
          3.51268314e-002, 2.94791982e-002, 6.02480471e-002,
          1.01609856e-001, 1.06201194e-001, 1.27995551e-001,
          1.14344716e-001, 1.39206037e-001, 1.29687384e-001,
          1.12505242e-001, 8.74188915e-002, 3.10764819e-001,
          2.33036011e-001, 1.57259285e-001, 1.96194783e-001,
          2.02542409e-001, 1.72028854e-001, 2.19077215e-001,
          2.86186755e-001, 3.31215560e-001, 2.44235232e-001,
          1.58263758e-001, 1.57814488e-001, 1.56281427e-001,
          1.52077764e-001, 2.14814991e-001, 3.08839262e-001 ]
      - [ 2.17893301e-003, 0., 0., 4.16133441e-002, 3.70520540e-002, 0.,
          0., 0., 3.08147678e-003, 0., 0., 0., 0., 0., 0., 0.,
          1.72359366e-002, 1.98868569e-002, 3.97384614e-002,
          6.11539707e-002, 8.42743069e-002, 5.08815609e-002,
          2.48840731e-002, 1.40124243e-002, 1.96689554e-002,
          2.55469978e-002, 1.72929764e-002, 3.17550637e-002,
          6.10467196e-002, 4.03993092e-002, 1.62009634e-002,
          1.18874246e-002, 2.67483350e-002, 2.68543083e-002,
          4.55041192e-002, 1.89320490e-001, 2.36873522e-001,
          5.96471801e-002, 2.48367935e-002, 5.25160413e-003,
          2.14443244e-002, 8.14772025e-003, 1.04888082e-002,
          1.51743954e-002, 1.43701527e-002, 2.54247673e-002,
          2.42774487e-002, 1.10166147e-002, 1.66468382e-001,
          1.42189041e-001, 1.70340732e-001, 2.98840255e-001,
          3.72995496e-001, 2.77135164e-001, 1.69217005e-001,
          1.38163209e-001, 1.71889335e-001, 1.44888401e-001,
          1.65305480e-001, 3.12555104e-001, 3.70638520e-001,
          2.83995837e-001, 1.67509377e-001, 1.36445194e-001 ]
      - [ 1.29274698e-002, 2.97367643e-003, 4.31033690e-003,
          7.41011044e-003, 9.39370878e-003, 6.78200275e-003,
          8.96597165e-004, 0., 8.66217259e-003, 0., 0., 1.99603736e-002,
          5.98993264e-002, 9.81920864e-003, 7.00413110e-003, 0.,
          7.14600924e-003, 1.31585365e-002, 1.82498768e-002,
          6.57873675e-002, 4.38384414e-002, 8.27341340e-003,
          8.05008411e-003, 4.99533024e-003, 1.57743692e-002,
          9.53290425e-003, 2.41032187e-002, 3.89125496e-002,
          2.77814940e-002, 5.56460954e-003, 1.55295187e-003,
          1.89607218e-003, 7.12762251e-002, 6.09182715e-002,
          8.44243094e-002, 1.77339405e-001, 1.97734803e-001,
          5.08437082e-002, 3.57996300e-002, 3.56446765e-002,
          9.52781215e-002, 5.21733277e-002, 5.92321046e-002,
          1.48974597e-001, 2.15511546e-001, 7.77877569e-002,
          6.18325807e-002, 6.25412241e-002, 1.98751748e-001,
          1.89701617e-001, 2.15373144e-001, 3.68786424e-001,
          2.84069419e-001, 1.55904904e-001, 1.04449324e-001,
          1.09113187e-001, 1.45121813e-001, 1.68102488e-001,
          2.04766616e-001, 3.49889487e-001, 3.62202913e-001,
          1.80035040e-001, 1.27797335e-001, 1.28689140e-001 ]
      - [ 0., 2.17741611e-003, 9.57437232e-003, 2.42672060e-002,
          2.99076494e-002, 4.01457120e-003, 2.51426362e-003, 0.,
          3.53182969e-003, 0., 4.63776663e-003, 9.97534767e-003,
          9.75342654e-003, 0., 0., 0., 7.52254343e-003, 1.17838392e-002,
          3.49741876e-002, 4.38923463e-002, 5.08834980e-002,
          3.41123007e-002, 2.55188234e-002, 1.81446709e-002,
          2.06383895e-002, 1.71352420e-002, 1.79991871e-002,
          4.54601236e-002, 1.26866922e-001, 2.64766775e-002,
          8.67553707e-003, 1.00961262e-002, 3.29001583e-002,
          1.93042085e-002, 2.48307120e-002, 8.36914182e-002,
          1.98569164e-001, 5.29775284e-002, 4.14136350e-002,
          2.77146995e-002, 4.63885367e-002, 3.51733975e-002,
          5.39398529e-002, 1.64746404e-001, 1.77090451e-001,
          6.07202500e-002, 2.23877039e-002, 1.35547081e-002,
          7.40442872e-002, 1.29048839e-001, 2.46461570e-001,
          2.26972580e-001, 3.69470477e-001, 1.32095397e-001,
          8.86561424e-002, 6.02432452e-002, 8.33709389e-002,
          1.11193493e-001, 2.96384424e-001, 4.35476780e-001,
          4.77157444e-001, 1.22881591e-001, 6.77389726e-002,
          5.50433919e-002 ]
      - [ 1.46426177e-002, 1.37222707e-002, 2.29077283e-002,
          2.84886304e-002, 2.75736433e-002, 0., 0., 0., 0., 0., 0., 0.,
          0., 0., 0., 6.85965363e-003, 9.73301195e-003, 7.67667778e-003,
          1.86090171e-002, 4.86128852e-002, 7.82517418e-002,
          6.90185949e-002, 6.15444221e-002, 6.36440516e-002,
          5.69494441e-002, 7.30110407e-002, 5.25025018e-002,
          7.01278672e-002, 7.38901868e-002, 1.46359662e-002,
          9.74727701e-003, 1.74244447e-003, 1.30792230e-001,
          7.98691362e-002, 9.04176533e-002, 1.67746872e-001,
          1.62811533e-001, 8.40986148e-002, 7.91301876e-002,
          6.64557070e-002, 7.64569864e-002, 5.30925058e-002,
          4.70716245e-002, 1.35920823e-001, 1.80469722e-001,
          8.39289352e-002, 3.71275693e-002, 4.51801419e-002,
          2.64347345e-001, 1.69598341e-001, 1.87811553e-001,
          2.27181256e-001, 2.32836142e-001, 1.75780818e-001,
          1.70486540e-001, 1.85158342e-001, 2.08773732e-001,
          1.88776016e-001, 2.01874256e-001, 2.98300594e-001,
          3.17051798e-001, 1.97255984e-001, 1.70079023e-001,
          2.57084370e-001 ]
      - [ 3.94725846e-003, 4.34589945e-003, 0., 3.46215116e-003,
          7.18021020e-003, 3.38499481e-003, 6.76021632e-003,
          1.81655046e-002, 3.00032981e-002, 1.52735068e-002,
          9.00958478e-003, 4.67751175e-003, 7.75226159e-003,
          2.23094597e-003, 0., 0., 4.33566943e-002, 3.12363543e-002,
          2.01560091e-002, 2.01539565e-002, 1.82524212e-002,
          8.55897926e-003, 1.68172251e-002, 1.63532291e-002,
          1.91044901e-002, 1.27007561e-002, 3.97712598e-003,
          1.43435877e-002, 7.21219704e-002, 9.26733464e-002,
          7.59706348e-002, 4.12461199e-002, 9.70895290e-002,
          2.84788180e-002, 1.12408521e-002, 1.93233676e-002,
          1.58670917e-002, 1.80024020e-002, 4.03712280e-002,
          9.51346755e-002, 1.15696579e-001, 1.26251295e-001,
          1.10957496e-001, 9.01531726e-002, 1.20325953e-001,
          1.21141866e-001, 1.28514513e-001, 1.10871352e-001,
          2.03606471e-001, 1.22245029e-001, 8.85299742e-002,
          1.00349151e-001, 1.20163545e-001, 1.09782174e-001,
          1.21093601e-001, 2.21533805e-001, 2.83000469e-001,
          2.78244644e-001, 2.64327973e-001, 3.29090327e-001,
          3.43531787e-001, 3.00765157e-001, 2.65119433e-001,
          2.50754178e-001 ]
      - [ 1.66342985e-002, 1.90181155e-002, 2.99017224e-002,
          9.54228174e-003, 0., 0., 0., 0., 4.88976482e-003,
          8.64448957e-003, 1.46635780e-002, 1.96202248e-002,
          1.25106713e-002, 7.20879296e-003, 7.05718854e-003,
          6.21296791e-003, 1.17207460e-001, 1.26933251e-002,
          5.37515199e-003, 9.61602386e-003, 2.89053824e-002,
          1.12560345e-002, 2.02551521e-002, 4.38445285e-002,
          4.02298011e-002, 7.25917658e-003, 4.15554084e-003,
          6.49256306e-003, 2.55819540e-002, 2.40199044e-002,
          2.79332735e-002, 1.14109457e-001, 3.86447608e-002,
          4.37910892e-002, 7.93787017e-002, 2.23955274e-001,
          1.97175115e-001, 6.32894337e-002, 4.47272733e-002,
          3.02169435e-002, 4.67218496e-002, 3.99473123e-002,
          4.81876843e-002, 9.54225585e-002, 1.17099561e-001,
          4.21636365e-002, 2.84536704e-002, 1.74282026e-002,
          2.86939204e-001, 1.67711228e-001, 1.50648668e-001,
          2.29574293e-001, 2.32524812e-001, 1.45802587e-001,
          1.61718652e-001, 2.73019582e-001, 2.92632937e-001,
          1.63114876e-001, 1.54709533e-001, 2.98005432e-001,
          3.28606099e-001, 1.70399770e-001, 1.78733438e-001,
          2.64578849e-001 ]
      - [ 6.18383707e-003, 0., 0., 0., 0., 0., 0., 0., 7.89051689e-003,
          1.59933642e-002, 2.67501641e-002, 2.25380510e-002,
          2.90716272e-002, 2.11699754e-002, 2.09036563e-002,
          4.29498497e-003, 9.16143283e-002, 5.43600433e-002,
          2.14878451e-002, 6.38064221e-002, 4.06640247e-002,
          8.02411046e-003, 0., 1.53266378e-002, 5.83190471e-002,
          3.00642028e-002, 1.36514753e-002, 1.29026957e-002,
          2.76391916e-002, 2.02578530e-002, 4.52193804e-002,
          1.00082494e-001, 5.72550371e-002, 3.58893648e-002,
          2.48288848e-002, 9.45959054e-003, 1.92567706e-002,
          1.40570207e-002, 1.95625946e-002, 3.22890691e-002,
          6.00519702e-002, 6.88168854e-002, 1.19394019e-001,
          1.37435928e-001, 1.21015996e-001, 1.02774821e-001,
          8.28270018e-002, 6.04711622e-002, 4.18163985e-001,
          2.15848774e-001, 1.37544483e-001, 1.67569384e-001,
          2.10769609e-001, 1.81915641e-001, 1.65859237e-001,
          2.44851857e-001, 4.21498090e-001, 2.48858601e-001,
          1.50466889e-001, 1.62785485e-001, 1.99096411e-001,
          1.49961576e-001, 1.77823886e-001, 2.46087939e-001 ]
      - [ 4.03495245e-002, 2.59389766e-002, 1.12502426e-002,
          1.24169989e-002, 1.61278285e-002, 7.89614394e-003,
          1.11114532e-002, 4.44596959e-003, 7.91343302e-003,
          3.19665973e-003, 0., 0., 5.81932580e-003, 0., 0.,
          2.51792967e-002, 2.20285580e-002, 2.62246542e-002,
          2.26339251e-002, 1.85891315e-002, 1.95293855e-002,
          1.06508993e-002, 6.60751341e-003, 8.51261150e-003,
          1.16430083e-002, 9.10355896e-003, 9.83621459e-003,
          1.85805466e-002, 2.56661698e-002, 3.86067219e-002,
          3.95207144e-002, 2.94144563e-002, 1.19349211e-001,
          8.42534676e-002, 8.47628117e-002, 9.74635705e-002,
          1.01130575e-001, 1.09944984e-001, 1.16492517e-001,
          1.14109620e-001, 1.07734933e-001, 8.79203752e-002,
          6.62781224e-002, 7.47321695e-002, 7.32519254e-002,
          7.53110051e-002, 1.02494821e-001, 1.16013810e-001,
          2.41760612e-001, 1.88917682e-001, 1.94478139e-001,
          2.33488038e-001, 2.41817817e-001, 2.16297999e-001,
          2.38930881e-001, 2.67491192e-001, 2.25345775e-001,
          1.68932617e-001, 1.96274087e-001, 2.44919285e-001,
          2.61779219e-001, 1.92671940e-001, 2.32227996e-001,
          2.81598747e-001 ]
      - [ 1.11703696e-002, 8.05945043e-003, 5.01983985e-003,
          5.01225796e-003, 5.22644818e-003, 0., 2.90633109e-003, 0.,
          3.98864504e-003, 3.27840378e-003, 1.75137934e-003,
          2.49083689e-003, 4.74103540e-003, 6.97011221e-003,
          6.77291723e-003, 5.81431901e-003, 2.55200546e-002,
          1.76578574e-002, 1.82234403e-002, 2.12821271e-002,
          2.29189135e-002, 1.09602092e-002, 1.31457038e-002,
          1.47507647e-002, 2.01077368e-002, 2.08486244e-002,
          2.34566275e-002, 1.47578083e-002, 2.43275929e-002,
          1.46113141e-002, 1.51195312e-002, 1.69395600e-002,
          5.10397032e-002, 5.37298694e-002, 9.01699588e-002,
          2.25623325e-001, 2.41373122e-001, 5.72460108e-002,
          2.91610360e-002, 2.45644525e-002, 4.09259200e-002,
          2.71051899e-002, 3.65769491e-002, 1.09514445e-001,
          1.14490479e-001, 4.82344255e-002, 3.57676260e-002,
          1.99062359e-002, 1.37189999e-001, 1.30820334e-001,
          1.58992618e-001, 3.90015662e-001, 3.81703556e-001,
          1.02194108e-001, 7.63169229e-002, 7.30908811e-002,
          9.67262387e-002, 9.63566527e-002, 1.81719214e-001,
          4.52841908e-001, 4.03593212e-001, 1.12674698e-001,
          9.00931209e-002, 1.11320741e-001 ]
      - [ 7.49513367e-003, 2.35726731e-003, 3.03003727e-003,
          3.81231983e-003, 2.37242202e-003, 0., 2.15074723e-003, 0.,
          1.25366461e-003, 0., 3.11492905e-002, 7.11602867e-002,
          3.47730368e-002, 1.87466585e-003, 5.61098708e-003,
          4.24587307e-003, 2.26483885e-002, 2.48356294e-002,
          2.31555086e-002, 8.01598355e-002, 7.77694881e-002,
          1.35218222e-002, 1.85296070e-002, 3.34157087e-002,
          4.89523448e-002, 2.97553446e-002, 5.87239116e-002,
          4.22115959e-002, 4.21918444e-002, 1.54954391e-002,
          1.66171156e-002, 2.26835515e-002, 6.61226138e-002,
          3.24489102e-002, 1.70394778e-002, 1.85658112e-002,
          1.92675889e-002, 2.06074156e-002, 2.43278034e-002,
          8.11793730e-002, 1.09104529e-001, 4.42956761e-002,
          1.33205146e-001, 2.31787816e-001, 2.17704445e-001,
          1.23078369e-001, 6.71138391e-002, 5.23129292e-002,
          2.81876296e-001, 2.10961699e-001, 1.70799628e-001,
          2.47873202e-001, 2.44059369e-001, 1.70550331e-001,
          1.53978303e-001, 1.92214280e-001, 3.75526428e-001,
          2.15983421e-001, 1.87609524e-001, 2.14531213e-001,
          2.21511006e-001, 1.50609881e-001, 1.77709624e-001,
          2.45441496e-001 ]
      - [ 1.44912079e-002, 1.31843509e-002, 2.57020537e-002,
          3.40573788e-002, 3.20119895e-002, 4.22350224e-003, 0., 0.,
          3.53439525e-003, 0., 0., 0., 0., 0., 0., 0., 3.14273350e-002,
          1.88928954e-002, 1.95155255e-002, 2.11861152e-002,
          1.09244153e-001, 1.64529290e-002, 0., 0., 4.86577861e-003,
          7.29352143e-003, 6.46458380e-003, 3.65667865e-002,
          8.69340077e-002, 3.22557949e-002, 3.00600026e-002,
          3.31954695e-002, 8.50208104e-002, 8.11188892e-002,
          5.53983152e-002, 5.87325431e-002, 1.01385228e-001,
          8.91675949e-002, 7.98410252e-002, 7.76454434e-002,
          9.44313854e-002, 7.64573887e-002, 7.27183297e-002,
          9.93787795e-002, 1.07803240e-001, 7.96009898e-002,
          5.52716516e-002, 5.89420795e-002, 3.02926213e-001,
          2.85852492e-001, 2.34227970e-001, 2.57872403e-001,
          3.45251232e-001, 1.74306929e-001, 1.88509390e-001,
          1.94606647e-001, 3.33417267e-001, 2.63510406e-001,
          1.54064551e-001, 1.62398756e-001, 2.05055580e-001,
          1.30458295e-001, 1.34977371e-001, 1.97740540e-001 ]
      - [ 9.37268231e-003, 0., 0., 1.14349574e-002, 1.92736425e-002,
          1.34719610e-002, 9.56728682e-003, 6.65462017e-003,
          1.28878970e-002, 1.47201512e-002, 1.21290060e-002,
          1.45943081e-002, 1.42253069e-002, 7.82212429e-003,
          1.00660156e-002, 0., 2.68637072e-002, 3.30333970e-002,
          4.52128612e-002, 8.50494951e-002, 5.39749712e-002,
          2.61372384e-002, 3.45369093e-002, 3.61918658e-002,
          1.02326246e-002, 7.15598557e-003, 6.98011974e-003,
          1.77610703e-002, 4.85671759e-002, 4.07489017e-002,
          2.40629222e-002, 1.88392680e-002, 3.44341472e-002,
          7.03912182e-003, 1.01173650e-002, 5.43438904e-002,
          2.52368778e-001, 3.12370081e-002, 1.08973766e-002,
          6.46920316e-003, 3.72796357e-002, 1.29946601e-002,
          2.03052852e-002, 9.25342143e-002, 3.14060777e-001,
          2.06916742e-002, 9.32100508e-003, 5.04942285e-003,
          1.37831435e-001, 1.42708942e-001, 2.03828290e-001,
          3.24245661e-001, 5.12079775e-001, 1.91205308e-001,
          9.62834433e-002, 7.72567689e-002, 9.39596146e-002,
          1.01567060e-001, 1.32175371e-001, 2.55074173e-001,
          3.39246958e-001, 1.75281078e-001, 1.58968598e-001,
          1.53841123e-001 ]
      - [ 1.11364136e-002, 1.14706894e-002, 1.13163684e-002,
          1.52423093e-002, 1.39398547e-002, 9.97082517e-003,
          5.38025191e-003, 0., 5.29073318e-003, 1.86475634e-003, 0.,
          1.56806689e-003, 6.23281719e-003, 3.18842707e-003,
          1.16255023e-002, 1.22644007e-002, 2.79396717e-002,
          1.44798327e-002, 2.51917560e-002, 2.97119413e-002,
          3.00975107e-002, 2.30985451e-002, 4.33205739e-002,
          5.46672270e-002, 6.24614656e-002, 6.51046261e-002,
          3.87934409e-002, 3.56786251e-002, 3.68016958e-002,
          2.79966891e-002, 5.53773046e-002, 1.02426358e-001,
          5.01968823e-002, 3.72905023e-002, 7.65158087e-002,
          1.64787814e-001, 1.62328228e-001, 8.31716657e-002,
          6.51309863e-002, 4.51247543e-002, 4.91884910e-002,
          3.19440849e-002, 4.39724140e-002, 5.03032207e-002,
          5.05288839e-002, 4.87429313e-002, 5.50104752e-002,
          3.77496332e-002, 2.27488056e-001, 1.90889791e-001,
          2.19902888e-001, 1.93545043e-001, 2.08391994e-001,
          2.21939713e-001, 1.93603665e-001, 1.96510717e-001,
          2.33570695e-001, 2.11909011e-001, 2.77416915e-001,
          2.89392203e-001, 3.39246064e-001, 2.36945942e-001,
          2.17040122e-001, 2.19589621e-001 ]
      - [ 1.11908289e-002, 5.66989370e-003, 6.81155361e-003,
          1.27061866e-002, 1.48933567e-002, 4.09623049e-003, 0.,
          2.21794471e-003, 0., 1.45709524e-002, 2.38499083e-002,
          2.25939471e-002, 1.35745751e-002, 4.51009488e-003,
          2.95965164e-003, 1.02165798e-002, 6.29289523e-002,
          8.22541192e-002, 3.79952267e-002, 1.45377237e-002,
          2.41593327e-002, 9.10794456e-003, 1.14800921e-002,
          1.82280820e-002, 4.31293026e-002, 3.34431641e-002,
          2.30076741e-002, 2.58113295e-002, 4.48051654e-002,
          5.14679886e-002, 3.82868126e-002, 4.03328612e-002,
          5.24671637e-002, 4.19302359e-002, 5.56354485e-002,
          1.48614690e-001, 1.06999658e-001, 6.43535927e-002,
          4.25859988e-002, 2.65038870e-002, 5.05400300e-002,
          3.70441191e-002, 4.49497402e-002, 1.20817028e-001,
          8.20750371e-002, 3.56170461e-002, 4.72550243e-002,
          3.89883742e-002, 2.14737475e-001, 2.77784079e-001,
          2.38691896e-001, 3.49406034e-001, 2.66435236e-001,
          1.40406504e-001, 1.32358417e-001, 1.33191690e-001,
          2.02260941e-001, 2.39960670e-001, 2.22558677e-001,
          4.19962853e-001, 3.04514229e-001, 1.39169514e-001,
          1.18940294e-001, 1.15393192e-001 ]
      - [ 1.54706016e-002, 9.01855715e-003, 6.15379820e-003,
          1.24913668e-002, 2.50308458e-002, 2.37936787e-002,
          2.54783109e-002, 2.90800612e-002, 2.62002293e-002,
          5.82495239e-003, 3.88223468e-003, 3.95041611e-003,
          2.31383648e-003, 0., 0., 1.06466413e-002, 3.17757539e-002,
          3.94386873e-002, 4.52007875e-002, 4.69070710e-002,
          6.94805309e-002, 3.05468757e-002, 3.60128768e-002,
          1.58136766e-002, 1.45133827e-002, 1.96645930e-002,
          2.95858122e-002, 6.82948232e-002, 7.43818730e-002,
          4.24907766e-002, 3.64593528e-002, 2.58501209e-002,
          1.67543113e-001, 7.64728859e-002, 7.28576407e-002,
          1.46821305e-001, 9.77854133e-002, 6.39097765e-002,
          9.04602930e-002, 1.31019562e-001, 1.60235658e-001,
          5.94653487e-002, 6.30875975e-002, 8.21501762e-002,
          9.53704491e-002, 7.13986233e-002, 6.54775500e-002,
          1.15208194e-001, 3.68210196e-001, 1.97677836e-001,
          1.53254360e-001, 1.54429048e-001, 1.66473493e-001,
          1.46678254e-001, 1.99044183e-001, 3.04462940e-001,
          3.37381244e-001, 2.29245797e-001, 1.52990088e-001,
          1.60228536e-001, 1.79285035e-001, 1.37022391e-001,
          1.85599089e-001, 3.00844669e-001 ]
      - [ 1.47417607e-002, 2.79391818e-002, 4.54809405e-002,
          2.97666807e-002, 2.67337542e-002, 0., 0., 0., 9.80607350e-004,
          0., 0., 0., 0., 0., 0., 0., 4.22043465e-002, 3.29413116e-002,
          1.04083810e-002, 1.83501989e-002, 3.04063782e-002,
          1.39079932e-002, 4.41448726e-002, 5.01564480e-002,
          2.49102972e-002, 8.36492144e-003, 1.02656092e-002,
          2.73374971e-002, 5.64797223e-002, 3.33488211e-002,
          4.71022129e-002, 8.86007473e-002, 5.44094630e-002,
          4.72896770e-002, 9.23763290e-002, 1.62239403e-001,
          1.53136864e-001, 9.73729119e-002, 7.40257800e-002,
          4.82833870e-002, 5.72820269e-002, 2.44841892e-002,
          4.25063446e-002, 7.76843205e-002, 1.32305056e-001,
          4.83863652e-002, 3.47083844e-002, 2.86982059e-002,
          2.31968209e-001, 2.02177346e-001, 2.01243535e-001,
          2.61705786e-001, 2.62378573e-001, 2.23541290e-001,
          2.12166995e-001, 2.44249612e-001, 2.26264834e-001,
          1.85050637e-001, 1.87860981e-001, 2.43157059e-001,
          3.12489778e-001, 2.34693274e-001, 2.14692295e-001,
          2.24259228e-001 ]
      - [ 8.68757535e-003, 9.40116774e-003, 1.93613283e-002,
          3.11856382e-002, 2.18999628e-002, 8.27501435e-003,
          8.04168358e-003, 5.36258845e-003, 7.78527278e-003,
          1.09809414e-002, 1.27579346e-002, 5.36170276e-003,
          1.09325796e-002, 4.94872825e-003, 3.28040123e-003, 0.,
          7.99041837e-002, 5.22608869e-002, 4.23883460e-002,
          6.05220236e-002, 4.47782017e-002, 3.20416689e-002,
          3.15617919e-002, 3.46096121e-002, 2.38762293e-002,
          3.55447121e-002, 3.08320839e-002, 4.40871045e-002,
          5.75303845e-002, 2.31936313e-002, 2.16118004e-002,
          4.35443260e-002, 1.03537686e-001, 8.05405378e-002,
          8.98573473e-002, 1.37085557e-001, 1.29453465e-001,
          6.91791773e-002, 6.08564653e-002, 6.68715164e-002,
          9.04050246e-002, 7.04268441e-002, 6.61913604e-002,
          7.39948675e-002, 6.57700673e-002, 5.03300391e-002,
          4.18076031e-002, 5.62462434e-002, 2.89524257e-001,
          2.23355412e-001, 2.00999856e-001, 3.37489098e-001,
          3.30089539e-001, 2.06369326e-001, 1.74112558e-001,
          1.94070071e-001, 2.73531288e-001, 1.84580386e-001,
          1.62757009e-001, 2.50138551e-001, 2.88403898e-001,
          1.39503628e-001, 1.29066095e-001, 1.82331339e-001 ]
      - [ 1.01396982e-002, 9.64817218e-003, 4.78219008e-003,
          2.55949935e-003, 3.60854669e-003, 4.59349481e-003,
          4.58281487e-003, 6.43361593e-003, 5.92430728e-003,
          4.60348139e-003, 3.35957343e-003, 2.73796753e-003,
          2.72542587e-003, 0., 2.82829092e-003, 1.20498352e-002,
          3.14795896e-002, 1.27050737e-002, 5.52830473e-003,
          1.21672750e-002, 1.68066174e-002, 1.15812588e-002,
          1.49992676e-002, 1.79278031e-002, 2.06152890e-002,
          1.14274416e-002, 6.00885181e-003, 1.22075547e-002,
          1.35475732e-002, 4.67467960e-003, 1.32611562e-002,
          3.74684520e-002, 4.69336882e-002, 4.94110696e-002,
          6.97627068e-002, 1.96909085e-001, 2.15025455e-001,
          5.84218837e-002, 5.04259095e-002, 5.48321307e-002,
          4.72051837e-002, 4.84961011e-002, 4.51369472e-002,
          4.29690443e-002, 5.83494455e-002, 5.87920435e-002,
          5.62220961e-002, 5.00549637e-002, 1.89002514e-001,
          1.60437688e-001, 2.18170971e-001, 3.36110562e-001,
          3.26635450e-001, 1.78517759e-001, 1.37055889e-001,
          1.62211165e-001, 1.78934127e-001, 1.62912920e-001,
          2.06455901e-001, 3.41684520e-001, 3.91787231e-001,
          1.72113478e-001, 1.60516992e-001, 1.94022685e-001 ]
      - [ 2.40884982e-002, 9.94555932e-003, 6.34170556e-003,
          4.84976266e-003, 6.62146276e-003, 1.44998357e-002,
          1.27636287e-002, 7.41429161e-003, 5.38429385e-003,
          7.53572024e-003, 4.24743723e-003, 6.86888117e-003,
          1.59477443e-002, 1.02772182e-002, 8.00582487e-003,
          3.01355906e-002, 3.72694619e-002, 2.49984302e-002,
          2.20592581e-002, 2.00261418e-002, 2.42200270e-002,
          2.94505823e-002, 2.42785066e-002, 2.03170069e-002,
          1.53492438e-002, 2.18537711e-002, 2.42420472e-002,
          5.42361960e-002, 4.67840098e-002, 2.97585335e-002,
          3.07157245e-002, 2.86951419e-002, 7.20789433e-002,
          4.08532247e-002, 3.65359634e-002, 1.27890751e-001,
          1.31005868e-001, 4.95536588e-002, 4.74055074e-002,
          6.52933121e-002, 8.33232552e-002, 7.21420646e-002,
          9.96377841e-002, 1.20580159e-001, 1.43400908e-001,
          9.97536555e-002, 9.54912156e-002, 6.58697262e-002,
          2.88066238e-001, 1.71975523e-001, 1.42905697e-001,
          1.83738351e-001, 1.97079554e-001, 1.74707115e-001,
          2.15433881e-001, 2.68372923e-001, 3.20053250e-001,
          2.41846398e-001, 1.54775292e-001, 2.18325004e-001,
          2.81133860e-001, 1.64548665e-001, 2.46663958e-001,
          3.12331706e-001 ]
      - [ 3.58901098e-002, 2.26500798e-002, 1.90756507e-002,
          1.71284936e-002, 1.72123138e-003, 0., 0., 0., 0., 0., 0., 0.,
          1.49063009e-003, 0., 1.96667179e-003, 6.39744522e-003,
          1.12098619e-001, 1.99279450e-002, 7.45973084e-003,
          6.15868717e-003, 1.04509788e-002, 5.34491427e-003,
          5.72789786e-003, 8.64354055e-003, 1.05943233e-002,
          4.82218713e-003, 2.07815995e-003, 3.17802140e-003,
          9.07387864e-003, 2.28476450e-002, 3.03936712e-002,
          1.37339652e-001, 1.02466516e-001, 8.26976895e-002,
          7.55523145e-002, 1.01217099e-001, 9.77475941e-002,
          7.03278109e-002, 6.70056790e-002, 8.40304494e-002,
          9.10530910e-002, 3.83598544e-002, 3.33318636e-002,
          3.50591056e-002, 3.17179188e-002, 3.04300915e-002,
          3.52770314e-002, 6.30423129e-002, 3.26984853e-001,
          2.43192911e-001, 1.82174757e-001, 2.11973831e-001,
          2.18552038e-001, 1.61124066e-001, 1.88218653e-001,
          3.05903643e-001, 3.16986650e-001, 1.76093236e-001,
          1.40213147e-001, 2.83474714e-001, 3.15245986e-001,
          1.31666094e-001, 1.49598256e-001, 2.59882390e-001 ]
      - [ 4.93303547e-003, 0., 0., 0., 9.49363108e-004, 0., 0., 0.,
          9.49363108e-004, 1.00341821e-002, 1.82650182e-002,
          1.38064958e-002, 1.67425703e-002, 1.74213890e-002,
          1.56030189e-002, 1.81044210e-002, 4.91537824e-002,
          4.27297549e-003, 2.67460127e-003, 1.19376089e-003,
          3.92847136e-003, 0., 3.97821190e-003, 1.10722389e-002,
          3.86080444e-002, 1.72951818e-002, 8.74698535e-003,
          7.38747418e-003, 1.35801341e-002, 6.58799289e-003,
          1.24686621e-002, 7.22396821e-002, 4.70614173e-002,
          4.38119918e-002, 5.02881743e-002, 2.01508671e-001,
          2.57542193e-001, 4.25462574e-002, 2.96791140e-002,
          3.36052217e-002, 4.36436497e-002, 3.36298198e-002,
          2.43238024e-002, 2.87597775e-002, 2.74568219e-002,
          2.32075173e-002, 2.55468916e-002, 2.64907628e-002,
          2.49481738e-001, 2.16475233e-001, 1.79040074e-001,
          2.14818165e-001, 2.43502259e-001, 1.76349297e-001,
          1.70881644e-001, 2.31703535e-001, 2.66128302e-001,
          1.92047596e-001, 1.86556086e-001, 2.74817318e-001,
          3.85892600e-001, 1.78364187e-001, 1.97227716e-001,
          2.55560905e-001 ]
      - [ 2.40884982e-002, 9.94555932e-003, 6.34170556e-003,
          4.84976266e-003, 6.62146276e-003, 1.44998357e-002,
          1.27636287e-002, 7.41429161e-003, 5.38429385e-003,
          7.53572024e-003, 4.24743723e-003, 6.86888117e-003,
          1.59477443e-002, 1.02772182e-002, 8.00582487e-003,
          3.01355906e-002, 3.72694619e-002, 2.49984302e-002,
          2.20592581e-002, 2.00261418e-002, 2.42200270e-002,
          2.94505823e-002, 2.42785066e-002, 2.03170069e-002,
          1.53492438e-002, 2.18537711e-002, 2.42420472e-002,
          5.42361960e-002, 4.67840098e-002, 2.97585335e-002,
          3.07157245e-002, 2.86951419e-002, 7.20789433e-002,
          4.08532247e-002, 3.65359634e-002, 1.27890751e-001,
          1.31005868e-001, 4.95536588e-002, 4.74055074e-002,
          6.52933121e-002, 8.33232552e-002, 7.21420646e-002,
          9.96377841e-002, 1.20580159e-001, 1.43400908e-001,
          9.97536555e-002, 9.54912156e-002, 6.58697262e-002,
          2.88066238e-001, 1.71975523e-001, 1.42905697e-001,
          1.83738351e-001, 1.97079554e-001, 1.74707115e-001,
          2.15433881e-001, 2.68372923e-001, 3.20053250e-001,
          2.41846398e-001, 1.54775292e-001, 2.18325004e-001,
          2.81133860e-001, 1.64548665e-001, 2.46663958e-001,
          3.12331706e-001 ]
      - [ 2.39351168e-002, 2.32295897e-002, 2.09343694e-002,
          1.57964826e-002, 1.02473916e-002, 0., 0., 0., 9.70295339e-004,
          0., 0., 3.25629418e-003, 4.62301448e-003, 3.12047428e-003,
          2.83805979e-003, 3.01351072e-003, 7.80763701e-002,
          1.60472747e-002, 8.21358524e-003, 4.92049102e-003,
          1.61135364e-002, 1.02400528e-002, 1.26235550e-002,
          1.90464165e-002, 1.99330691e-002, 3.28018027e-003,
          4.10451088e-003, 1.66176297e-002, 2.24422179e-002,
          2.10848674e-002, 1.89069565e-002, 1.22526146e-001,
          3.54796387e-002, 2.66115274e-002, 4.71591763e-002,
          2.26050213e-001, 2.07359642e-001, 4.12239246e-002,
          2.89085805e-002, 2.34801471e-002, 2.88765859e-002,
          1.31814964e-002, 8.73934943e-003, 2.22219154e-002,
          2.14149579e-002, 2.08631195e-002, 2.63213404e-002,
          2.30493937e-002, 2.52043217e-001, 2.19088495e-001,
          1.68348193e-001, 2.47232109e-001, 2.62875050e-001,
          1.75027743e-001, 1.79219872e-001, 2.31755197e-001,
          2.49950603e-001, 1.79096952e-001, 1.34947479e-001,
          3.72219890e-001, 3.52588952e-001, 1.32502586e-001,
          1.65346548e-001, 2.48052776e-001 ]
      - [ 7.67994113e-003, 1.23865495e-003, 9.40701459e-003,
          2.01269966e-002, 2.37691868e-002, 0., 0., 1.92039495e-003,
          1.20271358e-003, 0., 2.86334055e-003, 1.09131383e-002,
          2.93130968e-002, 7.91828055e-003, 5.01566194e-003,
          1.59909669e-003, 9.17822216e-003, 1.53402686e-002,
          1.88819524e-002, 2.89415605e-002, 8.13378766e-002,
          1.77633371e-002, 8.03918112e-003, 1.36512714e-002,
          7.76787009e-003, 1.30771073e-002, 2.05462687e-002,
          3.85229774e-002, 5.40119894e-002, 2.25487128e-002,
          1.29954852e-002, 2.67046969e-003, 4.47378196e-002,
          3.96544598e-002, 2.69295536e-002, 5.72304018e-002,
          1.67769656e-001, 4.34895046e-002, 1.64560080e-002,
          1.78372748e-002, 3.65457684e-002, 3.61812077e-002,
          5.56363687e-002, 6.77021816e-002, 2.29926556e-001,
          3.87396254e-002, 3.82481255e-002, 3.73936072e-002,
          1.97075129e-001, 1.80949166e-001, 2.49670416e-001,
          2.56168485e-001, 4.30550814e-001, 1.37042880e-001,
          1.01219870e-001, 1.11164764e-001, 1.80216730e-001,
          2.20113024e-001, 2.36894101e-001, 2.15879142e-001,
          4.62318361e-001, 1.41617775e-001, 1.24050081e-001,
          1.35943532e-001 ]
      - [ 3.33038680e-002, 2.64803022e-002, 1.86943971e-002,
          8.59975163e-003, 4.95132571e-003, 5.02519961e-003,
          1.81526248e-003, 0., 2.47566286e-003, 1.70800253e-003,
          1.70800253e-003, 1.86245155e-003, 5.64864511e-003,
          7.81626347e-003, 1.27482228e-003, 1.19235162e-002,
          1.00345470e-001, 1.85383521e-002, 4.50652232e-003,
          4.98949178e-003, 1.08654182e-002, 0., 0., 0., 0., 0., 0.,
          1.90630392e-003, 1.69495493e-002, 2.29913685e-002,
          3.07632275e-002, 9.04951990e-002, 2.72885375e-002,
          2.58352105e-002, 4.14555408e-002, 1.79108605e-001,
          2.22565636e-001, 4.72426116e-002, 2.73513142e-002,
          1.41269499e-002, 2.29439419e-002, 1.40453251e-002,
          2.19746958e-002, 5.45074977e-002, 6.56495169e-002,
          2.55389754e-002, 1.30003514e-002, 1.29466290e-002,
          2.55389661e-001, 2.09055617e-001, 2.00534686e-001,
          2.80979961e-001, 3.38295400e-001, 1.70018390e-001,
          1.45782754e-001, 1.99363232e-001, 2.68182307e-001,
          2.25376830e-001, 2.20921174e-001, 2.77547568e-001,
          3.02296191e-001, 1.63836122e-001, 1.76562145e-001,
          2.21657887e-001 ]
      - [ 3.22527997e-002, 2.42643990e-002, 2.08592843e-002,
          1.68249067e-002, 2.61951983e-003, 0., 0., 0., 0., 0., 0., 0.,
          1.60412176e-003, 0., 1.95854786e-003, 1.40942466e-002,
          1.21706948e-001, 1.66874956e-002, 6.21197699e-003,
          3.53395217e-003, 1.75418407e-002, 8.30215681e-003,
          7.78787886e-004, 1.16455962e-003, 9.44481324e-003, 0.,
          7.16511626e-003, 1.60566699e-002, 3.21849473e-002,
          2.79865246e-002, 3.30809467e-002, 1.08983234e-001,
          7.37927854e-002, 5.71751595e-002, 6.07906021e-002,
          1.35783434e-001, 1.11957550e-001, 4.90728393e-002,
          5.21222576e-002, 7.91545734e-002, 1.04639858e-001,
          5.68813570e-002, 4.63555865e-002, 5.56386039e-002,
          5.71131706e-002, 5.50202951e-002, 5.89467101e-002,
          8.14674422e-002, 3.06866050e-001, 2.28073850e-001,
          1.60048738e-001, 1.88396752e-001, 1.94391608e-001,
          1.52788445e-001, 1.73852563e-001, 3.11048925e-001,
          3.38734806e-001, 1.81242198e-001, 1.22012913e-001,
          3.26724440e-001, 3.04623008e-001, 1.19125225e-001,
          1.45876840e-001, 2.88504183e-001 ]
      - [ 3.87106873e-002, 2.14825515e-002, 1.93112157e-002,
          2.30143294e-002, 5.20675443e-003, 5.58117963e-003, 0.,
          3.63912014e-003, 9.01955122e-004, 3.91077064e-003, 0.,
          2.71417852e-003, 1.27555721e-003, 0., 0., 8.00847448e-003,
          1.41097888e-001, 3.67379002e-002, 2.26388220e-002,
          2.37195864e-002, 4.12420370e-002, 1.18744196e-002,
          1.23721138e-002, 4.01185974e-002, 2.76553687e-002,
          9.46939178e-003, 1.28373653e-002, 4.04976569e-002,
          4.92297523e-002, 2.77881958e-002, 3.20279635e-002,
          5.58918826e-002, 3.47979665e-002, 2.64573414e-002,
          3.37712914e-002, 1.31021008e-001, 1.87987670e-001,
          3.79916281e-002, 2.53874473e-002, 1.89660527e-002,
          2.08417866e-002, 2.02791449e-002, 3.16562541e-002,
          8.78220648e-002, 1.11714497e-001, 6.00934848e-002,
          4.32738401e-002, 2.04925165e-002, 2.56516069e-001,
          2.23393217e-001, 1.95828214e-001, 2.70654619e-001,
          3.42061490e-001, 1.59083635e-001, 1.55535951e-001,
          2.34956414e-001, 2.77886569e-001, 2.12724209e-001,
          1.32745340e-001, 1.95851535e-001, 3.99081886e-001,
          1.45467311e-001, 1.52604192e-001, 2.09524408e-001 ]
      - [ 6.55408064e-003, 3.94544657e-003, 4.60301805e-003,
          3.09575461e-002, 3.24222036e-002, 7.17594475e-003,
          7.31929298e-003, 1.09611275e-002, 5.76568488e-003,
          1.59438222e-003, 1.04605053e-002, 1.51196728e-002,
          1.75653044e-002, 1.00247944e-002, 7.47301336e-003,
          6.79622730e-003, 3.28182019e-002, 1.91995334e-002,
          1.91614684e-002, 2.26120446e-002, 3.52884904e-002,
          2.87073627e-002, 5.07257655e-002, 6.94768727e-002,
          5.52973077e-002, 6.98362216e-002, 1.94853097e-002,
          1.11619662e-002, 2.04070415e-002, 1.53934658e-002,
          1.81906242e-002, 2.62362715e-002, 4.26390879e-002,
          3.76755036e-002, 4.18460108e-002, 1.54001519e-001,
          1.90465584e-001, 4.71371785e-002, 4.48704734e-002,
          5.23653254e-002, 6.63895011e-002, 6.39243051e-002,
          6.84647113e-002, 1.00278817e-001, 1.03699870e-001,
          6.53261244e-002, 5.55557124e-002, 5.56534491e-002,
          3.36240530e-001, 2.83573061e-001, 1.76632658e-001,
          2.05699593e-001, 2.16189861e-001, 1.64290175e-001,
          1.76153079e-001, 2.96138942e-001, 3.79810035e-001,
          2.34569862e-001, 1.40126288e-001, 1.41718984e-001,
          1.52460724e-001, 1.42990768e-001, 1.86948836e-001,
          2.85331666e-001 ]
      - [ 3.45274545e-002, 1.53962448e-002, 2.39282697e-002,
          4.77669910e-002, 3.08781862e-002, 8.25426821e-003,
          1.10956579e-002, 4.87407809e-003, 7.22067384e-003, 0.,
          2.20390107e-003, 3.24884290e-003, 6.08611153e-003,
          8.55138525e-003, 3.73826898e-003, 1.16373030e-002,
          4.89045121e-002, 2.99145300e-002, 4.14152965e-002,
          4.49102968e-002, 4.39724363e-002, 2.76435800e-002,
          2.04227977e-002, 1.90631915e-002, 1.62025355e-002,
          1.37687530e-002, 1.75924394e-002, 1.81722771e-002,
          5.36213145e-002, 3.92379649e-002, 5.83045483e-002,
          1.31267920e-001, 4.24499102e-002, 3.55704203e-002,
          4.47852537e-002, 1.71308160e-001, 1.84007660e-001,
          6.21998683e-002, 5.61678261e-002, 6.04993217e-002,
          5.66494763e-002, 4.99528758e-002, 4.07944210e-002,
          5.49182855e-002, 8.32314640e-002, 6.98088482e-002,
          7.21735656e-002, 4.68150899e-002, 1.74511164e-001,
          1.93962470e-001, 2.35446393e-001, 2.81967491e-001,
          3.11310858e-001, 1.82273254e-001, 1.61254600e-001,
          2.49681458e-001, 1.80705860e-001, 1.77634269e-001,
          2.03541592e-001, 3.57436836e-001, 3.07312280e-001,
          1.42975181e-001, 1.68914035e-001, 2.25225791e-001 ]
      - [ 2.74426062e-002, 1.84027273e-002, 2.46367529e-002,
          2.78624557e-002, 2.78874505e-002, 1.97930373e-002,
          1.29818758e-002, 2.26880908e-002, 1.33132758e-002,
          7.93284178e-003, 1.29085565e-002, 1.77793689e-002,
          1.94866527e-002, 8.26741010e-003, 1.61287617e-002,
          3.85032743e-002, 2.08271258e-002, 1.02925561e-002,
          1.36430720e-002, 1.13853905e-002, 2.95621809e-002,
          1.57691929e-002, 9.07362178e-002, 9.43810213e-003,
          9.15938243e-003, 7.11993128e-003, 1.33523000e-002,
          3.74181382e-002, 5.67171499e-002, 2.52369568e-002,
          4.18813750e-002, 3.23458798e-002, 7.72211030e-002,
          7.81256109e-002, 6.26790449e-002, 1.39205217e-001,
          1.56817734e-001, 5.02434745e-002, 5.23344129e-002,
          6.71747774e-002, 8.00685361e-002, 7.10832030e-002,
          5.63569888e-002, 1.75141439e-001, 1.83252677e-001,
          6.21433556e-002, 5.22856824e-002, 6.37763441e-002,
          2.46621832e-001, 2.56968856e-001, 1.90176725e-001,
          2.46683002e-001, 2.65095025e-001, 1.56288996e-001,
          1.77682146e-001, 2.26598844e-001, 2.59454310e-001,
          2.10316569e-001, 1.84422642e-001, 2.75353491e-001,
          3.03477913e-001, 1.57438412e-001, 1.53704509e-001,
          2.26726547e-001 ]
   decision_functions:
      -
         sv_count: 35
         rho: -1.1598898433859555e+000
         alpha: [ 2.5031822384925175e+000, 7.0253722641883454e-001,
             1.1517065229592484e-001, 6.3334870564819579e-001,
             1.3012526076398176e+000, 1.0211294416669839e-001,
             4.1109256372244211e-002, 4.4450077017988469e-002,
             4.9099108541012421e-001, 2.8407437292908988e-001,
             2.6699999999999999e+000, 1.1654351443637057e+000,
             1.0808108678648649e+000, 5.3626244439184045e-001,
             5.7809676639057217e-001, 1.0902932846431681e+000,
             9.7530377114170363e-001, 2.0372989191896549e+000,
             1.0167873203949132e+000, 2.5504491716202451e+000,
             2.6699999999999999e+000, 1.9611227492462135e+000,
             -2.6699999999999999e+000, -2.6699999999999999e+000,
             -2.6699999999999999e+000, -1.4980973259496089e-001,
             -2.6699999999999999e+000, -4.6452285720211628e-001,
             -2.6699999999999999e+000, -1.3847752324930225e+000,
             -4.1204146102134692e-001, -7.7894032232686727e-001,
             -2.6699999999999999e+000, -2.6699999999999999e+000,
             -2.6699999999999999e+000 ]
         index: [ 0, 1, 2, 3, 4, 5, 6, 7, 8, 9, 10, 11, 12, 13, 14, 15,
             16, 17, 18, 19, 20, 21, 22, 23, 24, 25, 26, 27, 28, 29, 30,
             31, 32, 33, 34 ]
