%YAML:1.0
my_svm: !!opencv-ml-svm
   svm_type: C_SVC
   kernel: { type:LINEAR }
   C: 2.6699999999999999e+000
   term_criteria: { epsilon:1.1920928955078125e-007, iterations:1000 }
   var_all: 64
   var_count: 64
   class_count: 10
   class_labels: !!opencv-matrix
      rows: 1
      cols: 10
      dt: i
      data: [ 0, 1, 2, 3, 4, 5, 6, 7, 8, 9 ]
   sv_total: 605
   support_vectors:
      - [ 2.60218823e+003, 7.21219043e+003, 6.18288428e+003, 0., 0., 0.,
          0., 0., 0., 2.30299854e+003, 6.79347046e+002, 1.37742163e+003,
          5.71063904e+002, 1.45830933e+003, 0., 9.33809433e+001,
          3.11307593e+003, 1.97678192e+002, 0., 2.67540649e+002,
          2.36111719e+003, 1.00539948e+003, 9.31268066e+002,
          3.80789795e+003, 1.46849097e+003, 1.68344879e+002, 0., 0.,
          1.88607141e+003, 7.21619629e+003, 2.70295581e+003,
          1.71566992e+003, 0., 2.70118500e+002, 0., 1.68461792e+003,
          1.68774585e+003, 2.75887842e+003, 2.77099951e+003,
          6.09668066e+003, 1.20493030e+003, 6.24679138e+002,
          1.99042444e+003, 9.15382690e+002, 1.47363306e+003,
          7.00021667e+002, 1.98083801e+003, 0., 1.33955298e+003,
          2.05791870e+003, 1.77621545e+003, 4.21868213e+003,
          2.83637085e+002, 0., 7.64607239e+002, 2.46022095e+003,
          1.21991675e+003, 3.51283472e+003, 5.57750342e+003,
          2.42737598e+003, 2.05216675e+003, 8.22921600e+001, 0.,
          1.24611743e+003 ]
      - [ 3.44029102e+003, 4.85622656e+003, 1.68395972e+003,
          1.29355420e+003, 0., 0., 0., 0., 1.57268225e+003,
          6.17427551e+002, 2.09618698e+002, 0., 0., 5.94810905e+001, 0.,
          3.67235718e+003, 3.79913306e+003, 1.27279224e+001, 0.,
          1.56518372e+002, 0., 0., 6.10175415e+002, 2.91362012e+003,
          1.51819788e+003, 9.84885788e+001, 0., 0., 0., 3.21207300e+003,
          4.27006250e+003, 5.29784180e+003, 1.29453711e+003,
          1.23223373e+002, 3.25419739e+002, 0., 4.08078955e+003,
          3.05368359e+003, 2.47542334e+003, 6.68389746e+003,
          1.74937048e+003, 1.02719141e+003, 7.94637512e+002, 0.,
          1.42072156e+003, 4.05842346e+002, 8.23203491e+002,
          1.10176233e+003, 3.00942285e+003, 1.42888892e+003,
          7.47753967e+002, 6.22047424e+002, 7.13122681e+002,
          4.30116272e+002, 0., 1.06817517e+003, 7.56548975e+003,
          6.68650293e+003, 1.73452490e+003, 1.54451929e+003,
          2.01380957e+003, 1.98116135e+002, 0., 1.67326343e+003 ]
      - [ 3.52248950e+003, 2.64755664e+003, 1.72311279e+003,
          1.32792981e+003, 0., 0., 0., 0., 6.22009644e+002,
          2.66905298e+003, 1.59716382e+003, 1.59380051e+002, 0., 0., 0.,
          0., 8.98684326e+002, 0., 8.47230759e+001, 0., 1.14590479e+003,
          6.20994385e+002, 1.12152454e+003, 2.35355347e+003,
          8.75950562e+002, 0., 0., 0., 1.28073242e+003, 2.38106763e+003,
          1.84268872e+003, 3.16501294e+003, 1.61009323e+002, 0., 0., 0.,
          2.28764404e+003, 6.78517334e+002, 4.05598291e+003,
          2.57125635e+003, 2.21002258e+002, 0., 4.71076752e+002,
          8.26834900e+002, 1.06075447e+002, 7.11163818e+002,
          2.29704712e+003, 1.70254272e+003, 1.02996057e+003,
          8.97036682e+002, 9.93579407e+001, 2.53791187e+003,
          5.18396057e+002, 1.07935165e+002, 4.66146126e+001,
          1.77047485e+003, 1.98437561e+003, 2.89404810e+003,
          1.67783728e+003, 2.02299438e+003, 5.94053894e+002, 0.,
          1.69705620e+001, 2.71111987e+003 ]
      - [ 4.68235400e+003, 1.81902209e+003, 9.78828308e+002,
          1.04331641e+003, 0., 0., 0., 0., 5.07986963e+003,
          7.79358704e+002, 0., 8.02246857e+001, 0., 0., 0.,
          1.28895349e+003, 1.44393127e+003, 1.16661903e+002, 0., 0., 0.,
          7.53048462e+002, 1.30550342e+003, 3.60386841e+003, 0., 0., 0.,
          0., 1.19843396e+003, 1.02941772e+003, 3.21065552e+003,
          3.47089941e+003, 1.27062341e+003, 0., 2.44584991e+002,
          1.06011938e+003, 2.11026062e+002, 8.30128479e+002,
          1.62663806e+003, 3.37106250e+003, 1.12369519e+003,
          6.40640564e+002, 4.56004395e+002, 3.23554810e+002, 0.,
          2.02474686e+002, 2.01134018e+002, 2.68695264e+003,
          1.68914661e+003, 2.73634106e+003, 6.33103455e+002,
          1.46828967e+003, 4.90917511e+001, 0., 1.59524841e+001,
          1.03375085e+003, 3.30119214e+003, 3.23114087e+003,
          1.96022437e+003, 1.58781689e+003, 0., 0., 4.63249397e+001, 0. ]
      - [ 4.29504248e+003, 4.47261621e+003, 3.31525024e+003,
          1.43780786e+003, 0., 0., 0., 3.90184570e+002, 3.31889917e+003,
          2.89062500e+003, 1.28994263e+003, 0., 0., 0., 2.67089966e+002,
          1.91905426e+002, 2.48071997e+003, 7.60263138e+001, 0., 0.,
          6.18852173e+002, 2.21627271e+003, 1.45480334e+003,
          1.61896875e+003, 2.95803564e+003, 8.58021011e+001, 0., 0.,
          2.43930957e+003, 2.55467700e+003, 4.38114355e+003,
          2.05625000e+003, 6.42123047e+002, 5.48605530e+002,
          1.02756519e+003, 2.66937280e+003, 2.46662842e+003,
          1.27959375e+003, 3.65872656e+003, 2.93844312e+003,
          4.40857269e+002, 1.56034424e+003, 0., 1.66529272e+003,
          7.75743530e+002, 1.50970239e+003, 2.75215869e+003,
          4.27310181e+002, 6.52701416e+002, 0., 1.31410645e+003,
          1.96489551e+003, 1.50082849e+003, 1.44222050e+001,
          1.64158044e+003, 2.35606445e+003, 2.47025049e+003,
          2.11984229e+003, 1.99035120e+003, 3.03276611e+003,
          1.51453711e+003, 7.21803284e+001, 1.52974121e+003,
          3.42768774e+003 ]
      - [ 3.81238037e+003, 2.02568201e+003, 1.09768787e+003,
          2.57090039e+003, 2.73216626e+003, 2.01955444e+002, 0., 0.,
          1.80932568e+003, 1.64052844e+003, 2.06179932e+003,
          1.12119934e+003, 2.08254932e+003, 0., 3.72615997e+002,
          1.89016846e+002, 1.84708301e+003, 5.88634968e+000,
          1.12294258e+002, 4.52769241e+001, 2.58933691e+003,
          1.13595398e+003, 2.43457080e+003, 2.77874048e+003, 0.,
          1.41421354e+000, 0., 3.60555115e+001, 3.38873535e+003,
          2.55242334e+003, 2.14448877e+003, 2.64861182e+003,
          2.56632019e+002, 0., 1.95473785e+002, 2.81674707e+003,
          2.39364526e+003, 8.61667175e+002, 2.48509717e+003,
          3.45997974e+003, 4.24949432e+002, 8.71613464e+002,
          7.32035400e+002, 9.53510010e+002, 1.08671643e+003,
          2.01447888e+003, 1.58782629e+003, 1.92862378e+003,
          3.25308496e+003, 1.75775940e+003, 2.35144287e+003,
          1.74473157e+003, 1.25858093e+003, 0., 0., 7.14725769e+002,
          3.24815112e+003, 3.60346899e+003, 2.03389478e+003,
          4.33416992e+003, 8., 0., 0., 0. ]
      - [ 1.12320386e+003, 3.27596045e+003, 1.63126855e+003,
          1.73109399e+003, 1.69829199e+003, 0., 0., 0., 0.,
          3.03001758e+003, 3.62505157e+002, 1.18785718e+003,
          2.08086517e+002, 6.79615356e+002, 4.64605194e+002, 0., 0.,
          1.30084595e+002, 1.96796738e+002, 1.33600781e+003,
          5.33158508e+002, 7.03045105e+002, 1.29577905e+003,
          6.34717285e+002, 1.21174756e+003, 0., 0., 0., 2.99503247e+003,
          1.89495667e+003, 1.83298560e+003, 2.03882410e+003, 0., 0.,
          8.45340195e+001, 7.18401123e+002, 3.06025391e+003,
          3.29042114e+003, 1.42427673e+003, 1.09900317e+003, 0.,
          3.33829620e+002, 8.44757202e+002, 5.76003479e+002,
          6.59146423e+002, 2.63511768e+003, 1.52288904e+003, 0.,
          1.17836633e+003, 7.65398926e+002, 1.36992651e+003,
          2.77688354e+003, 4.29287628e+002, 0., 0., 0., 1.52979639e+003,
          1.43516394e+003, 3.50140039e+003, 3.32285400e+003, 38., 0.,
          1.02459747e+002, 0. ]
      - [ 3.43305273e+003, 9.71899414e+003, 1.84234924e+003, 0., 0., 0.,
          0., 0., 8.76641296e+002, 4.75049805e+003, 8.46178467e+002, 0.,
          1.54019485e+002, 0., 0., 6.16116867e+001, 9.79177551e+002, 0.,
          0., 0., 1.49272803e+003, 6.70903870e+002, 1.24009900e+003,
          2.57036523e+003, 2.74830005e+003, 5.94251099e+002, 0.,
          1.73297440e+002, 3.11496411e+003, 1.67309375e+003,
          2.66152832e+003, 5.96006689e+003, 0., 0., 0., 1.65399597e+003,
          8.92265320e+002, 3.94901001e+003, 3.56126807e+003,
          2.57123413e+003, 2.21318091e+003, 7.07106781e+000,
          4.06821991e+002, 1.44053137e+003, 6.73832336e+002,
          2.05566650e+003, 1.57174927e+003, 1.21018152e+003,
          1.65043860e+003, 2.66054785e+003, 2.21889355e+003,
          2.26394653e+003, 0., 0., 0., 5.33666573e+001, 3.91141479e+003,
          4.77275244e+003, 2.38134839e+003, 3.23677441e+003, 0., 0., 0.,
          6.60110413e+002 ]
      - [ 5.31037158e+003, 2.25773706e+003, 5.04980273e+003,
          4.81814746e+003, 8.28613281e+001, 0., 4.60651703e+001, 0.,
          8.93985474e+002, 1.41741602e+003, 2.89780859e+003,
          2.22804840e+002, 9.24592163e+002, 0., 1.04383093e+003, 0.,
          2.83789404e+003, 5.65685415e+000, 0., 0., 2.56456635e+002,
          4.99484961e+003, 1.34836865e+003, 3.31210010e+003,
          5.24169800e+002, 0., 0., 8.02261108e+002, 5.14761230e+003,
          4.64787646e+003, 4.67083545e+003, 2.60180347e+003,
          9.81053467e+002, 1.60216577e+003, 3.11623242e+003,
          3.82452490e+003, 3.05757397e+003, 2.36966333e+003,
          2.98012280e+003, 2.63882153e+003, 3.70223535e+003,
          1.77641272e+003, 2.03604968e+003, 2.31677783e+003,
          3.92794214e+003, 1.92421417e+002, 0., 0., 5.30827295e+003,
          1.57651111e+003, 1.64550513e+003, 2.03783545e+003,
          3.61496558e+003, 3.62215393e+002, 2.96984844e+001,
          1.91637280e+003, 3.74452490e+003, 6.45741992e+003,
          2.88044897e+003, 5.02152100e+003, 2.70625928e+003, 0., 0.,
          3.10177368e+002 ]
      - [ 2.35539331e+003, 6.05690039e+003, 4.72966504e+003, 0., 0., 0.,
          0., 0., 2.00117896e+003, 1.23170667e+003, 2.01298535e+003, 0.,
          0., 2.16633331e+002, 0., 0., 2.06769604e+003, 4.24264069e+001,
          1.17200684e+002, 2.27284033e+003, 8.76524963e+002,
          5.35111206e+002, 2.22733017e+002, 6.72180054e+002,
          2.98382544e+003, 1.10230286e+003, 3.49322205e+002,
          3.09987549e+002, 2.56565747e+003, 2.69406299e+003,
          3.54217847e+003, 2.36082593e+003, 0., 5.34197144e+002,
          1.58425305e+003, 1.81700403e+003, 8.22709534e+002,
          1.43035059e+003, 2.36564941e+003, 4.24912549e+003,
          1.09526221e+003, 1.25376086e+003, 1.73791431e+003,
          1.62200928e+003, 8.09499817e+002, 4.30376587e+002,
          5.21376282e+002, 1.90055444e+003, 2.18527173e+003,
          1.54336133e+003, 2.94522803e+003, 3.05633130e+003, 0., 0.,
          5.97467163e+002, 1.75002466e+003, 1.63624597e+003,
          3.51008374e+003, 4.37562500e+003, 4.05577563e+003, 0., 0., 0.,
          0. ]
      - [ 3.46501367e+003, 1.34595935e+003, 6.60979443e+003,
          1.70598438e+003, 0., 0., 0., 1.12285347e+002, 1.52391113e+003,
          1.74248206e+003, 2.58743945e+003, 0., 0., 0., 0., 0.,
          2.43847119e+003, 1.34648718e+003, 0., 0., 0., 0.,
          2.35083817e+002, 1.44566370e+003, 3.84410522e+003,
          1.40505298e+003, 2.33581055e+003, 4.20469940e+002,
          6.77446167e+002, 7.30564697e+002, 1.72392188e+003,
          2.62379443e+003, 6., 0., 0., 1.78088745e+003, 3.47592578e+003,
          1.86615088e+003, 3.87262012e+003, 1.38565894e+003,
          2.26221130e+002, 3.79230804e+002, 2.18549759e+002,
          2.48892358e+003, 2.58320557e+003, 8.99975830e+002,
          6.05607117e+002, 1.40712146e+003, 9.86928955e+002,
          4.63864160e+003, 2.69183899e+002, 0., 0., 0., 3.00946808e+002,
          2.19440283e+003, 2.07789209e+003, 2.01601892e+003,
          2.65046582e+003, 1.13207764e+003, 3.84783051e+002,
          7.44324158e+002, 8.30753418e+002, 1.94485461e+003 ]
      - [ 2.58622827e+003, 1.35120386e+003, 3.68913965e+003,
          1.11890308e+003, 0., 0., 0., 0., 2.82446442e+002, 0.,
          3.07626404e+002, 1.37295303e+002, 6.84527344e+002,
          4.42307434e+002, 1.45247168e+003, 2.30653442e+003,
          8.79915137e+003, 1.76669052e+002, 0., 0., 6.99968567e+002, 0.,
          1.05989844e+003, 0., 5.57957275e+003, 0., 0., 1.71365625e+003,
          1.41318408e+003, 1.07879602e+003, 7.99543884e+002,
          1.19863708e+003, 1.01580615e+003, 0., 0., 1.78393396e+003,
          1.86694971e+003, 1.09927124e+003, 4.77416748e+003,
          2.53219238e+003, 2.25883569e+003, 3.21422876e+003,
          4.95889099e+002, 0., 7.43462646e+002, 3.84096344e+002,
          4.37383728e+002, 1.47025793e+003, 1.80353491e+003,
          2.66313525e+003, 3.79987329e+003, 0., 3.33766403e+001,
          9.48261566e+001, 2.60863953e+002, 1.99819275e+003,
          5.93210791e+003, 4.08822388e+003, 1.83892419e+003,
          2.77923804e+003, 4.79416321e+002, 0., 6.00333252e+001,
          1.50484290e+003 ]
      - [ 3.13355542e+003, 2.55960645e+003, 3.75615387e+002,
          1.16332800e+003, 0., 0., 0., 0., 2.63604932e+003,
          1.25607861e+003, 3.32929413e+002, 0., 0., 0., 0.,
          1.01805762e+003, 1.43523975e+003, 3.20315460e+002, 0., 0.,
          6.81916443e+002, 9.14049255e+002, 0., 1.29038574e+003,
          1.15993591e+003, 0., 0., 8.54400406e+001, 1.34116187e+003,
          7.75074707e+002, 1.72128711e+003, 2.27699561e+003,
          1.03997876e+003, 0., 3.49284973e+001, 0., 6.54987488e+002,
          1.82396375e+003, 1.72797522e+003, 2.21488965e+003,
          6.56002991e+002, 3.00734985e+002, 4.87165283e+002,
          3.78208923e+002, 0., 0., 1.23583887e+003, 1.07522668e+003,
          1.50374243e+003, 2.73467383e+003, 6.13098694e+002,
          5.33810852e+002, 0., 0., 5.65685415e+000, 0., 3.66898584e+003,
          2.87221899e+003, 1.77661060e+003, 7.38075867e+002, 0., 0., 0.,
          0. ]
      - [ 5.62380078e+003, 4.81929004e+003, 7.29729297e+003,
          2.47687939e+003, 0., 0., 0., 1.84390888e+001, 4.81040535e+001,
          1.32151868e+003, 3.08249023e+003, 1.46750012e+003, 2., 0., 0.,
          0., 1.87539771e+003, 0., 0., 2.01606409e+003, 1.21321484e+003,
          1.78705359e+003, 8.97587891e+002, 5.49102905e+002,
          1.51494507e+003, 5.67367249e+002, 1.35951096e+002,
          8.65555298e+002, 3.76859961e+003, 2.57482813e+003,
          8.39589648e+003, 3.40444263e+003, 1.47336621e+003,
          3.85253174e+002, 7.92315613e+002, 6.77043701e+002,
          2.81813574e+003, 2.48377002e+003, 3.02623022e+003,
          8.64674121e+003, 1.78996460e+003, 3.50087982e+002,
          1.35379517e+003, 1.77627893e+003, 0., 0., 1.51856372e+003,
          2.17968311e+003, 0., 3.11306177e+003, 2.39759497e+003,
          1.98788354e+003, 0., 0., 1.03391708e+002, 1.87424097e+003,
          8.57054980e+003, 1.27754846e+003, 1.61830554e+003,
          7.21474268e+003, 3.04146301e+002, 0., 0., 0. ]
      - [ 6.39044434e+003, 3.97740796e+003, 1.35033655e+003,
          9.55931396e+002, 7.91854797e+002, 1.46037122e+003, 0.,
          1.30297925e+003, 8.05358838e+003, 0., 0., 0., 0., 0., 0.,
          4.00510895e+002, 6.99611084e+002, 9.89949512e+000, 0.,
          1.71221826e+003, 3.34293274e+002, 7.89227478e+002, 0.,
          4.64128857e+003, 6.16116882e+002, 0., 0., 0., 1.93724866e+003,
          3.96784082e+003, 4.16474902e+003, 4.67993701e+003,
          3.37116919e+003, 4.18502106e+002, 1.25286365e+003,
          3.26459808e+002, 1.17809631e+003, 2.32770166e+003,
          2.26890894e+003, 2.65225098e+003, 3.25916406e+003,
          5.82897461e+002, 2.69072475e+001, 0., 0., 0., 1.88714587e+003,
          2.80113403e+003, 1.43763184e+003, 2.85738159e+003,
          3.81971704e+003, 0., 0., 3.36154709e+001, 0., 0.,
          5.33700732e+003, 4.15232813e+003, 3.37674072e+003,
          3.84062573e+003, 0., 0., 0., 0. ]
      - [ 3.67045605e+003, 4.67382422e+003, 8.02428223e+003,
          1.86711877e+003, 0., 0., 0., 1.57835358e+002, 1.48690332e+003,
          1.70777637e+003, 4.73488428e+003, 0., 0., 0., 0., 0.,
          1.85731201e+003, 1.62413055e+002, 0., 0., 1.77694727e+003,
          3.51909839e+003, 1.81058838e+003, 0., 0., 0., 0., 0.,
          4.08947388e+003, 4.72333887e+003, 6.23403906e+003,
          1.81273389e+003, 1.85769409e+003, 7.07517639e+002,
          4.71425507e+002, 8.46275330e+002, 1.49673291e+003,
          3.30912769e+003, 5.58001025e+003, 5.24218359e+003,
          1.37246191e+003, 1.56800586e+003, 1.32341626e+003,
          3.80087891e+002, 0., 6.45479309e+002, 3.06992847e+003,
          2.94976001e+003, 0., 3.26525586e+003, 1.34389722e+003,
          3.08949487e+003, 4.06276123e+003, 8.98109131e+001,
          1.13137083e+001, 4.59009796e+002, 4.02762866e+003,
          4.62116357e+003, 3.61208350e+003, 8.10194287e+003,
          9.10584183e+001, 0., 0., 0. ]
      - [ 5.35132275e+003, 9.19706055e+003, 1.40902856e+003,
          6.48063843e+002, 0., 1.20830460e+001, 0., 0., 0.,
          2.37928558e+002, 9.20977707e+001, 0., 10., 0., 0., 0.,
          4.60342773e+003, 1.47648230e+001, 0., 0., 2.70682343e+002,
          5.68330566e+002, 0., 2.37507889e+002, 5.16480408e+002,
          7.71109131e+002, 1.21655251e+002, 0., 2.03135229e+003,
          6.25239551e+003, 2.77466772e+003, 3.31120361e+003, 0., 0., 0.,
          0., 2.05294580e+003, 1.48939038e+003, 8.14340088e+003,
          5.40489746e+003, 1.72908264e+002, 5.93976440e+002,
          2.44806046e+002, 0., 8.73791748e+002, 0., 3.80573242e+002, 0.,
          0., 5.34222778e+002, 1.50416980e+003, 8.02653870e+002, 0., 0.,
          5.67133789e+002, 2.91171973e+003, 4.52472412e+003,
          3.09085742e+003, 5.92629102e+003, 3.57244458e+003, 0., 0.,
          3.71534821e+002, 6.43000793e+002 ]
      - [ 2.77398096e+003, 3.86420215e+003, 3.91983887e+003,
          4.01834619e+003, 0., 0., 0., 0., 0., 2.22483276e+003,
          1.59450562e+003, 1.47863257e+003, 0., 0., 2.82842708e+000, 0.,
          1.27002673e+003, 8.42721024e+001, 1.96621460e+002,
          1.47863855e+003, 9.31996765e+002, 1.11818579e+003,
          8.35418457e+002, 2.65198029e+002, 3.16094116e+003,
          5.15321289e+002, 8.40595016e+001, 0., 4.35784326e+003,
          3.32785254e+003, 1.93966797e+003, 4.08645142e+003,
          2.01717621e+002, 0., 1.87378723e+003, 1.01843591e+003,
          1.35095764e+003, 2.57638159e+003, 1.30037585e+003,
          7.23319971e+003, 3.16950775e+002, 1.08452751e+002, 0., 0.,
          6.09066528e+002, 1.21575610e+003, 1.35126758e+003,
          9.19535767e+002, 1.31569543e+003, 1.32732007e+003,
          2.19569263e+003, 0., 0., 0., 9.92208633e+001, 4.74908691e+003,
          2.03759985e+003, 2.78628198e+003, 2.52441528e+003,
          4.05769141e+003, 7.07106781e+000, 0., 0., 2.36896533e+003 ]
      - [ 6.08152954e+002, 2.84871436e+003, 8.12324658e+003,
          3.32903516e+003, 0., 0., 0., 0., 1.56894867e+002,
          1.10992285e+003, 1.14377283e+003, 2.00132599e+002, 0., 0.,
          1.49702332e+003, 2.79969434e+003, 3.98616577e+003,
          5.07740097e+001, 0., 3.27074921e+002, 2.56511548e+003,
          1.28225427e+003, 8.84182129e+002, 2.85236755e+002,
          1.89644873e+003, 4.46285449e+003, 0., 0., 3.80053516e+003,
          6.23190625e+003, 2.13124341e+003, 4.01195508e+003, 0.,
          4.95782204e+001, 0., 2.01797266e+003, 3.24781689e+003,
          5.57550293e+003, 4.11017139e+003, 1.97124976e+003,
          3.10883594e+003, 1.12357739e+003, 0., 0., 8.52976074e+002,
          1.46314978e+003, 5.91797974e+002, 3.23109894e+001,
          2.23793164e+003, 2.05280957e+003, 8.33576660e+002,
          1.97788135e+003, 1.85326736e+002, 0., 1.98010101e+002,
          3.89574146e+003, 2.98551416e+003, 4.95120459e+003,
          5.26410693e+003, 2.72662891e+003, 1.92031689e+003,
          1.07095435e+003, 1.00790234e+003, 1.97524988e+003 ]
      - [ 2.68400122e+003, 6.25797119e+003, 5.95778711e+003,
          1.87146570e+003, 0., 0., 0., 0., 1.83790967e+003,
          2.96295776e+003, 2.29962451e+003, 2.05197693e+002, 0.,
          9.54148865e+001, 0., 0., 3.59765320e+002, 0., 0.,
          1.67142505e+003, 1.89539197e+003, 9.35479553e+002,
          8.04061646e+002, 7.53160034e+002, 2.26668799e+003,
          1.31603223e+003, 0., 0., 5.10508984e+003, 2.22455249e+003,
          4.26520752e+003, 4.65339551e+003, 1.39769800e+003, 0.,
          1.16517151e+003, 0., 6.03072607e+003, 4.19731396e+003,
          7.49040100e+002, 2.16072583e+003, 3.78470361e+003,
          7.60452515e+002, 3.34212494e+002, 2.58622974e+003,
          8.12009827e+002, 6.09777039e+002, 1.04293042e+003,
          2.15365161e+003, 2.69907422e+003, 1.29926794e+003,
          1.28134851e+003, 7.95181763e+002, 2.01178027e+003,
          2.68923767e+002, 1.39489001e+003, 1.45062268e+003,
          1.82370654e+003, 4.88381104e+003, 2.82563696e+003,
          3.77193994e+003, 1.82544299e+003, 0., 2.51765762e+002,
          1.50436084e+003 ]
      - [ 4.89146338e+003, 4.03950122e+003, 1.44277661e+003,
          9.28040588e+002, 0., 0., 0., 0., 0., 4.39829498e+002, 0., 0.,
          0., 0., 1.94270325e+002, 3.76107764e+003, 2.27430566e+003,
          1.10923393e+002, 0., 0., 3.05368622e+002, 1.16516090e+002,
          3.30151489e+002, 1.13712512e+003, 6.88600037e+002,
          2.34546371e+002, 0., 1.41795624e+002, 1.74993689e+003,
          1.64775903e+003, 1.04091895e+003, 7.90650391e+003, 0., 0., 0.,
          6.89492569e+001, 9.12134277e+002, 1.48146997e+003,
          1.95227905e+003, 1.04648057e+004, 4.66921173e+002, 0., 0., 0.,
          2.65699066e+002, 6.67216797e+002, 0., 0., 1.40481274e+003,
          3.58022339e+002, 3.12166626e+002, 3.56252716e+002, 0., 0.,
          2.23738129e+002, 5.32850488e+003, 5.16102734e+003,
          1.45039941e+003, 1.36056860e+003, 2.44711670e+003, 90., 0.,
          4.19447266e+002, 4.29516022e+002 ]
      - [ 5.28478333e+002, 7.20924707e+003, 5.59131104e+003,
          1.88724072e+003, 1.08178601e+003, 7.80371704e+002,
          1.97989902e+001, 0., 0., 4.40986475e+003, 2.27022559e+003, 0.,
          0., 0., 0., 0., 1.98822388e+003, 1.41421354e+000, 0.,
          2.18309399e+003, 9.94361084e+002, 1.23005920e+003,
          1.56775952e+003, 0., 2.04051587e+003, 2.28958301e+003,
          9.63327560e+001, 0., 3.76520020e+003, 6.20292041e+003,
          4.13361768e+003, 1.56554163e+003, 1.81924316e+003,
          9.97400391e+002, 1.63700916e+003, 1.42535474e+003,
          1.28715955e+003, 1.77383923e+003, 2.98453809e+003,
          7.33081592e+003, 12., 0., 1.54021497e+003, 5.94810905e+001,
          1.05990562e+002, 7.58221619e+002, 2.78004980e+003,
          9.04682251e+002, 3.64601660e+003, 2.07463892e+003,
          1.56543994e+003, 1.42901282e+003, 0., 0., 2.88444099e+001,
          3.53067163e+003, 1.94711206e+003, 6.12435547e+003,
          1.57476990e+003, 2.84270361e+003, 2.86621729e+003, 0., 0.,
          3.80189423e+002 ]
      - [ 3.16330127e+003, 2.12491333e+003, 1.54364575e+003,
          3.58718433e+003, 1.81520691e+003, 0., 0., 0., 2.52352832e+003,
          1.66527466e+003, 1.21061023e+003, 1.22055920e+003,
          1.84750513e+003, 0., 5.58883545e+002, 3.43284326e+003,
          2.35015991e+003, 9.59012512e+002, 4.77428528e+002,
          2.23036108e+003, 2.91628369e+003, 2.27654858e+003,
          8.67286560e+002, 7.55584106e+002, 5.81520203e+002,
          5.85853210e+002, 3.89307068e+002, 0., 7.32340674e+003,
          1.98856396e+003, 2.24215942e+003, 9.82549316e+002,
          1.77494360e+003, 0., 0., 0., 4.02959058e+003, 3.75414893e+003,
          6.89263477e+003, 1.81139099e+003, 1.73171094e+003,
          1.41421354e+000, 0., 0., 1.75692847e+003, 3.04398218e+003,
          1.49746484e+003, 1.78626123e+003, 2.41788477e+003,
          1.60695789e+003, 2.64728540e+003, 1.49186353e+003, 0., 0., 0.,
          6.80294037e+001, 7.25450049e+003, 3.30576855e+003,
          2.73262622e+003, 5.48971631e+003, 0., 0., 0., 2.63383862e+003 ]
      - [ 4.94986621e+003, 4.07131616e+003, 4.41386182e+003, 0., 0., 0.,
          0., 0., 4.37064941e+003, 7.84967041e+002, 0., 0., 0., 0., 0.,
          4.88447113e+002, 1.57032666e+003, 0., 0., 0., 4.12326630e+002,
          8.22976318e+002, 1.40883630e+003, 1.47194836e+003,
          1.54044507e+003, 0., 0., 4.55411911e+001, 6.83520279e+001,
          3.17457861e+003, 5.31096289e+003, 3.94741113e+003,
          1.30777881e+003, 0., 3.71712250e+002, 1.60112085e+003,
          1.60137952e+003, 1.81076367e+003, 2.33455957e+003,
          4.69890723e+003, 2.98141992e+003, 3.54066772e+002,
          4.76030945e+002, 6.31585327e+002, 9.37837524e+002, 0.,
          1.16775403e+003, 2.02518237e+003, 2.66162256e+003,
          1.15304382e+003, 1.11001465e+003, 1.11824280e+003,
          4.73026428e+002, 0., 8.72353134e+001, 1.67191602e+003,
          6.98437988e+003, 1.67822546e+003, 1.85012085e+003,
          1.65147986e+003, 2.03954138e+003, 0., 0., 0. ]
      - [ 5.18949890e+002, 1.36734775e+004, 1.75816101e+003,
          1.88135840e+003, 0., 0., 0., 0., 0., 5.17751025e+003,
          1.47512891e+003, 0., 0., 4.91934967e+001, 40., 0.,
          4.73316699e+003, 9.07854614e+001, 0., 0., 3.40948340e+003,
          2.46491577e+003, 8.72378357e+002, 6.62398315e+002,
          2.36552588e+003, 3.18077661e+003, 0., 0., 5.27632031e+003,
          3.95603027e+003, 3.12680103e+003, 2.39204736e+003, 0., 0., 0.,
          0., 1.87357324e+003, 1.72297009e+003, 1.41963105e+004, 0., 0.,
          0., 6.40312424e+001, 1.90201855e+003, 4.86621017e+001,
          1.44737061e+003, 3.72776416e+003, 7.94241760e+002,
          4.99315521e+002, 1.26258215e+003, 9.19373901e+002,
          2.92189063e+003, 1.82042432e+003, 0., 2.97778198e+002,
          4.89719287e+003, 2.23409155e+003, 3.10817505e+003,
          2.35156421e+003, 6.85200977e+003, 0., 0., 6.23883362e+001,
          5.62926611e+003 ]
      - [ 2.77140161e+003, 1.85507532e+003, 4.01000562e+003,
          3.17239648e+003, 1.62684338e+003, 0., 0., 0., 1.34164160e+003,
          1.74230762e+003, 1.52733936e+003, 2.03168176e+003,
          7.74764954e+002, 8.03853210e+002, 4.42574249e+002, 0.,
          3.80188629e+002, 1.20663086e+002, 0., 1.62468567e+003,
          2.99175464e+003, 1.57158655e+003, 7.36092407e+002,
          2.27101807e+003, 0., 1.13137083e+001, 9.46678391e+001,
          1.62355286e+003, 5.46049512e+003, 1.70791821e+003,
          1.55842249e+003, 4.16851465e+003, 0., 0., 0., 0.,
          5.10064600e+003, 7.93629150e+003, 1.37137231e+003,
          5.94516602e+002, 2.45589081e+002, 0., 0., 0., 4.29431934e+003,
          4.02425977e+003, 0., 3.39106323e+002, 0., 7.06508301e+002,
          9.96287842e+002, 6.23224316e+003, 0., 0., 0., 0.,
          1.66156030e+003, 1.81590247e+003, 5.50798340e+003,
          6.10661084e+003, 40., 0., 1.72286697e+002, 1.58566724e+003 ]
      - [ 2.25440210e+003, 6.37073779e+003, 2.69398682e+003,
          7.47572083e+002, 0., 0., 0., 0., 1.56484290e+003,
          2.05807422e+003, 1.54212463e+003, 5.56596802e+002,
          6.66432312e+002, 4.41900970e+002, 2.31607422e+002, 0.,
          2.99603857e+003, 4.21016045e+001, 0., 1.44416882e+003,
          1.91599866e+003, 6.80617371e+002, 8.47951172e+002,
          1.76786499e+003, 1.81485645e+003, 1.61919464e+002,
          8.76584244e+001, 1.07761060e+003, 2.02112671e+003,
          2.97244019e+003, 1.82321875e+003, 1.65406494e+003, 0.,
          1.85396866e+002, 0., 9.71428894e+002, 2.54760010e+003,
          3.92209570e+003, 2.12448633e+003, 3.20745850e+003,
          5.09901953e+000, 5.34138794e+002, 1.51114343e+003, 0.,
          1.15927002e+003, 2.26839722e+003, 1.20959790e+003,
          8.45659485e+002, 2.11596655e+003, 2.01756775e+003,
          2.78134473e+003, 7.04251404e+002, 22., 1.00767059e+002, 0.,
          1.27679260e+003, 2.78384595e+003, 3.96681982e+003,
          4.51672021e+003, 1.48544629e+003, 0., 0., 0., 1.29215503e+003 ]
      - [ 7.21985791e+003, 2.92919263e+003, 2.62391602e+003,
          8.63366333e+002, 3.78979053e+003, 7.99249649e+001, 0., 0.,
          2.19979272e+003, 1.48137183e+003, 4.64754730e+002, 0.,
          2.70462329e+003, 1.15923438e+003, 0., 0., 3.15254102e+003, 0.,
          0., 0., 2.49168433e+003, 1.11760486e+003, 3.28672241e+003,
          1.69390906e+003, 3.22823511e+003, 0., 0., 0., 5.40935059e+003,
          2.83220410e+003, 2.88874243e+003, 4.52571875e+003, 0., 0.,
          9.79489670e+001, 4.51933643e+003, 1.83507129e+003,
          4.44362012e+003, 3.90872729e+003, 3.31537842e+003,
          2.54933228e+003, 2.01216174e+003, 1.28053271e+003,
          6.08126648e+002, 7.43732483e+002, 3.43652954e+003,
          2.05825122e+003, 2.31472461e+003, 1.60382251e+003,
          2.74643774e+003, 3.34004541e+003, 5.20575635e+003, 6., 0., 0.,
          1.25306848e+003, 1.42938599e+003, 5.42698096e+003,
          4.78665137e+003, 7.00794385e+003, 380., 0., 7.07106781e+000,
          1.62508496e+003 ]
      - [ 8.20673047e+003, 6.01085889e+003, 9.80135376e+002,
          4.41454407e+002, 28., 0., 1.97989902e+001, 2.48084656e+002,
          2.67411328e+003, 0., 4.52769241e+001, 0., 0., 0., 0., 0.,
          5.68418506e+003, 0., 5.79827576e+001, 4.74341660e+001, 0.,
          8.47138916e+002, 1.12814709e+003, 1.85175220e+003,
          2.95579810e+003, 0., 0., 4.50234375e+002, 3.43767529e+003,
          2.19761133e+003, 1.80810107e+003, 3.72297852e+003,
          1.66433167e+002, 0., 0., 0., 1.89884888e+003, 2.65057568e+003,
          6.97065283e+003, 3.76500171e+003, 1.81992712e+003,
          1.59004028e+003, 5.83000854e+002, 5.85431458e+002,
          4.31335144e+002, 2.33383804e+002, 2.12930786e+003,
          2.13747217e+003, 3.15623999e+003, 1.32717102e+003,
          1.27542114e+003, 8.52502197e+002, 1.54380786e+003, 0., 0.,
          2.65190771e+003, 7.32487207e+003, 5.52166077e+002,
          2.53217432e+003, 5.53279443e+003, 4.33001160e+002, 0., 0.,
          1.50588269e+003 ]
      - [ 3.96426050e+003, 7.76683838e+003, 0., 0., 0., 0., 0., 0.,
          1.02900842e+003, 0., 0., 0., 0., 0., 0., 2.21531036e+002,
          4.77738672e+003, 1.41421354e+000, 0., 0., 0., 1.47864294e+003,
          5.74421448e+002, 5.90716492e+002, 1.37889502e+003,
          1.63487927e+003, 8.87298523e+002, 0., 1.58037781e+003,
          2.41992773e+003, 1.98154248e+003, 2.92663110e+003, 0.,
          9.46446533e+002, 1.56249634e+003, 0., 1.58897009e+003,
          7.27377319e+002, 5.69516943e+003, 3.09752026e+003,
          3.52634790e+003, 7.76865417e+002, 1.04708960e+003, 0., 0.,
          5.18808228e+002, 6.61508911e+002, 4.27338287e+002,
          1.35128955e+003, 1.62480371e+003, 0., 7.59876282e+002,
          1.51750122e+003, 0., 3.72209564e+002, 3.40801855e+003,
          5.72612646e+003, 2.08514600e+003, 2.73817358e+003,
          2.41075586e+003, 1.59961450e+003, 1.60312195e+002,
          6.33618164e+002, 3.67144482e+003 ]
      - [ 2.02585608e+003, 5.11542285e+003, 4.11404980e+003,
          1.96902698e+003, 0., 2.06813919e+002, 1.53421606e+003,
          1.78403613e+003, 1.95576065e+002, 1.65023108e+003,
          1.41187891e+003, 0., 0., 0., 0., 3.33723022e+003,
          3.89777832e+003, 0., 0., 0., 8.00384888e+002, 1.12030811e+003,
          8.56851196e+002, 3.49675635e+003, 4.43935394e+002,
          3.90192017e+003, 0., 0., 1.70070093e+003, 4.91281055e+003,
          4.44004150e+003, 3.84091504e+003, 1.18693140e+003, 0., 0.,
          1.97470728e+003, 1.99982898e+003, 5.71647803e+003,
          2.61833862e+003, 5.53349463e+003, 4., 2.82842708e+000,
          7.29859131e+002, 3.42094019e+003, 9.52631104e+002,
          1.06853149e+003, 0., 3.39522388e+003, 5.04888037e+003,
          2.77909717e+003, 1.19887671e+003, 8.31534729e+002,
          1.86072473e+003, 0., 1.32378250e+002, 1.21655254e+001,
          7.09593896e+003, 6.61603711e+003, 2.50337964e+003,
          1.79759436e+003, 1.84770313e+003, 0., 0., 0. ]
      - [ 4.62720068e+003, 3.26977051e+003, 9.72773438e+002,
          1.26813745e+003, 1.58398239e+002, 0., 5.47424866e+002,
          8.56002319e+002, 3.57174780e+003, 4.85571838e+002, 0., 0., 0.,
          0., 7.21476257e+002, 1.03365918e+003, 1.78389392e+003, 0., 0.,
          7.59605179e+001, 0., 0., 2.06694482e+003, 3.00230444e+003, 0.,
          0., 0., 0., 0., 3.18348706e+003, 3.89710791e+003,
          3.18421631e+003, 0., 0., 0., 8.52877502e+001, 1.30451758e+003,
          1.47154272e+003, 4.92865723e+003, 4.59716211e+003,
          4.14004822e+002, 7.72297241e+002, 4.84148750e+001,
          2.40333099e+002, 0., 9.18812805e+002, 1.77935889e+003,
          4.27992285e+003, 1.40519238e+003, 1.69720947e+003,
          1.25606030e+003, 4.38036530e+002, 1.42583154e+003,
          3.82800201e+002, 4.41921387e+002, 5.25441650e+002,
          4.40042676e+003, 4.17535156e+003, 1.53492383e+003,
          1.21965759e+003, 1.88724841e+003, 0., 0., 8.73265259e+002 ]
      - [ 3.92655615e+003, 4.20081836e+003, 3.81544507e+003,
          2.03376233e+003, 2.98694580e+003, 8.71027893e+002, 0.,
          3.39320862e+002, 7.31312500e+002, 8.57848450e+002,
          1.74826465e+003, 5.59710938e+003, 0., 0., 0., 0.,
          3.45935376e+003, 2.40416298e+001, 8.60232544e+000, 0.,
          4.21664063e+003, 2.44073682e+003, 1.57488098e+003,
          1.64700879e+003, 1.70140442e+003, 4.60434570e+001, 0.,
          1.91579346e+003, 4.65457813e+003, 4.98239453e+003,
          2.77135522e+003, 1.81215479e+003, 0., 0., 0., 0.,
          7.31936914e+003, 5.58632422e+003, 3.14748413e+003,
          1.55762109e+003, 0., 0., 0., 1.70501831e+003, 2.46203198e+003,
          3.87963770e+003, 1.59615356e+003, 0., 1.58537256e+003,
          6.58764343e+002, 9.05920532e+002, 6.78860107e+003,
          6.43062988e+002, 0., 0., 1.74714905e+003, 2.23906763e+003,
          1.25029907e+003, 6.88298242e+003, 7.10452344e+003,
          1.76815353e+002, 0., 1.69067291e+002, 1.70473523e+003 ]
      - [ 3.46541553e+003, 1.90719116e+003, 9.61836426e+003,
          1.71381543e+003, 0., 0., 0., 0., 0., 1.46259497e+003,
          4.32310352e+003, 2.65409253e+003, 0., 6.44980621e+001, 0., 0.,
          1.37038086e+003, 1.65529461e+001, 7.07248154e+001, 0.,
          3.70579053e+003, 1.81438354e+003, 1.77532910e+003,
          7.71569092e+002, 2.44326025e+003, 1.66076706e+002, 0., 0.,
          4.61784961e+003, 4.07141138e+003, 3.15705786e+003,
          3.35843530e+003, 2.89389008e+002, 9.23146820e+001,
          1.99529449e+002, 3.65221045e+003, 3.39705750e+002,
          2.46905688e+003, 9.51484277e+003, 1.74575183e+003, 0.,
          4.24734955e+001, 3.15683380e+002, 1.68646899e+003,
          2.36133740e+003, 2.22587012e+003, 2.08222974e+003,
          9.56280273e+002, 1.27013745e+003, 2.03953784e+003,
          3.00061450e+003, 3.22107959e+003, 0., 2.33238068e+001, 0.,
          9.48741882e+002, 4.06266406e+003, 4.87422510e+003,
          3.23040039e+003, 3.18756250e+003, 1.64277014e+003,
          6.93108902e+001, 1.69705620e+001, 1.77727148e+003 ]
      - [ 8.75854883e+003, 1.14001025e+003, 1.39977759e+003,
          7.53330017e+002, 1.66842737e+003, 2.76366211e+003,
          1.27279224e+001, 3.05722107e+002, 4.34767041e+003,
          1.61946387e+003, 3.85319031e+002, 5.52342285e+002, 0.,
          6.18820801e+002, 8.12916992e+002, 4.22733948e+002,
          1.86956128e+003, 0., 1.49833237e+002, 3.50801660e+003,
          9.35128845e+002, 5.05751068e+002, 6.71268738e+002,
          8.67732666e+002, 4.92358105e+003, 2.05138977e+002,
          4.83321838e+001, 3.40960718e+003, 1.74820410e+003,
          4.96291357e+003, 1.38723254e+003, 4.78659424e+003, 0.,
          5.95227905e+002, 1.42894012e+002, 4.72545850e+003,
          7.48501038e+002, 3.46973926e+003, 5.00781836e+003,
          1.67439148e+003, 0., 1.75413803e+002, 1.62833350e+003,
          1.92380017e+003, 1.03446985e+003, 1.61834766e+003,
          7.33006165e+002, 2.51905273e+003, 1.60750818e+003,
          3.39187207e+003, 3.34195386e+003, 2.40303125e+003, 0., 0., 0.,
          8.22192154e+001, 3.39418896e+003, 4.53399365e+003,
          6.67936914e+003, 3.63589331e+003, 0., 0., 0., 1.25195847e+002 ]
      - [ 2.33913770e+003, 4.55827295e+003, 4.76935547e+003,
          4.21767529e+003, 2.97919464e+002, 0., 0., 0., 0.,
          1.89171875e+002, 2.21468555e+003, 2.87906543e+003,
          4.45764526e+002, 0., 0., 2.82109894e+002, 3.46655884e+003, 0.,
          0., 0., 1.68872998e+003, 5.18012354e+003, 8.33809448e+002,
          1.49692957e+003, 8.10061722e+001, 1.74097388e+003,
          5.20842407e+002, 0., 6.19323389e+003, 5.47543945e+003,
          2.58354492e+003, 8.34112488e+002, 0., 0., 0., 0.,
          5.63597412e+003, 4.44133789e+003, 6.06858936e+003,
          9.27190552e+002, 0., 0., 3.80829315e+002, 3.76391455e+003,
          1.66616174e+003, 1.63416296e+003, 2.12840479e+003,
          2.74029205e+002, 2.29531348e+003, 1.09101233e+003,
          2.86304346e+003, 3.29751904e+003, 1.67437207e+003, 0.,
          3.95979805e+001, 3.78289990e+003, 1.79827295e+003,
          4.68400928e+003, 4.46352246e+003, 1.92145996e+003,
          3.41961963e+003, 1.28763351e+002, 1.95167175e+002,
          1.79397058e+003 ]
      - [ 4.50829590e+003, 3.55316235e+003, 4.98620654e+003,
          6.00818848e+003, 0., 0., 0., 0., 9.25406921e+002,
          2.23192432e+003, 1.92578650e+003, 1.43561389e+003,
          4.07237256e+003, 8.37670975e+001, 0., 7.13622375e+002,
          5.19953857e+002, 2.82842708e+000, 4.47600830e+002,
          2.17504443e+003, 2.24835425e+003, 1.69697070e+003,
          2.06269824e+003, 8.51400879e+002, 2.15310693e+003, 0., 0.,
          1.97530469e+003, 2.92689697e+003, 1.94438818e+003,
          6.58295557e+003, 4.38505615e+003, 1.48974915e+003, 0., 0., 0.,
          7.85865039e+003, 3.77371387e+003, 3.11494849e+003,
          5.33441162e+003, 0., 6.50538254e+001, 6.85253540e+002,
          5.62109668e+003, 2.54429346e+003, 1.18903992e+003,
          6.79332031e+002, 5.84754639e+002, 0., 3.67900098e+003,
          8.93376270e+003, 0., 12., 0., 0., 7.86729736e+002,
          2.74948145e+003, 8.17628857e+003, 6.14085400e+003,
          3.36161084e+003, 12., 0., 0., 0. ]
      - [ 1.75632825e+003, 6.09400293e+003, 2.25819434e+003,
          6.27085938e+003, 0., 0., 0., 0., 0., 0., 7.49348145e+002,
          1.61207751e+003, 8.54906189e+002, 1.73233948e+002,
          8.54751434e+001, 0., 1.77556372e+003, 0., 2.82028381e+002,
          3.71066040e+002, 5.59676416e+003, 8.42117554e+002,
          1.22773389e+003, 0., 8.28620544e+002, 1.90078381e+003,
          3.95213867e+002, 3.65876025e+003, 3.29869653e+003,
          6.31875391e+003, 2.71125244e+003, 4.11278076e+003, 0., 0.,
          1.91049728e+002, 3.99430981e+003, 2.12331055e+003,
          6.92694043e+003, 2.90939844e+003, 8.34659424e+002,
          5.60121399e+002, 1.60031250e+002, 2.39199365e+003,
          5.75397754e+003, 1.63787695e+003, 0., 5.72915344e+002, 0., 0.,
          3.15228198e+003, 3.87397339e+003, 4.33606543e+003,
          1.86709009e+003, 0., 0., 2.80122607e+003, 1.64999792e+003,
          3.11684546e+003, 5.05076660e+003, 9.11763770e+003, 138., 0.,
          0., 8.03990021e+001 ]
      - [ 1.94950586e+003, 1.02489443e+004, 3.10124072e+003, 0., 0., 0.,
          0., 0., 0., 0., 1.55863147e+003, 1.61241125e+003, 0.,
          7.21110249e+000, 0., 0., 1.74693884e+003, 0., 0.,
          2.37018982e+002, 1.73994312e+003, 1.96160010e+003,
          8.22776611e+002, 1.95342175e+003, 9.45576050e+002,
          1.87499792e+003, 2.17567285e+003, 2.61013397e+002,
          3.40036670e+003, 2.00195740e+003, 3.39692480e+003,
          5.79996777e+003, 0., 0., 0., 2.05704419e+003, 2.88499573e+002,
          4.71298291e+003, 8.63969238e+003, 2.03335254e+003, 0., 0.,
          1.14017544e+001, 1.75722290e+003, 3.17413647e+003,
          7.36662720e+002, 0., 0., 3.72468597e+002, 1.40344446e+003,
          1.21142932e+003, 3.85277051e+003, 6.26514526e+002, 0.,
          3.64769135e+002, 3.96464160e+003, 1.54101587e+003,
          2.73930444e+003, 5.10352930e+003, 3.56140088e+003,
          3.20861328e+002, 7.07277405e+002, 3.23333618e+003,
          1.14695190e+003 ]
      - [ 6.43909729e+002, 8.63039648e+003, 1.22818555e+003,
          1.41717163e+003, 1.66026270e+003, 6.66483307e+001, 0., 0.,
          3.00745728e+002, 7.93908081e+002, 0., 0., 1.27482898e+003,
          2.04563452e+003, 5.39646545e+002, 8.52768494e+002,
          4.72056006e+003, 5.14678528e+002, 0., 0., 5.48284607e+002,
          8.96330322e+002, 6.99755676e+002, 1.46170605e+003,
          3.11978857e+003, 1.46445630e+003, 0., 0., 2.66916675e+003,
          2.36402930e+003, 3.02073779e+003, 3.34938965e+003,
          7.32354187e+002, 0., 0., 0., 2.16453232e+002, 5.91010596e+003,
          5.27476367e+003, 4.13678467e+003, 0., 2.25334009e+003, 0.,
          1.43974561e+003, 2.70765594e+002, 0., 6.11138306e+002,
          2.55231836e+003, 2.37465479e+003, 2.19379150e+003,
          2.58226660e+003, 1.54624719e+003, 0., 0., 6.96186676e+001,
          3.38506470e+003, 2.48775928e+003, 6.64067334e+003,
          2.65138135e+003, 4.40211084e+003, 0., 1.49164337e+002, 0.,
          1.73972034e+003 ]
      - [ 7.88217468e+002, 7.27876563e+003, 4.67888428e+003,
          4.13086572e+003, 0., 0., 0., 0., 0., 1.64853027e+003,
          1.50437109e+003, 2.01473572e+003, 3.83617651e+003,
          2.47693359e+002, 0., 0., 1.68241431e+003, 0., 0.,
          3.45430542e+003, 3.72351953e+003, 8.41628174e+002,
          4.45303284e+002, 1.04172935e+002, 1.45821069e+003,
          1.81722363e+003, 1.28062487e+001, 3.48552637e+003,
          3.16970459e+003, 4.00702271e+003, 1.89583118e+003,
          2.97306104e+003, 0., 0., 0., 0., 3.57417188e+003,
          7.55223389e+003, 3.12147266e+003, 2.31414111e+003, 0.,
          2.45348724e+002, 1.40706226e+003, 2.43758936e+003,
          2.30294995e+003, 2.19491333e+003, 9.47421753e+002,
          4.99417664e+002, 1.71451978e+003, 1.62421204e+003,
          2.83572949e+003, 4.84757373e+003, 1.01662422e+002, 0., 0.,
          3.51936279e+003, 8.79346558e+002, 1.46090564e+003,
          3.78586084e+003, 8.37939453e+003, 10., 0., 2.82842708e+000, 0. ]
      - [ 5.36257422e+003, 3.22298975e+003, 5.19531006e+003,
          2.52477979e+003, 1.84354932e+003, 0., 8.94986038e+001, 0.,
          5.42440796e+002, 4.85128809e+003, 6.10972412e+002,
          1.74528223e+003, 1.76355811e+003, 0., 0., 0., 0., 0., 0., 0.,
          5.98157129e+003, 9.07146057e+002, 5.49068237e+002,
          1.56343823e+003, 1.88037329e+003, 0., 0., 2.18446704e+003,
          4.02793286e+003, 3.68635693e+003, 3.70049219e+003,
          4.68081396e+003, 1.59112646e+003, 0., 7.24706802e+001, 0.,
          6.53050293e+003, 5.85444141e+003, 2.53508838e+003,
          1.49212378e+003, 1.61208594e+003, 0., 0., 7.65375748e+001,
          6.70905811e+003, 2.11860596e+003, 7.34292847e+002, 0., 0.,
          3.36837695e+003, 2.47579126e+003, 5.33389258e+003, 14., 0., 0.,
          2.94064606e+002, 2.73523389e+003, 2.85281592e+003,
          6.58503857e+003, 6.36099023e+003, 14., 0., 0., 0. ]
      - [ 7.93880664e+003, 6.01113379e+003, 2.64233545e+003,
          2.88092432e+003, 0., 0., 0., 9.87381592e+002, 1.53866895e+003,
          1.30782257e+002, 1.06695862e+003, 1.07703293e+002,
          6.00070862e+002, 0., 0., 5.01597443e+001, 2.04197583e+003,
          5.83095169e+000, 0., 0., 0., 4.79597107e+002, 2.31532300e+003,
          7.34829834e+002, 0., 0., 0., 2.02076099e+003, 1.74752380e+003,
          3.33022729e+003, 6.64675244e+003, 3.83753491e+003, 0., 0., 0.,
          6.32455540e+000, 3.68801929e+003, 3.48082349e+003,
          5.23180957e+003, 7.27361279e+003, 0., 0., 0., 0.,
          1.48251465e+003, 1.53884497e+003, 2.12742041e+003, 0.,
          9.05270142e+002, 6.52138000e+002, 8.44476685e+002,
          7.91794189e+002, 268., 1.94444897e+003, 3.47639587e+002,
          2.14451367e+003, 7.74488477e+003, 2.11450513e+003,
          2.23274268e+003, 5.48970801e+003, 2., 0., 0., 2.08206250e+003 ]
      - [ 3.39603198e+003, 2.22753735e+003, 3.84990356e+003,
          3.12731128e+003, 3.18230933e+003, 4.11526428e+002, 0., 0.,
          1.41763916e+003, 3.57357361e+002, 2.60482788e+003,
          4.22912891e+003, 0., 0., 0., 0., 5.43166016e+002,
          1.41421354e+000, 0., 0., 3.46544775e+003, 1.70508997e+003,
          4.48291357e+003, 0., 0., 0., 0., 0., 5.23617627e+003,
          3.91239331e+003, 3.14279297e+003, 4.75413867e+003, 0., 0., 0.,
          2.26737732e+002, 9.90043652e+003, 1.93889978e+003,
          2.98998682e+003, 1.76518042e+003, 0., 0., 0., 0.,
          7.88469629e+003, 8.78084595e+002, 9.15553406e+002,
          5.08246582e+002, 8.68371216e+002, 1.27789661e+003,
          3.74857495e+003, 1.42255249e+003, 3.57651465e+003, 0.,
          1.13137083e+001, 1.01202766e+002, 3.68270874e+003,
          1.57884937e+003, 5.90443555e+003, 6.48144873e+003, 88., 0.,
          3.78581123e+001, 8.27133240e+002 ]
      - [ 1.12108960e+003, 3.90028027e+003, 5.97889551e+003,
          2.98628784e+003, 9.12212891e+002, 0., 0., 0., 0.,
          1.20633850e+003, 2.03881067e+003, 3.99584839e+003, 0., 0.,
          1.18152443e+002, 0., 1.29682214e+003, 0., 0., 1.68011902e+002,
          3.99722876e+003, 1.79713489e+003, 1.25443762e+003,
          6.60928162e+002, 1.61370886e+003, 2.91952911e+002, 0.,
          1.39283886e+001, 5.85040430e+003, 2.45187598e+003,
          4.33662500e+003, 2.20897754e+003, 0., 8.10061722e+001, 0., 0.,
          8.60936621e+003, 3.56673413e+003, 1.64424402e+003,
          2.09906030e+003, 0., 1.55563488e+001, 1.11400177e+002,
          4.46814209e+003, 2.74935229e+003, 1.56114307e+003,
          5.53352356e+002, 8.31562378e+002, 1.45301685e+003,
          8.95399658e+002, 4.81154492e+003, 2.60858813e+003,
          1.61729480e+003, 0., 0., 1.48623804e+003, 1.64478296e+003,
          3.41212622e+003, 5.64561621e+003, 5.67454785e+003, 44., 0., 0.,
          0. ]
      - [ 4.30199805e+003, 2.45677295e+003, 1.41882056e+003,
          1.71865112e+003, 1.33873877e+003, 0., 0., 0., 1.38066431e+003,
          3.18192773e+003, 1.23546838e+003, 3.79051453e+002, 0., 0.,
          1.47492371e+002, 3.01120264e+003, 2.67158813e+003,
          1.10308655e+002, 0., 0., 1.49083862e+002, 8.75885864e+002,
          2.02461731e+003, 3.95422778e+003, 7.01445679e+002, 0., 0., 0.,
          6.05260254e+002, 2.57493970e+003, 3.74686914e+003,
          3.59988281e+003, 6.93744934e+002, 0., 0., 2.67685498e+003,
          2.03616748e+003, 1.23521204e+003, 2.68869092e+003,
          2.71823926e+003, 2.55780859e+003, 1.23181534e+002,
          1.99190137e+003, 1.63499194e+003, 8.79898071e+002, 0.,
          1.03682361e+003, 2.50377441e+003, 3.61970703e+003,
          2.92393262e+003, 8.90923279e+002, 1.20090649e+003,
          5.31089600e+002, 0., 2.42858002e+002, 5.62421143e+002,
          5.66595703e+003, 3.54773096e+003, 2.54386963e+003,
          2.29986938e+003, 0., 0., 0., 0. ]
      - [ 1.34992371e+003, 9.43363965e+003, 1.27450818e+003,
          1.35007593e+003, 0., 0., 0., 0., 9.71287842e+001,
          8.22317773e+003, 2.16601013e+002, 0., 3.80525970e+001, 0., 0.,
          0., 2.42767456e+003, 1.28631256e+002, 0., 1.18917358e+003,
          2.31211157e+003, 1.26814001e+003, 5.29495850e+002,
          1.11375281e+003, 1.28101563e+003, 1.52803125e+003, 0.,
          1.10370532e+003, 3.61953687e+003, 1.86144434e+003,
          2.94670898e+003, 1.23889526e+003, 6.23071777e+002, 0.,
          4.40783386e+002, 2.14219513e+002, 6.45631470e+002,
          2.13266577e+003, 4.50715332e+003, 1.84632861e+003, 0.,
          6.80733521e+002, 1.46589087e+003, 0., 0., 0., 3.28698364e+003,
          1.61687073e+003, 1.01469818e+003, 8.10974182e+002,
          1.28838037e+003, 4.32415381e+003, 2.31303787e+002, 0., 0., 0.,
          3.30126123e+003, 7.58107788e+002, 3.86041064e+003,
          4.47964746e+003, 1.42063629e+002, 0., 0., 1.18072803e+003 ]
      - [ 1.32003333e+003, 1.44149683e+003, 1.02473669e+003,
          1.11544092e+003, 2.72534155e+003, 4.43985748e+002,
          6.99179749e+002, 9.79876099e+002, 3.49071014e+002,
          2.82842708e+000, 0., 0., 2.52628052e+003, 1.01003607e+003,
          6.50265503e+002, 0., 0., 0., 0., 0., 1.17619482e+003,
          1.17713232e+003, 1.93361450e+003, 1.02460010e+003,
          1.10567017e+003, 0., 0., 0., 1.18825793e+003, 4.48801123e+003,
          1.56575134e+003, 3.15069092e+003, 0., 0., 0., 0., 0.,
          4.61296387e+003, 2.93900488e+003, 1.85443701e+003,
          6.87725342e+002, 0., 0., 0., 8.86637207e+002, 1.43651196e+003,
          3.59625513e+003, 9.01462280e+002, 3.07302881e+003,
          6.41882568e+002, 4.36806580e+002, 1.75899084e+003,
          1.39207520e+003, 0., 0., 4.22031281e+002, 2.77140259e+003,
          2.77207642e+003, 1.87832056e+003, 2.79648462e+003,
          2.94061218e+002, 0., 0., 0. ]
      - [ 2.95515601e+003, 6.14586719e+003, 1.98431641e+003,
          1.46986060e+003, 0., 0., 0., 0., 0., 0., 6.95932495e+002,
          1.53643677e+003, 1.71374329e+003, 1.53410815e+003,
          5.65508240e+002, 4.03959808e+002, 0., 1.06075342e+003,
          2.19186108e+003, 3.77547388e+003, 9.37026123e+002, 0., 0., 0.,
          1.06169678e+002, 7.07106781e+001, 2.52947754e+003,
          3.26399634e+003, 1.38287024e+003, 9.41724609e+002,
          1.12767908e+003, 1.25232373e+003, 2.04479828e+002, 0.,
          4.01907959e+002, 7.71472595e+002, 4.38894073e+002,
          1.37478455e+003, 4.54970703e+002, 8.48601953e+003,
          2.55252808e+003, 0., 0., 3.24197479e+002, 0., 0.,
          5.66137817e+002, 8.32809692e+002, 3.46413055e+002,
          6.41094360e+002, 3.17279053e+002, 6.71359802e+002,
          2.20859644e+003, 1.79417261e+003, 6.12155090e+002,
          2.66013623e+003, 9.23558350e+002, 5.08053894e+002,
          9.06193665e+002, 6.56046729e+003, 6.88168884e+002, 0.,
          4.17698456e+002, 2.05048511e+003 ]
      - [ 3.78842017e+003, 1.03828333e+003, 7.51281494e+002,
          7.12030273e+002, 3.85875000e+002, 2.97143799e+002, 0., 0., 0.,
          0., 0., 0., 1.05080925e+002, 6.86907227e+002, 1.93242462e+002,
          2.73497437e+003, 4.90400781e+003, 5.88634968e+000, 0., 0., 0.,
          0., 0., 0., 0., 0., 0., 0., 4.36378265e+002, 7.04953918e+002,
          9.03431763e+002, 6.61775293e+003, 0., 0., 0., 5.51284241e+002,
          1.68769202e+003, 1.32036108e+003, 1.23377063e+003,
          2.10293042e+003, 3.11967456e+003, 8.22519836e+002,
          6.29017273e+002, 0., 0., 0., 0., 0., 1.56371353e+002, 0., 0.,
          9.93277435e+001, 3.21809784e+002, 1.07647766e+002,
          2.19153305e+002, 9.23392883e+002, 1.07883242e+004,
          5.46319153e+002, 1.48618457e+003, 0., 2.99969452e+002,
          1.84390888e+001, 3.17100128e+002, 0. ]
      - [ 2.33730713e+003, 2.10199463e+003, 5.29696826e+003, 0., 0., 0.,
          0., 0., 0., 0., 0., 0., 1.43685632e+003, 1.72289978e+003,
          1.47035901e+003, 1.35915015e+003, 4.28737061e+003,
          4.74247266e+003, 6.16929016e+002, 0., 0., 0., 0., 0., 0., 0.,
          0., 2.34129663e+003, 1.25772668e+003, 1.46718079e+003,
          6.73303101e+002, 1.26835938e+003, 0., 0., 1.98395959e+003,
          1.59110031e+002, 1.22818420e+003, 2.53775497e+002,
          1.53739380e+003, 1.36478027e+003, 8.93718750e+003,
          7.31413940e+002, 3.44815887e+002, 0., 0., 0., 0., 0., 0., 0.,
          1.77832507e+003, 1.29684229e+003, 8.09091003e+002,
          1.72749316e+003, 9.32611877e+002, 1.39997815e+003,
          4.62808740e+003, 1.08543652e+003, 5.39807520e+003,
          1.95398389e+003, 0., 0., 0., 0. ]
      - [ 1.79278931e+003, 1.93679199e+003, 2.13876147e+003, 0., 0., 0.,
          0., 0., 0., 0., 0., 0., 0., 0., 3.12409992e+001,
          8.13797510e+003, 9.02128711e+003, 5.65685415e+000, 0., 0., 0.,
          0., 0., 0., 0., 0., 0., 0., 9.29711426e+002, 1.42680750e+003,
          1.15158069e+003, 1.90495300e+003, 0., 0., 4.29418221e+001,
          1.92306250e+003, 6.62676758e+002, 1.28895813e+003,
          8.47075134e+002, 1.08817842e+004, 8.25279724e+002,
          1.35897522e+002, 0., 0., 0., 0., 1.31034348e+002,
          2.42825043e+002, 8.12274292e+002, 0., 0., 0., 0., 0.,
          1.41421354e+000, 2.11452197e+003, 7.76691504e+003,
          3.03836646e+003, 1.75791833e+003, 1.84284485e+003, 0., 0., 0.,
          2.62922028e+002 ]
      - [ 6.45381592e+002, 3.40657568e+003, 8.22741992e+003, 0., 0., 0.,
          0., 0., 0., 0., 7.11493359e+003, 2.08806137e+002,
          1.86096756e+002, 4.27151031e+002, 0., 5.71545288e+002,
          2.55651514e+003, 7.60718384e+002, 8.86465515e+002,
          2.22247461e+003, 2.11790503e+003, 7.21110249e+000, 0., 0., 0.,
          4.38406219e+001, 9.17530457e+002, 2.07171432e+002,
          4.44149561e+003, 2.21122974e+003, 1.28000171e+003,
          4.35660400e+001, 4.04178979e+003, 4.33866333e+002,
          1.60853357e+003, 5.80344734e+001, 1.75996558e+003,
          2.49152930e+003, 3.04729419e+003, 1.08865527e+003,
          3.16123267e+003, 3.80620459e+003, 1.25992065e+002, 0.,
          7.51656555e+002, 6.01079041e+002, 4.51154083e+002,
          7.85830750e+002, 3.37374365e+003, 0., 5.92466003e+002, 0.,
          1.39046838e+003, 1.93114514e+003, 6.41498962e+002,
          2.11308984e+003, 3.77102832e+003, 9.00397217e+002,
          1.89761548e+003, 5.19063818e+003, 0., 3.13049526e+001, 0.,
          8.59574341e+002 ]
      - [ 5.31568457e+003, 6.30719116e+002, 2.65646393e+002,
          1.84390888e+001, 0., 0., 0., 0., 0., 0., 0., 0., 0., 0., 0.,
          1.15564624e+003, 0., 0., 0., 0., 0., 0., 0., 0., 0., 0., 0.,
          0., 0., 4.17373962e+002, 7.87365967e+002, 7.80374268e+003,
          1.09383118e+003, 2.53254807e+002, 2.46402115e+002,
          6.52287903e+002, 3.28867767e+002, 8.08333252e+002,
          9.59609802e+002, 2.93301147e+003, 4.19451025e+003,
          1.55563488e+001, 0., 0., 0., 0., 0., 0., 2.86062927e+002, 0.,
          1.27906212e+002, 0., 0., 0., 1.33050793e+003, 2.43536475e+003,
          3.81565991e+003, 1.36499097e+003, 1.04683948e+003,
          5.16799744e+002, 6.24354675e+002, 6.55746887e+002, 0., 0. ]
      - [ 1.05727158e+004, 1.67714697e+003, 1.93739075e+003, 0., 0., 0.,
          0., 0., 0., 0., 0., 0., 0., 0., 0., 5.43155579e+002,
          8.11245752e+003, 4.24264050e+000, 0., 0., 0., 0., 0., 0., 0.,
          0., 0., 0., 0., 1.82940137e+003, 2.52088037e+003,
          2.34005933e+003, 0., 0., 0., 6.41248779e+001, 1.56196838e+003,
          5.62780334e+002, 1.36566125e+003, 3.92577856e+003,
          7.91648193e+003, 2.82842708e+000, 0., 0., 0., 0., 0., 0., 0.,
          0., 0., 0., 0., 0., 0., 2.03340222e+003, 1.02969111e+004,
          1.04912305e+003, 6.23576416e+002, 7.69566101e+002,
          7.93992310e+002, 0., 0., 0. ]
      - [ 9.41181055e+003, 1.36792273e+003, 4.76771790e+002, 0., 0., 0.,
          0., 0., 0., 0., 0., 0., 0., 0., 0., 0., 3.22352051e+003,
          6.04904366e+001, 0., 0., 0., 0., 5.94138031e+001, 0.,
          3.60471375e+002, 2.80071411e+002, 0., 0., 0., 1.16846765e+003,
          2.64315259e+003, 4.13858350e+003, 0., 1.77859497e+002,
          7.46125977e+002, 7.83242126e+002, 7.80191101e+002,
          4.92625031e+002, 8.07048950e+002, 5.72281372e+002,
          9.66146289e+003, 2.05870026e+002, 0., 0., 0., 0., 0., 0., 0.,
          0., 0., 0., 0., 2.11738477e+003, 2.03101587e+003,
          2.71886450e+003, 3.39489624e+003, 8.10631897e+002,
          3.77382843e+002, 1.32662085e+003, 1.45543616e+003,
          9.14814331e+002, 0., 0. ]
      - [ 1.69018530e+003, 1.14623001e+002, 1.21085132e+003,
          6.28752747e+002, 9.40850677e+001, 0., 0., 0., 0., 0., 0., 0.,
          0., 0., 5.45893745e+001, 8.84449316e+003, 8.53836426e+003,
          1.86398144e+001, 0., 0., 0., 0., 0., 0., 0., 0., 0., 0.,
          9.39194824e+002, 1.58628113e+003, 8.55204529e+002,
          1.76266614e+003, 2.45837341e+002, 0., 0., 0., 6.39061829e+002,
          1.25094482e+003, 1.47919165e+003, 9.81236133e+003,
          1.92194656e+002, 0., 0., 0., 0., 0., 0., 2.12249939e+002, 0.,
          3.17682251e+002, 0., 0., 0., 0., 4.24264050e+000,
          2.96074805e+003, 7.92039063e+003, 1.58367859e+003,
          1.50824646e+003, 9.51509705e+002, 0., 0., 0., 7.05171753e+002 ]
      - [ 3.97398511e+003, 1.63282886e+003, 5.43061707e+002,
          1.66514771e+003, 7.33484802e+001, 0., 0., 0., 0., 0., 0., 0.,
          0., 0., 3.94461670e+001, 7.87163818e+003, 1.01068799e+004,
          4.51499329e+001, 0., 0., 0., 0., 0., 0., 0., 0., 0., 0.,
          2.78351001e+003, 4.35670746e+002, 9.91510620e+002,
          2.84850366e+003, 0., 0., 0., 0., 6.52395569e+002,
          1.36023303e+003, 2.83400342e+003, 1.01889834e+004,
          2.50293213e+002, 5.65685415e+000, 0., 0., 0., 0., 0., 0., 0.,
          0., 0., 0., 0., 0., 5.65685415e+000, 3.19634937e+003,
          9.66476270e+003, 9.76982422e+002, 1.07729578e+003,
          2.03017480e+003, 0., 0., 0., 0. ]
      - [ 2.46847241e+003, 5.06116016e+003, 1.45981006e+003, 0., 0., 0.,
          0., 0., 0., 0., 0., 0., 5.13484192e+002, 1.50387292e+003,
          1.65698621e+003, 1.43392603e+003, 9.90765503e+002,
          1.89819873e+003, 2.70679834e+003, 4.49221535e+001, 0., 0., 0.,
          0., 0., 0., 0., 0., 2.66970605e+003, 1.54444275e+003,
          1.27116638e+003, 5.70535693e+003, 0., 0., 8.44037903e+002,
          8.28667908e+002, 1.01113971e+003, 5.48210571e+002,
          1.01170087e+003, 4.95718408e+003, 4.80743604e+003,
          8.80066101e+002, 0., 0., 0., 0., 0., 0., 0., 0., 0., 0., 0.,
          8.52884521e+002, 3.57397046e+003, 5.66612012e+003,
          6.98563721e+002, 1.25304761e+003, 1.74112402e+003,
          2.86448120e+003, 0., 0., 0., 0. ]
      - [ 2.66321436e+003, 4.72640686e+002, 6.36553230e+001,
          1.86818161e+002, 32., 7.46520386e+001, 4.76564178e+001, 0.,
          3.80788651e+001, 1.97989902e+001, 3.53553391e+001,
          3.00665932e+001, 32., 2.28035088e+001, 5.23259048e+001,
          1.58829736e+003, 5.58350781e+003, 5.65685415e+000, 0., 0., 0.,
          0., 0., 0., 0., 0., 0., 0., 0., 2.36647415e+002,
          8.07071411e+002, 9.60312988e+002, 1.95510522e+003, 0.,
          2.77218323e+002, 0., 7.19115234e+002, 5.89868164e+002,
          1.24499597e+003, 3.63940210e+003, 2.69242920e+003, 0., 0., 0.,
          0., 0., 0., 1.04792554e+003, 1.58796643e+003, 0., 0., 0., 0.,
          0., 0., 5.39023193e+002, 8.19290039e+003, 6.39232056e+002,
          2.59896118e+002, 1.54019485e+002, 9.26679871e+002, 0.,
          1.67720001e+002, 3.04657196e+002 ]
      - [ 3.12771088e+002, 6.16304932e+001, 5.26174377e+002,
          2.23943161e+002, 3.23289703e+002, 6.99400757e+002,
          8.48528099e+000, 0., 0., 0., 0., 0., 0., 9.20217361e+001,
          5.31359680e+002, 3.82767651e+003, 2.08764014e+003,
          2.87980908e+003, 0., 0., 0., 0., 0., 0., 0., 0., 0.,
          1.09198901e+003, 5.53032166e+002, 2.76233490e+002,
          5.87643860e+002, 3.27673615e+002, 4.33610413e+002, 0., 0., 0.,
          0., 4.09060059e+002, 2.10948975e+003, 2.52036182e+003,
          8.93812805e+002, 6.51920242e+001, 0., 0., 0., 0.,
          2.66593323e+002, 3.89625458e+002, 1.36865015e+003,
          1.11830231e+002, 0., 0., 0., 0., 0., 9.27193054e+002,
          4.86275000e+003, 1.28873694e+003, 4.85542847e+002, 0., 0., 0.,
          0., 0. ]
      - [ 2., 8.94613672e+003, 9.77445679e+001, 0., 0., 0., 0., 0., 0.,
          0., 0., 0., 0., 3.09428497e+002, 0., 0., 8.56017761e+001,
          1.48528503e+003, 2.93978198e+003, 0., 0., 0., 0., 0., 0., 0.,
          3.31609180e+003, 2.09395776e+003, 7.68487427e+002,
          1.54919995e+003, 5.86156616e+002, 3.06425220e+003,
          7.75984558e+002, 1.37433862e+003, 8.80328430e+002, 0.,
          1.42635193e+003, 6.16589355e+002, 1.01589612e+003,
          3.36848779e+003, 5.40378711e+003, 2.92030518e+002, 0., 0.,
          2.67570557e+002, 0., 0., 0., 6.98369507e+002, 1.26063477e+002,
          0., 0., 0., 0., 1.23869705e+002, 6.60685303e+003,
          3.90421460e+003, 5.87093567e+002, 9.78117859e+002,
          4.58955322e+002, 3.96678711e+002, 9.82183655e+002,
          2.52336206e+003, 3.04323999e+003 ]
      - [ 1.10607871e+004, 2.19646957e+002, 1.55181787e+003,
          1.11676514e+003, 0., 0., 0., 0., 0., 0., 0., 0., 0., 0., 0.,
          2.80713367e+001, 3.77798120e+003, 1.41421354e+000, 0., 0., 0.,
          0., 0., 0., 0., 0., 0., 0., 0., 3.65206787e+002,
          6.00117432e+003, 5.26657324e+003, 0., 0., 0., 0.,
          1.12263159e+003, 1.63186914e+003, 1.43001343e+003,
          7.89761475e+003, 2.02999011e+003, 2.82842708e+000, 0., 0., 0.,
          0., 0., 0., 0., 0., 0., 0., 0., 0., 0., 1.37786841e+003,
          1.18251152e+004, 1.11044934e+003, 8.39536926e+002, 0.,
          1.26063562e+003, 0., 0., 0. ]
      - [ 8.07725586e+003, 3.54836388e+001, 1.06987183e+003,
          5.88255249e+002, 0., 0., 0., 0., 0., 0., 0., 0., 0., 0., 0.,
          2.53514600e+003, 1.93429236e+003, 0., 0., 0., 0., 0., 0., 0.,
          0., 0., 0., 0., 7.29515076e+002, 8.54259888e+002,
          1.13442969e+003, 8.62054688e+003, 0., 0., 0., 0.,
          5.95324951e+002, 1.07788623e+003, 6.66490417e+002,
          9.43146875e+003, 630., 0., 0., 0., 0., 0., 0., 0., 0., 0., 0.,
          0., 0., 0., 7.24516535e+000, 8.10970313e+003, 2.61375220e+003,
          8.12343811e+002, 1.22846667e+003, 7.57493408e+002, 0., 0., 0.,
          0. ]
      - [ 1.33089026e+003, 1.87856274e+003, 3.60436182e+003, 0., 0., 0.,
          0., 0., 0., 0., 5.84850403e+002, 3.63188660e+002,
          1.00824774e+003, 1.21266248e+003, 1.80469360e+002,
          1.14461328e+003, 5.73678564e+003, 6.78822479e+001,
          2.49803906e+003, 0., 0., 0., 0., 0., 0., 0., 0.,
          1.17099744e+003, 1.37484326e+003, 9.30940796e+002,
          8.62531586e+001, 3.65124634e+002, 5.53145386e+002, 0., 0.,
          6.48707764e+002, 6.52302063e+002, 5.35403809e+002,
          8.80504822e+002, 1.75669214e+003, 4.83983887e+003,
          2.43206635e+002, 0., 2.77722870e+002, 0., 0., 0.,
          5.57334717e+002, 2.02543823e+002, 0., 0., 0., 0.,
          6.79864746e+002, 1.09067639e+003, 1.48187537e+003,
          3.90278516e+003, 1.23317517e+003, 1.52685840e+003,
          8.76916321e+002, 0., 0., 0., 1.14560028e+002 ]
      - [ 0., 3.14340552e+003, 1.58507446e+003, 2.03897095e+003, 0., 0.,
          0., 0., 0., 0., 0., 0., 0., 0., 3.34041113e+003,
          7.20059814e+003, 7.87097998e+003, 2.60003613e+003, 0., 0., 0.,
          0., 0., 0., 0., 0., 0., 9.96092377e+001, 2.69105786e+003,
          1.49518982e+003, 1.14724707e+003, 2.00471948e+003, 0., 0., 0.,
          3.37342567e+001, 6.64085815e+002, 2.32273633e+003,
          3.72851563e+003, 7.31136279e+003, 1.98612756e+003,
          5.33104134e+001, 0., 0., 0., 0., 1.18701309e+002,
          1.93380447e+002, 1.75482193e+002, 0., 6.36553230e+001, 0., 0.,
          0., 0., 0., 9.99418262e+003, 4.07387305e+003, 1.43762146e+003,
          8.91891113e+002, 0., 0., 0., 0. ]
      - [ 7.22218652e+003, 1.33258447e+003, 9.47080688e+002,
          3.17345245e+002, 0., 0., 0., 0., 0., 0., 0., 0., 0., 0.,
          1.88679619e+001, 2.75500513e+003, 2.06130371e+003,
          1.02126617e+003, 1.79641870e+003, 0., 0., 0., 0., 0., 0., 0.,
          0., 0., 0., 2.31984961e+003, 4.04067773e+003, 3.97103955e+003,
          4.42380676e+002, 2.18247559e+002, 0., 6.25250366e+002,
          1.24658289e+003, 2.57154443e+003, 1.31799854e+003,
          5.34603516e+003, 4.76387988e+003, 1.41421354e+000, 0., 0., 0.,
          0., 0., 3.69672729e+002, 0., 0., 0., 2.34196503e+002,
          2.89968964e+002, 6.30899048e+002, 1.43324988e+003,
          3.78486987e+003, 4.57543555e+003, 3.76310327e+003,
          1.10378955e+003, 1.49359058e+003, 8.65868286e+002,
          2.34862256e+003, 0., 1.48006760e+002 ]
      - [ 6.05770410e+003, 2.62555347e+003, 2.86020966e+002,
          1.06018867e+002, 0., 5.53172684e+001, 0., 0., 0., 0., 0., 0.,
          0., 0., 1.27011810e+002, 0., 1.57436353e+003, 8.48528099e+000,
          1.00419121e+002, 0., 0., 0., 0., 0., 0., 0., 0., 0., 0.,
          4.21719513e+002, 1.79955396e+003, 6.43650049e+003, 0.,
          1.38130371e+002, 5.99322937e+002, 5.87017639e+002,
          5.95424866e+002, 3.47764191e+002, 6.33423157e+002,
          3.10797437e+003, 4.13734863e+003, 1.35402856e+003, 0., 0., 0.,
          0., 0., 0., 0., 0., 0., 1.41682739e+002, 0., 0.,
          1.73869385e+003, 5.52960840e+003, 2.38066479e+003,
          7.20565674e+002, 4.61769775e+002, 7.66812744e+002,
          7.55445557e+002, 6.55275513e+002, 0., 0. ]
      - [ 4.77458545e+003, 1.37565210e+003, 1.18994531e+003,
          4.26916840e+002, 0., 0., 0., 0., 0., 0., 0., 0., 0., 0.,
          1.55563488e+001, 3.72354102e+003, 7.20108887e+002,
          6.69543518e+002, 3.36245148e+002, 1.79593054e+003, 0., 0., 0.,
          0., 0., 0., 0., 0., 0., 1.18832788e+003, 6.94883594e+003,
          1.91815894e+003, 0., 0., 5.18652115e+001, 0., 1.85998853e+003,
          1.38562695e+003, 1.38768689e+003, 4.52149561e+003,
          3.54824805e+003, 7.50804825e+001, 0., 0., 0., 0., 0., 0., 224.,
          0., 0., 0., 4.33315125e+002, 8.32738770e+002, 8.14728760e+002,
          2.70820776e+003, 4.73833740e+003, 1.76417993e+003,
          1.22802637e+003, 4.31159241e+002, 2.19063843e+003, 0., 0., 0. ]
      - [ 4.81871143e+003, 1.37997607e+003, 8.65558716e+002,
          1.81709851e+003, 3.11001617e+002, 0., 0., 0., 0., 0., 0., 0.,
          0., 0., 1.24169243e+002, 5.93822607e+003, 3.38083838e+003,
          1.24723547e+003, 0., 0., 0., 0., 0., 0., 0., 0., 0., 0.,
          1.50834998e+003, 1.07451563e+003, 2.30609229e+003,
          6.84544189e+003, 7.08801804e+001, 0., 0., 0., 1.16912817e+003,
          1.82732983e+003, 2.97299243e+003, 9.06373145e+003,
          2.98328686e+001, 0., 0., 0., 0., 0., 0., 4.24499702e+001, 0.,
          4.91934967e+001, 0., 0., 0., 2.28547592e+002, 4.30116272e+001,
          2.89410669e+003, 6.60684570e+003, 4.13709717e+003,
          1.48722766e+003, 2.06506055e+003, 0., 0., 0., 0. ]
      - [ 8.71141113e+003, 9.83194504e+001, 1.17633704e+003,
          6.70930603e+002, 1.81115662e+003, 0., 0., 0., 0., 0., 0., 0.,
          0., 0., 0., 3.66007568e+003, 4.58852344e+003, 1.69705620e+001,
          0., 0., 0., 0., 0., 0., 2.57876953e+002, 0., 1.10317726e+002,
          0., 0., 3.08526660e+003, 2.07939111e+003, 5.27282422e+003, 0.,
          0., 0., 0., 0., 1.26348853e+003, 4.58517676e+003,
          6.89183057e+003, 1.22685107e+003, 0., 0., 0., 0., 0., 0., 0.,
          0., 0., 0., 0., 0., 0., 2.08884010e+001, 3.71214917e+003,
          5.54105420e+003, 3.71322363e+003, 6.09548889e+002,
          7.73600098e+002, 7.17174988e+002, 4.97393188e+001, 0., 0. ]
      - [ 1.27003394e+003, 4.28658984e+003, 1.32866711e+003, 0., 0., 0.,
          0., 0., 0., 0., 0., 0., 1.50914746e+003, 8.33879639e+002,
          1.25921899e+003, 1.37054785e+003, 6.18025586e+003,
          2.06622925e+003, 8.66681030e+002, 0., 0., 0., 0., 0., 0., 0.,
          0., 0., 1.78043848e+003, 1.79426538e+003, 7.06192017e+002, 0.,
          7.02663513e+002, 0., 4.06952087e+002, 1.64299182e+003,
          6.08848083e+002, 1.30734412e+003, 8.54516479e+002,
          2.56584741e+003, 7.46694531e+003, 1.41421354e+000, 0., 0., 0.,
          6.51305542e+002, 5.68902466e+002, 7.09085327e+002,
          1.04792615e+003, 0., 0., 0., 0., 1.68875647e+003,
          1.94368616e+003, 1.02904980e+003, 6.59976855e+003,
          7.53716064e+002, 1.04150427e+003, 2.03747107e+003,
          1.88717651e+003, 0., 0., 1.66012054e+002 ]
      - [ 4.60676318e+003, 4.40460254e+003, 2.37759448e+003,
          1.27192764e+002, 0., 0., 0., 0., 0., 0., 0., 0., 0., 0., 0.,
          0., 0., 0., 0., 0., 0., 0., 0., 0., 0., 0., 0., 0.,
          2.73239807e+002, 1.66669299e+003, 3.83050073e+003,
          7.75180176e+003, 1.33184082e+002, 4.00412292e+002,
          6.93502686e+002, 8.22824585e+002, 0., 1.99672986e+003,
          9.51057922e+002, 6.74247742e+002, 8.05359424e+003,
          2.29964874e+002, 0., 0., 0., 0., 0., 0., 0., 0., 0., 0., 0.,
          0., 1.91171188e+002, 6.35977051e+003, 4.60200977e+003,
          5.40499756e+002, 9.34275024e+002, 4.68789917e+002,
          1.19964282e+003, 3.13694122e+002, 0., 0. ]
      - [ 6.97248926e+003, 3.13072827e+003, 4.61736603e+002, 0., 0., 0.,
          0., 0., 0., 0., 0., 0., 0., 0., 7.00296173e+001,
          2.09818921e+003, 2.49726514e+003, 0., 0., 0., 0., 0., 0., 0.,
          0., 0., 0., 0., 7.88727051e+002, 1.25721204e+003,
          8.09345398e+002, 9.24690918e+003, 0., 0., 0., 1.25207397e+003,
          2.08815613e+002, 6.17412354e+002, 1.19153455e+003,
          1.05659307e+004, 0., 0., 0., 0., 0., 0., 0., 0., 0., 0., 0.,
          0., 0., 0., 1.03584852e+001, 5.68959424e+003, 5.67162842e+003,
          1.76855566e+003, 5.84846924e+002, 1.61614209e+003, 0., 0., 0.,
          0. ]
      - [ 4.60372705e+003, 9.14919312e+002, 7.87299438e+002,
          1.19274072e+003, 0., 0., 0., 0., 0., 0., 0., 0., 0., 0.,
          1.41421354e+000, 5.75332715e+003, 7.58560156e+003,
          5.67874069e+001, 0., 0., 0., 0., 0., 0., 0., 0., 0., 0., 0.,
          1.15810876e+003, 2.75007715e+003, 3.65056860e+003, 0.,
          1.14934761e+002, 0., 0., 1.19853674e+003, 2.45100977e+003,
          3.36539990e+003, 1.37817993e+003, 6.38523340e+003,
          5.76069374e+001, 0., 0., 0., 0., 2.28757538e+002,
          1.21061966e+002, 0., 1.09416634e+002, 0., 0., 0., 0.,
          2.80948639e+001, 6.29428320e+003, 5.43344336e+003,
          2.31671606e+003, 9.39693726e+002, 1.78664941e+003,
          4.14077301e+002, 0., 4.20475922e+001, 9.45304184e+001 ]
      - [ 8.94681836e+003, 8.59698242e+002, 2.43507706e+002, 0., 0., 0.,
          0., 0., 0., 0., 0., 0., 0., 0., 0., 0., 3.18250122e+003,
          1.78885441e+001, 0., 0., 0., 0., 0., 0., 0., 0., 0., 0., 0.,
          3.82099457e+001, 3.41896753e+003, 3.82178271e+003,
          1.11754590e+003, 9.06538452e+002, 6.54320251e+002,
          7.39006104e+002, 8.17200317e+002, 6.78429993e+002,
          1.08700891e+003, 1.73897192e+003, 7.78389551e+003,
          1.11153333e+003, 1.07415085e+002, 0., 0., 0., 0., 0., 0., 0.,
          0., 0., 0., 9.06862717e+001, 3.35468872e+003, 5.67441748e+003,
          2.37627466e+003, 7.14627319e+002, 5.73744019e+002,
          7.21283569e+002, 1.58412817e+003, 1.29903833e+003,
          1.03300818e+003, 0. ]
      - [ 2.97651465e+003, 5.30293896e+003, 1.30430054e+002, 0., 0., 0.,
          0., 0., 0., 0., 0., 0., 0., 0., 0., 4.70956459e+001,
          5.36467773e+002, 4.06659790e+003, 0., 0., 0., 0., 0., 0., 0.,
          0., 2.11091479e+003, 1.46330005e+003, 1.57010754e+003,
          3.08814331e+002, 1.17309399e+003, 1.38520239e+003,
          2.34172461e+003, 1.21488184e+003, 7.07451782e+002,
          4.31058563e+002, 1.65691199e+003, 7.98068359e+002,
          1.66244446e+003, 2.61779614e+003, 6.39213379e+003,
          7.89886322e+001, 0., 0., 0., 0., 0., 0., 0., 0., 0., 0., 0.,
          0., 7.80891113e+001, 9.37368457e+003, 1.51736218e+003,
          7.73461182e+002, 7.23062378e+002, 6.91401489e+002,
          4.92644318e+002, 2.20691455e+003, 1.18506848e+003,
          4.33917529e+003 ]
      - [ 4.49738184e+003, 1.56732422e+003, 9.85374634e+002,
          2.92441437e+002, 1.90824927e+003, 0., 0., 0., 0., 0., 0., 0.,
          0., 2.16813306e+003, 1.61883325e+003, 2.55112329e+003,
          8.51302441e+003, 2.95886322e+002, 0., 0., 0., 0., 0., 0., 0.,
          0., 0., 0., 1.44354810e+003, 6.77367004e+002, 1.69955566e+003,
          2.72187085e+003, 0., 2.30555847e+002, 0., 0., 0.,
          2.02622595e+003, 3.77054248e+003, 2.86705615e+003,
          4.23205225e+003, 0., 0., 0., 2.59988464e+002, 0., 0.,
          2.59788361e+002, 0., 0., 0., 0., 0., 0., 2.82842708e+000,
          2.53314453e+003, 9.60453125e+003, 7.79328125e+002,
          1.18029468e+003, 5.74144592e+002, 0., 0., 0., 0. ]
      - [ 5.65916113e+003, 1.24920227e+003, 5.59464035e+001,
          6.50127686e+002, 7.34225647e+002, 8.96852051e+002, 0., 0., 0.,
          0., 0., 0., 0., 0., 2.81639404e+003, 2.16946753e+003,
          6.93052832e+003, 4.50773254e+002, 0., 0., 0., 0., 0., 0., 0.,
          0., 0., 0., 1.51136768e+003, 5.39460876e+002, 1.77746960e+003,
          3.41737256e+003, 0., 1.06066017e+002, 0., 3.76563416e+001, 0.,
          1.54611389e+003, 2.11421753e+003, 4.34251270e+003,
          3.98853540e+003, 0., 0., 0., 0., 4.02243690e+001, 0., 0., 0.,
          0., 0., 0., 0., 0., 2.08538672e+003, 3.35255664e+003,
          4.12698145e+003, 3.12351392e+003, 1.26183557e+003,
          7.04789673e+002, 0., 0., 0., 0. ]
      - [ 3.26982153e+003, 2.09950073e+003, 7.39181885e+002,
          1.49485779e+002, 0., 0., 0., 0., 0., 0., 0., 0., 0., 0.,
          1.88909863e+003, 1.55680627e+003, 5.38861719e+003,
          5.60725891e+002, 0., 0., 0., 0., 0., 0., 0., 0., 0., 0., 0.,
          1.21502393e+003, 1.30603406e+003, 2.17685767e+003,
          1.39262344e+002, 0., 0., 0., 8.55468018e+002, 8.76710632e+002,
          6.32098083e+002, 4.16562549e+003, 2.96856812e+003,
          2.72643700e+001, 3.06414764e+002, 0., 0., 0., 0.,
          1.45670868e+002, 0., 0., 0., 0., 0., 9.19511230e+002,
          1.83567505e+003, 1.95630823e+003, 4.44982715e+003,
          6.23620605e+002, 9.07756409e+002, 4.48867462e+002,
          1.30601392e+003, 0., 0., 0. ]
      - [ 2., 8.39660889e+002, 8.86873340e+003, 4.48286182e+003, 0., 0.,
          0., 0., 0., 0., 2.73129997e+001, 6.49741748e+003,
          3.23109894e+002, 2.10206616e+003, 1.71884155e+002,
          1.41168250e+003, 1.76234668e+003, 5.49557861e+003,
          1.75259888e+003, 0., 1.66908887e+003, 1.13640234e+003, 0.,
          1.23219897e+003, 0., 1.85899585e+003, 1.52946838e+003,
          1.81211621e+003, 3.50453271e+003, 3.12874487e+003,
          2.78536133e+003, 9.35425171e+002, 0., 8.33234985e+002,
          3.22208203e+003, 0., 5.62276611e+003, 4.65823242e+003,
          1.79994690e+003, 4.35167511e+002, 2.02506799e+003,
          4.56116699e+003, 2.38992383e+003, 2.89675690e+002,
          1.17551416e+003, 1.79579333e+003, 7.69259766e+002,
          6.21406494e+002, 0., 0., 0., 1.01750313e+004, 1.84621851e+003,
          1.31506348e+003, 9.25380920e+002, 3.09260406e+002,
          3.16900604e+002, 1.98823950e+003, 5.20181543e+003,
          1.36326006e+004, 38., 7.65506363e+001, 0., 0. ]
      - [ 1.62828735e+003, 1.84815820e+003, 2.41527856e+003,
          4.06700610e+003, 4.06863672e+003, 0., 0., 0., 0., 0.,
          4.96588364e+001, 3.76171484e+003, 6.88516064e+003,
          6.25211121e+002, 9.29061890e+002, 7.68638672e+002,
          1.90396997e+003, 3.50358691e+003, 6.24644434e+003, 0., 0.,
          7.34353760e+002, 0., 5.09433014e+002, 0., 2.20417786e+002, 0.,
          0., 6.03934766e+003, 1.39088269e+003, 1.56369592e+003,
          1.69114975e+002, 0., 1.78619763e+003, 3.69153076e+002, 0.,
          9.41077051e+003, 3.33557007e+003, 2.76580249e+003,
          1.29343811e+003, 1.85224158e+003, 3.53030518e+003, 0., 0.,
          5.33195898e+003, 1.04416138e+003, 7.09970398e+002,
          1.04707312e+003, 0., 1.57613449e+002, 4.38676807e+003, 0.,
          6.07330469e+003, 1.25229871e+003, 3.14520477e+002,
          1.53075232e+003, 4.62499084e+002, 3.71080322e+003,
          8.14396094e+003, 6.17675635e+003, 1.80336890e+003, 0., 0., 0. ]
      - [ 1.06960718e+003, 2.49097095e+003, 2.83992749e+003,
          2.54527393e+003, 1.19397681e+003, 8.72336548e+002,
          2.54558449e+001, 2.46981773e+001, 3.55857666e+002,
          1.11229919e+003, 1.17549817e+003, 1.57575122e+003,
          3.74926666e+002, 7.84653076e+002, 7.27667297e+002,
          5.56596794e+001, 1.33546594e+003, 3.12409992e+001,
          3.98918549e+002, 1.50685104e+002, 3.37215503e+003,
          3.11976099e+003, 2.96060791e+002, 0., 6.64043335e+002, 0.,
          6.48308594e+002, 1.65982361e+003, 3.57712061e+003,
          2.88455493e+003, 3.77948120e+003, 1.30584375e+003, 0., 0., 0.,
          0., 1.46785461e+003, 1.21390442e+003, 7.09913672e+003,
          2.92851099e+003, 6., 0., 0., 0., 1.31598657e+003,
          4.89997955e+002, 1.07607202e+003, 4.84529102e+003,
          2.07175610e+003, 1.33315466e+003, 4.47973206e+002,
          1.76203027e+003, 7.16608887e+002, 2.88170074e+002,
          3.18513580e+002, 3.28739233e+003, 2.07117139e+003,
          1.50168689e+003, 3.07238281e+003, 3.60952808e+003, 0., 0.,
          1.27475487e+002, 1.21832520e+003 ]
      - [ 6.34312012e+002, 9.47594543e+002, 4.10938660e+002,
          1.20812915e+003, 0., 0., 0., 0., 0., 0., 0., 0., 0., 0.,
          3.19354199e+003, 2.76416064e+003, 7.07172058e+002,
          6.09618896e+003, 0., 2.77683258e+002, 0., 0., 0., 0., 0., 0.,
          0., 0., 2.09210254e+003, 1.53666357e+003, 9.08543762e+002,
          9.81521729e+002, 1.16667749e+003, 0., 0., 0., 4.04378540e+002,
          9.17184998e+002, 4.66631689e+003, 5.29799609e+003,
          1.43561841e+003, 0., 0., 0., 0., 0., 8.45666504e+002,
          2.21121118e+003, 1.65929468e+003, 2.68804749e+002, 0., 0.,
          1.35393860e+003, 1.16196692e+003, 9.95124756e+002,
          2.77856079e+002, 5.65646875e+003, 1.49892944e+003,
          1.17370593e+003, 3.77758691e+003, 0., 0., 0., 0. ]
      - [ 7.15077332e+002, 1.54965625e+003, 4.15632813e+003,
          7.10075586e+003, 0., 0., 0., 0., 0., 0., 0., 2.52698218e+003,
          2.80056323e+003, 1.40297815e+003, 9.35425659e+002,
          9.47569214e+002, 1.60128455e+003, 1.53156287e+003,
          5.35816357e+003, 0., 2.57146631e+003, 8.44357056e+002,
          2.26631866e+002, 4.82911987e+002, 0., 0., 3.09973755e+003,
          5.43593848e+003, 4.12351514e+003, 1.24726917e+003,
          6.18167542e+002, 3.68853394e+002, 3.50382660e+002, 0., 0.,
          1.99732385e+003, 3.65780103e+003, 2.81674097e+003,
          2.49887466e+002, 1.86513245e+003, 0., 3.94654663e+003,
          3.77761768e+003, 5.10533051e+002, 0., 0., 4.81804657e+002,
          1.27757584e+002, 0., 0., 1.13718948e+002, 1.07328438e+004,
          2.04416870e+003, 3.99542694e+002, 6.46450317e+002, 0.,
          1.14576563e+003, 2.53601883e+002, 4.13734082e+003,
          1.11414844e+004, 9.24792969e+002, 0., 0., 0. ]
      - [ 3.75138159e+003, 2.70691748e+003, 1.55235449e+003,
          8.63422241e+002, 8., 0., 5.65685415e+000, 0., 0., 0., 0., 0.,
          0., 2.28028809e+003, 1.19648401e+003, 2.89110645e+003,
          9.81591370e+002, 2.39359131e+003, 3.43674561e+003,
          3.39606763e+003, 2.65750830e+003, 0., 0., 8.65086670e+002, 0.,
          0., 0., 2.01901538e+003, 5.38924414e+003, 4.02973462e+003,
          1.73001123e+003, 2.10161850e+002, 7.30945496e+002,
          6.42372681e+002, 5.64291382e+002, 1.10211523e+003,
          7.91995239e+002, 1.24403931e+003, 1.70682764e+003,
          4.04529028e+003, 8.22453320e+003, 1.03674850e+002,
          2.22682892e+002, 0., 5.44499756e+002, 0., 6.06501465e+002, 0.,
          1.43019360e+003, 1.40036389e+003, 1.55611743e+003,
          2.36061621e+003, 1.49315747e+003, 8.32366516e+002,
          6.12596069e+002, 2.55368188e+003, 3.25099023e+003,
          3.73503491e+003, 3.57165894e+003, 3.23232373e+003,
          3.37083301e+003, 0., 0., 0. ]
      - [ 7.21377380e+002, 5.25704834e+003, 4.07018652e+003,
          5.54490784e+002, 0., 0., 0., 0., 14., 0., 2.86192432e+003,
          4.52747162e+002, 0., 6.75233276e+002, 4.89922180e+002,
          8.44264404e+002, 1.80958765e+003, 1.68532764e+003,
          2.85299561e+002, 2.10704346e+003, 1.58110107e+003,
          7.47237671e+002, 0., 6.34326416e+002, 1.93747253e+002,
          1.23880273e+003, 2.17726221e+003, 2.39298999e+003,
          2.11695166e+003, 1.56246045e+003, 1.50092517e+003,
          1.00214795e+003, 4.05960602e+002, 1.31729675e+003,
          3.15093628e+002, 4.18076538e+002, 7.85812500e+002,
          2.02125122e+003, 1.74920068e+003, 1.48400952e+003,
          1.72161670e+003, 2.22299390e+003, 4.09027197e+003, 0., 0.,
          5.78415100e+002, 0., 6.66520813e+002, 0., 0., 0.,
          1.96867078e+003, 5.94028369e+003, 1.18985840e+003,
          1.50903784e+003, 0., 1.30506699e+002, 4.86497955e+002,
          1.53783313e+003, 2.00194446e+003, 5.50114746e+003,
          5.07901398e+002, 0., 0. ]
      - [ 1.80756821e+002, 3.31305249e+003, 6.47462207e+003, 0., 0., 0.,
          0., 0., 0., 1.55563488e+001, 0., 3.64947949e+003,
          1.33796240e+003, 2.45477234e+002, 5.71751831e+002,
          7.20718323e+002, 1.49345557e+003, 9.00769629e+003,
          4.79887482e+002, 0., 0., 4.53997803e+002, 0., 3.21014008e+002,
          0., 1.78123669e+003, 5.30439258e+003, 3.31698669e+002,
          4.14672394e+002, 7.97921021e+002, 7.29410217e+002,
          1.11973213e+002, 0., 9.48123474e+002, 8.91260559e+002,
          1.15546631e+003, 1.60367615e+003, 8.29159424e+002,
          1.22480811e+003, 7.53137512e+002, 3.21788940e+003,
          3.84825293e+003, 0., 0., 8.36304688e+002, 7.36126160e+002, 0.,
          0., 0., 0., 0., 3.23893066e+003, 1.65157251e+003,
          3.22182715e+003, 2.86915356e+003, 3.93448853e+002,
          3.67526855e+002, 1.19192590e+003, 2.44121387e+003,
          2.43974072e+003, 2.29170142e+003, 3.75600049e+003,
          1.17379730e+002, 0. ]
      - [ 2.29869043e+003, 1.25084998e+003, 9.87113953e+002,
          2.97727686e+003, 0., 0., 0., 2.14108350e+003, 4.38043365e+002,
          1.40993018e+003, 4.74236237e+002, 0., 0., 1.85894861e+003,
          1.94797925e+003, 2.74553613e+003, 1.89813245e+003,
          9.24556543e+003, 4.31483490e+002, 0., 8.55102310e+001, 0.,
          6.27910828e+002, 0., 8.75001831e+002, 7.07106781e+000,
          4.23249121e+003, 1.75210205e+003, 0., 1.12908875e+003,
          9.74950500e+002, 7.03552002e+002, 1.89455786e+003,
          1.82255115e+003, 0., 1.83365930e+003, 1.70207324e+003,
          1.85569446e+003, 1.95802454e+003, 2.18558350e+003,
          3.03206763e+003, 3.58672974e+003, 2.83989441e+002,
          1.13708545e+003, 0., 6.63774048e+002, 0., 1.24036560e+003,
          8.32793701e+002, 2.07544360e+003, 1.19771582e+003,
          1.55865356e+003, 122., 1.92650500e+003, 2.26199609e+003,
          1.76218408e+003, 3.02648608e+003, 5.11678516e+003,
          1.39899561e+003, 2.45471338e+003, 3.28024384e+002,
          3.31118701e+003, 6.78822479e+001, 0. ]
      - [ 2.26042603e+003, 4.90892969e+003, 2.97168604e+003,
          2.50053003e+003, 7.58886658e+002, 0., 0., 0., 0., 0., 0.,
          6.00248291e+002, 3.18512177e+002, 0., 7.80759888e+002,
          2.11959961e+003, 7.22275635e+002, 3.31735205e+003,
          2.36357056e+003, 8.73549072e+002, 1.43542578e+003,
          5.14884460e+002, 8.16809631e+002, 1.78488098e+002,
          1.60084131e+003, 1.82037415e+003, 1.01870325e+003,
          2.74522900e+003, 5.45921533e+003, 1.73467297e+003,
          3.44341455e+003, 2.00159570e+003, 0., 1.10827173e+003,
          8.56871582e+002, 3.52933411e+002, 1.93551038e+003,
          8.07111328e+002, 6.89922998e+003, 6.43231689e+003,
          2.71149414e+002, 0., 1.54149768e+003, 0., 5.43000916e+002, 0.,
          5.44797180e+002, 3.47427704e+002, 3.80864807e+002,
          1.47859326e+003, 0., 0., 52., 4.67823395e+002, 7.16550732e+003,
          2.15875757e+003, 9.95860291e+002, 2.61120850e+003,
          4.55444238e+003, 1.73054639e+003, 2.10668579e+003,
          3.06459229e+003, 1.94122998e+003, 1.87815149e+003 ]
      - [ 6.56557800e+002, 6.18914368e+002, 2.24259717e+003,
          1.95483472e+003, 0., 0., 0., 0., 0., 0., 0., 1.22407690e+003,
          5.89890747e+002, 1.71237854e+003, 7.80393860e+002,
          1.47039075e+003, 6.64616943e+002, 2.28594287e+003,
          2.67368433e+003, 0., 0., 0., 8.33505615e+002, 0., 0., 0., 0.,
          0., 0., 2.19971338e+003, 3.20174292e+003, 1.71835339e+003,
          6.46523010e+002, 0., 0., 0., 1.60769641e+003, 8.86927002e+002,
          1.98797778e+003, 4.49051465e+003, 1.37392151e+003,
          1.31666284e+003, 0., 2.90413513e+002, 0., 0., 4.62934113e+002,
          2.42869531e+003, 7.06312256e+002, 0., 0., 0., 0.,
          2.52437231e+003, 2.73775732e+003, 4.40004059e+002,
          3.30730688e+003, 2.63941162e+003, 6.83922363e+002,
          1.52269507e+003, 5.58200684e+002, 1.23661743e+003, 0., 0. ]
      - [ 3.30882233e+002, 7.30450684e+002, 1.97618433e+003,
          5.36606543e+003, 1.77830725e+003, 0., 0., 0., 0., 0.,
          1.20208153e+002, 2.81210376e+003, 3.01737256e+003,
          6.90375610e+002, 1.88592786e+003, 0., 2.93233081e+003,
          2.85647925e+003, 1.62566528e+003, 7.53775818e+002,
          1.40045593e+003, 0., 6.72145813e+002, 0., 1.03035156e+003, 0.,
          1.50495728e+003, 1.80169238e+003, 1.83352954e+003,
          1.86516455e+003, 2.14002515e+003, 1.97905908e+003,
          1.26206775e+003, 5.33205383e+002, 1.17265942e+003,
          9.66864014e+002, 6.71872009e+002, 3.31240039e+003,
          3.35368579e+003, 4.88873291e+003, 1.33451477e+003, 0., 0., 0.,
          2.72547241e+002, 9.21869812e+002, 2.19944653e+003,
          1.17051978e+003, 1.10055371e+003, 0., 1.05796094e+003,
          7.27488892e+002, 0., 1.59022018e+002, 1.39098938e+003,
          2.60390918e+003, 6.60572754e+002, 5.72111084e+003,
          4.68244092e+003, 8.99513000e+002, 1.91570511e+002,
          1.00909357e+003, 0., 6.23820496e+002 ]
      - [ 1.80776038e+003, 1.36809644e+003, 3.14535742e+003,
          5.98975769e+002, 0., 0., 0., 0., 0., 6.14036194e+002,
          1.48083777e+003, 6.01115601e+002, 8.27595093e+002,
          6.85531128e+002, 1.91844467e+002, 4.13896423e+002,
          2.23994727e+003, 6.46846143e+003, 2.68152954e+002, 0.,
          5.55757141e+002, 0., 0., 0., 0., 2.82842712e+001,
          2.34063135e+003, 2.33086914e+003, 5.03954376e+002,
          1.08309851e+003, 1.15766129e+002, 4.91871948e+002,
          1.12814673e+003, 9.39880127e+002, 0., 1.25720447e+003, 0.,
          1.41085852e+003, 9.42175049e+002, 1.23739014e+003,
          3.68492822e+003, 7.93696838e+002, 0., 0., 7.16093262e+002, 0.,
          4.98142548e+002, 0., 0., 0., 0., 0., 3.25738965e+003,
          2.09445898e+003, 1.39851892e+003, 5.91493042e+002,
          1.50191003e+003, 1.45899207e+003, 8.97722656e+002,
          3.10518872e+003, 2.63209814e+003, 0., 0., 0. ]
      - [ 4., 1.02392535e+003, 4.49208594e+003, 3.57332959e+003,
          3.43407074e+002, 0., 0., 0., 0., 1.45728003e+003,
          3.18221826e+003, 1.49611475e+003, 4.86557281e+002,
          1.16911194e+003, 8.54396973e+002, 1.69840283e+003, 14.,
          8.26109985e+002, 1.18608337e+003, 4.39752197e+003,
          3.61137036e+003, 5.32730713e+002, 0., 0., 4.71349121e+002,
          3.06414764e+002, 5.58907959e+002, 1.69899146e+003,
          3.06001978e+003, 3.38560254e+003, 3.72832422e+003,
          1.49337219e+003, 2.78619946e+003, 0., 1.82131821e+002, 0.,
          2.45668481e+003, 2.46457788e+003, 2.76051465e+003,
          3.95643970e+003, 1.38107471e+003, 0., 0., 1.47542920e+003,
          7.10598816e+002, 0., 7.43312866e+002, 1.89416577e+003, 0.,
          1.11991577e+003, 2.18009912e+003, 1.43161462e+003,
          5.70190613e+002, 1.50993604e+003, 9.94992310e+002,
          1.12382007e+003, 1.37560938e+003, 4.52594775e+003,
          4.63146094e+003, 3.32393237e+003, 14., 7.30349243e+002,
          4.84487366e+002, 1.02873059e+003 ]
      - [ 4.94224951e+003, 1.04261597e+003, 1.47764197e+003,
          2.29100952e+003, 2.81300537e+002, 0., 0., 0., 5.09754852e+002,
          5.30500879e+003, 0., 0., 1.40092102e+003, 3.66983124e+002,
          1.02997668e+003, 1.29337561e+003, 0., 1.76044922e+003,
          2.61943921e+003, 4.56961133e+003, 4.23367462e+002,
          5.16501099e+002, 0., 4.17195404e+002, 0., 220.,
          6.03332397e+002, 3.30303320e+003, 2.18465112e+003,
          2.07061304e+003, 2.06133252e+003, 1.63476587e+003,
          2.31662280e+003, 1.45917065e+003, 5.14155640e+002,
          1.05734985e+003, 1.00316235e+003, 3.17553131e+002,
          1.09524585e+003, 5.00259814e+003, 1.51946082e+003,
          1.37309338e+003, 2.66011292e+002, 0., 3.22601929e+002, 0.,
          6.62419815e+001, 3.78549866e+002, 0., 0., 4.81663788e+002,
          1.74305249e+003, 0., 0., 2.47107959e+003, 3.91387939e+003,
          1.57224573e+003, 1.79441870e+003, 2.63368628e+003,
          9.54922729e+002, 6.32606567e+002, 2.33412671e+003,
          6.01068420e+002, 3.40189819e+002 ]
      - [ 2., 2.24035693e+003, 2.58847070e+003, 6.15243799e+003,
          1.76500061e+003, 0., 0., 0., 0., 5.27232056e+002,
          3.23350439e+003, 1.96314587e+003, 1.02976672e+003,
          1.68760178e+002, 1.37766101e+003, 9.23872070e+002,
          1.74204651e+003, 1.84729968e+003, 2.63447778e+003,
          2.80831787e+003, 2.70333228e+003, 7.85052368e+002, 0., 0.,
          8.77297119e+002, 3.01230804e+002, 5.00099976e+002,
          5.76033984e+003, 4.15496973e+003, 2.52750586e+003,
          1.48136414e+003, 1.05227026e+003, 1.51797668e+003,
          1.41162988e+003, 0., 1.38634351e+003, 4.52723828e+003,
          3.07857446e+003, 3.75075684e+003, 2.30529150e+003,
          3.77495605e+003, 1.93517059e+002, 0., 6.44980621e+001,
          2.42245776e+003, 1.87202942e+003, 1.80332153e+003,
          1.51408032e+003, 9.85770996e+002, 1.70196606e+003,
          7.86446411e+002, 1.47563330e+003, 4.74712555e+002,
          2.14830170e+002, 4.46218750e+003, 2.94662891e+003,
          2.59516528e+003, 1.17253992e+003, 4.30829736e+003,
          3.57206274e+003, 2.43302148e+003, 1.39270618e+003,
          4.97587280e+002, 2.13144824e+003 ]
      - [ 1.68285596e+003, 1.35793945e+002, 3.45399097e+003,
          2.03284595e+003, 8.96039673e+002, 0., 4.70941620e+002, 0., 0.,
          0., 3.59269019e+003, 1.45886426e+003, 5.61031189e+002,
          1.06683948e+003, 7.28564697e+002, 0., 1.50317981e+003,
          4.71968689e+002, 1.36179858e+003, 5.17014746e+003, 0., 0., 0.,
          0., 2.80845154e+002, 4.56168823e+002, 0., 1.81146265e+003,
          1.94612442e+002, 4.19854883e+003, 2.02736194e+003,
          1.16245959e+003, 9.00111328e+002, 3.55382056e+003,
          5.88225037e+002, 1.67609875e+003, 8.54423645e+002,
          2.96121582e+002, 9.77660400e+002, 1.27549451e+003,
          5.42267725e+003, 9.69163452e+002, 8.02560547e+002, 0., 0., 0.,
          6.66033020e+001, 1.16107593e+003, 0., 4.27401459e+002,
          7.58009216e+002, 6.85440002e+002, 5.29037415e+002,
          1.82209827e+003, 1.85759558e+003, 2.53616943e+003,
          2.61227124e+003, 2.93426758e+003, 1.70814063e+003,
          1.09016321e+003, 1.40237256e+003, 1.15950452e+003,
          2.03561963e+003, 0. ]
      - [ 5.39353760e+002, 3.12639673e+003, 2.66581274e+003,
          1.32134741e+003, 1.34127148e+003, 0., 0., 0., 0., 0., 0.,
          4.47922913e+002, 2.54286914e+003, 8.90767090e+002,
          4.73121185e+002, 8.79317932e+001, 1.74437268e+003,
          2.80263037e+003, 0., 8.37257462e+001, 0., 1.47141614e+003,
          7.31923523e+002, 1.08032361e+003, 0., 3.47036743e+003, 0., 0.,
          1.47625903e+003, 2.41438843e+003, 1.88062073e+003,
          2.31690674e+003, 2.58123993e+002, 1.23089209e+003,
          1.79470630e+003, 0., 2.56064697e+003, 3.15710571e+003,
          6.52096680e+002, 1.51040771e+003, 8.20650208e+002,
          2.46848511e+003, 3.97130371e+003, 0., 6.13424805e+002,
          6.76882568e+002, 1.28232556e+003, 0., 0., 3.61246758e+001,
          3.16619678e+003, 2.66155762e+003, 1.94925195e+003,
          2.44773361e+002, 5.55292969e+002, 1.34536240e+002,
          1.02449927e+003, 1.01454657e+003, 5.14181104e+003,
          2.90359106e+003, 1.09437000e+003, 0., 0., 0. ]
      - [ 1.44569153e+003, 5.48014832e+002, 1.56739050e+003,
          3.08963306e+003, 6.14857544e+002, 6.61097595e+002, 0., 0.,
          7.36561279e+002, 2.39436142e+002, 7.83839722e+002,
          1.48245581e+003, 8.53543945e+002, 2.27425262e+002,
          5.96307434e+002, 1.07512854e+003, 7.80051025e+002,
          1.10542151e+003, 8.41520874e+002, 1.28040894e+003,
          1.79614685e+003, 6.27413330e+002, 4.69163086e+002,
          7.77190430e+002, 0., 1.12797900e+003, 3.85507446e+002,
          1.57801233e+003, 2.02744727e+003, 2.49872583e+003,
          1.74136194e+003, 1.59635120e+003, 2.20327026e+002,
          6.86002930e+002, 5.58616150e+002, 4.23792419e+001,
          9.03475708e+002, 2.56359839e+003, 4.31242090e+003,
          2.67869629e+003, 0., 1.04651802e+002, 0., 0., 0.,
          5.75925354e+002, 1.26955676e+003, 2.83914819e+003,
          2.10054834e+003, 8.08675781e+002, 5.69197693e+002,
          1.07880640e+003, 1.63543640e+002, 4.56644653e+002,
          5.68311768e+002, 7.06442993e+002, 5.14759583e+002,
          5.53312988e+003, 2.14732031e+003, 2.36051978e+003,
          2.56746613e+002, 6.44092896e+002, 7.05159546e+002, 0. ]
      - [ 4.57889404e+002, 2.30929761e+003, 6.48407373e+003,
          1.87541992e+002, 2.46092133e+002, 1.59154007e+002, 0., 0., 0.,
          1.83847771e+001, 4.33745801e+003, 1.37547925e+003,
          5.06003967e+002, 5.21231262e+002, 2.83414551e+002,
          6.93636841e+002, 2.02409326e+003, 1.58457837e+003,
          1.39031738e+003, 4.33501611e+003, 3.47603418e+003, 0., 0.,
          2.15406590e+001, 0., 0., 4.93460449e+002, 5.67667480e+003,
          3.28772559e+003, 1.96061829e+003, 1.52365979e+003,
          1.26491104e+002, 1.03352002e+003, 3.78884717e+003,
          1.34164076e+001, 2.86865430e+003, 3.48346484e+003,
          9.23723938e+002, 7.10674622e+002, 1.48773352e+003,
          3.03582300e+003, 2.68211938e+003, 1.97512097e+003,
          1.93506042e+003, 7.30818970e+002, 0., 9.21464355e+002,
          2.03960781e+001, 0., 0., 1.18061462e+003, 6.52872131e+002, 2.,
          5.92284229e+003, 3.88711328e+003, 9.90576416e+002,
          1.34152869e+003, 1.60260938e+003, 9.41163269e+002,
          5.08072754e+002, 3.96937231e+003, 4.40572803e+003,
          2.74583936e+003, 0. ]
      - [ 1.68445032e+003, 1.27370996e+003, 3.78478540e+003,
          9.43729004e+003, 5.62355774e+002, 1.61895035e+002, 0., 0., 0.,
          3.74513031e+002, 9.61021301e+002, 4.20740967e+003,
          5.84446777e+002, 4.99555817e+002, 1.93936020e+002,
          1.02730835e+003, 3.28344385e+003, 2.52787402e+003,
          1.14335645e+003, 1.82521545e+003, 6.70469971e+002,
          8.45445435e+002, 5.51920288e+002, 1.28319916e+002,
          1.30419873e+003, 0., 3.64564502e+003, 3.56374854e+003,
          3.48897681e+003, 2.50094458e+003, 2.36676196e+003,
          2.27982056e+003, 0., 2.60756592e+002, 1.32132263e+003,
          5.44930176e+003, 3.54218799e+003, 1.83819580e+003,
          3.71502002e+003, 1.79975879e+003, 4.20315869e+003,
          7.11758423e+001, 0., 0., 2.49701514e+003, 1.52782947e+003,
          1.40122656e+003, 7.51032593e+002, 8.30163269e+002,
          8.73055542e+002, 6.87726685e+002, 0., 0., 0., 2.11596582e+003,
          6.07850977e+003, 2.41626587e+003, 1.45559229e+003,
          4.54112988e+003, 1.65326404e+003, 1.54717200e+003,
          1.84256250e+003, 2.39025830e+003, 3.34545581e+003 ]
      - [ 1.08108557e+003, 1.85501746e+003, 3.95081812e+003,
          4.97524951e+003, 0., 8.65563431e+001, 0., 0., 0., 0.,
          4.39163232e+003, 1.75442859e+003, 0., 2.98600067e+002, 0., 0.,
          4.13795074e+002, 1.74656628e+003, 6.99281299e+003,
          3.63373077e+002, 0., 0., 2.68328156e+002, 0., 0.,
          6.10227890e+001, 1.57566492e+003, 6.93578027e+003,
          8.18260254e+002, 1.64281458e+003, 1.54514636e+003,
          5.41538147e+002, 5.09322876e+002, 0., 1.53055640e+003,
          3.32071899e+003, 3.30954639e+003, 1.81019409e+003,
          1.08358105e+003, 0., 8.66919067e+002, 1.18434546e+003,
          2.50720874e+003, 2.33105029e+003, 4.75758331e+002, 0.,
          3.15220551e+002, 5.33793945e+002, 0., 0., 3.90448456e+002,
          2.83424731e+003, 4.46168359e+003, 1.40329150e+003,
          1.09970288e+003, 0., 7.61684448e+002, 1.73833398e+003,
          1.35515125e+003, 7.40791357e+003, 3.73473511e+003, 0.,
          1.97989902e+001, 0. ]
      - [ 7.13424133e+002, 2.87707788e+003, 7.13093018e+002,
          8.44077271e+002, 3.85247284e+002, 2.44992706e+002,
          1.01033093e+003, 9.55785767e+002, 6.84268860e+002,
          6.92486694e+002, 0., 4.33278198e+002, 1.44506699e+002,
          9.88980042e+002, 1.17770093e+003, 9.97139893e+002,
          3.33766403e+001, 1.08849731e+003, 2.06511377e+003,
          2.46876392e+003, 0., 0., 0., 0., 2.19317123e+002,
          5.63199646e+002, 3.21171295e+002, 1.16846252e+003,
          1.67522656e+003, 2.09239819e+003, 1.58009753e+003,
          1.30868335e+003, 1.48258850e+003, 6.03909302e+002,
          2.98667310e+003, 2.39970825e+002, 8.18423462e+002,
          7.24395569e+002, 3.04621185e+002, 1.54557581e+003,
          2.95634692e+003, 1.13859253e+003, 6.81055237e+002,
          1.36269067e+003, 0., 0., 0., 2.63096954e+002, 0., 0.,
          1.02476819e+003, 2.13539844e+003, 0., 4.55712616e+002,
          1.53585388e+003, 1.82408057e+003, 1.08108069e+003,
          7.66612793e+002, 3.45809692e+003, 1.07663708e+003,
          1.15595349e+003, 1.07265601e+003, 3.25269127e+001,
          2.87360413e+002 ]
      - [ 1.77438184e+003, 2.48891748e+003, 8.84050781e+003,
          1.01840070e+003, 0., 0., 0., 0., 0., 0., 0., 0., 0.,
          5.33630981e+002, 2.01915662e+003, 1.73340942e+003,
          1.05139087e+003, 9.69929688e+002, 3.79836353e+003,
          3.61225677e+002, 7.10633545e+001, 0., 0., 0., 0., 0.,
          3.69500366e+003, 2.98121533e+003, 1.96423352e+003,
          2.93336401e+003, 2.23531958e+003, 2.63759277e+003, 0.,
          4.10121956e+001, 2.35387268e+002, 3.23530933e+003,
          2.26620068e+003, 1.27709692e+003, 1.34908594e+003,
          3.37046191e+003, 4.15676074e+003, 4.35004736e+003, 0., 0., 0.,
          4.33912994e+002, 0., 2.50379715e+002, 0., 0., 1.72051392e+003,
          2.81895801e+003, 2.05380273e+003, 3.73735791e+003,
          1.47167419e+003, 4.57919220e+002, 1.31451587e+003,
          2.80011011e+003, 3.91845801e+003, 5.55851221e+003,
          2.60807104e+003, 1.02675269e+003, 9.16542480e+002, 0. ]
      - [ 8.99696472e+002, 3.28056396e+003, 6.10642578e+003,
          2.42000879e+003, 0., 0., 0., 0., 0., 0., 0., 1.74158484e+003,
          2.28538599e+003, 1.37431982e+003, 8.02519348e+002,
          3.05284027e+002, 0., 1.58164307e+003, 7.62324902e+003,
          1.78951904e+003, 0., 0., 0., 0., 2.12132034e+001,
          4.24264050e+000, 2.60614575e+003, 3.79013525e+003,
          4.56293311e+003, 2.74197998e+003, 5.22079529e+002,
          1.90416943e+003, 6.28499817e+002, 2.20615430e+003,
          3.36906189e+002, 1.92168732e+002, 3.62369946e+003,
          2.52949048e+003, 1.92188391e+003, 2.97175269e+003,
          3.04468262e+003, 4.33924951e+003, 0., 2.22894592e+002,
          7.34329651e+002, 0., 5.14907776e+002, 6.12640198e+002, 0., 0.,
          3.04360938e+003, 1.27121338e+003, 3.63428198e+003,
          2.07812476e+003, 2.25629199e+003, 2.89209619e+003,
          1.40294434e+003, 3.76731592e+003, 1.97890601e+003,
          5.73428076e+003, 4.89198096e+003, 1.27110120e+003,
          5.23259010e+001, 0. ]
      - [ 1.80245715e+003, 1.86955237e+003, 4.04611426e+003,
          5.71592969e+003, 2.04014221e+003, 0., 0., 0., 0., 0., 0., 0.,
          3.20342554e+003, 1.72404260e+003, 1.61415796e+003,
          7.11774536e+002, 2.00741357e+003, 3.56025537e+003,
          1.84480762e+003, 1.94104456e+003, 0., 0., 0., 0.,
          4.13037529e+001, 1.28284273e+001, 4.17309082e+002,
          6.09540723e+003, 4.53998389e+003, 1.54068335e+003,
          1.19434277e+003, 1.97306165e+003, 1.24197375e+003,
          1.61091882e+003, 0., 2.01032251e+003, 2.80086108e+003,
          1.39742407e+003, 1.83859155e+003, 4.39001514e+003,
          3.11143506e+003, 4.49863232e+003, 0., 0., 4.09245636e+002,
          9.02187683e+002, 3.79541840e+002, 0., 0., 0., 2.25533618e+003,
          3.35506201e+003, 1.74370728e+003, 2.17392627e+003,
