%YAML:1.0
my_nn: !!opencv-ml-ann-mlp
   layer_sizes: !!opencv-matrix
      rows: 1
      cols: 4
      dt: i
      data: [ 222, 100, 100, 11 ]
   activation_function: SIGMOID_SYM
   f_param1: 6.6666666666666663e-001
   f_param2: 1.7159000000000000e+000
   min_val: -9.4999999999999996e-001
   max_val: 9.4999999999999996e-001
   min_val1: -9.7999999999999998e-001
   max_val1: 9.7999999999999998e-001
   training_params:
      train_method: BACKPROP
      dw_scale: 1.0000000000000000e-003
      moment_scale: 0.
      term_criteria: { epsilon:1.1920928955078125e-007, iterations:300 }
   input_scale: [ 1., -9.9999999999999989e-001, 1.,
       -9.9999999999999989e-001, 1., -9.9999999999999989e-001,
       3.3226658662847944e+002, -3.3212857351661074e+002,
       5.0145371927925858e+001, -4.9999570232152976e+001,
       9.6922306275289813e+001, -9.6721013854732647e+001,
       7.0489422108455685e+001, -7.0255189359439825e+001,
       1.5180893271333790e+002, -1.5155670604888959e+002,
       8.3041935471981617e+001, -8.2817730882824847e+001,
       9.9537880440816934e+001, -9.9310483427403241e+001,
       7.3004845948088317e+001, -7.2822902417629351e+001,
       2.3383708530029097e+002, -2.3373995671405521e+002,
       1.4973938599244798e+002, -1.4955279486837659e+002,
       2.7259571221911324e+002, -2.7242587066399102e+002,
       3.3226658662847944e+002, -3.3212857351661074e+002,
       1.5589139020019400e+002, -1.5579426161395827e+002,
       3.3226658662847944e+002, -3.3212857351661074e+002,
       3.3226658662847944e+002, -3.3212857351661074e+002,
       3.3226658662847944e+002, -3.3212857351661074e+002,
       3.3226658662847944e+002, -3.3212857351661074e+002,
       1.5589139020019400e+002, -1.5579426161395827e+002,
       1.2206510274580299e+002, -1.2188764570150576e+002,
       1.2715157430336923e+002, -1.2694031521016126e+002,
       2.7259571221911324e+002, -2.7242587066399102e+002,
       1.4544240263838475e+002, -1.4517054769638597e+002,
       1.3785305720265765e+002, -1.3762401786893224e+002,
       1.9244611612098691e+002, -1.9228624396759102e+002,
       1.4186330643122020e+002, -1.4171599251847303e+002,
       1.2206510274580299e+002, -1.2188764570150576e+002,
       1.3629785610899438e+002, -1.3612801455387287e+002,
       1.5721533235948002e+002, -1.5705207657236815e+002,
       1.6814710372899117e+002, -1.6793757464026012e+002,
       1.6814710372899117e+002, -1.6793757464026012e+002,
       1.6814710372872727e+002, -1.6793757463999657e+002,
       1.4336454724803374e+002, -1.4315612528107218e+002,
       1.3785305720280306e+002, -1.3762401786907742e+002,
       1.3303339351151075e+002, -1.3278473297771242e+002,
       1.6814710372899117e+002, -1.6793757464026012e+002,
       9.3747333070510223e+001, -9.3513694871176298e+001,
       1.0365030805317627e+002, -1.0334893645893912e+002,
       1.5180893271314369e+002, -1.5155670604869570e+002,
       1.2877831303548936e+002, -1.2851086068790949e+002,
       1.1267976452728281e+002, -1.1244574633868250e+002,
       1.0660589820108446e+002, -1.0638449447969944e+002,
       1.1992612429203693e+002, -1.1967705655134350e+002,
       1.0242363398210586e+002, -1.0216837260421879e+002,
       1.1684966574134812e+002, -1.1658271948038399e+002,
       1.2877831303560791e+002, -1.2851086068802778e+002,
       1.1992612429203693e+002, -1.1967705655134350e+002,
       1.6814710372899117e+002, -1.6793757464026012e+002,
       1.4973938599244798e+002, -1.4955279486837659e+002,
       1.2715157430336923e+002, -1.2694031521016126e+002,
       1.3785305720265765e+002, -1.3762401786893224e+002,
       1.4973938599244798e+002, -1.4955279486837659e+002,
       1.2333996869028903e+002, -1.2310942670647846e+002,
       9.5276516673942012e+001, -9.5058854862738428e+001,
       1.0809994760067323e+002, -1.0794279296139973e+002,
       1.1158516990027709e+002, -1.1139977399041328e+002,
       2.3383708530029097e+002, -2.3373995671405521e+002,
       1.1075552887600900e+002, -1.1061751576414049e+002,
       3.3226658662847944e+002, -3.3212857351661074e+002,
       3.3226658662847944e+002, -3.3212857351661074e+002,
       2.3721803785844423e+002, -2.3702097200281045e+002,
       2.1321179640243790e+002, -2.1299039268105258e+002,
       2.1321179640243790e+002, -2.1299039268105258e+002,
       2.7259571221911324e+002, -2.7242587066399102e+002,
       1.4186330643122020e+002, -1.4171599251847303e+002,
       3.3226658662847944e+002, -3.3212857351661074e+002,
       1.1549719349532410e+002, -1.1528131090352754e+002,
       4.1654371271141002e+001, -4.1472701126892758e+001,
       6.0291218325518848e+001, -6.0090873686742079e+001,
       3.2070083790387322e+001, -3.1883591102410556e+001,
       4.3292380569120866e+001, -4.3148522199895709e+001, 1.,
       -9.9999999999999989e-001, 1., -9.9999999999999989e-001,
       2.0994398928872195e+002, -2.0981318307266270e+002,
       2.0994398928872195e+002, -2.0981318307266270e+002, 1.,
       -9.9999999999999989e-001, 1., -9.9999999999999989e-001, 1.,
       -9.9999999999999989e-001, 2.5377804188411929e+002,
       -2.5365483366339240e+002, 1.5659983662892219e+002,
       -1.5639075800057319e+002, 1.0257160900202094e+002,
       -1.0235996705801846e+002, 8.5060275858571984e+001,
       -8.4791849159597362e+001, 1.4209391918789484e+002,
       -1.4186971459873834e+002, 5.6854481101957083e+002,
       -5.6840679790770116e+002, 2.5622062023856296e+002,
       -2.5603402911449194e+002, 3.0619991403934870e+002,
       -3.0601409050278784e+002, 8.0024213579244656e+002,
       -8.0014500720621254e+002, 2.4531256738306394e+002,
       -2.4510414541610243e+002, 1.1013757110490091e+002,
       -1.0991031787290869e+002, 3.2190472077529144e+001,
       -3.2010746163958572e+001, 3.3323791769098854e+001,
       -3.3157961492940544e+001, 1.0147661453142467e+002,
       -1.0127954863174948e+002, 1.3483020372686789e+002,
       -1.3458473051662531e+002, 1.9083208420020821e+002,
       -1.9053097751471091e+002, 1.1877130770695406e+002,
       -1.1851182423768692e+002, 1.5570240897263824e+002,
       -1.5543783384153176e+002, 1.0065536920796535e+002,
       -1.0036216254151030e+002, 1.3347866664077569e+002,
       -1.3321945321317239e+002, 1.2150380097371838e+002,
       -1.2123834773914093e+002, 1.1329966461973956e+002,
       -1.1312089338939543e+002, 2.0295312548779302e+002,
       -2.0275605963216054e+002, 1.3686117146927819e+002,
       -1.3667844620837744e+002, 3.2929655019166478e+002,
       -3.2913667803826883e+002, 3.6482892162144884e+002,
       -3.6460751790006611e+002, 2.4531256738306394e+002,
       -2.4510414541610243e+002, 2.6901278979516638e+002,
       -2.6884953400805529e+002, 2.4531256738306394e+002,
       -2.4510414541610243e+002, 3.0619991403934870e+002,
       -3.0601409050278784e+002, 4.6644135739777920e+002,
       -4.6627151584265954e+002, 4.6644135739777920e+002,
       -4.6627151584265954e+002, 3.0619991403934870e+002,
       -3.0601409050278784e+002, 2.2490447127197302e+002,
       -2.2471338839032128e+002, 7.3132341754997540e+001,
       -7.2919309045424200e+001, 5.0016990042904801e+001,
       -4.9834867211450081e+001, 4.0758169400123840e+001,
       -4.0580078096685824e+001, 4.8116332835401415e+001,
       -4.7935290668916153e+001, 1.3176072288075949e+002,
       -1.3164877660208313e+002, 1., -9.9999999999999989e-001, 1.,
       -9.9999999999999989e-001, 1., -9.9999999999999989e-001,
       1.9572369908074073e-002, -3.1606633611365598e+000,
       1.5209042287426349e-002, -2.1065234270996118e+000,
       1.4077632769981738e-002, -1.5990612026762432e+000,
       1.6466080608421287e-002, -1.3666846904989667e+000,
       2.2116781199357834e-002, -1.3400289020134282e+000,
       2.9351551201706527e-002, -1.4760812805269421e+000,
       2.9344605275655938e-002, -1.6523481008021217e+000,
       2.1686919626857360e-002, -1.7610994825959214e+000,
       1.9128057305131990e-002, -2.2251114885698864e+000,
       2.1194738604543795e-002, -3.2467566398792274e+000,
       1.7813738112667281e-002, -2.5417041099634710e+000,
       1.3563860853407725e-002, -1.4674322732621292e+000,
       1.6189505521769329e-002, -1.3924487786620852e+000,
       2.2047946582277829e-002, -1.4862788663361681e+000,
       2.3389992524211048e-002, -1.4460261733425801e+000,
       2.4302975874882227e-002, -1.5045131980861670e+000,
       2.5634327912319593e-002, -1.4812808362791778e+000,
       1.9559969734173070e-002, -1.3498207151134012e+000,
       1.4634477225535193e-002, -1.4051833552817623e+000,
       1.6942314542573247e-002, -2.3279056860272136e+000,
       1.5934567466319115e-002, -2.2993431932707207e+000,
       1.3246801602801351e-002, -1.4649476950088633e+000,
       1.6907007727322922e-002, -1.4723317570392054e+000,
       1.5275019281638722e-002, -1.4682576945014414e+000,
       1.3171875261375266e-002, -1.6134931686994916e+000,
       1.3774710884941241e-002, -1.6633928910684650e+000,
       1.5300008360456585e-002, -1.5317167248337471e+000,
       1.5017094675437825e-002, -1.3546261477320176e+000,
       1.3743976224656920e-002, -1.4599442408359864e+000,
       1.5723492325879981e-002, -2.2383199542785408e+000,
       1.6753908744730674e-002, -2.9159630145151341e+000,
       1.4366562890333869e-002, -2.0640857132065658e+000,
       1.3223314881678161e-002, -1.5922354106125365e+000,
       1.2949956731336167e-002, -1.6291529678552910e+000,
       1.5126132340515776e-002, -1.9101336465892444e+000,
       1.5643446718130848e-002, -1.7675632787121678e+000,
       1.8335761842410581e-002, -1.5885281521415522e+000,
       1.7804359048608852e-002, -1.3542960588469852e+000,
       1.5334398796537165e-002, -1.6946660352247847e+000,
       1.6951631839026943e-002, -2.7159049029573730e+000,
       1.6636775787361970e-002, -2.8602815643393531e+000,
       1.2509606777355199e-002, -1.7166220216066017e+000,
       1.2241055717392644e-002, -1.4539399730125524e+000,
       1.2650552105643859e-002, -1.5414756855456506e+000,
       1.4954294604823179e-002, -1.8248432210764134e+000,
       1.7212519210155007e-002, -1.6561017314817363e+000,
       2.5731846941404814e-002, -1.4344903458456046e+000,
       2.9337792198870265e-002, -1.5274844891580022e+000,
       1.8684104147506347e-002, -1.8521709597439235e+000,
       1.8504063571021266e-002, -3.0171999731178318e+000,
       1.6374361280208007e-002, -2.8033824700199106e+000,
       1.2362782291029070e-002, -1.7133429775109352e+000,
       1.1913021906464025e-002, -1.5597151765201358e+000,
       1.3714398626928838e-002, -1.9209130114185275e+000,
       1.6903428469051653e-002, -2.3434154944851606e+000,
       1.5603064373484738e-002, -1.7126915052951235e+000,
       2.0548739563321365e-002, -1.4996738995324910e+000,
       1.8304036613456458e-002, -1.2448455554777815e+000,
       1.4810305257239028e-002, -1.5514832862466565e+000,
       1.5132207083472736e-002, -2.3947071265835871e+000,
       1.4008424301351892e-002, -2.3816939709363889e+000,
       1.1755375590332585e-002, -1.6723395068789029e+000,
       1.2948393993993510e-002, -1.6426308418174569e+000,
       1.2948004535655123e-002, -1.7300712228622550e+000,
       1.3273410396282903e-002, -1.6877079293591486e+000,
       1.2875875630488679e-002, -1.5236853947032489e+000,
       1.4694324385501834e-002, -1.4616046208868787e+000,
       1.3521934517864889e-002, -1.1994082290565948e+000,
       1.2515329366232132e-002, -1.3542288168433234e+000,
       1.4957948935413074e-002, -2.2322292392586536e+000,
       1.5850346988286287e-002, -2.3335562252941484e+000,
       1.3429777412244494e-002, -1.3188794490454685e+000,
       1.4181010617289207e-002, -1.2853031866025300e+000,
       1.4678778621000739e-002, -1.6101385483615482e+000,
       1.4492024503149962e-002, -1.8522703467764381e+000,
       1.3137205198442664e-002, -1.7307960904901518e+000,
       1.3073067938215280e-002, -1.4550202437028577e+000,
       1.2461334638928571e-002, -1.1891839999822396e+000,
       1.2155634955616178e-002, -1.3078099963462937e+000,
       1.5721758627641403e-002, -2.3108046536160405e+000,
       2.0479424231316313e-002, -2.4487266693033729e+000,
       1.7145141084826683e-002, -1.1903855431698824e+000,
       1.7749375700737990e-002, -1.2535703941166074e+000,
       1.6649306332455732e-002, -1.4551804936553832e+000,
       1.6675585726645261e-002, -1.7545209729960030e+000,
       1.6985248672380729e-002, -1.8051985785262956e+000,
       1.5656787481807807e-002, -1.4443752264759333e+000,
       1.4570216286554815e-002, -1.1931236925494699e+000,
       1.5461014937220550e-002, -1.4082528184873968e+000,
       2.0848771022444614e-002, -2.9057731052123037e+000,
       2.0803556070337466e-002, -2.8691409058875696e+000,
       1.9632530478039464e-002, -1.8573841684971355e+000,
       1.8777626973569144e-002, -1.5485400038763937e+000,
       1.4983708495251449e-002, -1.3472734526431231e+000,
       1.3747543667033508e-002, -1.3508567674316849e+000,
       1.3923317948323684e-002, -1.3663069014710156e+000,
       1.5244629371659608e-002, -1.3895408435681884e+000,
       1.7668426078264566e-002, -1.5979192444800578e+000,
       1.6616824903842056e-002, -1.8413616157463106e+000,
       1.7362843649878539e-002, -2.5834937733618339e+000 ]
   output_scale: [ 5.2631578947368418e-001, 4.9999999999999994e-001,
       5.2631578947368418e-001, 4.9999999999999994e-001,
       5.2631578947368418e-001, 4.9999999999999994e-001,
       5.2631578947368418e-001, 4.9999999999999994e-001, 1., 0.,
       5.2631578947368418e-001, 4.9999999999999994e-001,
       5.2631578947368418e-001, 4.9999999999999994e-001,
       5.2631578947368418e-001, 4.9999999999999994e-001,
       5.2631578947368418e-001, 4.9999999999999994e-001,
       5.2631578947368418e-001, 4.9999999999999994e-001,
       5.2631578947368418e-001, 4.9999999999999994e-001 ]
   inv_output_scale: [ 1.8999999999999999e+000, -9.4999999999999996e-001,
       1.8999999999999999e+000, -9.4999999999999996e-001,
       1.8999999999999999e+000, -9.4999999999999996e-001,
       1.8999999999999999e+000, -9.4999999999999996e-001, 1., 0.,
       1.8999999999999999e+000, -9.4999999999999996e-001,
       1.8999999999999999e+000, -9.4999999999999996e-001,
       1.8999999999999999e+000, -9.4999999999999996e-001,
       1.8999999999999999e+000, -9.4999999999999996e-001,
       1.8999999999999999e+000, -9.4999999999999996e-001,
       1.8999999999999999e+000, -9.4999999999999996e-001 ]
   weights:
      - [ -8.2678717934672862e-003, -7.7762870555600321e-003,
          -5.7367719897419211e-003, -5.7253010813894129e-003,
          -5.9842627408239815e-004, 9.0364740864881075e-003,
          7.2077048499677833e-003, 1.5662673118033124e-003,
          -4.7320915447634773e-003, 3.6546382459216333e-003,
          -1.1181971571995949e-004, 1.3561333088609167e-003,
          -6.2026350806082958e-003, -3.8741484811346942e-003,
          4.6160834557316113e-003, -5.3878754585260724e-003,
          -5.3355554235441673e-003, 8.0732761673388310e-003,
          -6.1258414148931796e-003, -8.0673572521693104e-003,
          -1.0306076659111541e-003, -1.8591512197112881e-003,
          -5.1009170086899801e-003, -7.7545551962080747e-003,
          -5.1839956529247822e-003, 2.1754237433776443e-003,
          -3.3671543102433061e-003, 2.3727302986339812e-003,
          -8.6954698199469423e-004, -1.1473256647460276e-003,
          8.3572487947701102e-003, -7.9510882437672046e-003,
          -6.0223327093722372e-003, -5.0069493355362369e-003,
          2.7853302098300838e-003, 2.3386390888350448e-003,
          8.9690449473707175e-004, -2.6469985062509437e-003,
          -8.5276632072587982e-003, -2.9896395814953724e-003,
          8.5807912611941314e-003, -8.3663072709244824e-003,
          -4.3242128887977811e-003, 1.3626603649679059e-003,
          7.6056506052387431e-003, 8.1375381580428407e-003,
          4.4101971012385837e-003, -1.9280343216047829e-003,
          -8.0673404571183962e-003, -4.2481697830841682e-003,
          -4.6203389375882699e-003, -6.6546686255448111e-003,
          7.1692565743173365e-003, -7.5828976401135046e-003,
          3.4689246821669813e-003, 2.8764704851772085e-004,
          1.0647409736937738e-003, -6.2633939918676409e-003,
          -3.7102418019252540e-003, -8.9171006544371955e-004,
          7.1546888745129726e-003, -1.0691648901249835e-004,
          1.6938749089711164e-003, 5.9417195672593825e-003,
          -5.6417411973190565e-003, -3.2698553118846985e-003,
          -8.2969805878439547e-003, 7.9831758896229173e-003,
          3.1651766256550955e-003, -1.8674885142735478e-003,
          4.3235738871214664e-003, -2.9677913600798409e-003,
          -5.4231411159343778e-003, 2.7307680327510204e-003,
          3.4739823294243650e-003, -4.5537828926821740e-003,
          -1.5392422583114416e-003, -6.0487475304306457e-003,
          -7.9900357358416545e-003, 2.8109659908133423e-003,
          -7.2395020413152465e-003, -3.5715300401798224e-003,
          -3.5768353896786101e-003, 5.6177696148806324e-003,
          -2.8153836351932911e-003, -5.7475356982712037e-003,
          -4.1502169700451197e-003, 6.3303926267662921e-004,
          8.5461922163404969e-003, 5.6791292467364592e-003,
          2.0630027854562040e-003, -3.4120677315297816e-003,
          3.8237796448484414e-003, 2.6644154780400510e-003,
          3.9801327311614334e-003, 3.2960980797393470e-003,
          -6.4627713017217209e-004, 2.5242558209466917e-003,
          3.2247209678849522e-003, -6.2657171223026052e-003,
          7.0593710609140941e-003, -7.9746179639630307e-003,
          2.0334104703812247e-003, 3.6023010856342254e-003,
          4.2373743054540097e-003, -3.4107362151451072e-003,
          -1.6904932815419074e-003, 2.4204944699697311e-003,
          -1.6007886281126607e-003, -3.3270849173733215e-003,
          8.8097724679795722e-003, 6.3264884805751967e-003,
          8.7401615104902124e-003, 5.8356786168389987e-003,
          6.5103119837299243e-003, 2.4792395226182215e-003,
          -3.2715898347256680e-003, -7.4301138481823684e-003,
          -7.5579695868801047e-003, -3.9422858895588243e-004,
          -1.2638448572354171e-003, 4.9331328291130870e-003,
          -8.5741281863545814e-003, -1.4472170501039642e-003,
          -9.9845643052676788e-004, 5.5329396878755193e-003,
          -2.8766388290476017e-004, -5.5963665832387101e-003,
          -6.4474448909425308e-003, 5.0915678142937704e-003,
          -5.3812679777136274e-003, -3.5468177576077754e-003,
          -3.9715699787144657e-003, 2.8105576661382730e-003,
          -7.5575296421228040e-003, -3.9188678743394111e-003,
          6.9789012525361196e-003, -1.7289189203152074e-003,
          -5.8091650927295487e-003, 7.9447451819126269e-003,
          -5.6073960059503727e-003, 9.9091878153244263e-004,
          -3.0089883947347078e-003, -8.8819766056027569e-003,
          7.9957760764171101e-003, 6.6615798365268845e-005,
          2.8654042991347467e-003, -8.3063559189077880e-003,
          -2.9473794225968707e-003, -3.2347230823746489e-003,
          6.1351262315655726e-003, -4.7811713169639463e-003,
          -1.8499938724384725e-003, -6.1516511767779128e-003,
          -7.5797396928506729e-003, -6.8851251504945974e-003,
          -4.3275348969790111e-003, -3.0498957383912825e-003,
          -6.1384638560979359e-003, -4.4524822168313461e-003,
          7.7086158008025435e-003, -8.3680260986191361e-003,
          2.8477586479402142e-003, 7.7091400650555909e-003,
          -6.5542359656300024e-003, -7.3061706648987930e-003,
          1.2017232003802376e-003, 4.6857362853469052e-003,
          4.4698599852992776e-003, 2.9909946167569275e-003,
          -7.8294836052087181e-003, -1.5167730133075583e-003,
          -6.6474939512195042e-003, 5.0664237308356364e-003,
          -1.5342908396710250e-003, 5.4029216897902559e-003,
          6.9951916176748431e-003, -2.0714575328887116e-004,
          3.7798205782264014e-003, 7.8822904177289418e-003,
          6.2244347457123296e-003, 4.4676986782784690e-003,
          -6.7580707213862707e-003, -2.4224260189082509e-003,
          5.1579215839066262e-004, 8.3800027565244465e-003,
          -4.1562092627489833e-003, 5.1199564050387510e-003,
          7.0450746097589310e-003, -4.2582327751231582e-003,
          -2.1795094008998455e-003, -1.9947939046270789e-003,
          7.3808909866745157e-003, 6.2558625237537227e-003,
          -6.6297131189532923e-003, 1.7062743697815355e-003,
          9.2299669654208598e-004, -6.1026137200286346e-003,
          1.0909733050196288e-003, 3.5295679916515239e-003,
          7.6943304972615124e-003, -3.3128910464222967e-003,
          -4.0754585465399250e-003, 6.8861423682282921e-003,
          3.1955914635464710e-003, 8.9830627004967058e-003,
          -3.1455126539598460e-003, 2.6678248423902423e-003,
          -4.4330669015017589e-003, -8.0381566224051355e-003,
          -2.4918230204308872e-003, -1.0566203929965651e-003,
          -6.5988756897845911e-003, -7.2001254011788158e-003,
          3.4828684398187275e-003, 6.2657640109284752e-003,
          -8.2646419413154124e-003, -2.6665441337760071e-003,
          7.4205858952000620e-003, 3.0471156229882885e-003,
          -6.9039951390061352e-003, 1.2854290616737282e-003,
          -4.4101014566330339e-003, -3.0678122351434694e-003,
          -8.3675158800906903e-003, -3.7690284492317445e-003,
          -1.1137115726437797e-003, -9.1328931020625724e-004,
          7.5044315917596593e-003, -8.2443520137619498e-003,
          -7.4302482824656641e-003, -4.1771509577618752e-003,
          1.0232009050333303e-003, 6.5207565237785014e-003,
          6.2840074298744159e-003, 2.3573296521584293e-003,
          2.7935667285717870e-003, -1.2172170147985600e-003,
          3.1511219716571803e-003, 5.0818505780659282e-003,
          -5.0821917603880145e-003, 6.3052474408091877e-003,
          6.4790092483598891e-003, -8.0337862335491672e-003,
          -1.5090726283697416e-003, -4.3863758999072829e-003,
          -1.7834664871320080e-003, -2.0454792538741836e-003,
          -5.8525233734740140e-003, -7.4620281718221267e-003,
          -5.4364741150286235e-004, 7.2804177647247462e-003,
          5.7937009310842042e-003, -2.5238130144637910e-003,
          3.9109198030260880e-003, 4.8846877487716068e-003,
          1.4333291968353739e-003, -4.8253211836487615e-004,
          8.7749540437751265e-004, -3.8497503236973644e-003,
          -2.9361862055909669e-003, 5.1050232266255102e-003,
          4.3063543652568327e-003, -6.9781102080841055e-003,
          3.6220168997374226e-003, -7.2780857445934382e-003,
          6.3122168014568244e-003, 4.0126319411716132e-004,
          1.3884529055059174e-004, -8.9462551506083276e-004,
          -1.1288795041310678e-003, 6.5234984027562328e-003,
          5.6051948577547179e-003, 5.2583375931953115e-003,
          -6.0729340018552012e-003, -3.1122915376250983e-004,
          7.6714609470693324e-003, -4.0151198594873747e-003,
          -5.1633759604431076e-004, 1.8268275410043811e-003,
          -1.3177284287300692e-003, 5.7633161483513148e-003,
          -8.4825481946782886e-003, 7.1438755584459109e-004,
          7.6076461052025923e-003, 3.6640101675589195e-003,
          -4.4740002446289756e-003, -3.4224928495124895e-003,
          6.4863838147776525e-003, 1.7583214463186595e-003,
          3.7549579413904757e-003, 1.0051274620923078e-003,
          -7.3622831050430462e-003, 6.1125631270170667e-003,
          -8.9078011803109588e-003, -4.2461052107271172e-003,
          7.6389911276234920e-003, -3.0658783732961193e-004,
          7.2993751920952461e-004, 6.0051587565758437e-003,
          -3.0621659679860120e-003, 1.2968593673815814e-002,
          1.5144579601665658e-002, -3.7889509824057077e-003,
          -2.0998004649937306e-002, -1.9345859938510655e-002,
          1.1532449724465219e-002, 9.3455557239533991e-003,
          -8.1043140714503869e-003, 3.7613202769274500e-003,
          1.2384182027725689e-002, -8.4698466859037206e-003,
          -5.2659346361704018e-003, 4.0709853623451756e-003,
          -4.7962778227489990e-003, 3.2862573583832596e-003,
          -5.7947917226510437e-003, 1.7228553526565556e-003,
          -1.1635035284627292e-002, -2.3081934719574870e-002,
          9.9915600632348792e-003, 6.1685448820381359e-003,
          -1.8197287707522301e-002, 1.1642510930436178e-002,
          6.4174772428489976e-004, -1.6521651296714651e-002,
          2.6313163662044932e-003, 2.2334373353322893e-004,
          -8.9967344088614318e-003, 3.9723576126594650e-003,
          7.6310375074944035e-003, 6.2421794247464139e-003,
          4.9247509764940864e-003, -3.9120964181084292e-004,
          -1.6126195665951790e-002, -1.2797869011320115e-002,
          1.8116394332347355e-002, -1.3487639725850658e-002,
          8.6393369404791399e-003, -1.1900105921092877e-002,
          -1.2417426564783370e-002, 4.6141853612496160e-003,
          3.3863496893739688e-003, -8.2043326647922611e-003,
          -2.7518137276999751e-002, 9.9456247803795996e-003,
          -7.0795058888423437e-005, -1.3804676321537677e-002,
          2.6094753931438629e-002, -1.6324713417648021e-002,
          -2.7950917374488012e-003, -2.1653225634293422e-003,
          7.9953915614107834e-003, -1.5535801996011681e-002,
          8.4840340655885152e-003, 4.9645760654397375e-004,
          -4.8532401338147809e-004, -1.6393423923608151e-003,
          2.4742695392490442e-003, -4.4144248104105265e-004,
          7.5577053312395589e-003, 1.3285807871119574e-002,
          8.7570180182498462e-003, 1.5780821685318868e-002,
          1.1564809242095917e-002, 9.2580756827976966e-004,
          3.2744420875826098e-004, 1.7577823941985729e-003,
          -2.8145141568661396e-003, -5.6590969081520993e-003,
          -5.0649024922123781e-003, -3.3291381061205421e-004,
          -2.0323088966973969e-002, 2.2080649944495826e-002,
          -9.8954655713091085e-003, 5.4643661945442783e-003,
          -4.4085043409744689e-003, -3.0402726788869485e-003,
          -3.7326318890674396e-003, -3.6856077287321545e-003,
          1.5883861819635695e-002, -6.3203496617608504e-003,
          -9.4860241224444366e-004, -1.7350301112793089e-002,
          1.7638111442426791e-003, -5.4226182270468428e-003,
          -3.8243044727177167e-003, 7.7362499817237524e-003,
          -1.2199880819366621e-002, -2.2500358325782104e-002,
          -4.5208194119141639e-003, 7.6872699606705015e-003,
          1.3979367199402409e-002, -9.5708535125604757e-003,
          1.9011621327077414e-003, 5.1375178717692933e-003,
          1.4546978318633169e-002, 4.6291523991756778e-003,
          -1.5417059966823498e-002, -1.2173310661743849e-002,
          -4.9387156255995927e-002, 2.1950675346684369e-003,
          3.5943687775080312e-003, 3.6262333144708485e-004,
          -2.8763424623791571e-003, 3.2721522418277409e-002,
          2.6395523249032649e-002, 1.2983022601764945e-002,
          4.1461488598724630e-002, -1.2358702251440607e-002,
          -3.7116348106582861e-002, -3.2726353984787390e-003,
          -1.6824253961574937e-003, -1.3343212193491664e-002,
          1.6866291512037050e-002, 6.4543957054550747e-004,
          1.4840978636990671e-002, -5.2391868662490337e-004,
          -2.1474222588226413e-002, 9.2203103248368924e-003,
          3.1862920449596275e-003, 2.2820030545562271e-002,
          2.3891844396411260e-002, -3.3051472813075237e-002,
          5.2008229995561643e-003, 2.3037290727125008e-002,
          -6.7728084624324066e-003, 4.0694058377884175e-003,
          -1.4945825669694138e-002, -1.0257695464042368e-002,
          -3.1320556708922857e-002, 6.5172803552976076e-003,
          7.2836348692513200e-003, 3.8260888451139667e-002,
          2.0149310609675550e-002, -1.7700730936834747e-003,
          -1.5611531352631595e-002, 1.0647267839261353e-002,
          -6.3385922721137800e-003, 2.2677544683851341e-002,
          -1.2492237892718746e-002, -3.4406378611359142e-003,
          1.0050846730656807e-003, 1.1195643750238730e-002,
          1.6761436273904709e-002, 2.2016618706610609e-002,
          -3.7880688747170557e-002, -7.0403565583649044e-005,
          1.3780293190177186e-002, 1.8441130535908914e-002,
          -5.9238724263120414e-003, -4.8941937698147491e-003,
          6.1255228402574777e-003, 1.9439908823238646e-002,
          2.2821858218238754e-002, 3.4252292437320392e-002,
          4.3260446042899546e-002, 6.7556909971905428e-003,
          -4.1224628658089395e-002, -8.8608265760996459e-003,
          9.8285388179073282e-003, -1.5961569121615407e-002,
          -1.3383137926727779e-002, -6.3029150152637029e-004,
          1.0901931995004787e-002, -8.7586367950499618e-003,
          2.2462365878627832e-002, -7.8717831615637713e-003,
          -3.0758013457339913e-002, -2.1043379488213955e-003,
          -1.3198629978194744e-002, 1.1739265588913753e-002,
          3.4045441152662989e-003, -3.4082982337867988e-002,
          4.4611512484020975e-003, -4.6151864817061620e-004,
          -3.5326575804007207e-002, 1.1118752358259650e-002,
          -5.7762737436893655e-003, 8.1385847453337747e-003,
          -1.2892509235141646e-002, 7.3225767517019697e-003,
          4.9173782025365587e-003, 1.1530716166653705e-002,
          1.0528051335596167e-002, -1.1675520861916875e-002,
          4.0339588158692210e-003, -1.7787236435866834e-002,
          3.0315118169763997e-002, 4.5514344329294259e-003,
          -4.3682264789199144e-003, -1.1087402925985925e-002,
          -1.0679906901167257e-002, 1.7153516321079875e-002,
          -8.3741170168687568e-003, 1.0585778551016074e-004,
          1.1937454471590199e-002, 1.8741102653133483e-003,
          -4.0555249383122235e-003, -1.6679323121555935e-003,
          8.9849402141389090e-002, -2.8519637443895685e-002,
          1.6494622088141396e-003, -1.0755064209956101e-002,
          2.1557820992504910e-002, -1.1159681991397368e-002,
          -2.6428337181953570e-002, 2.3698544968992877e-002,
          4.6655313710179003e-002, 2.2017728281330324e-002,
          -1.8430048676017562e-002, -6.6029086706219844e-003,
          2.7762587114626154e-002, 7.3780734628747036e-003,
          5.4683155594756255e-002, 2.8083668506077488e-003,
          3.4703719480654927e-002, 1.1525048170591594e-002,
          -1.6617378194471843e-002, 1.4436392760517032e-002,
          3.6627190754464641e-002, -3.9798011000756108e-003,
          -6.9194429859225888e-003, -1.1476003167071409e-002,
          -1.6145483703159453e-002, 1.2227223707411628e-002,
          6.2424261348785256e-003, -1.2534250801337247e-002,
          -1.1277771126359267e-002, -2.1392529486606030e-002,
          2.1063841783096296e-002, 1.9281154222095583e-004,
          -1.3567585261255923e-002, -1.9329446065605400e-002,
          -1.3774501223253154e-003, 3.1479498960926826e-002,
          -2.5038862008809053e-002, -2.1099112312888161e-003,
          3.8858067733954786e-003, 1.8538289456276252e-002,
          4.1926266260346408e-002, 1.6971747860274257e-002,
          3.1728302678319442e-002, -1.9118141523984909e-003,
          -3.1162054823344252e-002, -2.3981946349270956e-002,
          -2.5245732773746161e-002, 2.0415387555863983e-002,
          -2.5939200374804888e-002, 4.6866284548917087e-002,
          -2.4412525067692391e-002, -1.1094173939371446e-002,
          -2.4563817361540802e-002, 3.9071483790965270e-002,
          -1.4274984146899233e-002, -1.2496263751860978e-002,
          -1.3037855397610429e-003, 3.2232637035298578e-002,
          -3.0389491133265977e-003, -5.4751818742115078e-002,
          2.0400897099805009e-002, 8.3848939160216952e-003,
          1.6012572448920868e-002, 1.4484664259722162e-002,
          -2.8042461608696848e-002, -5.2615788560627418e-003,
          -3.4684963242720204e-002, 3.3654900516653943e-002,
          -1.1866065790832801e-002, 8.9270829609763066e-003,
          -1.5795171775873175e-002, -6.0973987610671637e-003,
          -2.2969229656920878e-003, 6.0883953202296708e-003,
          2.0308892165192331e-002, -4.6355674297737142e-003,
          1.0836115951744323e-002, 4.6261219245792920e-003,
          5.3782989243303077e-003, 6.4255031439926823e-003,
          2.4938104079231527e-002, 4.5907639193018728e-003,
          2.8057016177840940e-002, 9.1739298292408660e-003,
          2.9655156244618879e-002, 7.7431378731177419e-003,
          -8.4744783736086914e-003, -9.1817512012925505e-003,
          1.0783519595192323e-002, 1.5110052063346648e-002,
          1.2069328799860422e-002, -1.4360785555533434e-002,
          -1.6402976970918717e-002, 1.3259922957943662e-002,
          -1.7292146765363215e-003, 2.1625876225163224e-004,
          2.4634365874498052e-002, 4.8818315554156081e-003,
          1.9326716891941455e-002, -7.8862889854491181e-003,
          5.7119432126132096e-002, -1.0462026009353868e-002,
          1.0619626274771792e-003, -4.4209074756096318e-002,
          8.5810172971911222e-003, 3.6136162321333508e-002,
          -5.1815931435890153e-002, -8.6167851918380282e-003,
          -2.9028667708389879e-002, -7.3630350398932332e-003,
          -4.1448098000732786e-003, -5.6444587712120138e-002,
          2.7121832129583523e-002, -5.1356016122314781e-002,
          -1.7004589438157181e-002, 2.7618653422215235e-002,
          2.3181712856650209e-002, 1.1010654339292429e-002,
          2.1654239750228368e-002, 2.9812789848410411e-002,
          -3.1179259144024890e-002, 3.0995905239912816e-002,
          2.8925419145318203e-002, 2.7449403973286636e-002,
          2.1226510944897102e-002, 2.5886992921008350e-002,
          -3.1997171854578427e-002, -4.9666611037333198e-002,
          -4.1076322946764277e-002, -1.9816927043667901e-002,
          -4.2205507707744991e-002, 5.3750079161525750e-003,
          -2.8323870707619679e-002, 4.2993093025013869e-002,
          -3.3673563462787881e-002, -7.7712065814939625e-003,
          -2.1738833612719711e-002, 9.1699200631766668e-003,
          -5.5924219948021929e-002, -3.3641091328723567e-002,
          -4.7230653273464740e-003, 8.5981694158483342e-003,
          5.3956691614464258e-002, -3.4105630375165452e-002,
          -2.5570996802966330e-003, -2.7543715837366829e-002,
          -5.4052908994193516e-002, 6.3405339197484770e-002,
          1.9529466894753232e-002, 2.6690342432033352e-002,
          -4.1034842992803335e-002, -5.1781993278862758e-002,
          2.2611867969526901e-002, 5.6214884170697324e-002,
          -2.9775093628270619e-002, -2.0082512057438308e-002,
          2.9180809110208468e-003, 3.5308348079997040e-002,
          -5.6022994228696957e-003, -4.5935589810990531e-002,
          -1.7705157929477698e-003, -2.5249299791025297e-002,
          8.1183119652154176e-003, -6.1599784311538425e-002,
          3.3517298472500137e-002, -2.1912569898166707e-002,
          -3.7680939924776981e-002, -4.5485944006605078e-003,
          -5.0083194595275798e-002, -2.6856601911843202e-002,
          -1.3094398841427652e-002, 1.6679663574890088e-002,
          -3.1531647503747977e-002, -2.1454189873406606e-002,
          -9.0784922510461254e-003, -1.8163142163138808e-002,
          -7.5547815901340215e-002, -9.4525916869500938e-003,
          -8.3629646954520211e-003, 1.3170701044996994e-002,
          -2.0989322046769121e-002, 2.2981622422962159e-003,
          -1.7757549213265596e-003, -4.4164019491099125e-002,
          -1.4105914907134955e-002, -2.9123328452615167e-003,
          -1.3739271002729649e-002, 1.1830434203039197e-002,
          -3.9389336075263098e-002, 2.0376051829592377e-003,
          -3.6698152421015776e-002, 5.1217988049732217e-002,
          -2.6541367430168144e-002, -3.9272330050982705e-002,
          1.0926194923808721e-002, 2.7583559870825929e-002,
          2.2625426659195074e-002, 5.5652404538985005e-002,
          -6.4991948582655166e-003, -4.6410330408210382e-002,
          7.0434699870622383e-002, 1.8557973966131507e-002,
          -9.5646363927665151e-003, -3.8664589727091511e-002,
          2.2594759085853501e-003, 5.5644771335137920e-002,
          -1.6579357232612418e-002, -4.1028191827018001e-002,
          1.4578768378161810e-002, -4.5670024614231433e-002,
          -2.5031257543847104e-002, 2.4651861045387326e-002,
          -1.9407090807127006e-002, -1.8941045406787784e-003,
          2.1917761922173512e-002, -3.5007527275652730e-003,
          -1.3158431335632659e-002, 6.4440543784632714e-003,
          -7.2194403825872439e-004, 1.0384181114910343e-002,
          -3.7292855841839910e-002, 2.9163179090561432e-004,
          1.6728445600169620e-002, 3.2652689639981781e-002,
          1.3351602843688977e-002, 1.5508075275972866e-002,
          -8.1691495976517481e-003, -1.1528509462660567e-002,
          -1.2212296869996447e-002, 9.8057389651860002e-003,
          -9.0518031060800742e-003, 1.2029769486006430e-002,
          -5.9354839104410330e-004, 3.1654006585047120e-002,
          2.0338124690032121e-002, -1.8751042346815672e-002,
          -1.1850588743324128e-002, 1.7218640612213613e-002,
          -3.6721922404845717e-002, 2.9901754338960305e-003,
          -3.8185515573131469e-002, 1.3729832950061789e-002,
          6.8009182418617220e-003, 7.0845651832226629e-003,
          5.3577309043200461e-002, -1.1936010433165282e-002,
          -3.1557789543940513e-002, 8.7017996420444294e-003,
          -6.4802212643489746e-003, -3.0520025111402390e-002,
          1.8272717323826907e-002, -2.2769487398874261e-002,
          7.8643068890512178e-003, 3.0217929149729976e-002,
          1.1249677561163489e-002, 3.2973333409628547e-002,
          2.8711494576692396e-002, 1.4864618753062785e-002,
          -1.5138800272688024e-002, -6.4011257596916513e-003,
          -1.2672139411287002e-002, 9.2007539722820542e-003,
          3.1192484711448270e-003, 4.8522893306356422e-003,
          -3.6344472112177354e-003, 3.4669607535843659e-002,
          -9.7249836554793058e-003, 1.0054737053325245e-002,
          7.3843403100450197e-003, -1.4908178601557926e-002,
          -6.2099918173383313e-003, 1.3439431984966018e-002,
          2.8683110203397539e-003, 2.1467777480819333e-002,
          -1.6132448995271990e-002, -1.3998109056425064e-002,
          -2.7052593733117077e-002, 1.8877013133729092e-002,
          -1.7725815471066088e-002, -2.3078536363333678e-003,
          -1.2595647146616620e-002, 1.4779223528359753e-002,
          1.5506717836326024e-002, -1.7772571897467133e-002,
          -1.3801938807187988e-002, 1.3385737577960508e-002,
          1.6139216217444474e-002, -5.3715605469420967e-003,
          -3.3787587700165093e-002, 1.2039952726122714e-002,
          -3.5076496197741176e-002, 1.4401528365815906e-002,
          2.7407922299691339e-002, -2.0586808644854380e-002,
          1.5315309942676093e-002, -7.2297921879462676e-003,
          -2.6488666996504848e-002, 4.6625225569831265e-002,
          1.9386460645083082e-002, 9.8101816635648934e-003,
          -4.2971252036190150e-002, -2.8645670430946613e-002,
          -9.3642786414020757e-003, 1.6274096206731970e-002,
          -2.2761193383649680e-002, 3.5952697027084621e-003,
          1.6731763714986192e-002, 1.2938975863825577e-002,
          4.9192911737764846e-003, -2.3587890048187097e-003,
          -6.4877669027433096e-003, -1.3182162955716120e-002,
          3.1230537556364475e-002, -1.8954006560377771e-002,
          -4.4690802556998461e-003, 1.3849257325620486e-002,
          6.5169484095361210e-003, -3.2311250244790621e-003,
          -3.2390154367305493e-003, 1.2809643459331031e-002,
          4.1229247251384771e-003, 1.9486413263393541e-002,
          -9.6015201258830233e-003, -3.5708209937862170e-004,
          4.8852912287963421e-003, -2.1150997035068429e-002,
          1.6539206202648801e-002, 2.7590180173131584e-002,
          2.9802004225755047e-003, -2.9901830729886342e-003,
          1.7584582375156353e-003, -9.5296265725702978e-003,
          3.6343342194046675e-003, -1.4969626123349721e-002,
          -3.6105195141805428e-002, -1.7575327923263342e-002,
          1.2272158923168946e-002, -7.8011778343122428e-003,
          -2.3676458424444352e-003, 2.3866663039650203e-002,
          5.7931222578068462e-005, 2.4045314448387328e-003,
          4.9227450999133459e-003, 1.2932003364831799e-002,
          6.6760441051950913e-003, 4.3174579068743064e-002,
          2.4205643243089860e-002, 9.3120681486912760e-003,
          1.6686391035780859e-002, 3.9500967724327048e-002,
          -2.2530094519429710e-004, 8.4243899140093396e-003,
          7.7014510640948969e-004, -3.0993351791780543e-002,
          1.3165234917097981e-002, -2.6187091320008611e-003,
          1.2760361540291771e-002, -8.7006291410449393e-003,
          -1.2574050755060842e-002, 1.4528480383056253e-002,
          -2.5768521905896999e-002, -6.2931318164924149e-003,
          -2.3778928224171061e-002, -1.6948444517982796e-002,
          -2.7006999082178468e-003, -1.8816756839229159e-002,
          1.8808569962971065e-002, -1.0935552684200316e-002,
          -1.3775175832619255e-002, -4.6018901147824214e-003,
          3.3628111920988371e-002, 1.1738093528959540e-003,
          6.5970504687483059e-003, -2.5163575658809275e-002,
          3.7522656452928627e-002, 8.7031005655710050e-003,
          -5.2934170328025982e-003, -1.3347301574097335e-002,
          6.5351317412237755e-003, -1.2157657648521078e-002,
          1.7819370134370550e-002, 8.0538361020189315e-003,
          -1.5785565584915572e-002, 3.8551812466364334e-002,
          1.5423705620839482e-002, -1.0927399344347883e-002,
          -2.5950836935400064e-002, 2.7315220504360905e-002,
          3.4621804299034831e-002, 2.0657815925777382e-003,
          6.1182949007908636e-003, -8.4475707364707400e-003,
          -1.3535300234670913e-003, 9.3930700143314162e-003,
          -2.6842727739519513e-003, 2.4167818104080092e-002,
          1.0074474627418516e-002, 1.6956298591438386e-002,
          1.6351692991240955e-002, -2.5294878075743401e-002,
          4.2620226342933713e-002, 1.6005270660801280e-002,
          -5.9860261879135139e-003, -4.3697451678037275e-004,
          1.8883392263131702e-003, 2.8061230429468759e-002,
          1.1195754163564281e-002, 2.0788213919278055e-003,
          2.6051676112009356e-002, -1.7651602488756094e-002,
          -2.1697452037636268e-002, 2.3440255453968502e-002,
          -7.6045932763748074e-003, 2.5193406801787429e-003,
          3.3945956156355983e-002, -1.1852077704874798e-002,
          -4.6975955879856258e-004, -2.4780738438617039e-003,
          -2.5963874934062110e-002, -2.3391685952293862e-003,
          7.4888179356044533e-003, -1.7565003194991363e-002,
          -3.1280052445352392e-004, -1.5228466621260031e-002,
          4.5502589264788994e-003, 6.9987578563852747e-003,
          2.5506410815298044e-003, 1.3236694127887269e-002,
          4.0615531285671516e-003, 8.3959585980656996e-003,
          -6.4788828187988074e-003, 1.3887205835204660e-002,
          4.7577310769166270e-003, 1.2169230481318540e-002,
          1.3734307251938100e-002, -1.5941916653188400e-003,
          -1.5277865660992871e-002, 8.6868347692819255e-003,
          4.4497157684728287e-003, 2.2090867410452863e-002,
          -2.9906883799753208e-003, 1.1395076110741049e-002,
          -9.8353433220847615e-003, 5.8804623467503484e-003,
          1.8951351580462947e-002, 1.2723470753132919e-002,
          -7.4785566797381303e-003, -2.6737864414258575e-002,
          2.3841293591883926e-003, -7.2172140163334420e-003,
          1.7897195293512729e-002, -4.9325718713995118e-003,
          9.8308679293595863e-004, 8.7665885965849087e-003,
          2.8002223558419286e-003, 1.8477172258400790e-002,
          1.4206232475486977e-002, -3.3962104871936567e-003,
          -5.4021081171635480e-003, -1.2063458816638435e-002,
          1.6121124282917378e-003, 8.2253605466240977e-003,
          3.4872662257632490e-003, 2.4257406595705296e-002,
          -1.5215292649217392e-002, 1.0698173283561492e-002,
          6.2756384760426793e-003, 1.7481915571297895e-002,
          4.9922051643110366e-003, 7.5045163357927167e-003,
          -3.0257396271769267e-003, 3.5711591632563693e-003,
          3.7015118286740346e-003, 1.1453982317847390e-002,
          -1.0535814343202727e-003, 1.6116610484104673e-004,
          1.7662680242298255e-003, 8.4488729448368247e-003,
          8.2430031786747404e-003, -2.2813023123400443e-003,
          1.7214635986430300e-003, 1.5901946334940593e-002,
          6.7104874212413693e-004, 6.7897349135041347e-003,
          2.5734926475928685e-004, 3.9284416016306320e-003,
          2.0393351509891914e-002, 6.4505371361555913e-003,
          1.7833326099763631e-002, -1.6287887980442003e-004,
          8.6321784097331006e-003, -1.0242311794548882e-002,
          1.2513810509856121e-002, 2.9107755843083474e-002,
          4.6959975016255655e-004, -2.2449834802638357e-002,
          -1.3565136946082973e-002, -1.0909627789072797e-002,
          6.3746691405387659e-003, 1.4352375832435094e-002,
          -1.0911374800590982e-002, -4.9098225020421755e-003,
          3.9967043165030410e-003, -8.2764986543475971e-003,
          -1.9449830975990907e-002, 5.3298010852109723e-003,
          7.2997851153703388e-003, 1.1635384735888758e-003,
          3.7193210120319183e-003, -4.7315559363090703e-003,
          -4.0309935288108061e-004, 9.9650936308807447e-003,
          1.5288419472276549e-002, -6.8564960272010514e-003,
          1.9390316586191683e-002, 1.1253130653670187e-002,
          1.2464120267602424e-003, 5.7834336978739003e-003,
          -1.6616957666910296e-002, -1.1912237402380941e-003,
          5.7228966025770515e-003, -2.2262501697049031e-004,
          -1.3259196489143121e-003, -2.4525724391160435e-003,
          9.4197327989152969e-003, -1.0661199951765557e-003,
          -1.9992691383707736e-004, 4.7627962737339597e-003,
          -1.8572475410345030e-002, 5.7967941955468991e-003,
          -7.0623758396014561e-004, -2.2743793277906258e-003,
          -8.6318047372111774e-004, 1.1260764454920514e-002,
          -2.7668024649737540e-003, -2.9859667014364177e-003,
          1.2403622335180345e-002, -2.6366111004948352e-003,
          -4.0416043855260510e-003, 1.9780482956473168e-004,
          1.4457392002450309e-002, -7.0325617924176431e-004,
          1.8909337880174838e-002, -6.8027809582499764e-003,
          -7.0533264010765066e-003, 1.1495121016909093e-002,
          1.0716957245777217e-002, 4.5732487334083794e-003,
          4.4010919878683828e-003, 1.5138643850560159e-002,
          1.6251562859347635e-002, 5.0326184527171285e-003,
          -1.2401771249915244e-002, -1.3482501668757628e-002,
          2.6265553179613869e-003, 1.3550790142194293e-002,
          7.2210146238658353e-003, -1.7711802618695989e-003,
          -3.4175941438440347e-003, -7.5315601928090470e-003,
          -9.6909263696911187e-003, -1.2099747202801057e-003,
          -1.6151917845332389e-002, 4.0145406906595829e-003,
          -1.4089040512819945e-002, -7.0830084968872119e-003,
          2.2140715141362459e-003, 1.7160260950321433e-002,
          -1.3192048945289477e-002, -1.7642584969640846e-003,
          -1.1870674307670482e-002, 5.0856242149628899e-003,
          -2.5457750489381648e-003, -8.3301347483308343e-003,
          9.3957035239722771e-003, 4.1639975341405330e-003,
          3.6077217825906242e-003, -2.5228859532227927e-003,
          9.5104813874597044e-003, 4.3887537774673375e-003,
          -4.3975832328259530e-003, 1.0645808308330488e-002,
          -1.0044634214568427e-002, 1.7017374548627381e-002,
          1.6482742711019141e-002, 2.8739292881465365e-003,
          5.6835922630486379e-003, 9.8948966073786893e-003,
          1.3717284668933018e-002, -2.3396854233357921e-002,
          -1.1075878081435304e-002, -2.0144890198826409e-002,
          8.0093902033974308e-003, 1.8247185910847338e-002,
          4.0199814201276616e-003, 4.3294901301488631e-003,
          -7.6754089574329002e-003, 6.9348316670273297e-005,
          3.6361058292501376e-004, 1.9417494382983041e-003,
          2.8280530742521664e-002, 3.0570543466343198e-003,
          2.2653518107487182e-003, 1.4899457559278727e-002,
          1.5208713541798549e-002, -1.2411212228934872e-002,
          1.4016847908290534e-002, 6.9095714980132597e-003,
          1.4148161301042735e-002, 3.1577929178550216e-003,
          8.5800194955049421e-003, 2.2969731152481038e-002,
          1.0819933244262865e-003, 2.2808350932906344e-002,
          2.0185117407553212e-002, -8.9316698459194679e-003,
          6.3218425088088425e-003, 4.6686164517490288e-005,
          -8.3810570275299392e-003, -1.6384552649914591e-003,
          2.9425455113435547e-003, -1.4193542550127756e-002,
          -2.7175357953894329e-002, -1.1024669944614729e-003,
          -1.3584760127886961e-002, -4.3377342483483187e-003,
          1.1439982116439004e-002, 1.7612554308012673e-002,
          8.7962857765106657e-003, 1.6143440326957983e-002,
          2.2216240403419782e-002, 9.2432725139383002e-003,
          2.7155338487737976e-004, -1.4195284438586239e-002,
          1.8534518069507448e-002, 1.0835514179703623e-002,
          -8.2582417104481772e-003, -5.4231006757172991e-003,
          2.3479964067934952e-002, 1.9497198793059552e-002,
          5.9350917117517322e-003, 6.3025927682273386e-003,
          -2.5112070357265859e-002, 5.5131073712357741e-004,
          -1.9792673128286899e-003, 6.0270426602721120e-003,
          7.9876489546771550e-003, -2.3074418418249049e-002,
          -2.6530281487181999e-002, 4.4356875564722674e-003,
          3.9110493853169552e-003, 2.1822318315259541e-002,
          -8.5295205757045089e-003, -1.2498314371667835e-003,
          -4.9051940842981152e-003, -3.5275748634160989e-003,
          -5.6340781178055455e-003, -6.2420592559846307e-004,
          1.4146584787591732e-002, 1.4785921833341763e-003,
          3.3432820328627979e-003, 1.0873762490099628e-002,
          1.3477179878216989e-002, 3.3536344853077812e-002,
          -2.8895623450570250e-002, 1.6203610324922988e-002,
          8.9411202740884328e-003, 7.1448644275617984e-003,
          1.1332684681599882e-002, 1.7418960100055822e-002,
          4.9551074171595728e-003, -1.0893106969174626e-002,
          2.0087754997151382e-002, 2.9934490299631581e-002,
          7.9119486420064656e-003, 5.4750689983068699e-003,
          2.8481185553626380e-002, 1.6266118100772428e-002,
          1.2899713129380663e-002, -3.0018590025047897e-003,
          9.3894096346319074e-003, 1.6627443199356683e-002,
          1.0471651395398164e-002, -8.3567093259423101e-005,
          2.4260996438175519e-003, 8.3211799456614308e-003,
          -1.2594052273097258e-004, -3.4913253616612786e-003,
          5.6928502895218433e-003, 2.5542777534228015e-002,
          6.6315630857529248e-003, -1.2120492761491776e-002,
          1.6848011418436420e-002, 1.4617823302605958e-002,
          -1.8546686833468609e-003, -6.8095071044389907e-003,
          -8.3870305319114213e-004, -1.3642653538387292e-002,
          4.3098480360239467e-003, 1.0679328868253901e-002,
          9.4784480499092508e-003, -5.3392019585151570e-003,
          -1.8387829990635086e-002, 2.6599008644005419e-002,
          -2.1385216713212037e-002, -2.3709384867149186e-002,
          -7.0520798083627170e-004, 1.1589481763796235e-002,
          -2.2069794691818939e-002, 7.2039228052216374e-003,
          6.6613415255986977e-003, 1.2694345381116742e-002,
          1.5511419719073662e-002, -6.6815272836919003e-003,
          1.3036296464738566e-003, 2.1033925087307493e-002,
          5.8048552056123599e-003, 1.4859932046977789e-002,
          -5.5635239750903142e-004, 3.0425629622714391e-003,
          2.0113429836042539e-002, -3.2145931028231284e-003,
          -6.7097748206675217e-003, -4.5250583904518481e-003,
          8.3646152236930230e-003, -9.4767984324356618e-003,
          7.8104188188103038e-003, 1.0829470635996744e-002,
          4.7548001843409357e-003, 7.3970393169549798e-003,
          -3.9894027695308231e-003, 1.1534087765349716e-003,
          -1.3421130734093589e-003, -2.3259128134535460e-002,
          -1.9850449510707364e-002, -8.8938446594699905e-003,
          4.3050600839557689e-003, -1.2941518741140981e-002,
          8.4167202768902823e-003, -2.5635824055930713e-002,
          1.0874898119254467e-002, 1.6922971431107430e-003,
          -2.5023444514484308e-002, -2.8697389562487120e-002,
          -2.8242311836060480e-002, -9.1549981014958873e-003,
          2.8882637150429928e-002, 9.1754561905540370e-004,
          -7.5652024063389660e-004, -4.8230680845548560e-003,
          -1.6310529728794144e-002, -8.4989204190718550e-004,
          1.0440017548680871e-002, -2.1985462788980923e-002,
          -1.4011981388164264e-002, -2.0299187354694999e-002,
          -2.0737760607588251e-002, -1.3951317707914231e-003,
          2.0800703349142802e-002, 3.4191077477334401e-003,
          -9.4056124482651392e-003, -2.1961988753656722e-003,
          7.7088140841135840e-004, -1.5648638245890571e-002,
          -2.2383841468740361e-002, -6.7880197434326663e-003,
          -7.6920249657364288e-003, 1.6710146727345523e-002,
          3.2503190187491643e-003, 1.8975212288677150e-002,
          3.1759982779927970e-004, -2.8063972857664342e-002,
          4.8173286938663108e-003, 7.3034426039277249e-003,
          1.5665249928863811e-002, 7.1830998884742994e-003,
          2.5807632677110601e-002, 9.6430500856959384e-003,
          -1.5893400320441578e-003, -1.3145689753013591e-002,
          -1.4737777789676627e-002, -1.3257359060010476e-002,
          -2.5470538530382607e-002, 7.0873839254268966e-003,
          -7.3136274807151999e-003, -4.8642082316868972e-003,
          -1.3438138340140382e-002, 3.0485921182603955e-002,
          3.0166962308136980e-002, -2.5556896653115981e-002,
          1.7961960163627683e-002, -7.6130035365538668e-004,
          -8.0464494777189467e-003, 1.9348082252177504e-002,
          1.0872859091118959e-003, -1.3305480279615461e-002,
          4.3333980476021735e-003, -3.3915712287736009e-002,
          -1.4281183655640768e-002, 7.8056046201088322e-003,
          -1.1652606081330869e-001, 1.3035032124626159e-002,
          6.1810485775108280e-003, 1.7887906351557164e-002,
          -2.9369871435474620e-003, -1.9823562582437348e-002,
          1.4492264083882838e-002, -1.0334046514242901e-002,
          1.1501719343807240e-002, 6.2940201381047993e-003,
          3.1181432469639296e-003, 1.0753679944381435e-002,
          -7.8853940898278140e-003, 1.6507470012503495e-002,
          -9.6412068101334597e-003, -1.6806065174345415e-002,
          -2.6761999710128593e-002, -7.8632180322465856e-003,
          2.3659562499455764e-002, -9.5374328193561318e-003,
          1.0766738196403100e-002, -1.2080325720965344e-002,
          2.6434708621731466e-002, -1.9573938023861797e-002,
          1.6584404520452788e-003, 8.7191689381803088e-003,
          1.7594722330316012e-004, 1.0051119280379585e-003,
          1.1672535288500161e-002, -7.8390852968596211e-003,
          6.9531311328685768e-003, 6.7246930279547519e-004,
          1.4022733252993549e-002, -1.6208855941398474e-002,
          1.9902254298902643e-002, 1.2013339039103600e-002,
          6.6814781777534207e-003, 1.5679361507998472e-002,
          1.5618635068080504e-002, -8.1361285057573174e-003,
          1.6818831394813095e-002, -1.0118136346781660e-002,
          -1.2168248467042135e-002, 1.1022845409662132e-002,
          1.1106013262143454e-002, -2.2341432091123610e-002,
          7.3383791512904731e-003, 4.3499870947931113e-003,
          -6.6969189591700711e-003, -1.8605905867501205e-002,
          9.5652872242721586e-003, 2.9309722355596729e-002,
          -1.5272136419746696e-002, -2.0112603002756378e-002,
          -8.4011750743384125e-003, 4.7319382751898594e-003,
          -2.1776843126116406e-002, -1.0935902165673902e-002,
          -3.1085149753215667e-003, 1.4618258583405541e-002,
          3.9148876171858811e-003, -6.1635329630624425e-003,
          -5.2647677267083533e-003, -2.1545392731906213e-002,
          3.4861036193750863e-003, -9.3716736675260332e-003,
          1.8392513821714283e-002, -7.3523556654573339e-003,
          2.8184714195248730e-002, 2.3639107964227727e-003,
          9.0239720390513454e-003, -1.2171128222849981e-003,
          2.3733889724111324e-002, -1.4209128437499802e-002,
          -8.9291665035160801e-003, -1.2296002402313875e-003,
          2.7919027252667945e-002, -1.6795365397063302e-002,
          -8.2285051299488491e-003, -1.2609667764133911e-003,
          -6.1993471703306663e-003, -1.4090139047600977e-002,
          -8.6098902360174871e-003, 1.6549004195928509e-002,
          9.7496610728671357e-003, -1.1259401795070268e-003,
          3.7935478896297802e-002, -1.3566962068132645e-002,
          -9.5377485172249386e-004, -4.0011279565455799e-003,
          2.0056631077558860e-002, -3.2019578094624621e-002,
          -2.4574548973337516e-002, 1.6582170990113845e-002,
          -2.2791138567830650e-002, -1.0846111753358931e-002,
          -1.9488323829042340e-002, -3.0879933504816826e-002,
          -8.7756166721542853e-003, 2.6396209668492633e-002,
          6.3782538106989403e-002, 4.1664581945854212e-003,
          -1.3055276940485994e-002, -1.8123473993283058e-002,
          6.6644645849518111e-003, 3.7905302899111898e-002,
          5.9391833979655691e-003, -5.3768281140604106e-003,
          3.7831699793698464e-002, -2.0598899634785301e-002,
          -3.1045072512939847e-002, 1.5105123860823074e-002,
          1.4825734353309564e-003, 2.5583009815421810e-002,
          3.7331263239374066e-002, 1.4306397827153483e-003,
          1.3968215908370316e-002, 9.4338089038582488e-003,
          -1.1704401807614210e-002, 5.1768630245347226e-003,
          7.1814923220288839e-003, -1.2644992368725355e-002,
          -9.5687199784836880e-003, -1.1337032114862628e-002,
          -9.2462012082038993e-003, -9.5001913353447362e-003,
          1.5151110011259763e-002, 1.8543748688287957e-002,
          8.2299359348161471e-003, 1.9655714288458067e-003,
          1.7720796800488967e-002, 1.5429557812723252e-002,
          7.0672621841215951e-003, -2.8392933912260755e-003,
          2.3979795831151514e-002, 4.0003777290713357e-003,
          -1.5438344983963037e-002, 1.3101988990976250e-003,
          1.4621459087456214e-002, 2.6317071506465131e-002,
          1.0882776919374134e-002, 6.0490904493956774e-004,
          1.1749567655281465e-002, 9.3824728441755014e-003,
          2.2980172245860946e-002, 3.1897197805512648e-003,
          -1.9567373301826452e-002, -2.8700306093259582e-002,
          -1.2155634729620559e-002, 1.7344705751173299e-002,
          1.9759163013186171e-002, -2.1229992069054949e-003,
          -1.0527389633598682e-002, 2.6783371755954351e-002,
          4.4478815538638505e-003, 1.5779901391591602e-002,
          3.8165342769338348e-002, 1.3599966378644801e-002,
          -8.5442702142108848e-003, -6.9842947174815232e-003,
          -2.5545087895809211e-003, 6.2793272010143895e-003,
          5.1625163908301580e-003, 4.2204745225017069e-002,
          -9.3019911639411774e-003, 2.8957124279814610e-002,
          -2.3181635509654059e-003, 5.2763510880774068e-003,
          -7.4308798749636706e-003, 4.2810299594589632e-003,
          1.0160053225410598e-003, -1.4551124397433012e-003,
          1.5637195813492610e-002, 1.1921791547845496e-002,
          1.8025519652941049e-002, 4.4498726157947352e-003,
          3.2246501625916380e-003, 1.6772535845897898e-002,
          4.1035926992752294e-003, 4.2729496083410510e-003,
          1.5263832171708838e-002, 2.9129135720827575e-002,
          2.5287477710423511e-002, 1.3824350309577902e-002,
          8.7329081887220061e-003, 1.2744395678895602e-002,
          1.1085468448312480e-002, -1.3102404206792550e-002,
          9.0412618899166910e-004, 2.4508785161767313e-002,
          -9.9518382034763896e-003, -5.6091806813387077e-003,
          1.0048342107134307e-002, 2.5369913418650711e-003,
          -2.5091591036711111e-003, -1.5821704464827235e-002,
          -7.3662730980606980e-003, 9.7971969780017275e-003,
          1.6170467706774064e-002, 5.2042483529629556e-003,
          -7.1251917680898108e-003, -4.2765737525137905e-003,
          1.4979441710344829e-002, 5.4825712209376990e-003,
          -2.1206211760315872e-002, -2.0041126361183895e-002,
          -2.4571730785549655e-003, 1.1425811222983169e-002,
          -1.0999523754375179e-002, -4.9845572941768926e-003,
          2.4777155549155782e-002, -1.5487384540105368e-002,
          1.0728196127103377e-002, -1.4516035570852327e-002,
          -2.0714956452020157e-002, 5.9916284335858293e-003,
          4.5109459864135270e-003, 4.2923202141898556e-003,
          2.6978927886672291e-003, -1.0366451190794618e-002,
          4.4944641385311086e-003, 1.1886137132798178e-002,
          -1.8506892419045726e-002, 1.5689405982349296e-002,
          1.4975040508421368e-002, 5.3726242083128382e-004,
          1.0118349068446466e-002, -4.0025971885120307e-003,
          -2.1614304760330758e-002, -1.2602094807310188e-003,
          -1.0920530303056944e-002, 3.0587939254695948e-003,
          1.5788726049951792e-002, 1.3051832588832126e-002,
          -1.3260469530703355e-002, -1.6042072794110320e-002,
          9.6513554954623434e-003, -6.6387288393991847e-003,
          -5.8041248308633164e-003, -1.4709826713921090e-003,
          -9.5607150479321834e-003, -3.8485158961596645e-003,
          1.8087064768398206e-002, -4.2331134262396858e-004,
          -1.2097803450969849e-002, 1.6758066964905342e-002,
          1.4503128269166318e-002, 1.5260252560734223e-002,
          1.8359941061113338e-002, -8.0172162747372856e-003,
          -1.1824583736954282e-002, -1.0754376391184999e-003,
          6.3698390972782393e-004, -2.3226604005686848e-002,
          2.9046728559451059e-005, -9.9094461282485408e-003,
          -1.6544957544557635e-003, -1.8072577288085121e-003,
          -1.1463702456090492e-003, 3.3033419650398258e-003,
          -1.1440547713696991e-003, 1.1064369818814381e-003,
          -1.6778160629619592e-003, -1.1693562212330293e-002,
          1.9332051786377373e-003, -1.3437756407847024e-002,
          7.5522293177423044e-003, -7.2931672993167334e-003,
          -5.2345750468771801e-003, 1.5594148278531591e-003,
          -1.8992001363847030e-003, -1.3476916990393839e-003,
          -6.2133724545650375e-003, -6.5259902803467820e-003,
          3.0630985054033583e-003, 9.8353965254628171e-003,
          -7.0773526613134175e-003, -2.0640618443951743e-003,
          2.9253331759348921e-003, -1.5697292892413200e-002,
          1.1754257020271936e-002, -2.2427732590305974e-004,
          -5.4276237765590665e-003, -1.4060431635802619e-002,
          -1.4924545734188737e-002, 6.3665159105469101e-003,
          -1.6150148927786094e-002, 1.5862289753983950e-002,
          -4.5727734303152735e-003, -1.2920453128105235e-002,
          -1.8417484278299142e-002, 1.7851922549334171e-002,
          1.0622382445986905e-002, -1.3141892429783813e-002,
          -2.5467565723945643e-003, 1.0631537829585027e-002,
          3.3808825854011201e-004, 5.4318525697059864e-003,
          -1.2125251992000732e-002, -1.2976388765472162e-002,
          5.9062098795648971e-002, 1.1038791471282651e-002,
          1.7398322761708490e-003, -8.8419764170257504e-003,
          1.6763243552953062e-002, 1.5058539753574256e-002,
          1.1167915150960403e-002, -1.1994746751618027e-002,
          3.5222663392733902e-002, -1.9062430674657765e-002,
          -1.8248987234443154e-002, 1.4454794598040019e-002,
          -4.3421054518117119e-003, 9.3514667686961182e-003,
          1.1534776992772758e-002, -8.9186705275004722e-003,
          1.2761713419402475e-002, 7.6875617936737663e-003,
          -5.5781653760930347e-003, -1.1223804151931674e-002,
          -4.7298875086620104e-003, 6.5409897617895712e-003,
          -1.6992101120680243e-002, 7.5310874961609540e-003,
          -2.4217927843575415e-003, 2.1520545157754306e-003,
          1.7595368668917751e-003, -6.5866471837963689e-003,
          -7.5928870795628255e-003, 1.2896368732952093e-002,
          1.2545686749405772e-002, 1.1007302875033863e-002,
          2.5069500563830546e-002, 2.2531620155262902e-002,
          2.6761420840637856e-002, -2.3359771891347272e-005,
          -9.0538936931748304e-003, 1.1112654584377625e-003,
          -7.8091706879373623e-003, 2.9407952183522695e-002,
          -5.8873549726023528e-003, 6.3066590406220015e-003,
          9.3144017241604277e-003, 9.9532087543857898e-003,
          1.7554927722553945e-002, 1.9681108123634997e-002,
          -1.2410673467884751e-002, -1.9164495548972822e-002,
          1.6163681680910267e-003, 3.9664134918038323e-003,
          1.6450758987974653e-002, -5.6832502893608841e-003,
          4.6615586907288410e-003, 6.8837399638654968e-003,
          1.3344756119265163e-002, 2.4758976384910456e-002,
          3.0153695124946343e-002, 2.0932682725310323e-002,
          -6.6049217260477477e-003, -9.7459005672907960e-003,
          -1.0153797456084299e-003, 3.7431033408782065e-003,
          1.7151759685603195e-002, 3.6604325890433123e-002,
          -4.2378053826701957e-003, 3.0849219410306866e-002,
          1.8594644048067280e-002, -7.2043789418643782e-003,
          7.1590521887633998e-003, 3.1949407196273862e-003,
          -3.5288463522947042e-003, 1.4530669920129234e-002,
          1.5320074260476440e-002, 2.0650242039752090e-002,
          1.0096622508099027e-003, 1.9127302100607049e-002,
          1.1389411142253971e-002, 2.1475316348668630e-002,
          8.8020364159200424e-003, 9.7027028249499622e-004,
          1.2230261116732050e-002, 2.2304146096955618e-002,
          1.4293184793253104e-002, 3.0130316391792098e-003,
          -9.0578932549386613e-003, 2.7003186169126909e-002,
          -8.3602413473015166e-003, -1.4396405656007812e-002,
          2.2477971159614676e-003, 2.5892820326373168e-002,
          -1.7385212488840573e-002, 6.9003564007329523e-004,
          2.7346859116718025e-002, -4.6382375299408024e-005,
          1.5775482375041949e-002, -6.0872527260591761e-004,
          4.8322232963352299e-003, 1.1424877166348952e-002,
          9.3531572880590982e-003, 1.0564516260731389e-002,
          -2.6962877133267709e-002, 4.3180354306610646e-003,
          -1.8799563647272617e-003, 3.3318344566833726e-003,
          -1.4659652271405114e-002, -8.5558514460175872e-003,
          3.2372813071403143e-003, 8.3800289143955518e-003,
          1.3939662958774289e-002, 2.2473128261845270e-002,
          8.0285335070559623e-003, 3.9260626697037396e-003,
          9.9440024091358298e-003, 2.6563623148941782e-003,
          1.1728451339916398e-002, 1.6635530003328430e-003,
          -5.4428206102958244e-003, 1.4567874878517015e-003,
          -2.2266297335520420e-003, 8.2462298553890589e-003,
          2.5934632145918086e-002, -4.4184777237356830e-003,
          -2.4170381735094046e-003, -1.4071876501634649e-002,
          -8.6890613804256247e-003, -1.0255238890504113e-002,
          2.6219850359695432e-003, 4.4536919139976294e-003,
          1.6456611383885041e-002, 1.7598404766781522e-003,
          -2.4099108301434066e-003, -8.2628999343297045e-003,
          1.3042075155112625e-003, -2.1536370454241005e-002,
          -1.4471535536834579e-003, 1.0527471399204791e-002,
          5.6968675218716487e-003, -1.1601309836690622e-002,
          2.6429827867669672e-002, 2.7905891838998333e-003,
          3.0553565416372077e-002, -1.0807450602595518e-002,
          -5.1604092389407061e-003, 6.2764909040007311e-003,
          -1.3691526772236227e-002, -1.0636870674617015e-002,
          1.3726322139431505e-002, -8.9316166266561747e-003,
          -1.1123296125046990e-002, 1.2522849951104911e-002,
          -4.4562283373130902e-003, 6.1520684885491049e-003,
          7.5058484033654015e-004, -1.7836390087885370e-002,
          -1.7882006545623386e-003, 1.7085050381551361e-003,
          -1.5330991498703610e-002, -7.5259468190682459e-003,
          -4.2565670620070046e-004, -5.4819603823545770e-003,
          -1.6818271384717344e-004, 4.9221995605233898e-004,
          -1.9776032944684500e-002, 2.3136296981111186e-003,
          -1.3917884923519138e-002, -1.8683876970874744e-002,
          -9.2789457840653684e-003, 2.6809512800934486e-002,
          1.8773056556937718e-003, 3.3157168370240380e-003,
          4.1978497082107704e-003, -8.1940744987030710e-003,
          -3.6535128967384351e-003, -1.1059755702109602e-002,
          -7.0936938698458376e-003, -4.6762318393047033e-003,
          1.0335818775286738e-002, -1.6702426719978260e-002,
          6.1321095155213385e-003, 3.7459446100507163e-003,
          2.4630378306832597e-004, -5.2940021627982210e-003,
          -9.7038556069148768e-003, 1.9324908472598046e-002,
          1.8742870801080801e-002, -2.2309933498792539e-002,
          3.7717111603781063e-003, 8.7257851992164417e-003,
          1.4002648633369230e-002, -1.8353173724696404e-002,
          1.7512695986637041e-002, -3.4709567124742061e-002,
          -2.5158619607848647e-002, 1.0063068650441849e-002,
          -9.7417808511413052e-003, -5.6883632036661407e-004,
          2.9297133841073020e-003, -2.5731790195936143e-002,
          -1.2387026336256261e-002, -1.6894656013130538e-003,
          1.3072617084570903e-001, -5.3874074215411261e-003,
          -4.0577131990338121e-003, -4.0505717080897086e-003,
          -2.8451634639543567e-002, 2.0748297252785958e-002,
          -1.3346963010039068e-002, -5.7041963291510223e-003,
          -4.1276060697262584e-003, 8.9168598622948198e-003,
          -8.3422024266751743e-003, 2.5792936989176101e-002,
          4.0413000559511768e-002, -2.8847477209380530e-002,
          2.8890842684495759e-002, 2.8035147207788286e-002,
          -8.2759211037672711e-003, 5.6698862116378701e-002,
          7.1417695879647392e-004, 2.6898865533042264e-002,
          1.6321825064369480e-002, -1.0718127958472837e-002,
          -1.6918383497785634e-002, 3.0781728173990826e-002,
          1.4180188163605443e-002, 8.6441484268554459e-003,
          -1.7416318889350850e-002, -3.0770810671415769e-002,
          -2.0148663087176659e-002, 2.0065767003789575e-002,
          -3.2411928405021259e-002, 3.6249885130600077e-003,
          2.0666454319152747e-002, 6.7720566510259279e-003,
          -3.9375705880101079e-002, -1.3804684139860300e-002,
          7.8760390916464418e-003, -1.5484102664448227e-002,
          -2.7590931193190589e-004, -2.2019387170745936e-002,
          1.7358932130513479e-002, 1.6668816105808046e-002,
          1.9453718886242284e-003, -6.9405453406386597e-002,
          -2.0538955022507206e-002, -2.3404174186027488e-002,
          2.5936348036954864e-002, 9.2258754293074105e-003,
          1.1368543852836865e-002, -1.2217183246301066e-002,
          2.9710651513917339e-004, -2.8549497693414770e-002,
          1.9443125689210528e-002, 6.0768869805178120e-003,
          -2.2465060901374914e-002, 1.6250256389808256e-002,
          1.5071214054541813e-002, 3.5156570260848324e-003,
          2.4065493575652217e-002, -1.9328424927435670e-002,
          -2.5473620515880119e-002, 3.2085025679449270e-003,
          7.4671858778388656e-005, -2.9081714608370033e-002,
          -4.7677525239444657e-002, -2.0871821170090399e-002,
          -1.9559499579808667e-002, 3.2928865236193844e-002,
          2.7918686265942841e-003, -1.6208884065825578e-003,
          -2.2938079572071574e-002, -1.1310433200086196e-002,
          -1.0901187898740160e-002, 9.9776956395277085e-003,
          4.6416461682326450e-003, 4.0750947419083642e-003,
          -4.5196648526117326e-003, 2.1354416039272815e-002,
          3.9463501475308516e-003, 2.6835081195051014e-003,
          -3.2287387093738448e-002, 1.8314833378506267e-002,
          -2.2311535822680442e-002, -3.0217547316484281e-002,
          -2.5400080070872876e-002, 8.9160322391311775e-003,
          -7.9149575061814251e-003, 5.6189989278897845e-002,
          1.5234484415640990e-002, -3.8985938683656046e-002,
          -6.3564976966126348e-003, 4.8276953802806784e-003,
          4.2978860726575162e-003, 6.1917152127362683e-003,
          3.1934811392753844e-002, -1.0880252418686853e-002,
          -2.9644212066898067e-002, -1.2427573709518965e-002,
          -1.1837647235037557e-002, 5.9256816980847423e-003,
          -2.5565366358792668e-002, -1.4175928212462325e-002,
          4.6370235948420711e-003, 3.1644085960456890e-003,
          -2.9320523451485062e-002, -1.0151924471202474e-002,
          -2.5926127238932372e-003, 1.1346124847007105e-003,
          -5.5400338396922010e-002, 2.1880813208753406e-002,
          2.0324589301446958e-002, -1.8096462359739638e-002,
          3.0312519330246940e-002, -3.2094284414222511e-002,
          -3.2201254493438650e-002, 2.2410792068330333e-002,
          8.9922850050600817e-003, -3.2397822435058427e-003,
          1.5375165735436800e-002, 1.3851312193216024e-002,
          -5.3667520161254402e-003, 8.5204212965549198e-003,
          1.3511296970528400e-002, 1.8865220473868998e-002,
          1.5903318796833439e-002, -6.5458665015680579e-003,
          5.6242539104843113e-004, 5.4273117740010557e-003,
          1.8381088943260109e-002, 7.0539722500403907e-003,
          -1.1468202715248116e-002, -2.2304798241904938e-002,
          -9.6590348023433987e-003, -2.5084774533014883e-002,
          -6.2993893823630395e-002, -1.2648843726522457e-002,
          2.0072264109727844e-002, -1.5755252173026011e-002,
          1.7205549548435476e-003, -3.4684450105480033e-002,
          2.9217885225732952e-004, -1.5908319494520262e-002,
          2.3088593732435831e-003, -2.6958291779688923e-002,
          -2.8251246127350440e-002, 1.2595850090871313e-002,
          1.6407753968553557e-002, 2.1607289988999166e-002,
          4.8435487726608576e-003, 2.5079424661773302e-002,
          -2.3856825001329528e-002, -2.3092960196247979e-002,
          1.1978511521187962e-002, -1.6193474659752509e-002,
          -4.4829724140976260e-003, -3.8763785677897025e-002,
          -1.5000511989362530e-002, -1.7235246797253866e-003,
          2.4904343920321547e-002, 1.0310745165172266e-002,
          -1.0052431100802261e-002, -9.1101469406703970e-003,
          -1.6302296398043890e-002, -3.5914176696440127e-002,
          1.1436831140005866e-002, -4.5111297906817435e-002,
          -2.2209391716976508e-002, -1.3205199529359566e-002,
          -1.8187322863803184e-002, -2.7202253916412997e-004,
          1.1359655085194839e-002, -6.1403440833606064e-003,
          -2.3551082522919591e-002, -2.0369435959639300e-002,
          1.9288139377193446e-002, -1.1894094824780679e-003,
          -2.8589631282870839e-002, -9.5729338824142012e-003,
          -2.9418894230593272e-003, -5.1822000613424412e-003,
          -2.7174935748280518e-002, -2.1154978004941288e-002,
          -3.3587597614931103e-002, 4.3094143773789199e-003,
          -2.0752757691250090e-003, -3.3157163818463474e-002,
          -2.6410249920151983e-002, 2.4727311220349969e-002,
          1.4440870043577126e-002, -4.1210779536524092e-002,
          6.2854294548825755e-003, 1.5180212240301624e-002,
          -2.1802343895386350e-002, -2.1580056204365667e-002,
          2.4339869354971762e-003, 1.6011474059453589e-002,
          8.7374061645201159e-003, 6.4656853224294899e-003,
          8.7819615044779813e-004, -2.4399162659912474e-002,
          1.9317314031698573e-002, -5.3420125624921320e-003,
          2.6227815871515117e-003, 9.0412376334782045e-003,
          -2.7615957182611055e-003, -3.4938499426378834e-003,
          3.9183726320604064e-003, 1.7544472877749209e-002,
          -1.1412795717913276e-003, -1.9390357612696701e-003,
          8.1978630694408232e-004, 1.0049593598880727e-002,
          1.1557886694319293e-002, -8.3109186767786909e-003,
          1.1145624380178623e-002, 4.3569395131548187e-004,
          8.2553436447227700e-003, 9.2642699406375387e-003,
          -5.2274339020485822e-004, 8.0712130422798088e-003,
          1.2854744287669294e-002, -2.8962925470677370e-003,
          -3.3526862527132931e-003, 9.8163823821746932e-003,
          4.2201731548709319e-003, -4.6617048131968285e-003,
          -3.5232256789168963e-003, 2.7888278034031225e-003,
          2.6490346728951526e-003, 1.0351766289324936e-002,
          -4.1170044931974244e-003, -4.7932266639394002e-003,
          9.2559275515282664e-003, -1.1971896167448058e-003,
          -4.2980829608902709e-003, -3.4009474674932543e-003,
          7.5350798101061212e-003, -1.2361217061273489e-002,
          4.4442274670862814e-003, 3.3166150716516566e-003,
          -2.4526052868449164e-003, 5.4090769895938128e-003,
          6.6998319299438596e-004, -5.7332970696785720e-003,
          -9.6650423603757193e-003, -3.4964925096309628e-003,
          1.5686579659935404e-002, -5.4848776628608886e-003,
          4.6176947739887796e-003, -8.1286772263103216e-004,
          -6.1295329022904360e-003, -7.0555095147372560e-003,
          -8.9247568638132807e-004, -5.4464276321023047e-003,
          -2.9992845959780578e-003, -2.5783116326810024e-004,
          -5.1559551660970374e-003, -6.6833988532530066e-003,
          -4.1891831156069641e-004, -2.9225485188150001e-003,
          -7.9345486820374400e-003, -4.0547144500227691e-003,
          1.8054281179796761e-004, -5.8452377808619130e-003,
          -1.7524820007892340e-004, -1.1443852529561678e-002,
          9.0695809514141044e-003, 1.1037298281508805e-002,
          -4.1959967531349689e-003, 3.7556053629439127e-003,
          5.4646794358750974e-003, -5.7985349326196891e-003,
          -5.9743810222985414e-003, 9.9907754423224741e-003,
          1.8425335550650334e-003, 9.9907154177266699e-003,
          1.1496579208499384e-002, 9.3404217271623787e-003,
          -2.9110993174728517e-003, -1.0523591922012609e-002,
          -9.0184255154056193e-003, 5.1466729372992709e-003,
          -5.7730436349448175e-003, 7.3482440718685435e-003,
          5.6639998460340712e-003, 7.0263190295784079e-003,
          -1.2543095344177591e-003, 1.7328922093471141e-002,
          1.3759243531609313e-002, -1.3745240400388528e-002,
          -1.7598750338695156e-003, -5.6918454223253050e-003,
          8.1430533900920272e-003, -5.5055203786041726e-005,
          8.3472574542238082e-003, 7.4663806543539867e-003,
          8.2239542518816287e-003, -7.4229875935518741e-003,
          -5.2646341676911913e-004, -1.0287481691649988e-002,
          -1.6374178631181329e-002, 1.1694917115415246e-002,
          9.9678388726107750e-003, -3.7368664283332193e-003,
          -8.7322243153042951e-003, -1.5974072598237216e-002,
          -1.7959487158875041e-002, -2.1947937990339630e-002,
          -2.1043399862399517e-002, 2.7117130742388158e-002,
          2.4606353237519096e-002, 1.6712964009769724e-002,
          2.0054907396900726e-003, 1.3962939918234661e-002,
          -1.4458685239746947e-002, 4.4578233038085769e-003,
          -1.5635318258780978e-002, 3.0797076291974052e-003,
          3.6773359150648215e-002, -5.8066945261425499e-003,
          -1.6446969236172868e-003, -1.2104014984459104e-002,
          3.2074197703569575e-003, 9.1666937184481795e-003,
          -5.4794336962168642e-003, 1.0301470803584626e-002,
          -9.0930748702599867e-004, -2.6862647721716482e-002,
          1.5783675703267892e-002, -4.9695604447812956e-003,
          5.9395612009006393e-003, -1.3156619316147309e-002,
          -1.6312453776173824e-002, -2.2078033573364325e-002,
          1.7127739274190985e-002, 1.8807845911727586e-002,
          4.4293817295896851e-003, 3.7956215997247793e-003,
          6.8837162740213601e-003, -4.3723947122209249e-002,
          1.1735086656081391e-002, -2.2484644024836634e-002,
          -8.3976756727546231e-003, -1.2560948594225171e-002,
          -1.8946709706259945e-002, -3.7301529776289144e-002,
          8.7808513966391253e-003, 1.3416081732698336e-002,
          -3.1975603089902029e-002, -6.8571133211494254e-003,
          -7.6754460160371471e-003, -1.7729233465450245e-003,
          9.3029119508820455e-003, 1.3441108903966700e-002,
          -2.0806139225177038e-002, 4.9914383648454871e-003,
          -1.4401542385956322e-002, -9.6885098436561325e-003,
          3.5833079439332484e-002, -1.4867420722366757e-003,
          1.3796358394153867e-002, -6.5439468200296819e-004,
          1.1660541884039317e-003, -1.8997241192809780e-002,
          5.2650453362926167e-004, -3.4033519916508194e-003,
          -2.4205120295309756e-002, -1.3296383711009772e-002,
          2.2367592015468053e-002, 1.9442499694734906e-004,
          -4.9743917198494169e-003, -5.8446396450052606e-003,
          -5.2610341434071129e-003, -2.7830278665830093e-003,
          -2.6134670831521205e-002, -2.1781877497482781e-003,
          -1.3421462626875208e-002, -6.8040241453263097e-003,
          -5.9954804424163875e-003, 2.0759158811926429e-002,
          -2.7734637398137262e-002, -9.5609019018666631e-003,
          -2.5567836758120127e-003, -3.9136423415457186e-002,
          -1.7194508481006066e-002, -1.8513028355831431e-002,
          -1.1094690084246565e-003, -1.7627484120109744e-002,
          -1.0111150949613224e-002, -7.0931373734840590e-003,
          1.5926191319631699e-002, 5.9257767762464410e-003,
          -2.7340852929151914e-002, -1.9490335339337753e-002,
          5.8642815525099977e-003, -1.6685412144405502e-002,
          -2.0603010496659739e-002, -2.0833031039498670e-002,
          -5.0717361530863937e-003, 4.3805935188906550e-004,
          -2.2089266033536295e-002, 1.0102795906425037e-002,
          -3.8633379995678236e-003, -6.7462167248170789e-003,
          4.7993383968922059e-003, -1.5267675555082691e-002,
          -1.5562102346630424e-003, -9.8675764855609294e-003,
          2.5331763971358943e-003, 1.3212469202210583e-002,
          7.7060958293164485e-003, 9.4572905869028598e-003,
          -6.5079439531338359e-004, 1.8785550634286396e-002,
          -1.4037211521470343e-002, -6.1699106074248975e-003,
          -1.0166782762545618e-003, -1.1475878471177826e-002,
          3.6911974952812114e-002, 1.8847336822936086e-004,
          -2.0391305876029130e-002, -9.7819299530497762e-003,
          -2.1422298405398615e-003, -8.8912014456637330e-003,
          -9.4264081473818505e-003, 1.1329174488341507e-002,
          -4.9277661347317163e-003, 2.3692745837372879e-003,
          1.7379149710431661e-002, -1.2199993095943712e-002,
          1.8851870303470259e-002, -1.7392341752001585e-002,
          -4.3866042661946303e-003, -2.6789193582166124e-002,
          2.2980956278882234e-002, 2.3445440217176237e-002,
          1.5145272278317757e-002, 1.2643951517430573e-003,
          1.4417631686657136e-002, -2.1469588684232606e-002,
          1.7477811306195617e-002, -1.9813392257340096e-002,
          -6.5452972752172078e-003, 9.7668484888670300e-003,
          5.7760979505833785e-003, -1.1527416130087641e-002,
          -2.2106104966826247e-003, -2.3650616207820802e-003,
          -3.1908615075469222e-002, 1.1115121674343408e-002,
          1.4038587284433838e-002, 7.0908204452020565e-004,
          -9.6473786966877976e-003, 1.3984525326045058e-002,
          -7.4656620030209694e-003, -5.4435118945580247e-003,
          -1.1194031906209323e-002, -1.2214002617051273e-002,
          1.0556426483715133e-002, 5.6101115914218430e-003,
          1.2782900975542676e-002, -5.1161675552590883e-003,
          3.7591709827503009e-003, 1.8999451068033848e-003,
          3.8379232141943992e-003, -7.6618111393991738e-003,
          -1.1608534586702548e-002, -1.1203292886663037e-002,
          8.1840656208740682e-003, 3.7337677614396958e-003,
          5.9259209433834264e-003, -2.8250989606661875e-003,
          -8.6336016338158933e-003, -9.1380711749569511e-003,
          -1.6912734800173343e-002, -4.0978711379831539e-003,
          -1.1656702131172619e-002, -1.9119229896523635e-002,
          -1.7177770461789167e-004, 2.0950253508167302e-002,
          -2.3355524560975935e-002, -9.0971556818925155e-003,
          1.4707078084709125e-002, -1.4663260402776716e-002,
          -8.0832313719975644e-003, -4.5248695934530670e-003,
          9.3530026261429821e-003, -1.8184499987344751e-002,
          -1.8308000396033489e-002, 1.1590399868160494e-002,
          1.1603543366157792e-002, 9.4619033463231202e-003,
          -1.7136242254042512e-002, -2.2300882597485229e-002,
          -8.2678590410432476e-003, 2.8700618222346642e-003,
          -1.2654772478225605e-002, -2.6883406577374677e-004,
          1.0121625772746333e-002, 1.1963092537579921e-002,
          7.1923762993752159e-003, -1.7052943770227442e-002,
          -1.3614886623229129e-002, -1.5405274966555922e-002,
          -2.5832906247220531e-002, 1.4026584214723855e-002,
          4.5218241312767827e-003, -1.3286600996644122e-002,
          -3.8886055542878656e-004, -1.7235015657534704e-003,
          -2.1259152122451940e-003, -2.8535903363707798e-003,
          3.8341833461319946e-002, -2.2627414893522206e-002,
          -2.5384435376770956e-003, 2.8486825932146836e-002,
          5.1723978544633139e-003, 2.1221385619962160e-002,
          -5.5729994123525127e-003, 2.4037932530880463e-002,
          -9.2307793285949739e-003, 1.3836900677353804e-002,
          -1.2750756366991916e-002, 2.3295570350939262e-002,
          2.1432426537686105e-002, -1.3958505824470405e-002,
          -1.9001307766767551e-003, 5.7347906449449490e-003,
          -2.3617653434707876e-002, 1.7979247316246925e-002,
          -2.0063173097979208e-002, -9.4482654195323810e-004,
          5.2631124804415046e-003, 1.0894265523237245e-002,
          -3.2017809286831345e-002, -2.1760759239359106e-002,
          2.7885122458061979e-002, -1.3119873087060170e-002,
          -7.6011332299591979e-003, 1.5401011203591285e-004,
          7.4268798085876039e-003, -4.4452658299832144e-003,
          3.2171060409944156e-002, -1.6706920017361980e-002,
          -5.5658685218067617e-003, 2.1577797452707929e-002,
          -4.8042402582686432e-004, 1.0525781499788721e-002,
          1.6870686963555089e-002, 2.9199810859647811e-002,
          -1.6979071831663812e-003, -1.6597215523634440e-002,
          8.2623750167543381e-003, -9.7672760579643574e-003,
          1.2817884596292501e-003, 9.4410851225340073e-003,
          2.7429491517675368e-002, -9.1034488775428579e-003,
          -2.7819882067713657e-003, 2.7509842071922327e-003,
          -3.1975202415292912e-002, 1.2108304504582488e-003,
          -3.4738257170313314e-002, -2.1929408520302056e-002,
          -1.0589537785267339e-002, -2.7948352578552233e-002,
          2.3966902946145744e-003, -1.2755888337944495e-003,
          -1.6899013723004164e-002, -1.7742786411567721e-002,
          4.6540424519278620e-003, 1.2051842290460911e-002,
          1.1538228426958947e-003, -5.6236735831029713e-003,
          3.1800013712786686e-002, 5.7516382272311627e-005,
          -1.7002814221723710e-002, -7.8367572214322733e-003,
          -7.9795482943757778e-004, -7.0864078322719520e-004,
          -7.4690030629259120e-003, 2.6744573735915894e-003,
          -2.7243315019725083e-002, 2.4233433853438980e-003,
          6.9301760347891175e-003, -4.8206242058521226e-003,
          -1.2997193780491511e-002, 2.6982528462786530e-002,
          1.7913904322074591e-002, -2.2376634286931894e-002,
          -2.3853984688509598e-002, -1.6765593534400242e-003,
          1.2607629526612135e-002, -7.6602412715900611e-004,
          5.4761792657873551e-003, 1.2724709200273876e-002,
          -1.3428807934643234e-002, 3.1320906133590967e-002,
          1.0345532846305169e-002, -2.9322599231090287e-002,
          -2.5346762779127098e-002, 3.0743905927980382e-002,
          5.0150310678744514e-003, -3.6812298389395253e-003,
          1.5561187994716013e-002, -2.2545736263899399e-002,
          2.2157932091672041e-003, -2.3087098394700002e-002,
          1.1809998809546926e-002, 2.8061577064753946e-002,
          1.1218080116974628e-002, 1.6604658049573121e-002,
          -2.8789700479827828e-002, 3.6114317302961732e-002,
          2.7324839228090357e-003, -1.3841398888158624e-002,
          -8.8891967468183297e-003, -6.0003666505739168e-003,
          2.1294320335092452e-002, -2.3408777269666160e-002,
          -1.7516739869224172e-002, -1.6622046874547432e-002,
          7.8554758815352552e-003, -1.0059291194194998e-002,
          -6.8249542892894885e-003, 6.2290280994687312e-003,
          9.9156580069240563e-004, -1.3142064171575024e-003,
          4.5312121576594346e-002, 4.6974860615198125e-003,
          2.3207696685493325e-002, -2.0397900157150907e-002,
          -2.1880015507855774e-002, -2.6539157261465968e-002,
          3.8933388442336715e-002, 3.2863139772232618e-002,
          6.5346985845587558e-003, -2.6286800973806964e-003,
          3.2200602053241024e-002, -2.4702126985074992e-002,
          7.3859850895703957e-003, -2.8269151989054692e-002,
          -1.4832661120376383e-002, 1.3554677685831816e-002,
          -1.7469601856775136e-003, -2.4135820704123567e-002,
          -5.1680604405992484e-003, -2.0712561044057557e-002,
          -2.4932787394813326e-002, -5.6684859839858043e-003,
          2.1140809688430472e-002, 1.5431620169547236e-002,
          -7.1067052215859584e-003, 1.1762765247068541e-002,
          6.0818577038771289e-003, -6.3065068398863652e-003,
          -1.7093059659011329e-002, -6.6235442163483085e-003,
          1.9121714501278950e-002, -1.8020019168391738e-005,
          3.5839322836191567e-002, 4.0321439295521551e-003,
          5.9335443261351022e-003, 1.8381452244640793e-002,
          1.9909377000447467e-002, 3.7915444173217197e-003,
          -2.3741580545650919e-002, -1.8656894685660386e-002,
          1.8034485677387906e-002, 6.7511394147070332e-003,
          -5.2102116244749364e-003, -9.7888957335415309e-005,
          -1.3877758687335767e-002, 2.7647643815039338e-003,
          -2.6887608607167737e-002, -5.7277795583705682e-003,
          -2.5009215644241109e-003, -8.3728439259427509e-003,
          -4.1014824266022957e-004, 2.6314716826365939e-002,
          -1.9410493450644894e-002, -1.3942881215178312e-002,
          3.2002180026685936e-002, -1.4675631317778761e-002,
          6.2733950716537170e-003, -5.9209745442804010e-003,
          1.1100352461754455e-002, -4.5650980120475415e-002,
          -1.7479424774234038e-002, 2.4518342030861681e-003,
          8.6905779576206491e-003, 5.9383776151683571e-003,
          -1.7024850205279544e-002, -1.1500831342265483e-002,
          -1.4174605839076230e-002, -1.4379936073854365e-002,
          -1.3671279740523633e-002, -1.0329589469622733e-002,
          -4.3442462421631640e-003, 1.4465766165740867e-002,
          3.8612478609561719e-002, 9.4761404436870481e-003,
          -1.2622029523275170e-002, 1.1866536702717003e-002,
          -6.9254235088262424e-003, -2.0837994102798100e-003,
          2.1712443057375084e-003, -4.9667221216630275e-003,
          1.7326754335074219e-003, 1.6027614964231936e-002,
          3.1232644213019783e-003, 2.2580699977798838e-002,
          5.4217918158390643e-003, 8.5851730484550436e-003,
          1.5109521121015984e-002, -6.8239437870849193e-005,
          1.4146476504859177e-002, -8.6530815620512061e-005,
          -9.1791864047432673e-003, 3.4684658279111520e-003,
          3.1076896065290638e-003, -1.6509679336584825e-002,
          -1.4340490283702489e-002, -2.5054139020848251e-004,
          -4.8565274517542566e-003, -1.5671483033248208e-003,
          1.2378671045261108e-002, 1.5038031445565363e-002,
          1.6181793497863563e-002, 8.1371861999560129e-003,
          2.2566398098619336e-002, 7.7876563436740556e-004,
          3.9367138186505971e-004, -2.4002969671087414e-002,
          -9.7896184445504832e-003, -5.9364363081886133e-003,
          8.9005376843536016e-003, -9.7471501723737242e-003,
          1.6433620310973673e-002, -5.9634693526177639e-003,
          8.2989236415168029e-003, -3.8272062298245427e-003,
          -3.6102456615296269e-003, -1.2406119400152679e-002,
          -1.6832871368401406e-002, -1.4150009429222249e-004,
          2.3536879590819420e-003, -2.4711620567049362e-002,
          -6.3264150284058603e-003, -1.1045953100423543e-003,
          2.2270738032865332e-003, 2.1527280772091605e-003,
          6.6940109822465075e-003, 8.7168746689625914e-003,
          9.8521226449485560e-003, -3.8561262458101870e-003,
          5.5809783281169523e-003, -5.5497109039008528e-003,
          1.8546099951460563e-002, -1.1150566936202120e-002,
          1.4401819649298216e-003, 1.6010415228703542e-002,
          -8.8542234948509411e-003, 2.8060451305738161e-002,
          -2.4283546696137737e-002, 8.5520693295892819e-003,
          2.4684382924893586e-004, 7.7850393226131390e-003,
          9.6609743651920287e-003, 2.0219768435332888e-003,
          1.6777070166311906e-003, -1.1436909732908384e-002,
          7.4388765346305868e-003, 2.0344722677041099e-002,
          1.5941080682944763e-002, 9.3883600814770856e-003,
          1.7780978753772051e-002, 6.3160485387776712e-003,
          1.5351628102601646e-003, 4.0271988793431834e-003,
          6.2339816546960955e-003, 7.6973953999711171e-003,
          1.4646461123233376e-002, 1.0230559327485053e-002,
          1.5805644266684582e-003, -5.9697496880020042e-003,
          -7.1353228592123513e-006, 6.2026333895622964e-003,
          1.1853032379374087e-002, -1.1032150827495608e-002,
          8.7794412428456887e-003, -6.2594325601080542e-003,
          1.2373547247949200e-002, -2.6837509798891246e-003,
          1.2329882042104152e-002, -1.1072259021580150e-002,
          3.7892492878830821e-003, 1.6708959538722314e-003,
          2.9256497068777141e-003, 5.6982943613040121e-004,
          1.6343779759856028e-002, 4.9863025431747376e-003,
          -1.2563025815419612e-002, 4.4751805926463465e-003,
          4.7607989375502875e-003, 3.0539897538653968e-003,
          8.1836129188727364e-003, 5.9398636974233136e-003,
          -2.1154103350922115e-004, 6.5388901679803895e-003,
          -1.4459424313056491e-002, 9.4282334485607851e-003,
          -1.5025522511106920e-003, -1.0406765060469929e-003,
          4.6762578343720676e-003, 1.0689912984771939e-002,
          7.4898369313566191e-003, 1.0061249115278072e-003,
          -1.0857120482822029e-002, 2.6900980378313176e-003,
          -4.0428322491339354e-003, 1.3356201924987065e-006,
          1.4524763170370214e-002, 4.0470732105898259e-003,
          3.9076809673133026e-003, 5.6922693444984348e-003,
          -1.1032893997191141e-002, 4.3331985675840916e-003,
          4.3238340266721041e-003, 8.7599763694827595e-003,
          4.2310072357865038e-004, -2.0408770994728175e-003,
          -3.9412613811813553e-003, 3.5191356204363746e-003,
          -1.1436588377818954e-002, -1.0361623355275932e-002,
          -1.0024415212308431e-002, -1.3218700766583829e-002,
          -3.3233263121766219e-003, -1.3673346645708561e-002,
          -9.7230786922420792e-003, -9.8400176539321735e-003,
          -1.0586003693306903e-002, -1.3299512913678013e-002,
          -4.5008112867839780e-003, 1.0796309144800733e-002,
          4.4561250341936705e-003, -7.0129290058457434e-003,
          4.2112965519334051e-004, -7.8613411220307614e-003,
          -4.5902978143311918e-004, -9.1284521389552089e-003,
          4.5562029783528966e-003, 6.7808294603309118e-003,
          1.7922465061498453e-003, -4.2947562651266865e-003,
          1.4659571911345879e-004, -1.0344034427798738e-002,
          1.1549046665560747e-003, -6.8432834859135840e-003,
          7.7651803551711729e-003, 1.2058035597965047e-002,
          2.5341665394646830e-003, 9.5498464885502930e-003,
          -2.5877643342140646e-003, -6.8602700892587808e-003,
          -7.2270159535973771e-004, 9.6172071951671784e-003,
          -8.4994272164599666e-003, -7.0774689042037162e-003,
          -9.5538515698749271e-003, -6.0746417338329002e-003,
          8.1827177011424996e-005, 9.3686113975350403e-003,
          8.4207004973305740e-004, 6.3196810140492944e-003,
          1.2576490786592696e-003, 4.2663279372641104e-003,
          7.9610645817613651e-003, 5.8657060272997493e-003,
          -7.5369237322946807e-003, 8.2254337393586115e-003,
          -3.4516122226109312e-003, 8.9450013334824354e-003,
          -8.4287424676385292e-004, 3.3076518837875683e-003,
          5.8541816176001342e-003, 2.2741628884031945e-003,
          9.5131462635889112e-003, -5.6869136705385162e-003,
          4.7486584841615817e-003, -6.5227948654372463e-003,
          -1.1635790246465199e-002, 8.4001797894166855e-003,
          1.5496260374431609e-003, -7.7520344740347000e-003,
          8.6543747194337481e-003, -8.6483438034850729e-003,
          -1.2809333721277068e-003, 1.5778060445691609e-002,
          1.7216622637246499e-002, 8.1398488384294837e-003,
          -7.9111042378355676e-003, 6.7166534705167900e-003,
          1.9203676553798507e-003, 1.6474923602936356e-003,
          9.9916596985331931e-003, 6.9154843896530203e-003,
          -3.0616911701912258e-003, 1.3135337614428760e-003,
          -1.9888676115042501e-003, 8.0949642270504111e-003,
          1.0605885459892642e-002, 7.3031843257461511e-004,
          4.4182706530601521e-003, -3.1502354159356088e-003,
          1.4999158707453800e-003, 9.9164232204727535e-003,
          -1.4436252006540687e-002, -2.6586183161836272e-003,
          4.9296748083143939e-003, -5.6704467702857596e-003,
          5.1005290942618929e-004, -1.1537713715895934e-002,
          -6.6847870049781396e-004, 1.0147118043247434e-002,
          -1.1671724040899683e-002, -1.2007322439448393e-003,
          -7.5948850583813370e-005, -1.5844260687563634e-005,
          -2.3737519959593555e-004, 9.3171593052214963e-004,
          1.7265108531270372e-004, 1.3821101791479986e-002,
          -3.6740920105776345e-004, -9.8020759160692018e-003,
          -1.0845386903805567e-002, -4.4397363343719855e-003,
          1.7556447024243804e-003, -1.0521945979209510e-002,
          -8.9632526401808542e-003, 5.8577446346997795e-003,
          -1.7518348510526322e-002, -2.1919380231449178e-002,
          -1.5457745376300345e-002, 7.8996166592876609e-003,
          6.5895047723340330e-003, -4.2489214211678085e-005,
          8.4192844733354151e-003, -7.6825667909694167e-003,
          -6.1014914560304709e-003, 4.0107623096862239e-003,
          -8.6497246213311420e-004, -5.2599392211191837e-003,
          3.3716451889131893e-003, 2.1606065658648040e-003,
          8.3159715699839040e-003, -8.6419499810846540e-003,
          4.0424648351249561e-003, -3.3926391473441818e-003,
          4.0331411226708445e-003, 1.2550343607204157e-002,
          -7.9733790012394157e-003, 3.6674814335801603e-003,
          -8.5668666016335878e-003, 1.9413536577271282e-003,
          3.5680490323921322e-003, 1.2204908713376110e-002,
          3.1756260225031460e-003, 2.9801458147350004e-003,
          4.7012776295031998e-003, -1.0860871333791669e-002,
          -3.5377792490019111e-003, 7.7645623759905868e-003,
          2.2650529033872769e-003, -4.8727221359311764e-003,
          2.0364308833126996e-003, 1.6615430927147640e-002,
          3.7059876668355455e-003, 5.1382062578146023e-003,
          2.3636617675807047e-003, 7.0532085889588661e-003,
          1.7137330932115238e-003, -1.9728502398322204e-003,
          2.0780741048508876e-003, 2.8217002274499503e-003,
          -1.7285432373354325e-003, 1.0750353550641198e-002,
          2.1781385770664449e-002, -7.1201109158404796e-003,
          7.7172305664648094e-003, -1.0054578679164504e-002,
          1.1088907510837676e-003, 1.0749322163615033e-002,
          1.6580365919055949e-002, 8.0860134349711470e-004,
          4.3796381030584172e-005, -1.9049990706663206e-002,
          -6.9444194228431306e-003, 6.1040786199564757e-003,
          3.0613318866789484e-002, 9.4193350687017349e-004,
          2.5796681844404870e-003, 2.8526349910429701e-003,
          -6.7029693720744056e-003, -2.1148570387963827e-003,
